array({{0.285653113269, 0.230630523558, 0.039316407369, -0.603879357451,
        -1.261930762309, 1.220583727910},
       {-0.861462098641, -1.028890935116, 0.860047941336,
        -0.126835598473, 1.577316050026, 0.515732208516},
       {0.035194540952, 0.710306254969, 0.615712758937, -0.065919960424,
        -1.024658105378, -0.541803601774},
       {-1.088691195171, 0.851665696148, 1.051516606304, -0.237771173620,
        -0.429569798782, -0.363469337905},
       {-1.128211946294, 0.185137856681, -0.289304962992,
        -0.398536796174, 0.862338815499, 0.745651059780},
       {-0.513350595591, 0.669438080396, -0.031597646398,
        -0.931884588552, 0.450901174894, 0.131208027867},
       {1.021948144538, -1.129412602369, -0.071830159100,
        -0.254657146475, -0.235908005986, 0.812184845802},
       {-1.160281936371, 0.446752835939, 0.562081398309, 0.187721864838,
        0.687823641431, -0.648262880209},
       {-0.632255805329, 0.745686966787, -0.940456354043, 0.570575621180,
        0.536780014994, -0.106396840345},
       {0.648305997954, 0.767100773294, -1.349846521092, -0.321332190862,
        -0.701001664362, -0.434472249284},
       {-0.330765323731, 0.853466917853, -0.001207373002,
        -0.655106779220, 0.844664609480, -1.445142272355},
       {1.264830106349, 0.333672027380, -0.815042664315, 0.476439541386,
        -1.394979292985, -0.236749949286},
       {0.861223888697, 0.578146206157, 0.553214309370, -0.387936090605,
        -1.400123898107, -0.259627601878},
       {-1.063097400969, 0.554708436235, 0.091847668282, 0.449668871519,
        1.693303616984, -0.983157060947},
       {-0.473670683828, 0.844525299286, -0.264294536454, 0.351498060231,
        -1.039614472194, 0.395817596957},
       {0.135440613509, 0.898916584853, -0.022232915655, -1.863672891184,
        -1.042300918659, 0.137669248951},
       {1.003306388996, 0.306801417192, 0.708358631388, 0.188015254092,
        -1.283833466515, -1.020849036264},
       {-0.439197551624, 0.622360771810, 0.768083196772, -0.049342603346,
        -0.836621096974, 0.536406452701},
       {0.519296179122, -0.625622640709, 0.140057771041, 1.716887041441,
        -0.080316283148, -0.907049947637},
       {-1.246239562643, 0.814586590531, -0.458505939922, 0.583110550422,
        -0.482664621739, 1.103099383425},
       {-0.365652580373, -0.372571754553, 0.616488427147, 2.494469652216,
        -0.010871131229, -0.633277424548},
       {-0.052305036847, 0.629509581217, -1.680917227096, 0.715328424013,
        -0.053144543484, -0.232622580916},
       {-1.325657038576, 0.670796476636, -0.358926074584, 0.327735431822,
        0.370691968716, 0.988273161395},
       {-0.359965573244, 0.462107669552, 0.780983876660, 1.149192351579,
        -0.746514598357, -0.638580908214},
       {0.860853608946, 0.221453169626, -0.241452994449, -0.966739177222,
        -0.829646439988, 0.390712550189},
       {-0.286324921775, 0.756700187276, -0.691990180118,
        -0.255569520864, 0.358352021750, 0.480845648453},
       {0.404821376949, -1.177341561214, -0.642664691977, 1.140472747823,
        -0.332510110173, 1.546132952972},
       {0.228515226730, -0.640727646220, -0.049225545587, 1.899224387823,
        -0.058597084350, -0.629888630680},
       {-0.251185633629, -0.728534389436, -0.767415687531,
        0.302838715322, 0.138247978071, 1.419195190060},
       {-0.572904178869, 0.293523385547, -0.460728278447, 1.148767685963,
        -0.724810071110, 1.498904872317},
       {-0.769950427758, 0.803612298758, -0.943199618484, 0.484209704601,
        0.150237029667, 0.245270102811},
       {-1.287676184010, -0.385103878081, 0.097478889533, 0.000294054332,
        1.430608664905, 0.222651270073},
       {0.800150746759, 0.439583276169, 0.920448823791, -0.007562916804,
        -0.626851928077, -1.928339471958},
       {-0.728626449500, 0.697105791599, 0.628952043659, 1.158912412178,
        -0.286740822913, -0.433073413404},
       {-0.726689083254, 0.322419424243, 0.530894584824, 0.696350071933,
        1.291718881292, -1.140545651957},
       {-0.453641491073, -0.318246433429, -0.397745138277,
        0.711414243810, -0.481034936637, 1.855875555869},
       {0.646642173317, -1.019791759532, -0.099413801924,
        -0.631427512482, 1.067859711660, 0.345573601464},
       {-0.220669665412, 0.756659697122, 0.540756934241, -0.967999924960,
        -0.441492144366, -0.012669849820},
       {0.822393347112, -1.365685182102, -0.153961036233,
        -0.761618308545, 0.977679821083, 0.028426074500},
       {0.065454523269, -0.572604017363, 1.440608865080, -0.157166154501,
        -0.346799372149, 0.784030115494},
       {-0.434580343250, 0.196088971208, -0.069702865640, 1.795390849686,
        -0.800896895017, 1.105993503791},
       {0.226615583855, 0.279741707921, -0.789033076658, 0.050172278075,
        -1.026559659690, 1.178098701913},
       {0.605914673103, -1.391156420370, -1.559086144864, 0.803494952779,
        0.788230443565, 0.679410300692},
       {0.275307999192, -0.539400360460, -1.094433396501, 0.028535359988,
        0.986357846773, 0.137187839510},
       {0.718539481556, 0.244814548196, -0.969405305018, 0.114125352791,
        -0.881179970685, 0.558271183477},
       {0.684589514759, -0.887086746832, -0.238121874078, 0.337019403053,
        0.154376558246, 0.139358564552},
       {0.471770648067, 1.064328369279, -0.157329514617, 0.441287453242,
        -1.553181620741, -0.176955173320},
       {-0.409378329648, -0.389520941968, 2.193976705898,
        -0.697359387579, 0.242700803996, -0.358908093483},
       {0.076429493033, 0.783670500650, 0.234347151516, -0.193318407204,
        -0.391369471168, 0.211633945431},
       {-0.449778073782, -0.618637527066, 0.981376010977, 0.119462988195,
        0.500873590493, 0.048463011680}})