array([[-0.066325264557, 0.209037419845, 0.002717417846, 0.004936391370,
        0.099614341071],
       [0.005173360133, 1.191139773831, 0.012095225367, -0.013722279097,
        0.097992040061],
       [-0.024258406558, -0.089594574823, -0.071220103139,
        -0.011956822198, 0.011822892926],
       [0.011104189798, 0.432325779833, -0.107884905193, -0.111884188119,
        -0.100375756344],
       [-1.174521399184, 0.281725668656, 0.139151377098, -1.149926386832,
        0.206117865838],
       [1.277400555164, -0.601285451612, -0.078307678735,
        -1.768396352504, 0.552799132308],
       [2.993285337674, -0.816425085451, 0.012033897985, -1.107174276795,
        2.592782234051],
       [-0.773502956924, 0.141149766929, -0.068592374204,
        -0.339675501767, 0.380704684418],
       [-0.086949399142, -0.001287037523, 0.074987344871, 0.065634477313,
        0.028556539314],
       [-0.046540514187, 0.506367294514, 0.088385577827, -0.003808926535,
        0.032482768366],
       [0.023064343098, -0.321189336036, -0.079892741612,
        -0.014925222588, 0.011717223388],
       [0.008713755356, 0.102461160716, -0.003622529418, -0.093100083620,
        -0.053107689817],
       [-0.254482657565, 1.219144182227, 0.815529740789, -0.587436748228,
        0.598826423320],
       [-0.269332060416, 0.240773212432, 0.140525677806, -0.025694200919,
        -0.029101036417],
       [0.467866634717, 0.312039644060, 1.297310201090, 0.136813181227,
        0.003336046595],
       [0.106962382027, -0.335493922137, -1.569668886009, 0.081757546234,
        -0.271472035163],
       [2.530335059371, -0.866516478026, 0.617235436318, 0.160534717860,
        1.853196719491],
       [-0.136337625383, 0.680449619539, -0.318944277067,
        -0.094268442839, -0.068959026340],
       [0.180495651331, 1.875816132406, 0.579880598066, 0.070219381670,
        0.145178571788],
       [-0.489610271955, -0.425411957115, 0.631405657412, 0.286179814546,
        -0.273478623888],
       [0.344443796383, 0.162048803201, 0.195743297964, 0.322950881883,
        -1.158747488828],
       [-0.036190660755, 0.328479363577, -0.044457210178,
        -0.016692089959, 0.020037936945],
       [0.236246493394, 0.234353343372, 1.212457773721, 0.221950593477,
        0.205470374423],
       [-0.781491642569, 1.142613827930, 0.154684791474, 0.396656174662,
        0.409891820363],
       [0.598801705168, -0.815622841119, -0.100972000688,
        -1.989647626921, 0.301446847223],
       [-0.395231325635, -0.775327203207, -0.101624653789,
        0.091854357963, -0.106745861108],
       [1.993927379854, -1.051850320348, 0.972497534130, 2.404898770191,
        -1.189293343730],
       [-1.118774935297, 1.494113016430, 0.344084595022, 0.178780561421,
        0.502797934308],
       [-2.004430722879, -1.909492304927, 1.897314069919, 1.065737099574,
        0.229796787142],
       [-0.199289752132, -0.876555467394, 1.864792120174,
        -0.226275859806, 0.038376421014],
       [2.070266314477, -1.684189813786, 2.638685758732, 2.898550036011,
        -1.797061836674],
       [0.493396571548, 0.669670606911, -3.388436332169, 2.306866220130,
        2.583467994059],
       [-0.306486291926, -0.397428166057, 0.355963867344, 1.454200123082,
        0.621571637589],
       [-0.356821160281, 0.167283358614, -0.377713715581, 0.084945475540,
        0.005517995595],
       [0.674061004322, 1.791783838081, 0.893637939087, -0.110624673306,
        -0.519250604954],
       [0.004734432639, 0.080327514672, 0.793339707256, 2.366921024324,
        0.253126315130]])