array({{-0.039605026028, -0.238516732002, -0.088295842668,
        0.345989309370, -0.485952784552, -0.553345518357,
        -0.200954205000, -0.055268022699, 0.393316240704,
        -0.105493341031, -0.102977320872, -0.144660302589,
        -0.030109840676, -0.195274174266, 0.050912668055,
        -0.037178910531, 0.328045912366, -0.002167312891,
        -0.025393088689, -0.062043269548, -0.149371085889,
        0.151737448513, 0.040036546799, -0.178737208107, 0.148878902936,
        0.100471694852, 0.089457819648, -0.202255242447, -0.106933018354,
        0.157334834488, 0.165388343810, 0.068093027337, -0.850262569595,
        0.006579323231, 0.600182845009, 0.141058707989, 0.247013214330,
        0.125030452834, 0.058712224944, -0.155647121665, 0.483369988329,
        0.098358707172, -0.137801287336, -0.119497286361,
        -0.361818980946, 0.167546448846, -0.038178760609, 0.002054016103,
        -0.019301648233, 0.083174568716},
       {-0.068749610850, 0.061064518481, -0.093198831475,
        -0.321555774510, -0.003683875169, -0.203427406193,
        -0.919479604755, -0.091981219892, -0.130672921378,
        0.222626231347, -0.025201542244, -0.614320673453, 0.206533951272,
        0.044375487315, -0.276300453725, -0.062187552860,
        -0.113493932866, 0.071100251851, -0.083613606370,
        -0.011647612950, -0.068135636011, -0.042459933866,
        -0.010862371895, 0.072058397129, 0.374478492854, 0.060727179049,
        -0.080593234120, -0.314468015413, 0.022869931104,
        -0.013366876655, -0.251321377555, -0.001537281726,
        -0.125532218865, 0.130389968837, 0.024354945346, 0.053598495652,
        -0.114211103037, -0.047898347674, -0.093294309225,
        0.038535791947, 0.086911437137, -0.140508107816, 0.145406023833,
        0.129360911250, 0.119376615590, 0.041855110042, -0.037224592436,
        0.194628142420, 0.386411921919, -0.002256980395},
       {-0.082824333046, 0.141651718669, -0.049603603590, 0.399529285739,
        -0.265323228217, 0.119975869555, -1.095453889511,
        -0.001309662784, 0.142809588974, 0.188072719835, 0.160726905079,
        -0.992865210628, -0.154637640234, -0.163603372684,
        -0.153607170980, -0.312008276977, -0.094179306078,
        0.153476628311, 0.051849645298, -0.209808460316, 0.003391498697,
        -0.067910036810, 0.236162540509, -0.027737046357, 0.364204200160,
        -0.141190466265, -0.014674506538, -0.026057133573,
        -0.010600707911, 0.033742593371, 0.039628060576, -0.189860720277,
        0.356699103298, -0.028434510138, 0.009148320666, -0.364706678967,
        0.000752488168, 0.102055119944, 0.066775759568, 0.411773985890,
        -0.280688252039, -0.025780295281, 0.071843596821, 0.033703911392,
        0.043585168867, 0.236135396240, -0.140595665966, 0.011005184981,
        0.315228090219, 0.097519312476},
       {-0.213800934140, -0.054942367335, 0.170064557767, 0.158985322711,
        -0.471219066936, -0.030130746448, 0.070432236193, 0.120862628823,
        0.297321788112, -0.129112448023, -0.079709865271,
        -0.079589438515, 0.126753453220, -0.192916308067,
        -0.130604449576, 0.037485477454, 0.105388728406, 0.167164686135,
        0.365799918372, 0.216223791377, 0.326501907523, -0.099896029920,
        0.364594001935, 0.104172530413, 0.045770734963, -0.427962136380,
        -0.132418401713, -0.011267348794, -0.126638316206,
        0.206196275847, 0.131331513354, -0.103298995835, -0.536194888523,
        -0.100526589751, 0.367264638510, 0.019673914895, -0.109668260973,
        0.204637768626, 0.067705751747, 0.115296291063, 0.511977563597,
        -0.153069502061, -0.248029935277, 0.157700583542,
        -0.081166116527, 0.234262252800, 0.195616518509, 0.299636820155,
        0.006996011772, 0.052709229677},
       {0.300897161870, 0.356860816490, -0.327244480669, -0.115547703260,
        -0.031142609835, 0.237117700195, 0.264162396839, 0.380823716909,
        0.215601675345, -0.027445519542, 0.251168915893, 0.252144416054,
        0.302437186777, -0.466596577383, 0.296773511574, 0.136476746760,
        0.460394212641, -0.161218912091, 0.341792283255, 0.463142306042,
        -0.187234217857, 0.459251060206, 0.000483218845, -0.032348669385,
        0.067602777486, -0.396884414767, 0.342695917244, 0.142120542785,
        0.342046041103, -0.419946583740, -0.185940690275, 0.228957188901,
        0.235785277949, 0.332664779006, 0.596938126139, 0.327788345937,
        -0.069836965967, -0.053065437143, -0.100299243909,
        -0.055125282966, -0.437681980993, 0.032726466516, 0.532241918590,
        0.038668263700, -0.211421027923, 0.238151329894, -0.012222605342,
        0.168941742841, -0.510676411522, -0.115334164116},
       {0.475667684713, 0.159142700527, 0.266099408140, 0.132219657544,
        -0.019146691951, -0.286898735979, -0.557028417215,
        0.676832539825, 0.314291845050, 0.492991286560, 0.074485087552,
        0.396358527808, -0.210003530095, 0.053026421503, -0.024662430605,
        0.198108289570, 0.209608218824, -0.226824916557, 0.236159035196,
        0.864172598404, -0.062967176822, -0.152165811416,
        -0.459618692941, 0.029965292865, 0.326371568761, -0.272147433723,
        -0.183559593111, 0.279643843350, 0.078853775826, 0.006494519505,
        -0.718245100368, -0.040267809193, -0.246892807036,
        -0.243776824236, 0.194889145134, 0.263810648631, -0.637949480434,
        0.103159252081, -0.480214102038, 0.137108727419, -0.124049316932,
        0.292900123428, 0.338408528805, -0.573500507548, -0.220080754350,
        0.450386824944, -0.536926573570, -0.113975894830,
        -0.330416976528, -0.228034882770},
       {-0.670913321035, -0.811473970405, 1.014478053886,
        -0.757541685962, -0.500978292632, 0.572466348890,
        -0.661077599759, 0.571013497582, 0.166797121399, 0.332728578992,
        0.217783353677, 0.230928934431, -0.395767979778, -0.392914126530,
        -0.001169629124, -0.317412353520, -0.203720144798,
        0.342638413952, -0.174576587482, 0.709251914147, 0.442037322656,
        -0.256252965614, 0.141369986699, 0.236572382938, 0.782851730741,
        -0.355530255274, 0.528412986052, 0.588054763302, 0.491092636049,
        -0.713403414028, -0.135669743409, 0.739733500567,
        -1.241376329255, 0.478435022080, 0.084505830981, -0.202222939471,
        -1.264194054385, -0.127579673977, -1.299546316963,
        0.525740622960, -0.188580720382, 0.850052244527, 0.884514217341,
        0.214985938363, -0.049958072943, 0.965444598908, -0.071489425804,
        -0.264143139956, -0.044460786876, 0.019494573781},
       {0.065916354744, 0.257698201835, -0.151343592956, -0.318294116639,
        -0.190765039441, 0.110228501490, 0.191140057688, 0.178240453025,
        -0.162681899172, -0.048537489929, 0.416707156028, 0.008748014097,
        -0.011073514569, -0.676027618763, 0.055295986584, 0.249697608624,
        0.098406801855, -0.255896922678, -0.187099382382, 0.214786268242,
        -0.059855975319, 0.528663638950, 0.141784331475, 0.156845400756,
        -0.056912401338, -0.472635095997, 0.379599793041, 0.265303190291,
        0.679224061851, -0.459406631805, -0.149807863794, 0.163167087868,
        0.049940011343, 0.497980314387, 0.273410134477, 0.349701938514,
        -0.417521394184, -0.073011347935, -0.200829098532,
        0.027453885542, -0.337236884374, 0.295751520063, 0.337661112964,
        -0.088766195491, -0.148010487022, 0.471949216588, 0.469957588523,
        -0.211464071470, -0.493762483964, -0.223807245312},
       {-0.108355037283, -0.082863048533, -0.199969808430,
        0.117374741174, 0.028696377495, -0.326076754712, -0.002126678082,
        -0.210792070430, -0.080470614948, -0.267397883176,
        -0.246181483885, 0.078481524006, 0.433618816137, -0.122271244986,
        0.231240310220, -0.021492378933, -0.021434560647,
        -0.016849340523, 0.145346263035, -0.261146565327,
        -0.043422660561, -0.219304323658, 0.017735656642,
        -0.115598964025, -0.321911027635, -0.028161577444,
        -0.039851422370, 0.110482957020, 0.150035035939, -0.082434259375,
        0.074986111746, 0.111765073548, 0.127906772691, -0.328729893752,
        0.015403749822, -0.058514049588, 0.309279126048, -0.314290323957,
        -0.300195439721, -0.117910985687, 0.011703446422,
        -0.126296620518, 0.010680373460, 0.083061437829, 0.145904946235,
        0.034974228901, -0.114772853325, -0.216596933130,
        -0.013585230510, -0.218253071892},
       {0.020665725651, 0.123432794376, -0.016529297103, -0.425591676437,
        0.109769402670, 0.084555127196, -0.024490296727, 0.135607009966,
        -0.087055509643, -0.319988114892, -0.098410712503,
        0.165697949727, -0.051388171428, 0.264746588407, -0.374595562416,
        0.055600050910, 0.027913012232, 0.086899249554, -0.013847810430,
        -0.172860630448, 0.006200954386, -0.165895577038, 0.145023131904,
        0.084875719787, 0.248785592699, 0.060809105811, -0.273459769812,
        0.104020298149, 0.068036744357, -0.152615091277, -0.297936565321,
        -0.086352540205, 0.102191266977, 0.130519601288, 0.034788532229,
        0.035936919757, -0.015000462595, 0.080407227240, -0.009710772912,
        0.217876865159, 0.027925109314, -0.078629864007, -0.133502115543,
        0.002583929734, 0.087540179516, -0.037531913051, -0.056932977576,
        -0.117736928339, 0.348026678273, 0.159584931002},
       {-0.518824549290, -0.058622989304, -0.115540327914,
        -0.553397928425, 0.114634421016, -0.232380365438, 0.072177718691,
        0.162414548999, -0.117361497712, 0.084028835928, -0.097224500642,
        0.071044212339, 0.019137255915, -0.228164512115, -0.048071467987,
        0.418907775749, 0.089319200382, -0.054546201256, 0.030640681333,
        0.132503428184, -0.032975039386, -0.021706802455,
        -0.153707637183, -0.147870630523, 0.232876268820,
        -0.349653410988, 0.144543732862, 0.018213439346, 0.026161488434,
        0.064736515749, 0.088354528836, 0.126916044896, -0.072221492631,
        0.390911981171, 0.021528271513, 0.274322326599, 0.128454016830,
        -0.127610998676, -0.188927341723, 0.294144029678,
        -0.237533689173, -0.484715131935, 0.159525023239, 0.047091137035,
        -0.091990672018, 0.058028355340, 0.231050760635, 0.112635828388,
        0.063107468249, -0.064493449059},
       {0.082675064777, 0.062434482835, 0.203147225124, -0.247298738794,
        0.063693396854, -0.148925024034, -0.157147337049,
        -0.020638870712, 0.078330144993, 0.203100030334, 0.157081133266,
        -0.063711888182, -0.162968608484, 0.018857367255,
        -0.062495255542, -0.188755010548, 0.212566694619, 0.054342878096,
        0.012734222775, 0.105476001221, 0.008867544236, 0.109162012417,
        -0.036523561166, 0.107872794993, -0.217398775168,
        -0.244445482519, 0.061625765497, -0.284420330298,
        -0.003704958306, 0.057285744602, 0.026995471177, 0.188907075832,
        -0.023847294679, -0.543180488858, 0.001087033724, 0.130723249122,
        -0.225391669421, -0.013731870268, -0.139641360411,
        0.107763188146, -0.303720625380, -0.029407715281, 0.015726902585,
        -0.051531130248, -0.217166803518, -0.264954604696,
        0.220456093710, -0.063592075428, -0.141513249411,
        -0.013514037554},
       {0.056171502710, -0.919565057138, 0.012217112509, -0.620597318562,
        -0.415592076493, -0.802411041634, 0.221944001887, 0.015888565906,
        0.060809000604, -0.028025021160, -0.273759673618, 0.798923857899,
        0.378251183389, -0.489152957723, -0.045831368857, 0.282227016607,
        -0.444556493196, -0.352670359800, -0.038977621224,
        0.199041436289, 0.632815686990, -0.544484665861, 0.094332202154,
        0.367501280402, 0.228404609502, -0.254468292335, 0.020423533913,
        0.375574612128, -0.139899604584, 0.024928573921, -0.329036314034,
        0.508597047536, -0.217990377258, 0.206411420801, 0.390869929550,
        -0.038011883911, -0.115416315262, -0.303899819517,
        -0.198845389688, 0.227982315923, -0.146507217688, 0.154598847730,
        0.150563241318, -0.817516528370, -0.725238222554, 0.840222665145,
        0.179954380446, 0.621268821534, 0.342349883577, -0.858489651127},
       {0.088067164605, 0.230405656703, -0.036712649009, 0.016483075695,
        -0.150903173802, 0.249964034028, 0.155828384804, -0.220204603868,
        0.090722561927, 0.188594258247, 0.143869343896, -0.144813036971,
        0.037279587152, 0.138972399058, -0.027859581822, -0.342331483753,
        0.124461917235, 0.166679410990, 0.232399630794, 0.198552509422,
        -0.124352419731, 0.301844029900, -0.057088435806, 0.160632630643,
        -0.101288165545, 0.104152907222, 0.193275435083, -0.027302162054,
        0.289441615286, 0.119780983463, 0.079037171753, 0.253004418290,
        0.290887968749, -0.152855047012, 0.044677827179, -0.144703488651,
        -0.229318907646, 0.144906296285, 0.119305719388, -0.152480461186,
        0.129159452718, 0.159431352723, -0.224188043813, -0.132294941758,
        -0.137979056824, 0.297887523865, -0.119585914203,
        -0.224579570128, -0.242014260031, -0.159172043191},
       {0.141052804690, 0.190377548581, 0.426512904093, 0.367301897694,
        0.220695752603, -0.021287378717, 0.226188286286, 0.198300089771,
        0.351938966526, -0.219234647232, 0.169597770467, -0.188465906493,
        -0.073529589808, -0.047243582520, -0.044078160053,
        -0.228194025739, 0.410826335909, -0.543914405651,
        -0.161648156929, -0.012613519260, -0.024654510382,
        0.131136290790, -0.171027481916, 0.757955019641, -0.017029811666,
        -0.051655735626, -0.075572411525, -0.192943473981,
        -0.051283978865, -0.035709999548, 0.106001280089, 0.027566331408,
        -0.061371678826, 0.002641563660, 0.331582849736, -0.142851904309,
        -0.349377494310, -0.152811484392, -0.132305033545,
        0.240471973592, 0.426308181659, 0.320181879101, 0.144433086834,
        0.288939003610, -0.960638618228, -0.014540938905,
        -0.033128870923, 0.093723730891, 0.626322914029, -0.611155628976},
       {-0.033269055837, 0.151817729253, -0.316470477236, 0.973498905940,
        0.119970316608, 0.231969067090, -0.095619759816, 0.132977792078,
        -0.188396248071, -0.277699114714, 0.107919451869, 0.458690542423,
        -0.544481806918, 0.799162622097, 0.026902463375, -0.174093017679,
        -0.439185281462, 0.771665711729, 0.722819855667, -0.068771614021,
        -0.030996385066, 0.164344889645, 0.208035130280, -0.334049318537,
        0.265168927900, -0.081428503918, -0.169689001788, 0.415270407898,
        -0.250505156761, -0.323839324467, 0.124402789441, 0.508548084770,
        0.245175180995, -0.444239506872, 0.830891341130, 0.614224078100,
        0.604594080040, 0.399661616930, -0.328423173856, -0.166220067410,
        0.288822731362, -0.152686887048, 0.336412956245, -0.033560840480,
        -0.291063634125, -0.236643834976, 0.426999946879, 0.762780403648,
        -0.037349581995, 0.449856652720},
       {-1.196203242998, -0.552385463085, 0.058876621135, 0.414618968262,
        0.278452309440, -0.210653211531, -0.377857267920, 0.017991665381,
        0.534952246729, 0.374163234629, -0.357858502871, 0.472465179007,
        -0.054595903750, 0.252851837564, -0.069477484345, 0.292033680459,
        0.029010968778, -0.249744392084, 0.012455090106, -0.079767105456,
        -1.014620787901, -0.734130066718, 0.070086986128,
        -0.157174724236, -0.329699587454, -0.793519211135,
        0.245769329927, 0.004965135386, 0.804494679414, -0.618049644224,
        -0.202882839689, 0.886773432590, 0.376455201110, -0.209772302734,
        -0.407564386204, -0.549067163282, -0.467951490206,
        0.019477239263, -0.448436090513, -1.196893587061, 0.488853892040,
        0.797559021938, 0.274025876652, -0.177406377850, 0.120990300197,
        0.623887881911, -1.104097725689, 1.038288348695, 0.283192836161,
        0.018476865553},
       {-0.064661185016, 0.103544697023, -0.147685857058,
        -0.187066614983, 0.212329577754, -0.166992492779,
        -0.187415898621, -0.067506490163, -0.148448286098,
        0.101044518748, 0.243790693625, 0.237116432962, 0.058305708770,
        0.045470371867, -0.526805343977, 0.189629259538, -0.201824399033,
        0.297250823478, -0.275564844136, -0.015545090202, 0.241992116638,
        -0.186808706216, 0.021749586235, -0.038522749648, 0.058774588731,
        -0.054642594537, 0.119325562613, -0.288168733086,
        -0.186357246534, 0.145844822891, 0.026202044877, -0.097512212755,
        -0.060157884096, 0.201059084211, -0.090511897560, 0.024089816498,
        0.080443707313, 0.088554084375, 0.034848751980, -0.001512453699,
        0.269317398875, -0.116811939790, 0.039898948114, 0.022993909712,
        0.047748057954, -0.069830849883, 0.084208743657, 0.020660125502,
        0.020784005833, 0.201319464838},
       {0.107212228093, -0.033802122037, -0.056081045245,
        -0.116590982234, 0.303878451484, -0.138146262595, 0.318702215621,
        -0.295458038479, 0.002956105989, -0.039464489330, 0.573378825810,
        0.164665579319, -0.071914862782, -0.023047154612, 0.031731604237,
        0.234845213724, 0.322748646283, -0.335372837422, -0.613710266120,
        -0.103716975722, 0.378208089459, -0.109728994978,
        -0.009268178652, 0.747461256875, -0.359876701759, 0.030759520594,
        0.061645297271, 0.039793145223, 0.127551085177, -0.281603843591,
        -0.121844693941, 0.303240478995, -0.188460141525, 0.089404526474,
        0.135687938353, -0.142377737128, -0.064524085070, 0.089711009654,
        -0.052132058479, 0.329174217337, 0.553669587675, -0.045686961519,
        0.135952536749, 0.017464855372, -0.500101340937, 0.215493714580,
        -0.112620737171, 0.386842239567, 0.352838755591, -0.413404129331},
       {-0.649697764359, -0.037432171449, -0.243832684974,
        0.130019989881, -0.379878284599, 0.225673284908, 0.420817056827,
        -0.566624888027, 0.425770988139, 0.738300770306, -0.083230952831,
        0.019114432941, -0.090704569126, 0.141247480367, -0.028901118570,
        0.203613405085, 0.080926272217, -0.356050755643, -0.616980323874,
        -0.156831229055, -0.204805361193, -0.166410742577,
        -0.164819980390, 0.195456095163, -0.348068415604,
        -0.888432778116, -0.402917891592, 0.021884468748, 0.412020252094,
        0.214009259271, 0.422826205408, 0.302859527331, 0.090966959780,
        0.264435431400, 0.043223853893, -0.841182967151, -0.239965732990,
        -0.582840129917, 0.087670351385, -0.600152987391,
        -0.029324172115, 0.267852757831, -0.149215467427,
        -0.464530451026, 0.143998299950, 0.103146064631, -0.003871690998,
        0.818278928662, 0.195281217948, 0.237328246298},
       {-0.195481516277, 0.409424591261, 0.200041089142, -0.824443410264,
        0.017140482408, 0.096935639753, -0.029764399006, -0.143008602010,
        0.047490329839, 0.028256061218, 0.315389390612, -0.530376610853,
        0.472133797735, -0.342518556031, -0.181731959490,
        -0.021150793657, 0.332203057032, -0.248611164120,
        -0.307999727777, -0.133170082342, 0.248269333107, 0.661694675192,
        -0.516714325180, 0.155553350488, -0.545773713180,
        -0.638368884985, -0.481608763020, -0.420288272901,
        0.529837371532, -0.157726357685, -0.032570337392,
        -0.472595593182, 0.606240133503, 0.534016673068, 0.000502381657,
        -0.102480982718, -0.363433804655, 0.077508176956, 0.228188159736,
        0.507638886537, 0.594355484100, -0.342332352187, 0.164588549938,
        -0.153501162003, -0.401441966528, -0.688923872856,
        0.483399191361, -0.721483387210, 0.734469502217, -0.034444075596},
       {-0.013113463756, -0.387873068641, 0.109458986665, 0.077301449505,
        -0.057063981859, 0.057695202831, 0.003840840130, 0.157191100101,
        0.051619458274, 0.038947114837, -0.225871722645, 0.263960050325,
        0.228275013794, -0.130396658118, -0.071264236726,
        -0.156765631528, -0.123993578653, -0.085649401931,
        0.199013635216, 0.140225887226, -0.105140877465, 0.031859464157,
        -0.028096103493, -0.171208137763, 0.126331760933, 0.047965778517,
        -0.225588973696, 0.152309977538, -0.101874321554,
        -0.130099588513, -0.113393017171, 0.306692227235, 0.296677403379,
        0.221996149896, -0.024484605694, 0.262514286482, 0.160490702462,
        -0.300116348301, -0.154008587694, 0.134602710345,
        -0.272609107884, 0.136671389314, 0.157202112118, -0.127919588885,
        0.032626286934, -0.021100230712, 0.135064105293, -0.030186859234,
        0.223309761652, -0.266617959969},
       {-0.052333031478, -0.250257627672, -0.431017857730,
        -0.162958788454, -0.112021461137, 0.444382897896,
        -0.382786834891, 0.292639137154, -0.030026976093,
        -0.102480649053, 0.569421045271, -0.060030369333, 0.247040000744,
        -0.536381472401, 0.039157006774, 0.116953739956, -0.135092102214,
        -0.133369796939, 0.268508514346, 0.451358412524, 0.585729422746,
        -0.228493834041, 0.033243102062, 0.921230588006, 0.288288490330,
        -0.356212939934, -0.063188546219, 0.210179372955, 0.239301803283,
        -0.258404288416, -0.113388912786, -0.139683359017,
        0.237256433413, -0.055897506371, 0.246703502965, 0.098035347643,
        0.242238147569, -0.169693807200, -0.002316705225, 0.310291277096,
        0.071031269644, 0.113760146514, -0.018482971340, -0.178630457761,
        -0.335877196847, -0.180991571394, 0.502757467631, 0.175187646739,
        0.557605531572, -0.979771244269},
       {-0.448881015237, 0.573257102191, 0.908608170365, 0.645283073960,
        -0.580180017441, 0.157647082490, -0.040620187836, 0.172569991962,
        -0.347058899189, 0.084002882759, 0.658524049473, -0.406944245184,
        -0.098315866976, 0.025698990881, -0.009389286952, 0.172181326550,
        0.495533268034, 0.698816802733, 0.072993075732, -0.509573688928,
        -0.368792924024, 0.226316522527, 0.094473966115, 0.489458524714,
        -0.605535801966, -0.383885332359, 0.367854171716,
        -0.162380115625, -0.225503743600, -0.790989138773,
        0.192715879175, 0.125352258653, -0.088724112061, -0.087141944583,
        0.447565664839, -0.041218380350, 0.284512471869, 0.061646022649,
        -0.093351527496, 0.047521300602, -0.083749620373, 0.000167334470,
        -0.163250530586, 0.471463206955, -0.496089865685,
        -0.138254559539, 0.081502190964, -0.123079246180, 0.655499143747,
        0.210370446055},
       {0.128983924126, 0.247419115249, -1.388619833047, 0.679176477836,
        1.024363992639, -0.497299615959, 1.125304042361, 0.490679122488,
        0.494736080484, 0.054610752141, 0.151814975204, -0.083198031122,
        -0.704436095049, 0.958631312341, 0.021118516899, 0.374889686185,
        0.472345583202, -0.390413743058, 1.034474523055, 1.003638120983,
        0.313850564096, 0.028640036456, -0.000481276986, -0.609176092131,
        0.327348789469, 0.584034317046, 0.485073526544, 0.481227458748,
        -0.728615297584, 0.986548256912, -0.427399825789,
        -0.343481855986, -0.275970411881, -0.593585663480,
        0.638082058826, 0.934294761023, -0.010150904232, 0.386500792114,
        -0.043019355965, -0.101199254783, 0.383724207084, 0.354878209872,
        0.213323254664, 0.283560562894, 0.413616479205, 0.100568422965,
        -0.998607147655, 1.126437604936, -0.146866594664,
        -0.198757646317},
       {-0.057994672050, -0.073342480218, -0.447902693118,
        0.328178695827, 0.053399791930, 0.162320258361, -0.084427397497,
        -0.213578488275, 0.011149294323, -0.308536002343, 0.248032972597,
        -0.458312185654, 0.268819548634, -0.211827675779, 0.197040170381,
        0.149672023809, 0.182808734915, -0.135459225496, -0.205981881812,
        -0.225838352192, 0.041912143800, 0.017114077916, -0.099478285351,
        -0.094407270326, -0.127185429790, 0.152292404376, 0.060470890951,
        0.252413889991, -0.003263393417, -0.256253115563, 0.117378671337,
        -0.411188442620, 0.072554055284, 0.107661050242, -0.008670806280,
        -0.239145996261, 0.326780017441, -0.148313177782, 0.057170612050,
        -0.382099201606, -0.270530398757, 0.018862777922,
        -0.031164050596, -0.107635689662, -0.667431007796,
        -0.347367848420, 0.208852423184, -0.186652505459,
        -0.031737051170, -0.147697879740},
       {-0.559394875927, -0.182851430685, -0.509361474745,
        0.042565336903, 0.360353719066, 0.842620025756, -0.448154180890,
        -0.677570269849, -0.573081426937, -0.697577937151,
        0.513557748335, -0.330587471630, 0.472602633886, -1.191678061276,
        0.001894287178, -0.265980150633, 0.010954771069, -0.149786140695,
        -0.496838537629, -0.606534412030, 0.265369393357, 0.414759958886,
        -0.271503551897, 0.259521272458, -0.098474754298,
        -0.044830014599, -0.478988739863, 0.067483399278, 0.430964978038,
        -0.547437192419, 0.358368600633, 0.082891875656, 0.576814066501,
        0.288271560267, 0.297608793472, 0.129073510292, 0.608214120498,
        -0.652522837177, 0.388497044263, -0.165114367966, 0.313207797698,
        0.297439638798, -0.468122748286, 0.611638612559, -0.233041193158,
        -0.239560284157, 0.887857497402, 0.165643689904, 0.088223152408,
        -0.466245872481},
       {-0.422194373186, 0.032471478723, -0.621072019580, 0.068517730859,
        0.868179408384, 0.591014713799, 0.990372302528, -0.064917190669,
        -0.012491138642, -0.082369690901, 0.102979024907,
        -0.225486113491, -0.701196971928, 0.946435805742, 0.019582394144,
        0.135708112634, 0.326127839225, -0.876905196581, 0.506701424520,
        0.043680298967, 1.046438131552, 0.625458512277, 0.218556080495,
        -0.506479782200, 0.421581973620, 1.112029970044, 0.893392742781,
        0.431261512711, -0.187232852241, 0.198668419053, 0.248899573248,
        0.375633383700, -0.329460652132, 0.582223123760, -0.020897329710,
        0.437478363568, -0.477298534138, -0.464822558082,
        -0.170487835706, 0.458213500030, 0.347317418452, 0.612378341807,
        -0.056024831392, 0.726470233685, 0.291667337754, 0.308448469729,
        -0.215820125715, 0.708541567736, -0.212711346162,
        -0.414273133245},
       {0.238749029449, 0.022833878904, -0.379381044678, -0.219812592881,
        -0.297521647802, 0.218913726055, 0.138919280778, -0.318405882810,
        0.273141911095, 0.001270413140, 0.888399498892, -0.153670267276,
        0.096329208951, -0.298531708475, 0.051076980786, 0.277984979633,
        0.669906224930, -0.317881736141, 0.062347579808, -0.047462212158,
        0.377637006928, -0.675638380288, 0.036496726437, 0.682743604860,
        -0.180092942960, 0.502665936880, 0.220704972240, -0.218521050191,
        -0.644626475379, -0.219742368727, -0.121111311241,
        -0.422334836467, -0.187990709667, 0.868631593980, 0.439189010647,
        -0.385422086271, -0.257268471703, -0.282678849063,
        0.199905902394, -0.109916100047, -0.084891659268,
        -0.174485055395, -0.051183476879, -0.257412974537,
        -0.203579033798, 0.198743401233, -0.131116615394,
        -0.356019661950, -0.238935001926, -0.384735237956},
       {0.104443810427, 0.091172621917, -0.162532632559, -0.042688760318,
        0.152109110462, 0.186771816962, 0.026427693653, 0.154562857554,
        0.142570145463, 0.108218854581, 0.133405823943, -0.188159783731,
        -0.163172331816, 0.449401065040, -0.057489996310, 0.169477537665,
        0.702599321473, -0.518084135885, 0.151333609802, -0.116984325190,
        -0.347567602249, 0.081441054378, -0.008792518082, 0.596123761337,
        0.137542513689, -0.066057887817, 0.051337827332, 0.121403847734,
        0.215194021793, -0.244068643694, 0.296634042405, -0.171284862546,
        -0.081402717683, -0.230948146469, 0.727568355111, 0.089353231322,
        0.398508892673, 0.297327494371, 0.052151339960, -0.179414974277,
        -0.206499145044, -0.119966551696, 0.322231805406,
        -0.169372910005, -0.736067755305, -0.088216881472,
        0.424195259365, -0.299749427419, 0.380249010574, -1.106405499583},
       {-0.293234280259, -0.513806445742, -0.373217910226,
        -0.251068359774, -0.009944294777, 0.590345696726, 0.067151372167,
        -0.271861668748, -0.809932065102, -0.630446058055,
        1.222824039603, 0.027413417991, -0.124222459038, -0.383020422368,
        -0.020735698211, -0.336492792688, 0.723095482699,
        -0.388938065038, -0.039367127766, -1.325279572125,
        -1.052870897608, 0.965777013303, -0.107540095521, 1.154248980559,
        -0.250748481416, -0.713054774685, -0.340216447850,
        -0.569495271635, 0.464045965382, -0.207177736809, 0.952161128820,
        0.721254698129, 0.335447794347, 0.376425208386, 1.237622746654,
        0.250406983926, 0.383181046435, -0.284479681759, 1.023341492483,
        0.053537682465, -0.153057915424, 0.543996078223, -0.380634935172,
        1.078710722852, -0.689791783054, 0.372155096371, 0.968348704476,
        0.400019903098, 0.352640959174, -1.366325154414},
       {-0.570481930166, -0.641128123406, -0.139135077459,
        -1.399650888109, -1.007298322392, 0.380461331074,
        -0.375563126793, 0.188133123558, 0.561861129459, -0.294822859277,
        0.966635039114, -0.435120524837, -0.058400655255,
        -0.280480290536, 0.077531987214, 0.011768179905, -1.740450274981,
        1.054874218822, 0.075304512145, 0.462722679751, 0.483844881198,
        -1.209527161949, -0.202054700454, -0.646629977818,
        0.192082534851, -0.227273599391, 1.211220252862, -0.264437050244,
        0.057293839542, -0.683582603365, -0.051113672911, 0.069974649673,
        -0.555113235184, 0.412122100359, -1.172441074118,
        -0.335583245922, -0.307266111436, 0.217543257606, 0.268484914108,
        0.369579008019, -0.416619233342, 0.522535814512, 0.762714937738,
        -0.236423703939, 0.590697498737, 0.838823626386, 0.123433918307,
        -0.679561232786, -0.337932688340, 0.979741936370},
       {-1.317316634343, -0.467373690359, 1.043933673737,
        -0.198067455137, -0.546779297617, 0.458203255682, 0.220301213364,
        -0.488881721056, -0.172902821154, -0.547462862448,
        0.305063968234, -0.131175189108, -0.734767082944, 0.324823647368,
        -0.080355053190, -0.584569061248, -0.160385783466,
        -0.099075895212, -0.158934454333, -0.482595657935,
        0.080517488786, -1.595734410313, 1.072825107567, 0.504822011843,
        1.130120630919, 0.022824184694, -0.178445213882, 0.534385753515,
        -1.053476615033, -0.343883878692, 0.022774189742,
        -0.158366441098, -0.629380978519, 0.692389632873, 0.149880534300,
        -0.026658143028, 1.044090748775, 0.248021931724, -0.271718732613,
        -0.043005673657, -0.649549268812, 0.273304435735,
        -1.201799507882, 1.301534603713, -0.372196869277, 0.295722956939,
        0.596641897915, -0.774860469050, 0.082313545152, -0.178925807670},
       {-0.024947632482, -0.096146397809, 0.091201221070,
        -0.231988769346, -0.086665220120, -0.239010790620,
        0.224383840764, 0.099064072475, -0.154151784220, -0.350301626895,
        0.297809810907, -0.333181270453, -0.080047983539,
        -0.127166814278, -0.003535419796, -0.064438879269,
        -0.193460167010, -0.217059246143, -0.304820543282,
        0.073077138395, 0.537241210672, 0.160966126067, 0.102167391166,
        0.068990338819, -0.135226764622, 0.087666485066, -0.099615664156,
        0.436771763525, -0.303229566366, -0.265384726342, 0.158157965834,
        -0.173126730440, -0.042264305862, -0.261241553157,
        0.047093700736, 0.018110257744, -0.046492160765, 0.050409779568,
        0.075412653943, 0.138395701915, 0.057226803818, 0.132232976097,
        -0.142353631512, -0.225317665892, -0.628290436372,
        -0.068649283528, 0.230821310630, -0.078384113904,
        -0.259941950856, -0.312717855777},
       {0.180977925564, 0.192509638656, -0.184548007699, -0.746371116147,
        -0.760845048880, -0.271290590887, 0.406902251739,
        -0.358469682685, 0.062995002472, -0.071139060529, 0.671610466938,
        -0.605772812195, 0.122410992210, -0.739819119113, 0.003087160594,
        0.310853146534, -0.341478979769, -0.497075768942,
        -1.147963295155, 0.183046598919, 0.495436932441, -0.351158931060,
        0.182694534429, 0.338866419069, -0.512114105611, -0.203472926228,
        -0.084216217673, 0.124148937835, -0.394954047933,
        -0.349108188439, -0.230498111166, 0.291452384755,
        -0.442925212715, 0.114563965526, -0.087055627846,
        -0.166673607118, 0.544701072058, 0.127719119425, 0.024864024137,
        0.413202955577, 0.172514680997, -0.259334282935, -0.107837377942,
        -0.142917320802, -0.231455214790, -0.209466569170,
        0.775798087080, 0.186138595826, 0.087417062315, -0.275965783958},
       {-0.519969614574, -0.028613228359, 1.288652872379,
        -0.130279366336, -0.332222006331, 0.120838620628, 0.358451460088,
        -0.546251485095, 0.375054625791, -0.500975667176,
        -0.620509164194, -0.076942997251, -0.611085263044,
        0.657565539388, -0.083730157985, -0.098500430191, 0.054124830534,
        -0.301681828411, -0.358255342814, -0.179459111965,
        0.082338095605, -1.263894202501, 0.866271413493, 0.386416740955,
        0.973962155930, 0.056447218897, -0.014283206511, -0.045309994508,
        -0.294181701172, -0.628381647257, -0.307328216256,
        -0.059078642551, -0.373951099579, 0.514848428908,
        -0.413093305755, -0.233182966226, 0.468797142017, 0.364777717304,
        -0.242413762959, 0.291380262232, -0.635656643289,
        -0.029020344279, -0.677083345467, 1.076247910853,
        -0.714139410174, -0.060976626330, 0.538313568032,
        -0.816089530000, 0.137452360108, -0.468581409671}})