array([[-7.40885817e-01,  6.42667130e-02,  5.89310497e-02,
        -3.68576324e-01, -4.21226850e-01,  3.35172198e-02,
         5.91667091e-02,  4.61120402e-01, -7.61733108e-02,
         4.04568993e-02, -2.72744354e-01,  7.63886974e-02,
        -4.84857780e-02,  4.86686044e-01,  7.05225670e-01,
         2.64857585e-01,  2.58440445e-01,  2.07899621e-01,
         1.75858971e-01,  8.50614060e-02,  2.48169536e-01,
        -1.61074111e-01,  2.99591084e-01,  4.49492761e-02,
         2.11688440e-01, -2.50568943e-01, -3.94970417e-02,
         3.72503569e-02,  8.93608965e-02, -6.59087815e-01,
         3.68825038e-02, -5.64984546e-01,  1.96515295e-01,
        -1.64858800e-01, -2.03232755e-02,  5.57239793e-02,
        -1.34976051e-01, -3.76318098e-01, -1.37906790e-01,
         3.80466711e-01,  2.61662966e-02,  1.19126323e-01,
        -1.88750719e-02, -2.65276051e-01,  5.20849723e-01,
         3.01516745e-03, -3.75408333e-01, -8.49891190e-04,
         9.65669210e-02, -1.83279299e-01],
       [ 4.01904142e-02, -8.18050227e-02,  4.32680165e-02,
        -6.99598825e-02,  8.10101058e-02,  2.08453774e-02,
        -1.71110210e-01, -2.72721201e-01, -6.03324752e-01,
         2.01904341e-01,  4.98665362e-02,  1.57902372e-01,
         3.37527973e-01, -2.76856151e-01,  2.22607542e-01,
         2.18803527e-01, -2.15307057e-01, -3.16538029e-01,
         3.04115494e-01,  3.60594065e-01, -2.52858863e-01,
         2.42251281e-01,  6.72498921e-01,  4.39348098e-01,
        -1.94860577e-01, -2.77169112e-01,  6.25234962e-02,
         1.38677721e-01, -3.13291858e-01,  2.50837471e-01,
         1.10056102e-01,  3.68940670e-01, -3.63531908e-01,
        -2.91829551e-01,  1.06045487e-01, -3.87659982e-02,
        -7.75832856e-01, -1.58520604e-01,  8.53112836e-02,
         5.12239203e-02, -4.94521735e-01,  6.64737558e-01,
         1.84579101e-01, -6.03715567e-01,  1.91824421e-01,
         3.94734613e-01,  1.95315241e-01, -3.46670177e-01,
        -4.28616937e-01, -3.38980956e-02],
       [ 3.17684057e-02,  3.06463114e-01, -8.52110784e-02,
         2.62010088e-02, -1.45779301e-01,  3.44187025e-01,
         4.41052850e-01,  2.06734811e-01,  2.96929787e-01,
        -2.80837803e-01,  2.52475882e-01, -2.41037083e-01,
        -4.97608260e-01,  1.70996717e-01, -2.84027376e-01,
        -5.40017279e-01,  7.33328554e-02,  2.69446907e-02,
         1.75250515e-01, -3.34610785e-01, -9.71484457e-03,
        -1.37871112e-01, -3.12722287e-01, -3.19428116e-01,
         8.14097169e-02,  1.31418020e-01,  2.29945203e-01,
        -8.01970606e-03,  1.53767656e-01, -1.91037473e-01,
        -2.59504999e-02,  5.85487739e-02,  3.51772950e-02,
        -2.36551850e-01,  4.38007008e-03,  1.74930821e-01,
         6.23426407e-01, -7.25873955e-02,  2.85727998e-01,
         3.68082340e-02,  2.87201465e-01, -4.03175589e-01,
         8.98958552e-02,  4.02452869e-01, -2.43250805e-01,
        -1.00740185e-01, -1.47723079e-01,  1.49177946e-01,
         2.10413913e-01, -2.90277792e-02],
       [ 3.19836556e-03,  3.55976630e-01, -1.91407051e-01,
        -1.89683409e-01, -2.78435965e-01,  1.62631343e-01,
         6.16842102e-01,  8.77052350e-02, -4.03835696e-02,
        -2.88140865e-01,  3.45847361e-01, -1.70159916e-01,
        -3.86344621e-01, -1.59292159e-01, -6.89563083e-03,
         1.07727439e-01,  1.10472392e-01,  1.06798945e-01,
        -8.50397666e-02,  9.21236099e-02,  3.73794234e-01,
         2.55486211e-01, -2.28001698e-02, -9.69556712e-02,
         4.49364146e-02,  3.05466236e-01,  4.32374227e-01,
        -3.47408461e-01,  1.53767436e-02, -2.24758431e-01,
        -2.09196382e-01, -3.18563331e-01, -2.53869959e-01,
        -5.63976440e-01,  2.97168359e-01,  1.27986655e-01,
        -1.30431324e-01,  2.95977779e-02, -2.51941657e-02,
         3.23415486e-01,  3.72292427e-02, -5.17609306e-02,
         3.71588951e-02, -5.45295102e-02, -1.04775638e-01,
        -1.45110848e-01, -1.21075928e-01,  2.33625266e-01,
         2.54101084e-01, -1.00469886e-01],
       [ 6.52739395e-01, -7.55880105e-02,  7.75420501e-03,
         3.35539543e-01,  8.03062233e-02,  2.28121341e-01,
        -2.55369258e-01, -3.29493887e-01, -3.09278361e-01,
         4.45884031e-02,  5.94337801e-01, -1.43896923e-01,
         1.08670459e-01, -4.56156245e-01, -6.16868670e-01,
        -5.75958757e-01, -3.35535888e-01, -4.55264910e-01,
         2.63330618e-01, -1.57884488e-01, -5.96057637e-01,
        -8.89797588e-02,  1.59550682e-01,  1.02057488e-01,
        -4.39845597e-01, -2.11661398e-01, -6.89038241e-02,
         4.60525258e-02, -9.83337323e-02,  3.72714488e-01,
         3.24350844e-01,  9.64716504e-01,  1.27353545e-01,
         4.18824945e-02,  4.36083675e-02,  5.79066205e-02,
         1.06417124e-02, -1.09175231e-01,  4.59497196e-01,
        -1.09583290e-01, -3.95328831e-01,  1.86222594e-01,
         4.87750258e-01, -4.17984219e-01, -5.18539662e-01,
         5.38382343e-01,  5.34485988e-01, -2.66684291e-01,
        -2.08012726e-01, -1.69105871e-02],
       [ 2.94767109e-01,  4.25045173e-02, -5.47410080e-02,
        -1.85200085e-02,  1.31648778e-01, -1.70275352e-02,
        -8.49092145e-02, -1.93711112e-02, -3.13415264e-01,
         1.33712060e-01,  4.30164753e-01, -1.17102755e-01,
         9.62221691e-02, -4.96778047e-02, -4.34606952e-01,
        -9.71779325e-02, -2.15505250e-01, -3.76313957e-03,
         2.69985647e-01,  1.79772084e-01, -1.15736909e-01,
         2.14023823e-02,  2.43166364e-01,  5.25789297e-04,
        -3.02247814e-01, -1.40966069e-01,  2.15791370e-01,
         1.90633921e-01, -3.62999520e-02,  2.33965575e-01,
         1.93111638e-01,  4.20197123e-01,  9.10960256e-02,
        -1.82628429e-01,  1.73995110e-01,  1.73764370e-01,
        -6.83454896e-02,  6.73093718e-02,  1.01790413e-02,
         8.50173493e-02, -4.60571623e-01,  2.58862581e-01,
         7.32464276e-02, -1.73622448e-01, -1.34058045e-01,
         2.60368210e-01,  2.01932654e-01, -3.38287702e-02,
         1.46335006e-02,  1.11499948e-01],
       [ 4.52440691e-01,  3.61088568e-01, -7.52782983e-02,
        -1.31309911e-01,  3.20415810e-02,  3.72868720e-01,
         6.04115707e-01,  1.63036367e-01,  3.19927167e-01,
        -3.23943523e-01,  4.28375727e-01, -1.75906307e-01,
        -5.46895575e-01, -3.48259279e-01, -5.92684486e-01,
        -2.51049081e-03, -5.75677337e-02,  9.88661451e-02,
        -9.75454779e-02,  3.29955051e-02,  1.96179880e-01,
         1.85790943e-01, -4.05903713e-01, -4.16301895e-01,
         6.93043305e-02,  4.06944613e-01,  1.97814856e-01,
        -2.51719954e-01,  3.12003263e-01,  2.11841521e-01,
        -2.43321917e-01, -1.30575527e-01, -9.55123976e-03,
        -2.63777807e-01,  1.60181717e-01,  2.25547540e-01,
         3.11058355e-01,  2.25870221e-01, -2.67334560e-02,
         1.59992010e-01,  3.43061390e-01, -3.66833903e-01,
         1.89459097e-02,  5.74806514e-01, -4.29542663e-01,
        -2.36423035e-01, -2.10074438e-02,  3.96520941e-01,
         2.70550674e-01, -2.28927793e-01],
       [ 4.57184196e-01, -2.22790850e-01,  1.11965628e-01,
         5.95585086e-01,  3.21898815e-01, -1.07817903e-01,
        -2.73468284e-01, -3.86445199e-01,  1.45983154e-01,
         4.25759600e-01, -1.30206527e-01,  4.26505254e-02,
         1.25232461e-01, -3.76640235e-01, -4.75369227e-01,
        -6.20628610e-01, -3.91971503e-01, -1.95875731e-01,
         4.92412210e-02,  1.79674716e-02, -6.39403168e-01,
        -1.07686648e-01, -1.77019950e-01, -1.48205342e-01,
        -2.53714332e-01, -8.42227816e-03, -2.47650943e-01,
         4.36283018e-01,  1.11759353e-01,  4.62814748e-01,
         2.23689664e-01,  9.13651736e-01,  4.97571990e-02,
         1.84300601e-01, -2.29598924e-02, -3.16769228e-01,
         1.16487037e-01,  1.12360928e-01,  1.57717729e-01,
        -3.87521216e-01,  1.35133148e-01, -2.47849022e-01,
         4.95775169e-02,  1.33371805e-01, -4.34074105e-01,
         1.44181524e-01,  3.41367733e-01, -2.00271783e-01,
        -4.86371522e-01,  2.73133999e-01],
       [ 2.92649199e-01, -1.44840958e-01,  1.01224939e-01,
         1.46661568e-01,  1.31449987e-01, -1.13259897e-01,
        -2.01194410e-01, -2.84641191e-01,  1.93817562e-02,
         2.31823717e-01, -2.00058636e-02, -7.72811075e-02,
         1.15376579e-01, -1.41843317e-01, -2.59557186e-01,
        -3.83565296e-01, -2.52149840e-01, -1.51475351e-01,
        -8.32823721e-02,  6.80928156e-02, -2.25895910e-01,
        -2.27933288e-01, -1.01346535e-02, -1.62217121e-01,
        -2.26154172e-01, -6.18630561e-02, -1.65108753e-01,
         2.87044883e-01, -1.96304019e-01,  1.77954880e-01,
         8.15894882e-02,  3.25174123e-01,  1.38422439e-02,
         2.31919558e-02, -1.28332732e-01, -2.38103925e-01,
         2.13840266e-01, -1.34684831e-01,  2.68944966e-01,
        -3.28907763e-01, -1.73414178e-01, -1.23123375e-01,
         1.75880940e-01, -8.22609573e-02, -2.56719163e-01,
         1.44883014e-01,  3.14409360e-01, -1.10482448e-01,
        -3.09273505e-01,  8.21542135e-02],
       [-1.38896348e-01,  3.66790261e-01, -1.60772338e-01,
        -3.40533897e-01, -2.40540762e-01, -1.82888025e-01,
         5.28960434e-01,  2.85083476e-01,  4.59122112e-01,
         4.12486146e-02, -7.86267268e-02,  5.15729923e-02,
        -3.61330432e-01, -2.09255448e-03, -1.49297473e-01,
         1.15523349e-01,  1.09948120e-01,  4.04382490e-01,
        -1.85506437e-01,  1.00113116e-01,  2.64061908e-01,
         2.87709357e-01, -3.00359964e-01, -2.33514244e-01,
         3.38839875e-01,  4.89173245e-01,  1.89743028e-01,
        -1.32860775e-01,  3.41490986e-02,  3.05782359e-02,
        -1.78149615e-01, -3.91592476e-01, -1.21502162e-01,
        -3.77516278e-02,  1.77063579e-01,  1.88521369e-01,
         2.19234268e-01,  3.68361629e-01, -1.50400160e-01,
         2.57551502e-01,  4.30029069e-01, -2.03350388e-01,
        -2.58302227e-01,  3.47353174e-01,  1.34405693e-01,
        -5.39587851e-01, -2.23440115e-01,  5.96672789e-02,
         1.19022857e-01, -6.24589522e-02],
       [ 2.45530147e-01,  3.61905086e-01,  5.69262385e-02,
        -1.45452511e-01, -3.20209248e-01,  4.97055074e-01,
         5.86443088e-01,  3.24997899e-01, -1.04790155e-01,
        -2.92639330e-01,  7.39363838e-01, -7.81322365e-02,
        -4.63969304e-01,  2.44101366e-02, -3.49935743e-01,
        -5.56076333e-02,  7.96036011e-02,  2.24650718e-01,
         2.84149096e-01,  1.46281292e-01,  2.53556590e-01,
         4.79437508e-02,  6.70770166e-02,  1.69564614e-02,
         1.94980193e-01,  3.04734169e-01,  4.50791380e-01,
        -2.56305066e-01,  1.25966290e-01, -2.34436527e-02,
        -2.44047977e-01, -2.71488926e-01, -7.73844393e-02,
        -4.97266087e-01,  4.66453167e-01,  3.89296138e-01,
        -1.43891723e-02, -2.66969641e-02, -4.07143664e-02,
         1.53428502e-01,  7.57082087e-02,  9.53379703e-02,
         2.35920904e-01,  1.33101150e-01, -2.77571527e-01,
         1.24089079e-01, -2.07548635e-01,  3.38206040e-01,
         2.38032070e-01, -1.55298926e-01],
       [ 2.60386263e-01, -4.56469205e-02,  2.06370363e-01,
        -7.06670560e-02,  3.10477127e-02,  6.12684039e-02,
         8.46834148e-02, -3.75181951e-02,  1.56123983e-01,
        -2.77750584e-01,  1.89469783e-01,  1.23972554e-01,
        -1.14104499e-01,  6.35751750e-02, -4.48534722e-01,
        -4.74869623e-01, -1.76076642e-01,  7.99013957e-02,
        -1.99224854e-02, -3.18443247e-01,  1.33828149e-01,
        -3.97420754e-01, -4.26235619e-01, -4.51246842e-01,
        -8.59157513e-02, -2.52905234e-02, -1.40676293e-01,
        -3.08580901e-01,  1.95574847e-01,  1.41735113e-01,
         8.83022236e-03, -1.02685258e-01,  2.56436107e-01,
         1.49172675e-01, -2.12017394e-01,  3.63334038e-02,
         6.52332748e-01, -1.53646100e-01,  2.80529089e-01,
         1.11030800e-01,  1.46547355e-01, -3.96445895e-01,
         1.48139170e-01,  4.13941416e-01, -1.77416294e-01,
        -1.61557668e-01, -1.14241912e-01, -1.01677257e-03,
         1.70206093e-01, -2.80726468e-02],
       [ 7.13420961e-01, -9.98657490e-03,  4.30722927e-02,
         4.49549795e-01,  3.04863704e-01, -2.45781381e-01,
        -3.66482333e-01, -5.52815784e-01,  5.48824747e-02,
         3.76594157e-01,  1.92924838e-01,  1.35743584e-01,
         3.16410959e-01, -7.40537533e-01, -5.29372588e-01,
        -6.44375931e-02, -5.11494251e-01, -2.13844198e-01,
        -1.48390800e-01,  1.31505670e-01, -4.12476191e-01,
         1.94911753e-01, -1.77880659e-01,  1.74023477e-01,
        -2.63308158e-01,  4.92798688e-02, -1.46937725e-01,
         2.05313978e-01, -1.05864116e-01,  6.82100163e-01,
         3.06746656e-01,  6.82474197e-01, -2.18940469e-01,
         1.45682705e-01,  6.58342523e-02,  1.09183410e-02,
        -1.15057032e-01,  4.26874899e-01,  1.03996897e-01,
        -4.02350822e-01, -3.78372777e-01,  1.32388847e-01,
        -2.33144039e-01,  1.50683048e-02, -4.52864065e-01,
        -3.83366044e-02,  3.63133893e-01, -2.71981059e-01,
        -4.16527916e-01,  3.64522178e-02],
       [ 5.09316034e-03, -3.52076822e-01,  2.94910857e-01,
        -1.36052154e-01, -1.76545675e-01, -5.95049369e-02,
        -3.64271892e-01, -1.31466757e-02, -5.12616251e-01,
        -2.09452232e-01,  4.49438432e-02,  4.20584956e-02,
         4.30711407e-01,  1.93796065e-01, -3.65046627e-02,
        -6.80320660e-01, -3.29527700e-01, -3.77268567e-02,
         1.90270178e-01, -4.46915581e-01, -1.25545560e-03,
        -7.94419582e-01, -3.00094569e-02, -1.78785864e-01,
        -1.88617088e-01, -3.20696457e-01, -9.55834700e-02,
        -1.93632888e-01, -1.02473194e-01, -1.02322379e-01,
         5.77949271e-02,  2.01789088e-01,  3.16884475e-01,
         2.39541396e-01, -1.01511919e-01, -1.10992381e-01,
         1.76287733e-01, -7.11031486e-01,  5.25066137e-01,
         4.69054787e-02, -3.33428466e-01,  5.34434572e-02,
         3.52864985e-01, -2.67124001e-01, -1.54696640e-01,
         4.24432322e-01, -3.63763493e-02, -1.60111405e-01,
         2.99298399e-01,  1.27450450e-01],
       [-4.16942600e-01,  3.33360838e-01, -2.96369472e-01,
         1.46011459e-01, -1.76203418e-01,  1.95823192e-01,
         8.11932520e-01,  3.06630656e-01,  7.62501634e-01,
         2.92545533e-01, -4.24411507e-01, -2.46360289e-01,
        -8.46428368e-01,  3.45327401e-01,  2.95512425e-02,
        -1.81035395e-02,  4.02521470e-01, -8.03907251e-02,
        -1.88717238e-01, -1.35808200e-01,  1.37053718e-02,
         2.81688742e-01, -3.13894463e-01, -1.34726182e-01,
        -9.44508527e-02,  5.72060298e-01,  1.79066722e-01,
         1.91313980e-01,  3.31034685e-01, -2.05851594e-01,
        -2.55138730e-01, -3.27472056e-01,  5.02079453e-02,
        -2.82910527e-01, -5.53762256e-02, -1.99952064e-01,
         4.37414045e-01,  3.57685606e-01, -2.66532955e-04,
        -1.05813084e-01,  9.20777881e-01, -3.09619059e-01,
        -1.61710422e-01,  6.82835718e-01,  1.09854390e-01,
        -4.95676483e-01, -3.04947436e-01,  4.26401882e-01,
        -1.66767854e-01, -1.38076448e-01],
       [ 3.02982807e-01,  9.85673886e-02,  3.15974287e-01,
        -8.42808964e-02, -3.41879929e-01,  3.89442794e-01,
        -1.15921864e-02,  3.86067132e-02, -6.30902604e-01,
        -5.62375292e-01,  1.13866838e+00,  1.01227315e-02,
         3.95230167e-01, -1.84055695e-01, -2.60451029e-01,
        -1.87308918e-04, -3.60270255e-01,  4.25196238e-01,
         3.16997269e-01,  9.29958254e-02,  3.61366295e-01,
        -1.42083500e-01,  4.44859269e-01,  1.30175083e-01,
         1.34614958e-01, -1.39097056e-01,  5.32655352e-01,
        -5.60125217e-01, -4.40540290e-01, -3.63098061e-02,
        -1.91908843e-01, -3.18194633e-01, -1.34513017e-02,
        -6.13266220e-01,  6.24001308e-01,  5.22843816e-01,
        -4.89018795e-01, -4.87709722e-01,  2.60725167e-02,
         3.91941416e-01, -6.38989614e-01,  6.74551502e-01,
         5.23227685e-01, -6.48774462e-01, -3.43825968e-01,
         3.83205704e-01, -2.01418516e-01, -2.68740797e-01,
         5.17356856e-01, -3.81621915e-01],
       [ 2.94920327e-01,  5.33534855e-02, -1.60889501e-02,
         3.32802370e-01,  9.19994409e-02,  2.53869511e-01,
         1.52689161e-01,  3.57871909e-02, -3.02954233e-01,
         1.22535302e-01,  3.23428155e-01,  1.08164061e-02,
         8.90657826e-02,  1.18467865e-02, -1.47670550e-01,
        -1.62874110e-01, -1.78325255e-01, -3.13727274e-01,
         2.64266217e-01, -1.37070679e-01, -3.17149316e-01,
         2.61362424e-02,  1.26803728e-01,  1.13635241e-01,
        -2.59605726e-01, -1.08207386e-01, -3.23035465e-02,
         1.62936130e-01,  1.76448876e-01,  9.57669920e-02,
         1.92623090e-01,  5.03268851e-01,  7.17721420e-02,
         4.03711447e-02,  1.12224448e-01,  3.73830653e-02,
         4.57443920e-02, -1.62020727e-01,  1.44266514e-01,
        -7.60162774e-05, -1.00483259e-01,  1.80481564e-01,
         3.66926792e-01, -1.09234752e-01, -2.43202737e-01,
         2.19517159e-01,  1.80890374e-01,  1.63859808e-01,
        -1.86894100e-01, -1.19571378e-01],
       [-2.23977127e-01,  2.50526229e-01, -4.06059983e-02,
        -4.45170462e-02,  6.69450557e-02, -1.02951648e-01,
         1.58974454e-01,  1.62586510e-01,  4.66762129e-01,
         5.50406232e-02, -3.45317846e-01,  8.48137872e-02,
        -2.89894477e-01,  2.88294838e-02,  2.58485368e-01,
         2.19568500e-01,  1.88972407e-01,  1.71239123e-01,
        -1.73068586e-01,  9.84890002e-02,  1.92202232e-01,
         9.49953636e-02, -2.96067306e-01,  4.37113867e-03,
         3.05224121e-01,  3.32262558e-01, -4.79589551e-02,
        -4.18607981e-02, -7.74486591e-02, -1.78831967e-01,
        -5.50252166e-02, -2.25282901e-01,  6.83897579e-02,
        -1.05812680e-02, -1.05659965e-01,  5.50504403e-02,
         1.77391391e-02,  2.79025578e-01, -1.06238615e-01,
         6.69921379e-02,  3.92749560e-01, -2.43203086e-01,
        -4.04595436e-01,  2.19178266e-01,  1.64023808e-01,
        -3.32594481e-01, -2.09726261e-01,  8.71775244e-02,
        -2.56123547e-01, -1.63602507e-01],
       [ 4.66252432e-02,  1.41647172e-01, -2.37506557e-01,
         4.49054639e-02, -1.08064719e-01,  5.57944316e-02,
         4.76966395e-01,  2.25884400e-01,  6.23560836e-01,
         2.54931476e-02, -3.54613315e-01, -2.01071513e-02,
        -6.49141048e-01,  1.69301982e-01, -8.34617262e-02,
        -2.91442961e-01,  1.51639432e-01,  2.15899147e-01,
        -3.03668957e-01, -1.67333782e-01,  2.44572517e-01,
        -1.58362073e-01, -6.82804129e-01, -4.32324674e-01,
         1.77084914e-01,  3.82878778e-01, -1.15827198e-01,
        -6.50481476e-02,  3.33616352e-01, -1.98619145e-01,
        -3.20095732e-01, -3.84055025e-01,  1.65287777e-01,
        -7.82258319e-02, -7.82570356e-02, -6.52976817e-02,
         7.17493843e-01,  1.46840286e-01,  1.35757705e-01,
        -1.82817581e-02,  6.75111863e-01, -6.80311672e-01,
        -3.13329208e-01,  6.71786489e-01,  6.57032795e-02,
        -6.04383424e-01, -1.40204823e-01,  3.57969888e-01,
         2.21351475e-01, -1.10710450e-01],
       [ 1.35153880e-01,  3.92152197e-01,  9.69352615e-02,
        -2.15957748e-01, -3.76258886e-01,  4.61277624e-01,
         5.97273812e-01,  2.24827937e-01, -1.83757841e-01,
        -3.69581333e-01,  7.16125921e-01, -1.51456761e-01,
        -4.46836212e-01, -1.04392386e-01, -2.03568829e-01,
         3.92069940e-02, -3.70868622e-02,  1.29126499e-01,
         2.63354963e-01, -5.70028020e-02,  3.28849015e-01,
         1.03308687e-01,  1.21937626e-01, -1.02172415e-01,
         9.30447954e-02,  1.20780426e-01,  4.30667189e-01,
        -3.31757717e-01, -9.84224525e-02, -1.78142898e-01,
        -7.83597345e-02, -1.77252462e-01, -1.17508795e-01,
        -6.17907097e-01,  5.67838276e-01,  4.05021499e-01,
        -7.07108846e-02,  5.91422282e-02, -5.37344631e-02,
         3.21728153e-01,  1.16395199e-01,  2.12015997e-02,
         2.81389758e-01, -1.87074365e-01, -3.21806350e-01,
         7.53693279e-02, -1.73563143e-01, -5.76781582e-02,
         3.14583320e-01, -3.76676007e-01],
       [-9.92944355e-02, -1.89345781e-01, -2.24580866e-02,
        -1.17125872e-02,  4.01361237e-02, -2.45603617e-01,
        -2.46919585e-01, -1.85124995e-01, -1.12541179e-01,
         5.51633941e-01, -4.63273370e-01,  4.09864969e-02,
         1.79201829e-01,  1.25486104e-03,  3.21049819e-01,
         2.60950344e-01,  8.79485409e-02, -6.15971912e-02,
         1.65608394e-01,  1.56970544e-02, -2.70569641e-01,
         9.63845907e-03,  4.37482584e-01,  3.71579143e-01,
        -5.28060916e-02, -3.74205059e-01, -4.55715664e-02,
         3.89654345e-01,  1.43905896e-02,  6.37369709e-02,
         8.96490354e-02,  7.95651113e-02, -1.29417823e-01,
         2.23605406e-01, -9.06993027e-02, -1.12061501e-01,
        -4.32946219e-01, -7.73992475e-02, -1.37676729e-02,
        -3.45718768e-01, -5.63776936e-02,  3.32463802e-01,
        -4.80426854e-02, -2.32177561e-01,  3.00655577e-01,
         2.23256373e-01,  2.81486639e-01,  7.12445961e-02,
        -4.77437753e-01,  1.06386254e-01],
       [-2.88227587e-01, -4.06744008e-01, -1.34295625e-01,
        -4.03370376e-02,  3.33164701e-02, -8.83506880e-02,
        -4.36399399e-01,  8.36359072e-02, -6.16068806e-01,
         3.67377681e-01, -3.62615554e-01,  3.37735434e-02,
         4.13505993e-01,  4.11631204e-01,  5.84454408e-01,
         1.67169341e-01,  1.56871031e-01, -3.83382112e-01,
         1.74796081e-01,  5.54528093e-02, -3.95307335e-01,
        -6.59186527e-02,  5.03793671e-01,  5.57081423e-01,
        -1.00946897e-01, -6.06753254e-01, -8.07760553e-02,
         5.16458605e-01, -1.12205516e-02, -1.32064619e-01,
         3.54088781e-01,  2.42767575e-01, -4.38001769e-02,
         2.29885198e-01, -1.12008331e-01, -1.55357741e-01,
        -4.11638225e-01, -2.23441398e-01, -7.40953919e-03,
        -5.86880802e-02, -3.18654994e-01,  4.04740708e-01,
         4.53646325e-03, -4.04075854e-01,  4.02465263e-01,
         2.68710675e-01,  2.51469379e-02,  1.39233943e-01,
        -5.78025476e-01,  4.17701916e-02],
       [-2.64149946e-01, -7.94656796e-03,  2.20678673e-01,
        -5.40808248e-02, -2.95450415e-01,  3.86867393e-01,
         7.71620894e-02,  3.70402386e-01, -2.38245565e-01,
        -3.46975207e-01,  3.94314152e-01, -1.12569176e-01,
        -1.99716755e-01,  6.00524008e-01,  2.65970607e-01,
        -3.66779116e-01,  1.51051360e-01, -3.04766021e-02,
         3.78315450e-01, -1.03137887e-01,  7.83283091e-02,
        -5.30934238e-01, -1.16617516e-01, -1.50418069e-01,
         4.16516395e-02, -1.98249151e-01,  2.01513246e-01,
        -3.78241102e-01,  7.48581694e-02, -5.23719755e-01,
        -1.56511583e-01, -1.66016939e-01,  2.77292794e-01,
        -2.12153404e-01,  9.88825446e-02,  6.76526038e-03,
         2.60100485e-01, -5.16273269e-01,  2.91595357e-01,
         3.16844324e-01, -8.23117371e-03,  1.55430688e-02,
         4.17327628e-01, -1.62133931e-01,  2.41582364e-01,
         3.04312777e-01, -3.29150133e-01,  1.56150227e-01,
         3.49243522e-01,  3.11468939e-03],
       [ 3.58939866e-01, -3.17199432e-01,  3.16891051e-01,
         1.46628250e-01, -6.51679956e-02,  1.19052428e-01,
        -4.99668869e-01, -2.07166227e-01, -3.80054083e-01,
        -3.24035081e-02,  3.75334571e-01, -2.25949226e-02,
         6.10425390e-01, -9.79509461e-03, -2.30868765e-01,
        -1.82132251e-01, -3.11986891e-01, -1.17683294e-01,
         1.82455150e-01, -1.14946347e-01, -4.81962540e-02,
        -1.91279253e-01,  3.13356441e-02,  1.82890394e-01,
        -6.48112045e-02, -3.37649262e-01,  5.21624186e-02,
         2.14866875e-03, -3.27065029e-01,  1.72451641e-01,
         1.82470405e-02,  3.90281325e-01,  1.61212715e-01,
         1.24874621e-01,  2.01135728e-01,  3.42697009e-02,
        -1.19138945e-01, -3.89300304e-01,  2.95083444e-01,
         5.30052698e-02, -6.47913739e-01,  1.57015495e-01,
         1.99405878e-01, -4.97888697e-01, -1.48383426e-01,
         5.30267130e-01,  3.09376817e-01, -4.10653324e-01,
         1.13048065e-01, -1.85690471e-02],
       [ 1.18763449e-01,  3.25128010e-01, -6.64102038e-03,
        -7.24722216e-03, -1.53979432e-01,  1.63525312e-01,
         4.41095953e-01,  3.58623807e-02,  1.72168195e-01,
        -2.67018254e-01,  4.01305272e-01, -1.44594535e-01,
        -2.78391300e-01, -2.93388117e-01, -2.08538286e-01,
        -2.50984132e-02, -7.44064979e-02,  9.86309746e-02,
        -1.47478432e-01,  9.95785113e-02,  2.41723706e-01,
        -9.49939606e-02, -1.39852811e-01, -2.40762369e-01,
         1.81360599e-01,  1.75965134e-01,  3.14385496e-01,
        -7.22935215e-02, -1.06610388e-01, -5.46067453e-02,
        -1.03385996e-01, -2.74172629e-01, -1.39446495e-01,
        -1.26057468e-01,  4.03972468e-01,  3.40070243e-01,
         1.23812957e-01,  2.37010845e-01,  1.37159506e-01,
         9.96048601e-02,  2.29902344e-01, -2.15051650e-01,
         9.73470499e-02,  7.03385567e-04, -3.29408862e-01,
         1.08930818e-01, -9.13764335e-02,  1.44394049e-02,
         1.75564816e-01, -7.12126520e-02],
       [-5.00071620e-01,  1.51093854e-02, -1.89649995e-01,
        -7.24965455e-02, -1.34907946e-01,  1.31659521e-01,
         4.28095634e-01,  1.91457196e-01,  1.97012132e-01,
         9.09028155e-02, -4.44721493e-01, -2.32319200e-01,
        -4.57065902e-01,  4.68055106e-01,  1.25589597e-01,
         1.38216489e-01,  2.22837360e-01, -1.65814605e-01,
         5.90137918e-02, -2.50667519e-01,  3.31800657e-02,
        -2.17058663e-02,  7.02130100e-03, -1.71493100e-01,
        -1.40865643e-01,  7.36876081e-02,  1.85766820e-01,
         2.15908216e-01,  3.39574901e-01, -3.37444662e-01,
         4.17904915e-02, -1.71160653e-01,  1.84309233e-01,
        -4.04287739e-02, -8.21934773e-02, -2.30722448e-01,
         2.00412748e-01, -8.81003176e-02, -2.71879450e-02,
        -1.50791115e-01,  4.77522018e-01, -2.36334269e-01,
         4.84624110e-02,  2.73111748e-01,  2.47647730e-01,
        -3.18355329e-01, -1.74039047e-01,  4.78078103e-01,
        -1.03874827e-01, -1.32459059e-01],
       [ 1.29100095e-01,  1.54988452e-01,  7.51565908e-02,
        -2.15551839e-01, -2.25128558e-01,  4.99051915e-01,
         3.08454407e-01,  4.06560630e-01, -4.11016111e-01,
        -4.40242820e-01,  8.80589207e-01, -1.40671643e-01,
        -1.37691711e-01,  1.34834975e-01, -2.45417748e-01,
         1.45266833e-01, -2.27226323e-03,  1.90880673e-01,
         4.31886489e-01,  1.89474890e-02,  3.25350555e-01,
        -1.94600543e-02,  4.13928792e-01,  1.85869246e-01,
         1.74362929e-01, -6.43327523e-02,  4.23172531e-01,
        -3.26122041e-01, -1.28915445e-01, -7.00940596e-02,
        -1.90086535e-01, -3.74285948e-01, -3.11401899e-02,
        -6.16762780e-01,  5.33765570e-01,  1.68400167e-01,
        -1.28650283e-01, -3.62121852e-01, -2.26453685e-02,
         4.39415635e-01, -1.37065309e-01,  3.59076437e-01,
         2.92346131e-01, -2.52269113e-01, -2.04157575e-01,
         6.67226092e-02, -1.91936505e-01,  2.62966393e-01,
         4.25519994e-01, -3.49287661e-01],
       [-5.93713898e-01, -3.15579459e-02, -1.19624772e-01,
        -5.00205410e-02,  1.43525564e-01, -2.11235335e-01,
        -3.97029469e-03,  4.19538843e-02,  3.04013577e-01,
         5.02358791e-01, -8.76415853e-01, -1.62953404e-02,
        -1.90819270e-01,  4.94529767e-01,  6.36498092e-01,
         1.80526639e-01,  3.32168496e-01, -1.40469275e-01,
        -2.51527953e-01, -1.83087575e-01, -8.77542408e-02,
         5.91944169e-02, -9.67219367e-02,  1.47526703e-01,
        -2.83056098e-03,  8.97951826e-02, -2.19588586e-01,
         2.74946180e-01,  2.07332248e-01, -3.45106761e-01,
         9.73343397e-02, -2.18473828e-01,  1.09812140e-01,
         3.89666345e-02, -2.09601585e-01, -3.38723762e-01,
         9.61723846e-02,  3.24140928e-02, -1.81000116e-01,
        -2.07284273e-01,  3.24750552e-01, -1.08446638e-01,
        -3.86195408e-01,  2.02113759e-01,  4.52908828e-01,
        -3.93492841e-01, -1.55602394e-01,  3.03973819e-01,
        -3.29902945e-01, -6.66350427e-02],
       [ 3.27168369e-01,  6.14855445e-02, -2.64812745e-01,
         4.53316195e-01,  3.11435372e-01, -3.53885303e-01,
         2.02696987e-01, -5.46872467e-01,  5.04515517e-01,
         5.85141400e-01, -6.63483183e-01, -2.76162841e-02,
        -3.60832323e-01, -4.02852228e-01, -2.23314330e-01,
        -5.08312488e-01, -1.21954028e-01, -3.73536554e-01,
        -4.39582946e-01,  1.48529302e-01, -5.70138620e-01,
         6.11556806e-02, -4.47119383e-01,  1.04185183e-03,
        -9.03963397e-02,  2.88796373e-01, -2.97108857e-01,
         5.45136169e-01,  5.03387035e-02,  5.28819286e-01,
         1.08671652e-01,  5.73316757e-01, -9.14965355e-02,
         3.31093298e-01, -3.22011502e-01, -1.60257950e-01,
         3.57095778e-01,  6.61268745e-01,  1.81604124e-01,
        -4.86749401e-01,  5.70555570e-01, -4.36999737e-01,
        -2.61511826e-01,  2.20814940e-01, -1.54383256e-01,
        -2.92722974e-01,  2.99144417e-01,  1.46747970e-01,
        -5.18812060e-01,  2.09675456e-01],
       [-1.41142671e-01,  2.96203432e-01, -9.01699789e-02,
         3.45449618e-03,  2.51537272e-01, -1.86033600e-01,
         1.29675056e-01, -6.11755778e-02,  2.77560285e-01,
         5.43794058e-01, -8.04810585e-01, -9.30235309e-02,
        -1.75341135e-01,  1.30940357e-01,  2.30663892e-01,
         2.47338986e-01,  9.73824023e-02, -2.09057562e-02,
        -2.10641890e-01, -6.16560632e-02,  1.32257623e-02,
         4.38951166e-01, -8.94157420e-02, -1.87503266e-01,
         1.75720996e-02,  2.94574638e-01, -5.44029191e-02,
         3.79756921e-01,  2.92974078e-01, -9.57212317e-02,
         5.58461105e-02,  9.95131806e-02,  8.48342096e-02,
        -3.15441562e-02, -1.78945612e-01, -2.39293433e-01,
        -7.70899872e-02,  4.77108892e-01, -2.47538890e-01,
        -1.63054133e-01,  5.60067003e-01, -3.62346954e-01,
        -4.38364872e-01,  4.95001346e-01,  1.65683807e-01,
        -5.98305739e-01,  9.47709030e-02,  2.15889735e-01,
        -2.35241129e-01,  1.60755848e-01],
       [ 2.83598230e-01, -2.11223922e-01,  1.22540015e-01,
         4.36052799e-01,  2.75596647e-01,  1.29382009e-01,
        -1.50925064e-01, -1.40297941e-01, -1.69521432e-01,
         3.48370459e-01,  7.93879811e-02, -1.42610372e-01,
         3.12133770e-02, -3.38949912e-02, -9.04075382e-02,
        -4.55954405e-01, -1.86240901e-01, -3.69228658e-01,
         1.03087260e-01, -2.31795270e-01, -4.00748232e-01,
        -1.81975506e-01,  6.58732160e-02,  3.24920262e-02,
        -3.87118548e-01, -2.16114014e-01, -1.80457298e-01,
         2.36874202e-01,  5.09368090e-02,  8.74395277e-02,
         1.79891493e-01,  4.22163111e-01,  1.01604798e-02,
         2.88944912e-01, -2.09954825e-01, -3.52154691e-01,
         1.02590066e-02, -1.96653987e-01,  1.61835096e-01,
        -3.90032226e-01,  7.04642831e-03, -3.21360269e-02,
         1.61376837e-01, -1.92472028e-01, -1.41234716e-01,
         9.29412348e-02,  3.64088470e-01,  1.61687733e-02,
        -3.10613026e-01,  2.53677050e-01],
       [ 8.73694880e-02, -1.39740674e-01,  1.42384830e-02,
         5.09992180e-01,  2.80799081e-01,  4.86602068e-02,
        -2.13321794e-01, -2.38350794e-01, -2.41261952e-01,
         4.83542829e-01, -2.91624846e-02, -1.05045369e-01,
         2.07542929e-01,  1.19606789e-01, -7.35707168e-02,
        -3.38509937e-01, -2.86118890e-01, -5.18461396e-01,
         1.11573064e-01, -1.61309229e-01, -4.97775662e-01,
        -1.48420607e-01,  2.56598256e-02,  1.79045757e-01,
        -5.26968981e-01, -2.36488140e-01, -6.28608038e-02,
         3.47912116e-01,  2.69761083e-01,  1.28565877e-01,
         2.73295192e-01,  7.14312400e-01,  9.79469753e-02,
         2.85705737e-01, -1.80303406e-01, -3.32909357e-01,
        -3.27220466e-02, -3.01018740e-01,  2.46881895e-01,
        -4.92580437e-01, -6.11987890e-02,  1.37062833e-02,
         1.95250510e-01, -1.26289377e-01, -1.84445316e-01,
         2.79590277e-01,  3.76198556e-01,  8.72914404e-02,
        -2.28710069e-01,  2.53076078e-01],
       [-3.92139029e-01,  3.07412232e-01, -1.85776896e-01,
        -5.83438424e-02, -6.47920565e-02,  2.44891001e-01,
         6.05884785e-01,  2.24664193e-01,  1.96548975e-01,
         1.41546737e-01,  1.27822669e-01, -3.09925057e-01,
        -5.69689659e-01,  4.44253393e-01,  1.50413383e-01,
         3.40648678e-02,  1.01108538e-01, -3.96442021e-02,
         2.23399564e-01, -4.42749929e-02, -7.02556398e-02,
         5.56778969e-02,  2.53740026e-01,  1.05124776e-01,
        -8.84569933e-02,  3.78891608e-02,  2.66946447e-01,
         9.81309015e-02,  1.52680838e-01, -3.84412412e-01,
        -1.08428396e-02, -3.62000450e-02, -9.92579697e-02,
        -3.83432356e-01,  1.52485712e-01,  8.18794612e-03,
         6.18381543e-04, -8.54197212e-02,  8.42518897e-02,
         1.16420905e-01,  4.06200702e-01,  8.91940934e-02,
         2.62761251e-01, -9.13885578e-02,  2.89052536e-01,
         5.68527056e-02, -2.52918001e-02,  5.32008880e-01,
        -1.22575902e-01, -2.11559740e-01],
       [ 8.88000417e-01, -5.65976762e-02,  2.29038608e-01,
         3.67443433e-01,  2.83011783e-01, -4.28301669e-01,
        -2.21967918e-01, -3.30764121e-01,  2.08872427e-01,
         6.60120378e-02, -2.24241939e-02,  1.99557387e-01,
         1.99711525e-01, -8.09299846e-01, -7.21771778e-01,
        -1.61751300e-01, -2.76274826e-01, -1.71409063e-01,
        -4.43616199e-01, -2.82045472e-02, -3.65735276e-01,
        -7.53981324e-02, -4.57528466e-01, -1.16109184e-01,
        -2.91095326e-01,  6.66646349e-02, -4.92317903e-01,
         1.71884936e-01,  4.15212363e-02,  6.71128074e-01,
         1.90478296e-01,  6.61396486e-01, -5.98343579e-02,
         4.83081733e-01, -1.97933881e-01, -1.01323167e-01,
         1.35543534e-01,  3.71412983e-01,  1.64841983e-02,
        -4.45616729e-01, -1.05201177e-01, -3.65527184e-01,
        -2.99708558e-01,  2.30116143e-01, -3.66999541e-01,
        -2.80453096e-01,  3.87248636e-01, -3.55925931e-01,
        -2.33741518e-01,  2.94274118e-01],
       [-6.56694274e-01, -2.47630218e-01, -1.88475415e-01,
        -5.15857563e-02,  1.99048531e-01, -1.65781448e-01,
        -7.08549422e-02, -1.12378887e-01, -5.08979670e-01,
         7.52384664e-01, -6.16274229e-01,  1.51795479e-02,
         2.15697644e-01,  2.15775608e-01,  8.93742041e-01,
         6.35398577e-01,  1.83446554e-01, -3.53868652e-01,
         1.39833101e-01,  2.57067164e-01, -2.52397889e-01,
         4.41366030e-01,  6.33296800e-01,  7.21868073e-01,
        -7.67079108e-02, -2.31990791e-01,  1.58834538e-01,
         6.29784083e-01, -6.28748982e-02, -1.94859511e-02,
         3.35192608e-01,  1.27468092e-01, -3.00429952e-01,
        -9.24836487e-02,  1.49026308e-01, -2.56564229e-01,
        -8.69825968e-01, -1.25721991e-01, -2.41164843e-01,
        -1.57892418e-01, -1.72251595e-01,  7.38283447e-01,
        -1.28618570e-01, -4.20043599e-01,  7.22296310e-01,
         4.22547893e-01,  2.12966928e-01,  9.04909627e-02,
        -6.89702052e-01,  3.87328002e-02],
       [-2.73867382e-01,  1.03495858e-01, -1.50951411e-01,
         3.77608068e-01,  2.57534104e-01, -2.27953133e-01,
         2.11055168e-01, -5.10659713e-02,  5.28115839e-01,
         6.81478832e-01, -9.32507290e-01,  3.59596629e-02,
        -3.10277630e-01,  9.94201540e-02,  2.92342833e-01,
         1.49209049e-01,  2.71634991e-01, -2.22671624e-01,
        -2.03471169e-01, -8.65070238e-02, -2.74126428e-01,
         2.65766315e-01, -7.78624844e-02,  8.65677608e-02,
        -2.04239332e-01,  1.73937715e-01, -1.36526378e-01,
         5.82148852e-01,  3.63020812e-01,  7.96398037e-02,
         1.24864100e-01,  4.70164493e-01,  9.98890384e-03,
         1.23061045e-01, -3.72576197e-01, -4.73995244e-01,
        -8.75109860e-03,  4.15162631e-01, -1.72603626e-01,
        -3.88239364e-01,  3.85820351e-01, -4.37437969e-01,
        -2.54202381e-01,  5.06381060e-01,  3.05532144e-01,
        -4.51997005e-01,  9.99721973e-02,  7.59245434e-02,
        -4.42172211e-01,  2.17867360e-02],
       [-8.49702296e-01,  1.05345300e-01, -8.11203198e-02,
        -3.88058374e-01, -3.25983606e-01,  1.88703781e-03,
         1.82460205e-01,  4.28654242e-01, -4.96604522e-01,
        -1.65057535e-01, -5.64476925e-02,  1.82364249e-01,
         1.17414078e-01,  5.34606096e-01,  9.43464053e-01,
         4.64719492e-01,  1.34611410e-01,  8.86954850e-02,
         3.90896342e-01, -2.02413392e-02,  1.54380917e-01,
        -2.35074903e-01,  5.88331760e-01,  3.19645828e-01,
         3.87900244e-02, -4.06251166e-01,  1.68485457e-01,
        -2.04365712e-01, -2.89006956e-01, -6.54622151e-01,
        -9.83882868e-02, -5.28186788e-01,  1.14067320e-02,
        -3.32872615e-01,  2.68236760e-01,  4.21184318e-02,
        -3.06643757e-01, -4.49170633e-01,  3.34872243e-02,
         3.83268272e-01, -1.45934051e-01,  6.77224313e-01,
         6.76427459e-02, -6.03466468e-01,  5.01482379e-01,
         2.59374386e-01, -3.61589094e-01, -8.91914409e-03,
        -6.88426441e-02, -1.40825846e-01],
       [ 1.51091581e-01, -4.11788317e-02, -9.82304708e-02,
         3.99937251e-01,  3.52336273e-01, -1.42015484e-01,
        -5.54449730e-02, -3.45123631e-01,  1.19289551e-01,
         2.98847962e-01, -3.37688786e-01, -2.04182764e-01,
        -1.99137457e-01, -1.17403245e-01, -1.79278074e-01,
        -2.75274512e-01, -2.09086106e-01, -2.75497345e-01,
        -1.68986339e-01, -1.67825809e-01, -3.77466467e-01,
        -2.17116453e-01, -5.11087453e-02, -1.24241043e-01,
        -4.86195030e-01,  8.67402628e-02, -2.47051414e-01,
         1.96630562e-01,  8.33365160e-02,  1.60994518e-01,
         1.16622407e-01,  6.45673595e-01,  5.58077407e-02,
         3.16166522e-01, -3.33437203e-01, -3.53683412e-01,
         1.85860260e-01,  8.53438662e-02,  3.06350576e-01,
        -4.66783231e-01,  2.77458892e-01, -1.94012217e-01,
         1.13000901e-01,  8.43915993e-02, -1.62794168e-01,
        -3.04093036e-02,  1.64855805e-01,  8.36983823e-02,
        -2.75893065e-01,  4.14639869e-02],
       [ 1.86589701e-01, -2.61561851e-01,  6.92219137e-02,
         1.72742464e-01,  1.68792737e-01,  2.13256878e-01,
        -2.40208075e-01, -3.35093755e-01, -6.71133975e-01,
         1.79924688e-01,  3.03083340e-01, -4.81573177e-02,
         3.29690059e-01,  3.08180599e-02,  1.25876676e-01,
        -2.54402554e-01, -2.39831071e-01, -2.77653658e-01,
         2.43699371e-01,  8.90740927e-02, -3.49906812e-01,
        -2.54794911e-01,  4.76543471e-01,  9.91746677e-02,
        -3.42447860e-01, -2.35921544e-01, -2.55633383e-02,
         2.47399731e-01, -2.43811033e-01,  3.87888509e-02,
         1.46278997e-01,  5.93658192e-01,  9.87200677e-02,
        -1.67342668e-01,  3.95466573e-02, -9.14856598e-02,
        -2.39523363e-01, -3.31942834e-01,  1.81121543e-01,
        -1.16085108e-01, -4.64740325e-01,  5.77321990e-01,
         4.29531142e-01, -6.27000865e-01, -1.07236591e-01,
         5.03357725e-01,  3.82105132e-01, -2.56196515e-01,
        -2.68599154e-01,  5.94943718e-02],
       [-2.29789236e-01,  4.96745031e-01, -1.45970142e-01,
        -1.55069672e-01, -1.81198855e-01,  5.66906512e-02,
         4.84072327e-01,  1.22205450e-01,  5.87753485e-01,
        -1.00587266e-01, -3.48095413e-01,  9.39774668e-02,
        -5.74870956e-01, -9.03685410e-02, -5.56193804e-02,
         2.92295755e-01,  3.23571664e-01,  1.07334616e-01,
        -2.69612864e-01,  5.55514662e-02,  2.98019245e-01,
         3.75912794e-01, -1.92945255e-01,  2.18845335e-02,
         3.47266731e-01,  3.75670744e-01,  1.72411275e-02,
        -6.84794643e-02, -5.16363473e-03, -1.92207599e-01,
        -1.39277346e-01, -3.93129511e-01, -1.39135879e-02,
        -2.61139031e-01,  4.06631628e-02,  1.44542236e-01,
         1.49558508e-02,  3.18796073e-01, -1.27792238e-01,
         1.57009817e-01,  4.62037433e-01, -3.31031749e-01,
        -2.63662925e-01,  4.14305715e-01,  4.69682840e-02,
        -5.41677377e-01, -1.35762699e-01,  3.24116674e-01,
         5.65068337e-02, -1.52490041e-01],
       [-9.75331997e-02, -8.62855719e-02, -7.33276330e-02,
         3.36130568e-01,  2.92301130e-01, -2.84093460e-01,
        -3.73926241e-01, -2.53972956e-01,  1.02535346e-01,
         4.28449006e-01, -5.85249090e-01,  3.23276067e-02,
         2.53005280e-01, -2.25448870e-01,  2.22871533e-01,
         8.18441016e-03,  8.89110062e-02, -1.38689191e-01,
        -3.69974460e-01,  2.03833213e-02, -3.13805518e-01,
         2.44661167e-01, -5.73004018e-02,  1.17474341e-01,
         7.57616880e-03,  7.69958303e-02, -4.41413664e-01,
         4.55349121e-01, -4.17598297e-02, -8.65458911e-03,
         1.57133898e-01,  3.31326862e-01, -2.50181460e-03,
         4.13286130e-01, -3.93485767e-01, -3.61821446e-01,
        -4.14506953e-02,  3.01666550e-01, -8.21444379e-02,
        -3.03345974e-01, -7.58857439e-02, -1.16588418e-01,
        -4.21899704e-01,  9.26203523e-02,  7.15478234e-04,
        -2.68383494e-01,  1.27136358e-01, -3.55174322e-01,
        -3.28162261e-01,  2.36344286e-01],
       [ 5.64502397e-01,  4.26442326e-02,  3.02588674e-01,
         7.87863009e-02,  2.25285296e-01, -2.71640389e-02,
        -3.21835876e-01, -3.80307331e-01, -1.70293418e-01,
         3.46398254e-02,  3.78064739e-02,  5.82071196e-02,
         4.45316278e-01, -4.63506496e-01, -2.14506856e-01,
        -7.76498778e-02, -5.22272663e-01, -2.72999714e-02,
        -5.71133028e-02,  1.53369021e-01, -2.16814962e-01,
         6.25958577e-02, -3.99190177e-02,  4.16396913e-02,
        -8.86587093e-03,  5.55762800e-02, -9.88700956e-02,
        -2.77231005e-02, -3.04667799e-01,  4.50967296e-01,
         1.55329088e-01,  2.72018645e-01, -2.67534345e-02,
         1.61178084e-01,  1.18877632e-02,  1.56483391e-01,
        -3.52769181e-01,  4.75985355e-02, -1.14763841e-02,
         4.40537922e-02, -6.34431715e-01,  2.04770951e-01,
        -1.54700847e-01, -2.88120366e-01, -3.12717139e-01,
         1.23037233e-01,  1.98398433e-01, -5.46123741e-01,
        -1.91114290e-01, -1.50796387e-02],
       [-1.76783786e-01, -1.69903097e-01,  6.01509644e-02,
         1.02735181e-01, -1.28333656e-01, -1.41311198e-01,
        -2.04194403e-01, -4.88086022e-02, -3.50086063e-01,
         2.24081901e-01,  9.88010032e-02,  2.13148908e-01,
         3.96894306e-01, -3.59361739e-02,  4.23766005e-01,
        -2.29014266e-02,  1.42577407e-01, -1.62678617e-01,
         1.40448787e-01,  2.07309239e-01, -2.45350981e-01,
        -1.33675370e-01,  3.22921160e-01,  2.55885392e-01,
        -1.53974610e-02, -3.34693457e-01,  1.60803386e-01,
         6.84186309e-02, -8.36069580e-02,  1.84800227e-02,
         1.55662212e-01,  2.28916348e-01, -1.06466662e-02,
         4.44367491e-02, -9.13145351e-02,  1.24501029e-02,
        -1.06116529e-01, -2.88826875e-01,  2.01971106e-01,
        -1.99914573e-02, -4.02118463e-01,  4.37239720e-01,
         3.19025794e-02, -4.26454469e-01,  2.06689625e-01,
         4.39028692e-01,  3.72046450e-02, -4.72015541e-02,
        -4.24613228e-01, -9.96353654e-02],
       [ 5.98237075e-01,  1.86483580e-01,  1.59062271e-01,
         2.27302783e-01,  1.61339894e-01, -1.15204316e-01,
        -5.02210832e-02, -1.36785812e-01,  2.42601525e-01,
        -7.36309166e-02, -8.27736814e-02, -1.11902757e-02,
         1.53420067e-01, -5.48659614e-01, -5.87769338e-01,
        -3.81468247e-01, -3.75835145e-01,  1.43004364e-02,
        -2.44711517e-01,  1.53920519e-02, -1.50754865e-01,
        -8.74522108e-02, -2.76742232e-01, -1.44764484e-01,
        -3.04205158e-02,  2.18664198e-01, -1.46750677e-01,
        -1.02126027e-03, -1.21900718e-01,  3.43593844e-01,
        -7.95550255e-02,  7.74835519e-02, -1.15141351e-01,
         1.59888488e-01,  7.36474369e-02, -8.79769458e-02,
         1.29136800e-01, -1.62062112e-02,  1.83256943e-01,
        -1.12714609e-01, -2.94238095e-02, -1.81074618e-01,
        -7.75241859e-02,  2.25364810e-01, -4.30494616e-01,
        -1.64261988e-01,  3.16552144e-01, -2.15836888e-01,
         3.74103112e-02,  1.68117090e-01],
       [-9.60070644e-02, -1.90968745e-01, -1.07907518e-01,
         2.87132075e-02, -1.29614295e-01, -1.63332097e-01,
        -1.72649021e-01, -8.31872073e-02, -2.49613079e-01,
         2.20757437e-01, -9.24046563e-02,  2.54165788e-01,
         2.03972437e-01,  1.76001161e-01,  4.56177108e-01,
        -2.04928273e-01, -7.87012980e-02, -1.31052273e-01,
         1.80682768e-01,  1.44249400e-01, -3.00383408e-01,
        -2.50501612e-01,  1.51670118e-01,  3.06279624e-01,
        -1.89890408e-01, -2.42636475e-01, -7.45064961e-02,
         3.11808658e-01, -2.54366817e-01, -1.24952636e-01,
         3.08721093e-01,  2.25106692e-01,  7.34178751e-02,
        -6.83990282e-03, -1.29388214e-01, -7.05505765e-03,
        -1.85980500e-01, -3.29087291e-01,  4.75918983e-02,
         3.41154150e-02, -2.55413887e-01,  4.81406693e-01,
         6.63887026e-02, -2.95587788e-01,  4.13700725e-01,
         3.66297943e-01, -2.77373475e-02,  5.44187267e-02,
        -2.22296333e-01,  1.58360852e-01],
       [-3.15456632e-02,  2.85346316e-01, -2.34577217e-01,
        -7.76333957e-02,  1.34139474e-01, -5.11637298e-01,
         1.99811616e-01,  6.13990264e-02,  7.75507199e-01,
         3.78337761e-02, -7.20150306e-01,  2.47683918e-01,
        -3.64148228e-01, -1.54052133e-01, -1.80389559e-01,
         1.18157813e-01,  2.67193085e-01,  2.60803872e-01,
        -5.30480422e-01, -6.68559062e-02,  2.25438572e-01,
         2.35698919e-01, -6.97966939e-01, -1.98399381e-01,
         2.39038723e-01,  4.51554804e-01, -3.65946296e-01,
         1.21261186e-01,  5.42774941e-02, -6.05729126e-02,
        -2.26748645e-01, -5.82409181e-01, -4.21062194e-02,
         2.29324790e-01, -2.62166456e-01, -3.07326875e-01,
         3.24428410e-01,  3.55873809e-01, -3.63525703e-01,
         9.05614548e-02,  5.18864516e-01, -7.90931396e-01,
        -6.57743366e-01,  7.69138925e-01, -7.05574114e-02,
        -8.43682026e-01, -8.57602243e-02,  2.55495945e-01,
         7.83264139e-02,  1.28434886e-02],
       [ 8.51674773e-01, -8.05102806e-02,  2.71183135e-01,
        -4.72568504e-02,  2.81777196e-01, -4.02358427e-01,
        -6.72402047e-01, -3.59222715e-01, -4.58540660e-02,
        -1.45280318e-01,  1.49315336e-01,  1.75922979e-01,
         4.72526569e-01, -6.89360628e-01, -6.93548362e-01,
        -6.61011702e-01, -6.20957803e-01, -2.28392979e-02,
        -4.37206273e-01, -2.19298839e-01, -1.44136846e-02,
        -5.00158990e-01, -4.36132384e-01, -3.35775208e-01,
         3.52886160e-02, -6.19601155e-02, -4.34549995e-01,
        -1.43859165e-01, -2.65688802e-01,  5.25682345e-01,
         1.13764063e-01,  1.22767671e-01,  2.06185000e-01,
         4.64223008e-01, -2.27182470e-01,  8.95817455e-02,
         4.06898266e-01, -1.10033928e-01,  2.83632523e-01,
        -1.08505301e-01, -3.30280475e-01, -2.98409986e-01,
        -2.04969254e-01,  1.41804406e-01, -4.25649929e-01,
        -8.21310480e-02,  1.47927810e-01, -5.40269094e-01,
         1.75056783e-01,  2.03235135e-01],
       [-3.91452379e-01,  1.81426316e-01, -1.01612780e-01,
        -4.39268327e-01, -2.45617238e-01, -4.76788635e-02,
         2.20605831e-01,  2.10010474e-01,  2.37127053e-02,
        -8.43487120e-02, -3.19901038e-01,  1.33837493e-01,
        -2.26702413e-01,  1.72814767e-01,  2.24730316e-01,
         3.32894146e-01,  8.58991773e-02,  1.93108083e-01,
         6.09276841e-03,  2.04314536e-01,  3.54973518e-01,
         2.62672055e-01, -3.20866777e-02,  1.02208487e-01,
         1.60899132e-01,  1.72478505e-01,  6.22043779e-02,
        -1.07899116e-01, -1.48022686e-02, -2.15430134e-01,
        -1.65958346e-01, -4.30588001e-01, -2.06889670e-01,
        -1.47877733e-01,  1.05412334e-01,  1.77917008e-01,
        -7.85582477e-02,  1.61604316e-01, -1.01485610e-01,
         1.89049675e-01, -1.02963304e-02,  1.15005425e-01,
        -3.25388958e-01,  1.47184742e-02,  3.94202737e-01,
        -2.58234297e-01, -3.47391639e-01, -5.81808161e-03,
         1.11658315e-02, -7.32510006e-02],
       [ 4.91182629e-01,  8.21498965e-02,  1.17205365e-01,
         1.42761068e-01,  1.68826773e-01, -8.94761384e-02,
         1.07021334e-01, -1.95352068e-01,  3.20699035e-01,
        -2.33093125e-01,  5.08369745e-04, -1.43957742e-01,
        -1.04705712e-01, -2.90377592e-01, -6.68041972e-01,
        -5.06709105e-01, -1.54591835e-01,  8.79496954e-02,
        -1.24548858e-01, -3.30867962e-01, -1.03480169e-01,
        -1.79876456e-01, -6.23523820e-01, -3.27177635e-01,
        -4.32353175e-02,  3.16898108e-01, -3.94799822e-02,
        -1.72670904e-01,  2.41144382e-02,  3.54845304e-01,
        -5.44677017e-02,  2.62867177e-01,  2.06156506e-01,
         2.37073234e-01, -1.91597432e-03,  7.93192545e-02,
         6.32162400e-01,  1.33544897e-01,  4.05005870e-02,
         1.74027573e-02,  1.11119887e-01, -6.01399415e-01,
        -1.45180743e-01,  4.61307767e-01, -4.71724180e-01,
        -2.50692577e-01,  5.55641980e-02, -4.37793004e-02,
         1.07144467e-01,  1.03107819e-02],
       [-7.17868860e-01, -6.31629359e-02,  9.45665257e-02,
        -3.13323749e-01, -2.19692790e-01,  6.24339982e-02,
         3.07599284e-01,  3.91974619e-01, -2.57800619e-01,
        -1.30253078e-01, -4.98263944e-02,  7.51743431e-02,
         4.28656688e-02,  6.07477951e-01,  6.74679632e-01,
         1.30455735e-01,  2.77496118e-01,  4.23549279e-02,
         6.30590898e-02,  6.57413353e-02,  2.50283648e-01,
        -5.96603294e-02,  2.79537968e-01, -3.53258406e-02,
         7.32473252e-02, -1.39114523e-01,  2.35275061e-01,
        -6.14913337e-02, -5.19247072e-02, -5.99293300e-01,
         2.70303403e-03, -4.33719665e-01,  7.60848356e-02,
        -3.03067603e-01,  1.43150838e-01, -1.58025099e-02,
        -1.16920713e-01, -2.98305295e-01, -3.32614508e-02,
         3.13082207e-01, -1.39818505e-01,  3.26321854e-01,
         9.54823303e-02, -2.37947678e-01,  3.59645179e-01,
        -5.62739593e-02, -3.15946257e-01, -2.23686557e-02,
         1.13574982e-01, -1.66178075e-01]])