array({{0.195709977337, -0.654244057529, 0.189964128222, -0.028629967948,
        0.179338720734, -0.361728164986, 0.525311858613, -0.446781339231,
        -0.630161835076, 0.179516261044, 0.550204454819, 0.468000013287,
        -0.092436976443, -0.407762877333, 0.280192921680,
        -0.075935351315, 0.133469153546, -0.528253765209,
        -0.034159113256, -0.374012852204, -0.167265975646,
        0.030424233469, -0.236627273514, 0.124110970943, 0.490536692351,
        -0.513893775222, -0.274752122685, -0.006537019789,
        -0.043472064332, -0.428489195441, -0.470005770311,
        -0.263967633927, 0.240432548792, -0.132430037568,
        -0.126267810453, -0.037504542715, 0.104157088126, 0.104862703726,
        0.058594220994, 0.696270975169, -0.042648594952, -0.019852909480,
        -0.183394979604, -0.373933467520, -0.559020910595,
        -0.101456266929, 0.579257714563, 0.628980748286, 0.021999179585,
        -0.046318577317},
       {0.365870179303, -0.696744014492, 0.203058660100, 0.244000374242,
        -0.366039008015, -0.321287315857, 0.045133301914,
        -0.366398175993, -0.141530197850, 0.264954871833, 0.073523638504,
        0.441493577567, 0.054223043040, 0.187781610093, -0.256305381260,
        0.462453437631, 0.393988440506, -0.383920934183, 0.310558092298,
        -0.239887378403, -0.010885115440, 0.272197194993,
        -0.298266648440, 0.456421275881, 0.504243944680, -0.000365020169,
        0.168033608393, 0.230157064883, -0.012338343788, -0.008726146324,
        -0.568885104167, -0.478826891132, 0.132412794988, 0.025668245561,
        -0.311043876054, 0.032861094028, 0.237993761975, -0.281247517507,
        0.065717726122, -0.153200637227, 0.027893627386, -0.185304380337,
        0.051735978444, -0.277728833774, -0.010787927939,
        -0.072995796773, 0.176266478786, 0.270177423904, 0.109816722203,
        -0.063038610505},
       {-0.402221932353, 0.405426171396, 0.050578882095, 0.165723093019,
        -0.127500147429, 0.322520762745, -0.571871815258, 0.436671749500,
        0.257415879503, -0.610640021655, 0.464479392677, -0.427796093716,
        -0.124654110372, 0.571049700339, 0.214358686944, 0.298514516456,
        -0.194759128986, 0.256552130460, -0.240422775137, 0.011091023705,
        -0.526627495262, 0.543384972590, 0.353000741554, -0.197438294843,
        -0.474086185726, 0.536671557048, -0.251220244141,
        -0.062210382128, -0.161251828554, -0.282325910461,
        0.445674684749, 0.383369370587, 0.046161476036, 0.390302413366,
        0.308625387341, -0.342603303051, -0.170344731723,
        -0.368099107022, -0.196666968963, -0.230905276566,
        -0.371035797811, -0.110922859702, 0.380405259966, 0.227023050987,
        -0.152751984582, -0.014505452988, -0.059453667663,
        -0.463606006661, -0.338773961220, -0.505214325643},
       {0.013812025769, -0.373785915850, 0.143760034943, 0.031461269130,
        -0.307454457729, -0.288622361319, -0.040160915361,
        0.042288587843, -0.104142388620, 0.552328543613, 0.245845832841,
        0.487181253975, 0.153083726612, -0.246077839586, -0.292620688930,
        0.554495240233, 0.501415070171, 0.109376631325, 0.063493198204,
        0.307595779132, -0.018994366200, -0.197297682766,
        -0.186619090975, 0.138266675084, 0.328028889233, -0.374953125382,
        -0.161367218649, 0.263071570338, -0.137694982448, 0.226686983242,
        -0.074341136426, -0.370379948158, 0.422416832635,
        -0.122953705746, -0.221971737948, -0.187912585800,
        -0.314724431950, 0.253793775192, -0.191815504225,
        -0.045395192999, 0.323548972468, 0.013730021014, -0.124389243668,
        -0.575170683001, 0.275563081680, 0.205586034139, 0.674491796794,
        0.130784121929, 0.237914076501, -0.001415829647},
       {0.241008304417, 0.048347513918, 0.322960203794, 0.304853327372,
        -0.326158385244, -0.227500829889, 0.239057800652,
        -0.122122347546, -0.210368232432, -0.093678935010,
        -0.127238371796, 0.241689402674, 0.349658112900, -0.333876846478,
        0.725830014957, 0.591032557740, 0.430383842615, 0.149349397781,
        -0.024914332548, 0.243347268802, -0.609029170050, 0.018068757760,
        0.039540626437, -0.013158204712, 0.207059275132, -0.056314153692,
        0.099757382991, -0.112671422501, 0.017331196443, 0.283395280957,
        0.058139411411, -0.546849746285, 0.182872006173, 0.017708202399,
        -0.366484950962, 0.233093739144, -0.276533108524,
        -0.022304640296, -0.187279369760, 0.050513761891,
        -0.029471518594, 0.523739771812, -0.084146965184, 0.231254090234,
        0.432856666215, 0.294992759996, 0.080614083145, -0.357209711390,
        0.328510251743, -0.987874236581},
       {-0.093341655355, 0.104244456594, -0.105718854271, 0.235137358314,
        0.079985863349, 0.239744670233, -0.105603616399, 0.105639420328,
        0.258611568397, -0.020448044226, 0.075476718329, -0.331676818397,
        -0.236141774743, 0.125290585828, 0.363652142772, -0.437362351920,
        -0.153030787347, 0.463595794018, -0.256047674868, 0.371803674955,
        -0.213047591991, 0.089663557200, 0.355260689330, -0.259258217486,
        -0.253665585427, 0.390302980913, -0.396835346097,
        -0.275088738667, 0.303714000861, 0.043362823229, 0.193762172738,
        -0.122397069590, -0.118204400427, 0.314279778541, 0.101527239066,
        0.313249951560, 0.359873384635, -0.067495522137, 0.267807323667,
        -0.494498611713, -0.046545425521, -0.222325209157,
        0.426920208743, -0.033098194371, -0.947117634108, 0.034806526316,
        -0.335020775468, -0.153319542161, 0.063017863322,
        -0.137325448829},
       {0.151793983243, 0.186967697502, -0.224133552273, -0.214220279776,
        0.036241126367, -0.652232850213, 0.449696576134, -0.196841778971,
        -0.292492057923, -0.424284071143, -0.074920716066,
        0.091961282625, -0.171922754185, -0.265541156902,
        -0.196882437745, -0.297320231833, 0.203911330580,
        -0.125304805255, 0.579121675594, -0.317178942482, 0.370384658080,
        -0.666152518145, -0.110664534981, 0.062866481213, 0.313206809851,
        -0.657682155178, -0.077828766496, 0.484537950016,
        -0.042352260627, 0.006680383540, -0.939032627698,
        -0.583914671559, 0.142977573242, -0.055636185461,
        -0.165335025005, 0.043387550707, 0.411207198151, 0.215220155036,
        0.466609017514, 0.186603058047, 0.150051287705, -0.133592200132,
        0.100866604123, 0.101763509488, -0.050235192400, 0.094440623604,
        0.114316943510, -0.031563775432, 0.108305571963, -0.129756812505},
       {-0.014795377831, -0.227074224503, 0.284809220825, 0.120743657507,
        -0.008463702118, -0.132536331537, 0.258665099105,
        -0.389774039179, -0.391436664473, -0.110928614426,
        -0.008110972374, 0.104653888333, -0.086496283645, 0.053475040549,
        0.465411238233, 0.152647842277, 0.094685421254, 0.256661238170,
        0.119333678427, -0.115574212116, 0.332893325451, -0.650648870860,
        0.073656028239, -0.113468278928, 0.396102621682, -0.042379943997,
        -0.579636097332, -0.087831401853, 0.038000004136,
        -0.227342340475, -0.310834771618, -0.097834225299,
        0.016075985465, 0.302976365578, 0.179302186832, 0.237733406818,
        -0.388131978971, 0.532366174456, -0.463531584126, 0.227645751625,
        0.412392067515, -0.124807682155, -0.791728113809,
        -0.402399030929, -0.388883078613, -0.424877414138,
        0.165710343652, 0.391922284348, 0.732481443886, 0.702605761959},
       {-0.465896312526, 0.032006750010, 0.526476117411, -0.061575799131,
        -0.201114227601, 0.195049346611, 0.015007045632, -0.104653258089,
        0.347460084475, 0.008001071526, 0.147075721073, 0.314773838848,
        0.631037740998, 0.338465447044, 0.379146614856, 0.065623491766,
        0.282969349614, 0.286688851094, -0.179721826189, -0.179636943899,
        -0.063466417810, 0.394574329769, -0.177218883079, 0.086148114553,
        0.376131775482, 0.012876275721, -0.196500055407, 0.063471199646,
        -0.215336565934, 0.205314871441, 0.282208573247, 0.153044148205,
        0.373188415399, 0.396212481029, 0.466409892081, -0.257012338284,
        -0.492689790168, -0.133129255017, -0.734032619394,
        -0.349494984584, -0.295125995695, -0.286332879236,
        -0.468984563165, -0.235099357589, 0.088040011671,
        -0.326821872412, 0.121494028367, 0.231546179935, 0.181669286170,
        -0.033913542518},
       {-0.274788338336, -0.258758608388, 0.056871109380,
        -0.291984413102, 0.154690470765, -0.112169376388, 0.210429756206,
        -0.113220123939, 0.103488614801, 0.117500159186, -0.146016344875,
        0.108162149315, 0.097110599145, 0.056105694932, -0.327540981732,
        -0.609821381060, -0.070578775448, -0.361988430573,
        0.512442404274, -0.813520725922, 0.329220810502, -0.090520476595,
        -0.234287587105, -0.241656429019, 0.367220794776,
        -0.320110652485, -0.151570476776, 0.085097741318,
        -0.491077113940, -0.608576580148, -0.260971930347,
        0.401477274392, 0.202444903292, 0.349286561732, 0.044568051525,
        -0.655225584650, -0.041540583936, 0.274024634457,
        -0.370136303874, 0.233855752690, -0.057943041989,
        -0.469346350042, -0.447301826047, -0.028590022593,
        -0.782743834885, -0.029980218658, 0.187472941338, 0.477709296764,
        -0.279783863818, -0.032501181975},
       {0.035304736308, 0.154234900504, -0.339085617870, 0.025568272362,
        0.211501926456, 0.063002923228, 0.079010803947, -0.188565626016,
        -0.391320232548, 0.078509773510, -0.208259061459, 0.400344854054,
        -0.144952930911, -0.180540228224, -0.065421475162,
        -0.063546572596, -0.145878907037, -0.415143504029,
        0.106502478307, -0.423594568259, 0.059235354939, -0.019393880147,
        -0.259503523763, 0.023682358403, -0.103822463439,
        -0.482600303887, 0.209146009036, 0.322565371213, 0.048946461634,
        -0.185128913949, -0.194281301364, -0.354492463032,
        -0.051484494857, -0.656858734119, -0.137027517849,
        -0.132396073285, 0.510610835300, -0.172973627917, 0.472073158006,
        0.349514976889, 0.012276096964, 0.109041623382, 0.244442846281,
        0.338564323251, -0.006076875797, -0.016516809366,
        -0.260180146298, -0.013541683332, -0.275159233964,
        -0.288104028369},
       {0.438344344946, 0.133577524970, 0.217100187852, -0.171744558679,
        -0.145829211871, 0.099238998002, 0.206173240988, 0.047297660248,
        -0.195986253228, -0.149243823913, -0.330738114649,
        0.365504066830, 0.322047955774, -0.387828969553, 0.439947073747,
        0.179693458407, 0.213645469462, -0.242927429897, -0.200525743380,
        -0.194822179166, 0.031488513708, -0.741021018587, 0.074748488345,
        0.115502526467, 0.070010615651, -0.516105108169, -0.306537283052,
        -0.151717063255, 0.094139392589, -0.243139877874,
        -0.377369280776, -0.161864196161, -0.255856988626,
        0.155565206889, -0.413839976294, 0.207248441878, -0.369374648061,
        -0.131851055538, -0.371137683957, 0.439025654871,
        -0.174168263641, -0.038529108155, -0.058362555036,
        0.033312079801, 0.066375060230, -0.080024111951, -0.045102611872,
        -0.077660289262, -0.009446225475, -0.148166822326},
       {0.384995746348, -0.566344412469, -0.065640540772,
        -0.454459314772, 0.481239752958, 0.002521051554, -0.080651422624,
        -0.099358029040, 0.213094632530, 0.875905321307, -0.034275065349,
        0.282055039500, 0.224887304845, -0.096978722014, 0.226577077668,
        0.213191150084, 0.226495173156, -0.100404223132, -0.126077785207,
        0.353474161821, 0.113998189437, 0.263319767293, 0.498504369898,
        0.607257864414, 0.023560140967, 0.459158546144, -0.185012079619,
        -0.457393834605, 0.258215818618, 0.402226289421, 0.257816882424,
        -0.665060198769, -0.124403892066, -0.330846567471,
        -0.304174487781, 0.252326893498, 0.046609244225, 0.463967491854,
        0.037786180228, -0.244893479293, 0.386317551264, 0.622431281873,
        0.123251126776, -0.274245809688, 0.548677836209, -0.167786918909,
        0.409039702206, -0.054069165078, -0.012854804311, 0.277878093236},
       {-0.071670219770, -0.170679413821, 0.586174772447, 0.403235297005,
        -0.329227765099, 0.076548050660, 0.132344574257, 0.119633643124,
        -0.052909390889, -0.217096409760, 0.027731899480,
        -0.163249435806, 0.392648195262, -0.290062736068, 0.307867472028,
        0.090069818986, 0.199028188695, 0.167787707600, 0.412630590681,
        -0.306817738534, -0.118457232715, 0.261988570158,
        -0.245668179135, -0.062314198577, 0.212406668615,
        -0.107882348971, -0.298215957955, 0.157677109717,
        -0.300912532861, 0.105462371779, 0.053247087649, 0.086764908645,
        0.435265568190, 0.357197444058, -0.044989473081, -0.183016991455,
        -0.254283496225, 0.044432690202, -0.378960466680, 0.174383125304,
        -0.001721970454, 0.075782766911, -0.192344879155,
        -0.458204393592, 0.028338233027, -0.369680988420,
        -0.044151000092, -0.447586365959, 0.220865091084,
        -0.461123528429},
       {0.011880550959, 0.256844113674, 0.050038515310, -0.010023126336,
        0.272051226279, 0.143231662458, -0.048063497680, -0.163942091333,
        -0.144062072763, 0.189978950978, 0.225711777237, 0.042295609943,
        -0.024500732903, 0.026819833894, 0.059784634233, 0.178522309208,
        -0.114547587815, 0.108418583029, -0.328044577480,
        -0.045386371762, -0.236499461561, -0.017198199822,
        -0.249283875663, 0.048383746472, 0.189177790605, -0.068229981496,
        -0.087947144839, -0.456874182038, 0.289565537541,
        -0.250719653030, -0.295593264954, 0.150646467803,
        -0.135253723658, -0.168173244059, 0.139431471480, 0.048352734058,
        0.169212031222, 0.026231892014, 0.000993961191, 0.122294399719,
        -0.237827313784, -0.123652740919, -0.352448833153,
        -0.004009386541, -0.149904245614, -0.043966619444,
        0.176545604677, 0.562811634900, -0.121562293409, 0.080963847264},
       {-0.119069825436, -0.119558474240, -0.289565886492,
        -0.009737665957, -0.167955283727, -0.607183839550,
        -0.016358241847, -0.188682352948, -0.134133020263,
        -0.001791947600, -0.183012764154, 0.170243770302, 0.197030855744,
        -0.226144679857, 0.337382195868, 0.045354483027, 0.141444259279,
        -0.256004126569, 0.442379472289, 0.019043072678, 0.011521561194,
        -0.437022905942, -0.506048297000, 0.402884839643, 0.361919734432,
        -0.302965775856, -0.161572816965, 0.702259478742, 0.118660238174,
        -0.397101839858, -0.225309264163, 0.061726951503, 0.142290803553,
        0.553498862396, 0.167534761016, 0.038565166665, -0.150282733050,
        0.167789938230, -0.173384955196, 0.058501775389, 0.147736657236,
        0.006887867660, 0.079339132802, 0.518586084873, 0.094891158557,
        -0.159035123244, -0.249833225661, 0.290599119377, 0.444088068299,
        -0.097972155428},
       {-0.218561972470, -0.338555425131, 0.055614437491,
        -0.015769620996, 0.016470866782, -0.384667088519, 0.028862658424,
        -0.270316574010, -0.344004280871, 0.734624661494, 0.176625477273,
        0.197155879560, 0.014750854133, 0.110611359539, -0.071627450813,
        0.338019314404, 0.300620501122, 0.238572651472, -0.029716627315,
        0.099635436142, -0.276011148833, 0.204419757568, -0.168890593275,
        0.233528659868, 0.192235736319, -0.229493306389, -0.409899875798,
        -0.387643850910, 0.084640585194, 0.172898198907, -0.500663285071,
        -0.321445436602, 0.245278671384, 0.246687577729, 0.169022041904,
        0.153559893265, 0.314745083879, 0.469504075593, 0.173197262637,
        -0.119509120902, -0.376991349994, -0.323140161077,
        -0.380201768563, 0.062673890047, -0.032537331837,
        -0.125213724975, 0.288841459422, -0.060573817376,
        -0.070972901834, -0.246634739407},
       {0.408405365778, -0.140482549825, -0.554211760921, 0.731949408567,
        0.222159183596, -0.207814329117, -0.236443688700, 0.320516893945,
        0.022355744545, -0.128209235264, -0.488475337379,
        -0.279683998109, -0.194168191546, -0.077734486994,
        -0.101601833950, -0.280032254655, -0.271834098368,
        0.116943965544, -0.022823577130, 0.535498621769, 0.523563399212,
        -0.249451465409, 0.425032241805, 0.210961617836, 0.170395043592,
        -0.418609741873, 0.394212604796, 0.032844375085, -0.082320126317,
        0.509141096443, 0.336524156711, 0.219848221654, -0.395884988989,
        0.001416601452, -0.237110729238, -0.002120329009,
        -0.139156952768, -0.280804233776, -0.320190934551,
        0.318859258734, 0.759394705906, 0.006091140449, 0.108843112358,
        -0.332590831278, -0.043299235294, -0.093083322913,
        0.178689731658, 0.150687294932, -0.011581288309, 0.501836143517},
       {-0.000023857707, -0.247808706372, 0.117070469695,
        -0.103168954145, -0.342543724145, -0.351163322193,
        0.552577168354, -0.369891470956, -0.337552686344, 0.135840733461,
        -0.270710430408, 0.267330523463, 0.105890240476, -0.205171735363,
        0.339849355747, -0.102727581244, 0.170633152299, 0.329362371376,
        0.314106501104, 0.037476980408, 0.454822648254, -0.081550356587,
        -0.061084599103, -0.369826445298, -0.012927570576,
        -0.319782641582, -0.126898354324, 0.440847782867, 0.049492634436,
        0.047901392204, -0.669709527573, 0.074059612496, 0.048535694717,
        -0.101030535902, -0.253619430242, -0.021075242924,
        -0.507345608855, 0.198425901758, -0.489598676455, 0.243336807705,
        0.300421277198, 0.041090257266, -0.491315043320, -0.224510317687,
        -0.028984863936, -0.041534110017, 0.279491822717, 0.442092991497,
        0.405391359084, 0.157611416021},
       {0.037930316913, -0.397975495946, 0.350061894019, 0.042708469350,
        -0.186432636140, -0.208612844546, -0.096812453671,
        -0.289769935559, -0.530276096550, 0.103872615253, 0.359188323953,
        0.287920529819, 0.256759961619, 0.219627637808, 0.293942047093,
        0.140772923036, 0.325332740737, 0.166257074142, 0.194278213609,
        -0.391587980934, 0.131201512722, -0.099796679181,
        -0.177459111603, -0.142053706468, 0.186135463338, 0.175667478203,
        -0.725751244227, -0.341058632000, -0.489639782074,
        -0.002385291745, -0.174180793327, 0.286205319942, 0.295118812629,
        0.764969676798, 0.138795714499, -0.312484265524, -0.940643524971,
        0.148409976744, -0.778610720320, 0.267650173531, -0.194238023846,
        -0.198999759676, -0.990196467247, -0.279568872804,
        -0.823373561869, -0.655541279346, 0.471720212847, 0.315019899795,
        0.489640698354, -0.170798311839},
       {-0.503552703843, -0.030830060020, -0.218389827410,
        0.095641436126, -0.018627538927, 0.072966483794, -0.279555271569,
        0.308864649770, 0.061461369685, -0.372304976576, 0.295936987115,
        0.212410796712, -0.055194638546, 0.110187264246, -0.180541791693,
        -0.274690940093, 0.231558415765, -0.726938947987, 0.288086583343,
        -0.160734079477, -0.065667468139, 0.229918006806, 0.070669980216,
        0.545610435591, -0.349336536753, 0.262572032339, -0.269832271940,
        0.183370923336, -0.249343684505, -0.476942309471,
        -0.110122931490, 0.096973753710, 0.216890408525, 0.166893685405,
        -0.143292150704, -0.343305658257, 0.001932283647,
        -0.195637781035, 0.264701740949, 0.134174320786, 0.103253591133,
        -0.122097349729, 0.464464588316, -0.195586412546,
        -0.212237148091, 0.362623408577, 0.106232772060, -0.215058531688,
        -0.109121698605, 0.031687113623},
       {0.505653806728, -0.298815694240, -0.086234563682,
        -0.430144177864, 0.132369673846, -0.196889506761, 0.247476520238,
        -0.244068062079, -0.716378213398, 0.009813201318, 0.041711033934,
        -0.237140324100, -0.417932984917, -0.400330135266,
        -0.508003106452, -0.230952763970, -0.458447403207,
        -0.403517273124, 0.009789263455, 0.276723508397, -0.055865457340,
        -0.034135722567, -0.122400610779, -0.217964432935,
        0.417682978428, -0.264233570091, 0.290430396926, -0.085993654197,
        0.982463004715, 0.440740849161, -0.276260023458, -0.136045812352,
        -0.613926449563, -0.470624951881, -0.081443656202,
        0.582987266560, 0.433746154180, 0.206023124253, 0.611276758525,
        0.156852553310, 0.174307836279, -0.243999134857, 0.167835023678,
        -0.018813852336, -0.282439394037, 0.128119888331, 0.068619303652,
        0.320746793018, -0.412802677821, -0.112840712077},
       {-0.187723496090, 0.548234803472, -0.466018862838, 0.266049842137,
        -0.004719188217, 0.371398662826, -0.092461363945, 0.403319074984,
        0.481690971983, -0.180778540838, -0.078060449371,
        -0.320944796588, -0.557563047786, 0.398174861707,
        -0.388073513007, -0.269436737178, -0.154673923966,
        -0.454947171689, -0.096336641041, 0.162073144350, 0.150800677707,
        -0.640107069956, -0.232252349539, -0.040548251556,
        -0.206796125475, -0.280481823120, -0.195681082215,
        0.056241631655, -0.158580773680, -0.018121505138,
        -0.162704151534, 0.271891979245, -0.068896633101, 0.074767476439,
        0.519192984681, 0.122738393987, 0.228902716754, 0.265213904276,
        0.390675169227, -0.249896636383, -0.052548374013,
        -0.586286138989, -0.003615922385, -0.018554151874,
        -0.097995172908, -0.270621283165, -0.265916695254,
        0.052272020211, -0.010796988353, 0.002012668203},
       {0.216057272539, -0.005750370106, -0.002223242061,
        -0.130556117939, 0.185304474780, 0.303886231197, -0.011939248563,
        -0.120059211436, -0.284897691914, 0.321832738417, 0.162364279758,
        -0.080204238910, -0.167423312005, -0.113336919151,
        -0.105345398199, 0.448314023199, 0.113724424559, 0.031559529539,
        -0.304306106145, -0.287887266514, -1.276018544403,
        0.315505230318, -0.274214555501, -0.320234149143,
        -0.097495523627, 0.137713174478, -0.097240967715,
        -0.498837835379, -0.196147743080, -0.213164604166,
        -0.057791249446, 0.034733944181, -0.278071313501,
        -0.307579754852, -0.104547399505, -0.270024226949,
        0.251893522786, 0.290810878513, 0.246133925001, 0.060780127722,
        -0.555883230569, 0.281327311433, 0.294267720887, 0.046134600661,
        0.181685191116, 0.017915372739, 0.032028571868, -0.370413717466,
        0.105834736085, -0.186075895300},
       {-0.105729516344, 0.301808354134, -0.466724037539,
        -0.115908532065, -0.358224979854, 0.464563251898,
        -0.079854173391, 0.096206497926, 0.470959559026, 0.275351862200,
        0.332997297550, -0.183347201890, -0.135598930510, 0.476790883548,
        0.014822994073, 0.193274774922, -0.106341988816, -0.137911295015,
        -0.358781196307, -0.144326509354, -0.213063011446,
        0.681863185269, 0.264629311813, -0.393101641263, -0.038801066116,
        -0.096375840472, -0.065816694285, -0.148221101841,
        0.046648788092, 0.160840527926, 0.762254299158, 0.363421747580,
        -0.238887712022, -0.166635146238, -0.099431022204,
        0.064361410617, -0.154120463412, -0.057319358938,
        -0.333128708965, 0.240707286950, -0.163018703890,
        -0.186896223514, -0.160161830210, -0.167035594808,
        0.157621996085, -0.102620454419, 0.063781119230, -0.423062337116,
        -0.040336864285, -0.014436884527},
       {-0.416696854529, 0.253132549037, -0.205955588100, 0.136345822667,
        -0.198297978096, -0.174371647114, -0.418370083951,
        0.389707603134, -0.421706595359, -0.244793766180, 0.396508986069,
        -0.461508458979, -0.267396605395, 0.088959349351,
        -0.488674458370, -0.213024042775, 0.216614088967,
        -0.406425074320, -0.083877326247, 0.035765643593, 0.367468442999,
        0.284400076199, 0.345686674110, 0.139236085527, -0.271636793976,
        -0.259975457146, -0.430009275437, 0.021977102071,
        -0.284092729017, -0.388177499396, -0.160531862843,
        0.392598988530, -0.081416874573, 0.309691909345, 0.153434059833,
        -0.545494217829, -0.143918233006, 0.149248010343,
        -0.028393409695, 0.480013048963, 0.010688006404, -0.196028322515,
        0.071875295738, -0.533395772830, -0.283967438455, 0.222020537449,
        -0.047304062171, 0.057673741118, -0.341822834012,
        -0.116353696383},
       {-0.623510058844, 0.341332653357, -0.226979154672, 0.772895398259,
        0.054769373723, 0.000742407800, -0.076313802707, 0.399184718210,
        0.359156468585, -0.226357856835, 0.276764590960, -0.217494961943,
        -0.291978372491, 0.467116348553, -0.014082786958,
        -0.139347904681, -0.074857114123, -0.338073452468,
        0.203544723519, -0.132124219234, 0.678602827145, -0.159329833141,
        0.091376800602, 0.456921440950, -0.203075278616, -0.379937843736,
        -0.411249002169, 0.698959587702, 0.021624254408, -0.025556849816,
        -0.020556737198, 0.597405575011, -0.348772286906, 0.469856428998,
        0.692979609728, -0.097196095795, -0.415187386235, 0.094635190880,
        -0.211615371019, -0.079748462558, -0.190968689650,
        -0.271086604903, -0.825237890121, -0.076647409503,
        -1.029232631852, -0.420297003920, -0.116188303133,
        0.796475694120, 0.099919541554, 0.375958589018},
       {-0.516405948575, -0.046464886527, 0.010291265996,
        -0.209553019656, -0.288271739640, -0.152012910386,
        -0.340046472715, 0.247679446012, 0.393553192565, -0.460305125691,
        0.364523099918, -0.035427881794, -0.406289028377, 0.201192718258,
        0.045633124480, -0.264537575109, -0.094344554553,
        -0.077960943648, 0.119836081703, -0.057856104675, 0.300227073154,
        -0.783228215620, -0.053493368383, 0.029291013936,
        -0.201552274154, -0.318561250506, -0.709960902877,
        -0.257306563899, -0.569836518209, -0.607520064716,
        -0.525542355143, 0.585084026957, 0.100188021390, 0.068890335289,
        0.394504870464, -0.667657978210, 0.076592056724, 0.263648336143,
        -0.254839023698, -0.045011449794, -0.374199911376,
        -0.385600797729, 0.091361168140, 0.181351338317, -0.549719957094,
        -0.028653615556, -0.408668849718, 0.403127279643, 0.193303365446,
        0.406625822538},
       {-0.446500591977, -0.214873047671, 0.375796120478,
        -0.113931221959, -0.086268406795, 0.558691130981, 0.149359078432,
        0.011717253348, 0.586227427993, 0.765824257803, -0.255369476906,
        -0.353117893808, 0.241520750617, 0.375722609094, 0.492912230678,
        -0.101311378241, -0.346068998040, 0.595324290513,
        -0.339783866060, 0.621413460188, -0.057878397249, 0.124995934614,
        0.344637689480, -0.309259770440, 0.307319070163, 0.201104563013,
        0.417964015167, -0.222447429377, 0.517670202939, 0.392029724724,
        0.483868756822, 0.542398230061, -0.221420047427, 0.023099460661,
        0.061546134796, 0.551000644501, -0.123711109572, 0.038319043129,
        -0.137388281640, -0.752466926689, 0.071953533677,
        -0.192450079709, -0.504768808079, 0.410037499955,
        -0.351775484911, -0.432977638688, -0.561245956413,
        0.154255588339, 0.349828678065, -0.468741792530},
       {-0.078760168783, 0.017664454649, -0.303313424465, 0.133318651829,
        -0.346473685903, -0.741485951708, 0.191882786979,
        -0.186717862477, -0.616943059609, 0.328395379516,
        -0.179235344125, 0.367710170401, 0.148739773554, -0.379261578563,
        0.011687194721, 0.036256126622, 0.213726620778, 0.000546465242,
        0.460999764480, -0.240831924988, 0.056351257778, 0.100170102606,
        -0.417979621207, -0.025433189045, -0.286675551494,
        -0.453566676002, 0.542106163897, -0.006123013243,
        -0.180918457273, -0.183936837082, -0.295728419395,
        -0.324858681091, 0.026115932873, 0.051872104423, -0.230350991646,
        -0.090528486842, -0.196487992875, -0.295031852189,
        0.216041693762, 0.173708452116, 0.000292073718, 0.245170397357,
        0.172927936939, -0.264815153704, 0.018143491547, 0.513301298097,
        0.509248723254, -0.180453217281, -0.402182855231,
        -0.008846624315},
       {0.213641560537, 0.475026990379, 0.421465834591, -0.220915259906,
        0.624825924086, -0.196432769136, -0.082516761023, 0.048974933458,
        -0.083424650303, -0.268363893429, -0.068122344736,
        -0.451840208892, -0.482447907919, 0.225628193592,
        -0.161185964556, 0.108427640409, -0.310095665106, 0.389579142618,
        -0.165686136879, 0.481674086154, 0.034945119145, -0.148238337364,
        0.652161877643, -0.042568088152, -0.450441909981, 0.373412671979,
        0.306948365445, -0.075221905247, 0.473206671500, 0.421922927126,
        0.173028990955, 0.398336020913, -0.206073825911, -0.318308829746,
        -0.178562330078, 0.315166626764, 0.363846576650, -0.642554947835,
        0.130619267600, -0.126767346935, 0.260135389754, 0.040252341818,
        0.694066086191, 0.241541366871, 0.234793947099, 0.287571292182,
        -0.493068085297, -0.548535597766, -0.396611969085,
        0.089636926206},
       {-0.354069888413, 0.487086514970, -0.147443363276,
        -0.428989649195, 0.841652892712, 0.037213366530, 0.378408300263,
        0.296805624333, 0.354789946447, -0.254652256826, -0.092113306706,
        -0.197696140968, -0.251285245289, -0.270410847838,
        0.341216299329, -0.214377553311, -0.504116599069, 0.329513455122,
        -0.042364890408, 0.106454379720, -0.085710345036,
        -0.375938928856, 0.113669977734, -0.239035206425,
        -0.073258254039, 0.336602017927, 0.137743777651, 0.016256221960,
        0.033641766422, -0.174542338244, 0.289937091727, 0.379424313845,
        -0.221175272380, 0.306771824350, -0.036362864217,
        -0.071535931945, -0.108848636114, 0.045580893402,
        -0.355250516015, -0.430438670678, 0.174310551548,
        -0.389805571654, -0.092846151019, 0.714751194041,
        -0.177593011381, 0.247211503667, -0.525212494711,
        -0.027299382019, 0.285383129363, -0.001714633604},
       {0.268090395613, -0.019557909293, -0.103791701795,
        -0.237137472247, -0.586029665013, -0.491763786047,
        -0.222413968374, -0.329686946814, 0.234517272137,
        -0.357610064873, -0.509640783756, 0.561002065542, 0.055142503349,
        -0.451936909166, 0.402394283015, 0.261392179266, 0.108818041373,
        0.113087774258, -0.023030714285, 0.068999012505, -0.294715654482,
        0.572370523810, -0.070074078345, -0.125593987360, 0.085114012240,
        0.424003943741, 0.199052156281, 0.091068681354, 0.176924481087,
        0.098015770597, 0.377441680841, -0.140267852484, -0.181468706633,
        -0.434825549577, -0.560367352081, 0.465782392579,
        -0.036929096804, -0.661744394972, 0.034015773956, 0.232245519571,
        0.535968956954, 0.708235760559, 0.429425038261, -0.139764123718,
        0.194467520265, 0.301472084098, 0.261430224662, -0.852415042300,
        -0.202694471868, -0.483081856933},
       {0.115901087079, 0.216710977692, -0.463198617672, -0.497959232311,
        0.575562451135, 0.054522217396, 0.109425234169, 0.143900897378,
        -0.009470512291, -0.211381727622, 0.144455097108, 0.157337145400,
        -0.174070630289, 0.301272269441, -0.305482491500,
        -0.133673488263, -0.334141286599, -0.336607388420,
        -0.287224199540, 0.241865511475, -0.141379436134, 0.043815883667,
        0.180767812803, 0.317354960758, -0.182304561910, 0.064145542430,
        -0.388708258337, -0.170541967711, 0.358318559828, 0.105758012581,
        0.021036765929, -0.097893669203, 0.064868385413, 0.110084219969,
        -0.018317893835, 0.391448813342, 0.203895461911, -0.181233944089,
        0.095217268970, -0.246962298980, 0.329081143396, -0.130259648066,
        0.250320475497, 0.531194641204, 0.213673290803, 0.054767234073,
        -0.124880577199, -0.353552597418, -0.265991570765,
        -0.184694533434},
       {0.465817514879, -0.157288724501, 0.061121398422, -0.100579922156,
        0.216661872202, -0.524042016723, 0.252564446403, -0.263620791051,
        -0.352522219276, 0.189742252112, 0.084362878019, 0.426227019985,
        -0.335199803371, 0.307832648999, -0.313537019970, 0.092540493097,
        0.036768518233, -0.212871844909, 0.071528942437, -0.029596509429,
        -0.150275402626, -0.032795535768, -0.263043861465,
        0.136077606798, 0.156354512500, -0.145912295414, 0.106918388543,
        0.234991585375, 0.248044706357, 0.070340422117, -0.659314277666,
        -0.519708003701, -0.032228414432, -0.382935296261,
        0.104643688230, -0.183097153915, 0.342489540643, 0.248683554748,
        0.482831534884, 0.014638060280, 0.495488759627, -0.509770285275,
        0.224875941293, 0.069342354700, 0.565039686785, 0.042251040205,
        0.477474733444, -0.219393737116, 0.003470021145, 0.300926024543},
       {0.507671525377, -0.002900898390, -0.417530028728,
        -0.306112773219, -0.269279787228, -0.245363285491,
        0.560519239241, -0.468334922684, -0.092351938652,
        -0.000844545510, 0.388362652453, 0.240201947965, 0.168943721930,
        -0.084438657603, -0.021173471118, -0.006264437181,
        -0.080575421887, -0.383993816242, 0.172381998853,
        -0.004504561663, 0.228584167959, -0.281151850707, 0.140390212646,
        -0.078664022440, -0.117444708130, -0.337335969290,
        -0.298439222187, 0.013921063223, 0.308680214751, 0.232651527128,
        -0.387536762303, -0.457934820498, -0.262647502076,
        -0.219797865578, -0.125439900379, 0.464017714657, 0.095072640476,
        0.396441090062, 0.056601153828, 0.471414307358, 0.169579726549,
        -0.017573486844, -0.153095340642, -0.002353525265,
        -0.383457143297, 0.026632511595, 0.212326479434, 0.327543495484,
        0.327978341052, 0.324170070917},
       {0.634974144393, 0.011291723696, -0.108860249618, -0.260836904791,
        0.344159658999, -0.038874298040, -0.112215424152, 0.165091957075,
        -0.360208871509, 0.055390867132, 0.061990706836, 0.309932827108,
        -0.011378688847, -0.586991214730, 0.140538412116, 0.106285091167,
        0.000779715317, -0.011689482818, 0.066768449984, 0.587779511662,
        -0.050091105118, 0.064840773744, 0.189024555254, 0.448236668943,
        -0.013997214015, 0.056402855808, 0.110569301112, 0.224562323969,
        -0.137009444819, 0.315329922517, 0.193861930106, -0.466507793168,
        0.408522227690, -0.460281660216, -0.035173157089, 0.187715875370,
        0.424994766104, 0.289399906706, 0.522920624172, -0.038782909660,
        0.596556445983, 0.232601011995, 0.950408609838, -0.095016360932,
        0.235934978561, 0.269376971666, 0.428744107458, -1.078807277119,
        -0.259983553314, -0.276334358387},
       {-0.016173345411, -0.194794125092, 0.095671545932, 0.850030503497,
        -0.215012863078, -0.117199623083, -0.106651169389,
        0.317021478610, 0.093227349886, -0.228690310945, -0.117528080185,
        0.418129529673, 0.475980751081, -0.133153131595, 0.679139897437,
        0.348585539258, -0.059182161861, 0.245848762580, -0.277373311271,
        0.317162663232, -0.167296197969, 0.206064605554, 0.112664676197,
        0.059617301656, 0.100209343192, -0.274142291590, -0.062682635630,
        -0.291208023678, -0.198534077415, 0.439310503660, 0.065162982493,
        -0.368250965202, -0.045398304701, 0.059664820882,
        -0.003374556260, 0.313619698332, -0.205205174911,
        -0.149754449383, -0.594656830565, -0.075787632000,
        0.347353170870, 0.164268716453, -0.261408930648, -0.210741521925,
        0.152347119758, -0.317543651349, 0.526828714198, -0.551530048679,
        0.418984328756, -0.623314242088},
       {0.244185739464, -0.093358803937, -0.121096128928, 0.020104336258,
        -0.016231896307, -0.295482232531, 0.275876658320, 0.070054279975,
        -0.289860988326, 0.505705515538, -0.379453106535, 0.072260456669,
        -0.042387090679, -0.286373209627, -0.200594924850,
        -0.211499101528, 0.028599708739, 0.056227180176, 0.002962745212,
        0.208070425318, 0.306697896873, -0.036259845708, 0.102218107879,
        0.192318702341, 0.130433197657, -0.318646004114, 0.479697766174,
        0.363100086563, 0.657568077017, 0.510202561824, 0.132429604442,
        -0.335574793741, -0.271240526238, -0.054972349221,
        -0.478414591519, 0.584291973755, 0.381931561945, -0.021912401682,
        0.309894915245, 0.234658090629, 0.203084086818, 0.116048522908,
        0.298748842018, -0.352792348629, 0.144023716190, 0.028368499681,
        0.357890485934, -0.297384282500, -0.194956295808,
        -0.334885612797},
       {-0.078464522708, -0.027595252366, -0.049507792451,
        0.033325686777, 0.277812670415, -0.170237080846, -0.225431151080,
        0.048206489353, -0.215700186039, -0.386769084975, 0.376496533817,
        -0.400072974166, -0.217364811760, 0.562219397262,
        -0.088148841128, -0.069056655866, -0.303006013137,
        0.044716655979, -0.229971483606, -0.080004657973,
        -0.075463388092, 0.775791587670, 0.135879734558, -0.052820250383,
        -0.074580773184, 0.482596432840, 0.133481943026, -0.179730912236,
        -0.370814515512, -0.356090694824, 0.194258372106, 0.237632124568,
        -0.166723911510, 0.306642908419, 0.350842454857, -0.266594985809,
        0.077169177196, 0.104125289719, 0.191515238366, 0.371498924420,
        -0.291925439828, -0.153017097525, 0.100183837933,
        -0.402971060929, 0.056122053380, 0.202740296350, 0.052747945231,
        0.227180637184, -0.251474186442, -0.164655119214},
       {-0.146281766715, -0.106820455407, 0.052976121451, 0.106493422698,
        0.171945148847, 0.448559310298, 0.145748345979, -0.092704532170,
        0.246594383365, -0.322331687873, -0.055313697668, 0.067719077693,
        -0.185669765707, 0.284741269309, -0.050991894834,
        -0.010407171490, -0.288126735050, 0.207653561897,
        -0.431356921465, 0.249267810684, -0.228914151421,
        -0.357428409263, 0.108951513106, -0.097149656072, 0.203600797650,
        0.312679551621, -0.227253916132, -0.433450948738, 0.056533203968,
        -0.063473331337, 0.297626986448, 0.265426712150, -0.410343884367,
        0.525430564770, 0.203213938797, -0.141186756281, -0.266408696472,
        0.392761832329, -0.289921755198, 0.056162780408, 0.179440089309,
        0.131065616807, -0.239044417545, -0.065490464041,
        -0.422801285584, -0.335741083219, 0.126911597785, 0.381681778749,
        -0.132896834924, -0.048359466596},
       {0.040468269983, -0.018549670429, 0.241574975341, -0.293236593944,
        -0.213835850748, -0.110488641713, -0.026724012032,
        -0.278803708936, 0.170999414245, -0.041784928208,
        -0.482653889155, 0.004795571316, 0.291726332417, -0.076432845227,
        -0.060456794370, -0.044545661091, 0.195623583379, 0.517854288763,
        -0.151821050976, 0.115084379548, -0.035302128092,
        -0.454458377806, 0.225090014096, -0.178281898593,
        -0.140039120039, 0.021411674911, 0.251286068880, -0.072323572466,
        0.376734502517, 0.555785480955, 0.015144717216, -0.104009608086,
        -0.175799488817, 0.115037737980, -0.242775013571, 0.643608445358,
        -0.153191590351, 0.204759575821, -0.173664835911, 0.031276347551,
        0.159084646264, 0.364684907002, -0.184044494210, 0.349204724813,
        -0.088149034484, -0.223976876400, -0.154643224646,
        -0.064346616053, 0.049596528807, -0.268667519659},
       {-0.215478360392, 0.063609189437, 0.451155338556, 0.317065101419,
        0.365652612047, 0.024084433609, -0.153869501765, -0.300839640789,
        -0.046979073881, -0.615095612155, 0.164537617211, 0.074055478656,
        0.115347693462, 0.222317574371, 0.951635678536, -0.353323966146,
        -0.139381127509, 0.006845837278, -0.055955639084,
        -0.252409664671, 0.086485049679, -0.495339398759, 0.473322559681,
        -0.091160132967, 0.027237705076, -0.240969780698,
        -0.330227396436, 0.326194265379, 0.302354358456, 0.067085638569,
        0.010727330337, 0.070627374229, -0.267129652645, 0.081227592556,
        0.360444705483, 0.479905171440, -0.713066999053, 0.375383585235,
        -0.805564418280, 0.090978735473, 0.385697883862, -0.293344648082,
        -0.974217307948, 0.069382237422, -0.483923003610,
        -0.565419013552, 0.100522292456, 0.274593695071, 0.847828771934,
        0.693564043444},
       {0.437249247286, 0.638894672669, -0.599824010090, 0.170324623029,
        0.247625064667, 0.156478631287, -0.091289830139, 0.377434114492,
        -0.252598219066, -0.589605935951, -0.085516496170,
        -0.126538992488, -0.248011091454, -0.085094066209,
        0.166064891483, 0.264280119067, -0.325944422955, 0.119387854696,
        -0.096035023127, 0.328034372352, -0.151504515361, 0.107685606035,
        0.426439807474, -0.167432292450, -0.420759379253, 0.186103017239,
        0.541899911184, -0.371714131971, 0.503279235970, 0.488465544646,
        0.243910671099, 0.050147329138, -0.612138443602, -0.208986997855,
        0.105899349125, 0.719353803730, 0.389520733278, -0.513936343154,
        0.426402452055, 0.342219976004, 0.312646625643, 0.179158425038,
        0.479161022215, -0.146032044638, 0.363453971274, 0.110725735694,
        -0.032113225959, -0.163997212020, 0.117018344723,
        -0.081882476564},
       {-0.117240951614, 0.199642072004, -0.102938787683, 0.120767444678,
        0.069662425634, -0.214290770617, -0.063067540058, 0.186142345502,
        -0.209105319889, -0.236655139870, -0.064942511152,
        0.173522538563, -0.177316479931, 0.238453259999, 0.198206429389,
        -0.399120276185, 0.242196775720, -0.042926715661, 0.372404646310,
        -0.018115334096, 0.936453291473, -0.049591177507,
        -0.017059728938, 0.479381114711, -0.326812318944,
        -0.121878463897, 0.189408262393, 0.274616827988, -0.036210811070,
        0.160222383565, 0.089943932382, -0.276498098837, -0.085411292084,
        0.181316319210, -0.046280959846, 0.252668607418, 0.102332096099,
        -0.281522253890, -0.080924564348, 0.339800469717, 0.368694563884,
        -0.192054316558, 0.086744389335, -0.259277202324, 0.125036599193,
        0.103300259025, 0.167749398257, 0.331464491885, -0.248932092724,
        0.230214800503},
       {-0.240921386520, 0.488001089011, -0.316285351556,
        -0.321670787092, -0.285883526027, 0.210906335131, 0.657978730619,
        -0.206854787095, 0.233515966096, -0.299479862716,
        -0.415828667932, 0.051702515208, -0.012958176510,
        -0.281045311889, 0.474674188137, -0.175327707688, 0.025454427951,
        -0.140091918860, -0.478167212741, 0.030566957011, 0.048974479385,
        -0.298562303619, -0.218303342319, -0.631780721225,
        -0.083061825562, 0.361148089429, 0.518790959068, -0.297467167547,
        0.144628307131, -0.133172806536, 0.575558778935, 0.172399939828,
        -0.294672711352, -0.089016086360, -0.138318405328,
        -0.093471129553, -0.270501136794, -0.667141431038,
        -0.160650508293, 0.005956551762, -0.173945525960,
        -0.055593790629, -0.267233466893, 0.491160478062,
        -0.141153734227, 0.186251410284, -0.350300887141, 0.101292301947,
        0.074965320765, -0.221801459950},
       {0.052924193581, 0.415593634128, -0.623013030422, -0.194640779585,
        0.429798793512, 0.070485691261, 0.354970481459, -0.197160042573,
        0.099557196894, -0.317839474915, -0.035372767612, 0.156445556727,
        -0.471096821778, -0.178235124348, -0.083356561346,
        -0.454107551729, -0.406398848190, -0.214288950627,
        0.278329613478, 0.246211103672, -0.140752399984, -0.066079728077,
        -0.016060763411, 0.176818534809, -0.176854370083,
        -0.022072727953, -0.385339411725, -0.151777107978,
        0.184468972735, -0.213208539259, -0.315065064798,
        -0.117286431982, -0.208129751533, -0.413464252624,
        -0.012942106094, 0.059715439844, 0.544057859121, 0.054811917454,
        0.679814790832, -0.342380843787, 0.176057410639, -0.204463456825,
        0.728324023599, 0.325634417751, -0.215331292364, 0.584655456790,
        0.102033681205, -0.288001096315, -0.228060823784, 0.180970865618},
       {0.438100955004, -0.314073207395, -0.057580728824,
        -0.166847680152, -0.055442093089, 0.018678424981,
        -0.190325079417, -0.301987742419, -0.108157535983,
        0.027349969065, -0.422677004388, 0.362166461567, 0.391011539691,
        -0.506607332706, -0.108193551052, 0.295413363392, 0.338823420762,
        0.185611327470, 0.036841307233, 0.007795459394, -0.444824010881,
        -0.060276701531, -0.096941283881, 0.331601539128, 0.358133258882,
        0.034490608483, 0.227459177441, 0.015435766229, 0.506277383491,
        0.382482821064, 0.007350123741, -0.020541158063, 0.159195475746,
        0.213536906444, -0.243839802423, 0.495139989866, -0.184090966716,
        -0.234621417555, -0.125197146714, -0.177882553019,
        0.083743663016, 0.344401242202, 0.049018787051, 0.225037973979,
        0.362309054619, 0.024536593777, 0.471994066576, -0.138124545463,
        0.329453856608, -0.095460143969},
       {-0.037795625536, -0.221880512814, -0.270744616715,
        0.052874905967, 0.181469168415, 0.124348127697, -0.052783315406,
        -0.005900097320, 0.369614973314, 0.280365399788, -0.118645842749,
        0.390078043917, 0.133867696001, -0.204934061261, -0.302393757773,
        -0.050058185089, -0.049889176002, -0.209394225109,
        -0.028341538313, -0.083750026673, 0.106895603478, 0.598354474338,
        0.228909281440, -0.079802015227, 0.044033530439, 0.144011622897,
        0.441975571486, 0.098838508694, -0.007341038833, 0.313201669462,
        0.093492940898, 0.203310688797, 0.042277135773, -0.149461215635,
        0.009357586999, 0.107506160197, 0.022252466305, -0.495888701078,
        -0.108623082821, -0.325030887162, 0.013627554679, 0.389984201791,
        0.250495959044, 0.033810285400, 0.433761898422, 0.248140806655,
        0.291927738706, -1.040018392645, 0.080083203132, -0.385954724772},
       {-0.132272875457, -0.050955440801, -0.241035862524,
        0.006639826723, 0.103796352234, -0.078498281462, 0.148101690589,
        -0.113830053898, 0.057065448071, -0.262219465807,
        -0.150328597691, 0.098323216629, -0.224715437949, 0.299797470731,
        -0.016323546832, -0.511679840368, -0.104356570022,
        -0.259894789635, 0.175086722014, -0.065511281581, 0.886278121050,
        0.020277422236, -0.024109167450, 0.193461788267, -0.409118088803,
        0.108243647950, 0.446058059501, 0.415597922914, -0.195402872130,
        0.424103108401, -0.088067859013, -0.068248033422, 0.194421724675,
        0.317887615615, 0.324261669522, 0.158786437051, 0.047700553855,
        -0.458424612883, -0.295015860567, 0.101991015547, 0.226954638553,
        -0.007752287932, 0.305705131209, -0.091926657992,
        -0.148714827416, 0.221971158057, 0.043804650931, 0.044149897022,
        -0.234375808560, 0.219643419323}})