array({{-0.279989365142, -0.221649229894, 0.056816582495,
        -0.062671319973, 0.067325918238},
       {0.236058799766, -0.191895510561, 0.157772845208, -0.202081288461,
        -0.142583493886},
       {-0.248452098526, -0.202138026344, 0.044443407572, 0.135814619106,
        0.158749423158},
       {-0.201392760465, -0.062291615819, -0.103849535305,
        0.082765924788, 0.243241394095},
       {0.032913356718, -0.170179584298, -0.198981522957, 0.255083940995,
        -0.115759694930},
       {0.025971752446, 0.049854510104, 0.062867104281, 0.262367834314,
        -0.227700734142},
       {0.114284993987, 0.136618897108, -0.100899573136, 0.216562967266,
        -0.166851452441},
       {0.002629740558, -0.344217678410, 0.061023541996, 0.208124152151,
        0.121245591589},
       {0.110778343111, 0.189919211698, -0.295557534058, 0.040171560238,
        -0.122243137852},
       {-0.025482753740, 0.083453746727, 0.065248697961, -0.069202455013,
        0.130278328086},
       {-0.117876282941, 0.083826329399, -0.068198983791,
        -0.100653445559, -0.001841483873},
       {-0.038748836306, -0.209034218027, -0.172108640809,
        -0.073082471586, 0.244695398862},
       {0.144293936360, -0.042568933155, 0.235753230490, -0.079407119608,
        0.144267503697},
       {0.101445686783, 0.094301600049, -0.375660901313, -0.120763633309,
        -0.501537941142},
       {-0.076300837541, -0.354533391230, 0.228958969765, 0.212120394786,
        -0.031547448134},
       {0.092496661531, 0.242150501890, -0.282572553862, 0.019920859851,
        0.243963921828},
       {-0.073635230144, 0.044491780528, 0.252569156199, 0.110079041032,
        0.101278192721},
       {-0.101910921395, 0.221400101442, 0.166016022999, 0.070289240703,
        -0.388109124184},
       {0.108540488705, 0.194916036030, -0.048845311764, -0.032138113901,
        -0.097683009959},
       {-0.258800032378, 0.126690214307, 0.200587208556, 0.308673325991,
        0.118482768070},
       {-0.175467635552, 0.276325171414, 0.037844515002, -0.076283144551,
        -0.292604400123},
       {0.072985293926, -0.128014144471, -0.267984167307, 0.290179726672,
        -0.062480422977},
       {0.356954856364, -0.067928376837, 0.051074820439, -0.120332058662,
        0.295777529035},
       {0.033992170011, 0.166592744856, 0.220584265819, -0.280116226887,
        -0.287507171521},
       {0.104426396789, -0.294278812960, 0.046540727299, 0.116847094128,
        0.329010578599},
       {-0.071000083746, 0.071200329336, -0.145436775989,
        -0.231627193178, 0.232126621183},
       {-0.185391953180, -0.299927841906, -0.318271627805,
        0.142859010550, -0.192148901650},
       {0.057921323838, 0.194249981445, -0.269554027267, 0.049717096443,
        0.068507901764},
       {-0.193002166477, -0.126887885610, 0.008053461620, 0.305075882662,
        0.145566966787},
       {0.207453838494, -0.171794443590, 0.123594426032, -0.021910655430,
        -0.006632524157},
       {-0.142902734587, 0.101958249863, 0.078040034378, 0.054757479008,
        -0.094418259434},
       {0.246203127547, -0.064579343688, -0.209951667805, 0.061566127833,
        0.018723660889},
       {0.152357695656, 0.067053200674, -0.091027319987, -0.192069020100,
        -0.143922837457},
       {0.154361358270, -0.228361187551, -0.073075997032,
        -0.084300533017, -0.106151832704},
       {0.321757992142, -0.143061590870, 0.243286921544, -0.269918030892,
        -0.011553920310},
       {-0.277722635041, 0.164726653012, -0.190054349296, 0.201677754247,
        -0.045457787354},
       {-0.158679867611, 0.041502319545, -0.059157841027, 0.115656512709,
        0.096650066496},
       {0.121404524144, -0.343690707072, 0.299653224984, 0.073359519194,
        -0.224689374948},
       {-0.097053269801, -0.280261081981, -0.124680842720,
        -0.005168179188, -0.155887820779},
       {0.023833916705, 0.060452794793, -0.258273835693, 0.203741563666,
        -0.248579908849},
       {0.136827190773, -0.172362054977, -0.219027437661, 0.214094978824,
        -0.018014615115},
       {0.010499562648, 0.069610618120, -0.365431281643, 0.320490053510,
        0.138512872136},
       {-0.278228625345, -0.171398837054, 0.263231540751, 0.251166225692,
        -0.047876660347},
       {0.275550534385, -0.188744272606, -0.209477553028,
        -0.162522812985, -0.070996349774},
       {-0.314698630988, 0.026419360539, 0.071047656757, 0.026513355728,
        0.121073790225},
       {0.111423192122, -0.022119950567, -0.134760446893, 0.287586799314,
        0.110433728277},
       {0.060749198093, -0.005262701718, 0.170576710874, -0.198153681530,
        0.260501842376},
       {0.058127363908, -0.045658896291, 0.263531246357, -0.233798495464,
        -0.259737805354},
       {0.030217037838, 0.213744287148, 0.217731474779, 0.294165882704,
        -0.063792941010},
       {0.175153497276, -0.310979142968, 0.027880387498, -0.049561145458,
        0.257303716015},
       {0.237352197265, 0.090847493434, 0.036371142906, -0.073881366022,
        -0.301358327479},
       {-0.156621322190, 0.216734003087, 0.130447705504, -0.037269276204,
        -0.282480435695},
       {0.066699331103, -0.077834081572, -0.221379445433,
        -0.297158079547, -0.285101283077},
       {0.259809857464, 0.050162680513, -0.203874800232, -0.087216831925,
        -0.347577751122},
       {-0.041998638823, -0.025673045627, -0.188002485156,
        0.157064673124, -0.272542935236},
       {-0.073255843664, -0.309862602411, 0.115635388635,
        -0.077590276350, 0.245821881384},
       {0.282654264795, 0.173583238740, -0.208382416318, -0.077797181517,
        0.038624840324},
       {0.020911887260, 0.179582867187, -0.124469443388, -0.104955788160,
        0.223128171480},
       {-0.255964943559, -0.198384529603, 0.117016649758, 0.143735672048,
        0.007218807884},
       {0.117748668071, -0.284091122038, -0.142464545715, 0.161538775123,
        0.178382504488},
       {-0.100912279738, 0.219971473949, -0.224991375032, 0.145200586935,
        -0.028937661106},
       {0.138340520165, -0.064056634864, 0.245531600790, -0.217791074206,
        -0.223491654628},
       {-0.247731171696, 0.272776212809, 0.043823367879, -0.049042308212,
        -0.076870586819},
       {0.150936715139, -0.010962134256, 0.233830058714, -0.189903805962,
        -0.170995225538},
       {0.246681329785, -0.014814747013, -0.037551693729, 0.045886543189,
        0.246179941744},
       {0.082652712129, 0.200855059998, 0.001908867022, -0.262506558463,
        -0.121122311213},
       {0.239897849976, -0.042704733963, 0.152798711206, -0.121244554634,
        0.048467826711},
       {0.297514932477, -0.046697914228, 0.044160212151, -0.217672124061,
        -0.049736629721},
       {-0.194045332813, -0.082078068514, -0.234371113676,
        0.056879038716, 0.158353315345},
       {0.189715110831, -0.206852170074, 0.138501381382, 0.185429090156,
        0.077038370686},
       {-0.016944056945, -0.239309846542, -0.230866393065,
        -0.258286955941, 0.062075193956},
       {-0.125066294587, -0.050458833855, -0.327232387654,
        0.043305687917, -0.287999836677},
       {0.193618524121, -0.112548493177, -0.219066408686, 0.198131414449,
        0.144151853936},
       {0.001016453989, 0.110174624952, 0.121881045288, -0.099885454056,
        -0.367679783743},
       {0.016771524000, 0.221422808455, -0.089185193799, -0.120821998532,
        0.054984647492},
       {-0.052165311803, -0.358609317243, -0.021459067745,
        0.152468903873, 0.146053740464},
       {0.039768868550, 0.078659073555, 0.159448455075, -0.108997926495,
        -0.251120964118},
       {0.155979564682, -0.277100413419, 0.217526108590, -0.236524067403,
        0.112061757511},
       {0.072481066549, 0.185718978112, -0.196593450594, -0.326249825284,
        -0.078197513522},
       {-0.195759508652, -0.061595577468, 0.263750788929,
        -0.025496100005, 0.086804146524},
       {0.023767321340, -0.059081977722, 0.187846607447, -0.177035500556,
        -0.024240205160},
       {0.041259631313, -0.124656653760, 0.260675327569, 0.070270890391,
        -0.244294244280},
       {-0.366200438095, 0.198537379820, 0.324430636382, -0.005114114943,
        -0.094719834632},
       {-0.171009675710, 0.290958193274, 0.150155943803, 0.064713286957,
        -0.239215267032},
       {-0.053693834212, 0.149516629749, -0.146325957126, 0.007235470308,
        -0.165989089112},
       {-0.233568784506, 0.130364419243, 0.198341665518, -0.291505035633,
        0.145226231309},
       {-0.193328542703, 0.212233393877, -0.066210721179,
        -0.108489048526, -0.287041485300},
       {-0.214021539299, 0.113612133691, -0.022312302009, 0.077639819969,
        0.199492487179},
       {0.254333835831, -0.358359882776, -0.251077977433, 0.298200708426,
        -0.226185768374},
       {-0.298393748160, -0.145019343717, 0.285945507793, 0.128586226142,
        -0.236954081725},
       {-0.252541153936, -0.055558304542, -0.128490298956,
        0.283942162613, -0.071709486944},
       {0.024700255221, 0.152505659825, 0.220091774383, 0.194705851609,
        -0.191860390618},
       {-0.126267012753, 0.267005422601, 0.067067571282, -0.129474595171,
        0.088100746854},
       {-0.034025930314, 0.239040048614, -0.002286928937,
        -0.371334764715, -0.415684819612},
       {0.081824312698, 0.134588447424, -0.312238041195, -0.185905247529,
        0.228173950618},
       {-0.069919171060, -0.153628789754, 0.177185352731,
        -0.177988239411, -0.192781440008},
       {-0.257649999316, 0.203007342844, -0.166528474072, 0.085616434566,
        0.162706775891},
       {0.111295586479, -0.208609155471, 0.069788374868, -0.172249487182,
        0.137500412801},
       {-0.130952618801, -0.098604080200, -0.072093810239,
        -0.185062437067, 0.157540125757},
       {-0.157692251905, -0.195628090271, -0.130825488060,
        0.264041211398, -0.192697200544},
       {0.026592740540, 0.096881541455, -0.051969985963, -0.038602162360,
        0.156885169431},
       {-0.185439368799, 0.017921186411, -0.096813084968, 0.252579723807,
        -0.246995278462},
       {0.157964586378, 0.214048984105, 0.024868164511, -0.323358335136,
        -0.276439166024},
       {-0.237001597738, 0.225146931143, -0.088861947377, 0.004833585774,
        0.122377933613},
       {-0.159249984383, -0.113175235450, -0.104397638706,
        -0.131076436902, 0.185891102303},
       {-0.128989781379, -0.197840212359, -0.176060851209,
        0.137302972079, 0.144852767942},
       {0.124027461066, -0.293582949604, 0.248298803387, 0.060301244241,
        0.190082948544},
       {-0.186398516133, -0.092750941396, 0.225885165377,
        -0.075714511967, -0.127365353664},
       {-0.255743883541, 0.173728915428, -0.000925461506, 0.042256975042,
        0.086328997009},
       {0.144395062640, -0.097186384761, 0.037158254023, 0.154442522991,
        -0.222862557896},
       {-0.065155558039, 0.068095341945, -0.167355968419,
        -0.309849054736, 0.132962659366},
       {0.109098576411, -0.254846187563, 0.053308495226, 0.024643750402,
        0.005294312959},
       {0.203069313517, 0.042463266696, -0.103144679468, 0.159418327424,
        -0.230967424144},
       {-0.053622628918, 0.018656898233, 0.104171189158, 0.207743707215,
        0.180693659324},
       {0.111454244340, -0.183391132451, 0.070149372026, -0.226427875564,
        -0.089450619966},
       {0.250859690811, -0.204161632295, 0.331206326113, -0.047849233199,
        -0.008422751568},
       {0.169098370869, -0.013573305745, 0.259528261733, -0.214808216442,
        -0.043768273406},
       {0.329108073724, 0.002855332221, -0.206649265661, -0.148020082137,
        -0.196144120414},
       {-0.208558616576, -0.138048960888, 0.041331522812, 0.305179557987,
        -0.069934462936},
       {-0.113451046558, 0.136641048648, 0.098103568527, -0.338641643124,
        0.040220904843},
       {-0.031466672014, -0.103733981057, -0.128985196995,
        0.281456987977, 0.360920560683},
       {-0.278906654253, 0.042488740540, -0.115332019700,
        -0.078141113775, 0.048993849902},
       {0.220963124474, -0.187946906990, -0.164149286611, 0.156850693032,
        -0.001846984052},
       {-0.147331465988, 0.331401134330, -0.229272992153, 0.125699627399,
        -0.276037901153},
       {-0.181138700846, -0.104984441021, 0.260346206506,
        -0.096185862585, -0.198532475301},
       {0.159030345456, 0.191966764157, -0.042562649022, -0.141499292973,
        -0.135249299889},
       {0.276468430743, 0.000110795643, 0.073737301519, -0.246739916993,
        -0.133938914952},
       {-0.188802877049, -0.233813653170, -0.016206442868,
        -0.013857942376, 0.077374437233},
       {-0.028948315773, 0.039960658825, -0.229818656624,
        -0.343085127030, 0.114565953222},
       {-0.115571818244, 0.017194826712, 0.163737420666, 0.000872859052,
        -0.241157179360},
       {-0.289140778801, -0.297331094588, 0.279829380989, 0.053037958576,
        -0.248348197741},
       {-0.149398631244, -0.256386178587, -0.241533444313,
        -0.117522501126, 0.283732398308},
       {-0.075220844728, 0.188800825728, -0.137936713868,
        -0.063294157783, 0.080917976350},
       {-0.101226872002, 0.200756274849, 0.234628620638, -0.146065453059,
        0.012997729478},
       {0.136685642279, -0.178827397419, 0.044998879215, 0.065322538584,
        -0.017843626422},
       {0.021637732948, -0.190382841337, -0.154420405111, 0.236777021476,
        0.075746535728},
       {0.331487337778, 0.036099073934, 0.064761132971, -0.205105084304,
        0.072561137144},
       {0.220190871939, -0.058735185433, -0.213089459247,
        -0.190247450609, 0.104403107230},
       {0.152433292821, 0.276111910842, -0.047278348918, -0.177171460862,
        -0.286599211155},
       {-0.159350975600, 0.138492526596, 0.056293807120, 0.242344636428,
        -0.003280094066},
       {-0.153946035901, -0.224560588307, -0.092497937520,
        0.219562726142, 0.174544485166},
       {0.088397272234, -0.280286302028, 0.204193901887, -0.159342322703,
        0.056946611731},
       {-0.230910204537, 0.156629579277, 0.212796372137, 0.295210282250,
        -0.265943605367},
       {-0.097199216301, -0.024938733831, 0.098512056511,
        -0.100466697102, 0.136029534556},
       {-0.126971627688, 0.349379729197, 0.073084326111, 0.094251405472,
        -0.232015308019},
       {0.083786479166, -0.067184535885, 0.135871209567, 0.137969928936,
        0.124793291778},
       {0.137951910715, 0.169580724938, -0.129927279775, 0.233262513431,
        -0.247245718949},
       {0.097550968376, -0.208059839729, 0.122221430725, 0.272970857454,
        -0.048840382480},
       {0.203090961800, -0.161871700966, 0.167058154503, -0.253130202459,
        0.096261878072},
       {0.051989068268, -0.088521807278, -0.160849595183, 0.170074864266,
        0.188202783137},
       {0.313890916005, 0.029083333000, 0.074166312052, -0.087605728394,
        0.045814932904},
       {-0.081803489377, 0.053841221362, -0.098905580290,
        -0.186947489896, 0.278046982961},
       {-0.251928355897, -0.119776874033, -0.098090540498,
        -0.230915576609, -0.116420953797},
       {0.306808681568, -0.104063126473, -0.056157817607,
        -0.172000898107, -0.104151236837},
       {-0.180784518157, -0.034753685631, 0.246326371352,
        -0.287264096226, -0.065593282448},
       {-0.242046318725, 0.290575516581, 0.173875593556, 0.037533456475,
        -0.179097665645},
       {0.239411463396, -0.099006376185, -0.200143256372, 0.045310480407,
        -0.064559103121},
       {0.072430580166, 0.178832603185, -0.097754244698, 0.048997264301,
        -0.351552162864},
       {-0.282815979838, -0.047894794807, -0.236758912499,
        0.035723104005, 0.099469745596},
       {0.080947759975, -0.107933290421, 0.004333887479, 0.286537851454,
        -0.182401091489},
       {-0.184836534297, -0.019165731627, 0.199654681004,
        -0.174643788012, 0.325992846442},
       {-0.143117676682, -0.336620789786, 0.044671537105,
        -0.196084571709, 0.054070513020},
       {0.096967426168, -0.193436164450, 0.008257647292, -0.267419782559,
        0.209449335871},
       {0.115925066237, 0.336418843918, -0.016887786361, 0.082469455111,
        -0.249256525815},
       {0.086686396241, -0.111773052890, -0.105795642974, 0.009807827601,
        0.083315278428},
       {0.274213494156, -0.171483450746, -0.101859851644,
        -0.050467439355, -0.253568191806},
       {0.157692481224, -0.297756276959, 0.002713002669, -0.144639047547,
        -0.109632404480},
       {-0.025355208122, -0.436888364788, -0.193439374989,
        -0.040394417755, 0.425913366812},
       {0.078299938872, -0.234575880417, -0.068433710943, 0.227251496286,
        0.101765816149},
       {0.197594219115, -0.175071975174, 0.093195063229, 0.237846504374,
        -0.089201778258},
       {0.111863090902, 0.085789671917, 0.142654434671, -0.276713208336,
        -0.188838323623},
       {0.088422102287, 0.184204636342, -0.075122349454, 0.122720721704,
        -0.226643816170}})