array({{-0.069689212781, -0.136064180043, -0.006200147916,
        -0.046940537992, -0.226190596951, -0.214125921292,
        0.035016956861, 0.195202247556, 0.006253023250, -0.062447795563,
        -0.048930080146, 0.141431510046, -0.046546738852, 0.155209621430,
        -0.057293938060, 0.050326019878, 0.032633324542, -0.020507954987,
        -0.117012701181, -0.161329461871, -0.109426477876,
        0.218528827157, -0.046738661870, -0.221749192338, 0.107937076005,
        -0.079936291992, -0.331011718262, 0.215409764376, 0.071482062069,
        -0.079298490787, -0.076266656318, -0.221570709807,
        0.166142459449, -0.140127797870, 0.007019885873, -0.270391833375,
        0.188184457034, 0.011320620867, -0.133070155301, -0.020759348331,
        -0.169686612406, 0.280044764211, 0.065368065973, -0.079627888006,
        0.226340799414, -0.186797173281, -0.077320290802,
        -0.106330427865, -0.065656528653, -0.002944307556,
        0.164302141965, 0.212284150721, -0.146024566241, -0.023014914463,
        -0.132928681201, -0.077895880935, -0.171291069903,
        0.062818605304, 0.144485451276, 0.135785338727, -0.018503054909,
        0.050656602035, 0.069542011077, -0.185262903907, 0.016442047088,
        0.022955309226, -0.089878500532, -0.001826976951, 0.197210161976,
        -0.101336508038, 0.136260146484, -0.073865562455,
        -0.257126977282, 0.102269738919, -0.091401632892, 0.040720059375,
        -0.133317503822, 0.145931254201, -0.131171340095,
        -0.042225470026, 0.139378416966, 0.026431128201, -0.034510303834,
        -0.037616006775, -0.175570517330, 0.020050288814,
        -0.026524111396, 0.100903241470, 0.022365991724, 0.086929103525,
        -0.068418615379, 0.094748724645, 0.035395945315, -0.155182463672,
        -0.025613259947, 0.033573594176, -0.089700080635,
        -0.031182896662, -0.085409432913, -0.078885058109,
        -0.086862329027, 0.198953889454, -0.152539113076,
        -0.110009075897, 0.127464965397, -0.057724417294,
        -0.006553342605, 0.075720620161, 0.032735102584, -0.097662740479,
        0.055470140924, -0.198880045228, 0.090236508463, 0.062673655515,
        -0.197135712072, -0.135021131486, 0.085106325592,
        -0.090245439941, -0.183340969442, -0.054926126145,
        0.217982328613, 0.034411297462, 0.100747620039, -0.021179483842,
        0.121125922459, 0.089031987002, -0.103626053628, -0.131866412847,
        -0.007088019556, 0.027362343080, -0.176666245273,
        -0.063142806380, 0.040200767867, 0.006705456389, -0.062479690830,
        -0.005973680436, 0.057246382507, -0.103960409020, 0.047385494104,
        -0.018266139011, 0.159225123805, -0.268795119438, 0.082662173434,
        0.031486496374, -0.130361681727, 0.025799633686, -0.180003061239,
        0.078059075351, -0.100629599224, -0.199373460055, 0.044719100046,
        0.038359583856, 0.062828094513, -0.203387848686, -0.036191488584,
        0.093376816458, -0.074653318900, 0.102119314164, 0.243602716406,
        0.122780803207, -0.129363032204, 0.139350824781, -0.004346600568,
        0.121101172284, 0.142297788546, 0.016527480322, -0.185982098828,
        0.227867925130, -0.032955142020, 0.067113900174, 0.118560089218,
        0.079985074181},
       {0.016875073253, 0.107266328010, 0.076579655402, 0.051963872613,
        0.131632274510, -0.021085828262, 0.126492424392, 0.240510661006,
        0.191835249963, 0.061575489091, -0.058814471316, -0.013628592546,
        -0.166045618033, 0.100168283715, 0.148768383774, 0.057770585423,
        -0.086423151211, -0.054650128800, -0.215317221695,
        0.000788820467, -0.185352611807, 0.041616580583, 0.118300650300,
        -0.106709202674, 0.145863331741, -0.163703095149,
        -0.218544872214, 0.022397272390, 0.082164312200, -0.074067133505,
        -0.101404639321, 0.132857424428, -0.104574030541,
        -0.062472394519, -0.152729888515, -0.075452343306,
        0.075881037107, 0.113563955067, 0.153965182187, 0.121020633896,
        -0.005147956408, 0.263801428007, 0.046326352071, 0.089121647800,
        0.070982276994, -0.162153674255, -0.118727918064,
        -0.009179256742, 0.090391761593, 0.127982023330, -0.119176253298,
        -0.036491341958, -0.136571350167, -0.101104501699,
        0.025895800040, -0.188350081268, -0.133593938823,
        -0.010288930116, 0.025675481295, -0.042335903461,
        -0.028538027707, 0.123226452575, 0.012343733389, 0.132987297192,
        0.039791431608, -0.021077517840, 0.138472969753, 0.173622692110,
        -0.111787011726, 0.134757067147, -0.045132195033,
        -0.057457046144, -0.039299311641, 0.050339056020, 0.067891095371,
        0.011510013756, -0.075529150422, 0.040474233295, -0.170055872604,
        -0.075337627636, -0.106807744963, -0.148828229377,
        -0.045064494013, -0.046940169780, -0.198323869497,
        -0.013160117727, -0.110870341157, 0.053211459633, 0.098659878324,
        0.086178054624, -0.093224974045, 0.080929136159, -0.033763723004,
        0.214470913871, 0.061786040793, -0.123118135657, -0.209826977252,
        0.072684795832, -0.043288014751, -0.073447134514,
        -0.184335628336, -0.040823373278, -0.030410130776,
        -0.010186213916, -0.080548552038, -0.005626299543,
        0.099684909133, 0.087893740183, -0.204501847143, 0.037569339658,
        0.072268332285, 0.014481884001, -0.052468622464, 0.043638583020,
        0.148287261547, -0.068152420721, -0.077859601518, 0.152360720311,
        0.006698170446, -0.023022057227, 0.118832740042, 0.001836389920,
        -0.032417165736, 0.214204595247, -0.025356919967,
        -0.093704439094, -0.117093898824, 0.112410337480, 0.075988897285,
        0.285880593240, 0.057522212392, 0.026323435300, -0.131601914226,
        -0.187706437964, -0.078018574064, 0.202535867869, 0.111949554290,
        -0.220619375277, 0.233866548265, 0.007761462106, -0.096718154171,
        0.047064331553, 0.057323692013, -0.063971344053, 0.107975119380,
        0.045102446689, -0.227747834095, 0.229313736143, -0.015851005708,
        -0.148736634171, 0.176317689420, -0.138853900352,
        -0.106108829756, 0.048252891291, 0.088911163114, -0.145586848029,
        -0.168401932018, 0.068345938532, 0.047541312213, 0.091274004052,
        -0.024612329942, -0.158141350477, 0.160924317779, 0.073077866074,
        0.090884039875, -0.098216617405, -0.042648307038, 0.202489571176,
        -0.101797961854, 0.088084823606, -0.083270773361, 0.014911346491},
       {0.184433576434, -0.113364340304, 0.221725322311, 0.086315486028,
        -0.221066396544, -0.085261423312, -0.130542706409,
        0.019739611498, -0.225137177691, 0.042973122077, 0.157726486045,
        0.099163428108, -0.045999311664, -0.391697966281, 0.112490063155,
        0.291904973630, -0.038553187013, 0.168165703934, -0.057371126069,
        -0.105652325174, 0.178986476428, -0.124458965104,
        -0.009773622025, 0.120217577715, 0.060416034273, 0.006573687899,
        -0.328623717022, -0.013584799463, 0.188698686221,
        -0.151692446675, 0.093067324012, -0.255152161131,
        -0.198431337972, -0.227295281818, 0.027233029115,
        -0.096846113239, 0.129526991523, -0.113257639035, 0.021995590359,
        -0.130313202304, -0.153659730231, 0.311434451876, 0.259704341295,
        -0.063209213841, 0.262760209772, -0.194472859605, 0.232338479520,
        0.044960947589, 0.147681394669, -0.214096200845, -0.161284576884,
        -0.096938928137, -0.206979962098, -0.227576570615,
        -0.118452271426, -0.005714131123, -0.145658026614,
        0.089470999842, 0.206401958283, 0.103595314711, 0.177206885901,
        0.008377640834, 0.028537744165, -0.077591955918, -0.001296046916,
        -0.122450249924, -0.014293632325, -0.188107674249,
        0.175462726865, 0.141718875856, -0.095153438848, 0.038370119178,
        -0.154356433894, -0.085439627041, 0.157745214210, 0.119173232176,
        -0.177997327206, -0.085651503836, -0.130790143552,
        -0.082856060866, -0.059589067180, -0.175176751105,
        0.004218319577, 0.084399317041, 0.083174377317, 0.059212665068,
        0.131711207466, 0.220884911559, 0.069648045023, 0.084304311112,
        0.028258553471, 0.115995335535, 0.163363854061, -0.015711011199,
        0.183293462463, -0.001794797830, -0.095736250601, 0.054704176153,
        -0.024451593949, 0.090205009916, -0.053226031707, 0.153487538840,
        -0.147561657261, 0.094373447600, 0.114411938931, 0.241813324856,
        -0.149873266505, 0.134176499697, 0.179041865808, 0.082481037851,
        0.152181284828, -0.077584669754, -0.220209273519,
        -0.097048066171, -0.089350517419, -0.211650548457,
        -0.068884882893, -0.102982031879, 0.141060550277,
        -0.001614985322, 0.248660882403, 0.029521714052, -0.179778799898,
        0.194343227958, 0.142275375323, -0.006990036483, -0.070791594738,
        0.030254890384, -0.021219198894, 0.049654885201, 0.281957876447,
        0.292147777110, -0.030992728713, 0.093076404620, -0.125375192237,
        0.047458588111, 0.008228004496, -0.080524590067, -0.144213260778,
        -0.048524660962, 0.194002610716, -0.019404366374, 0.179332774999,
        0.145692651708, -0.134154206851, -0.075408937364,
        -0.103947989042, 0.108940821645, -0.011712731242,
        -0.234620932243, -0.158757465532, 0.244377394826, 0.002616651356,
        -0.079887864012, 0.119469041659, 0.009818973704, -0.241157208176,
        -0.063629572170, 0.235810136056, -0.171632173864, 0.205265487291,
        0.186463069121, 0.119334399620, -0.192462893051, 0.018569899313,
        -0.204503177883, -0.002580044164, 0.164757911265,
        -0.244407009533, -0.089869004975, -0.131547024923,
        0.022899913892},
       {-0.089236817190, -0.108282157037, -0.114784129497,
        0.068284538845, 0.173773570292, -0.138744002832, 0.057201228423,
        -0.103064983904, 0.296801540877, -0.159515169868,
        -0.025413250094, -0.070565816645, -0.076394162392,
        0.228497894355, -0.030531238336, -0.147214491258, 0.096236253323,
        0.065079516652, -0.097692620265, -0.128545338117,
        -0.075051145049, -0.302598569497, -0.050870334310,
        -0.201220563202, -0.169993847705, -0.219928998978,
        0.084169226209, -0.167787975202, -0.297090298783, 0.101012878186,
        0.101686354200, 0.229860577202, 0.016771751181, 0.270827846693,
        0.152484611354, -0.043463327002, -0.001890737511, 0.018931917739,
        -0.090140035980, -0.165324732302, 0.207910787337,
        -0.114389645372, -0.244577496299, 0.122777064779,
        -0.064551459054, -0.142992150843, 0.168478896095, 0.139475667235,
        -0.045003949048, 0.015085313596, 0.226737913145, -0.071897125160,
        0.040172706401, 0.102016537829, 0.065100905232, 0.044061465164,
        0.162137270784, -0.210176478978, -0.172901907172,
        -0.133932330476, -0.208746569658, -0.021756240056,
        -0.185730744434, 0.090806700874, 0.118704514163, 0.235319171060,
        -0.055746545318, -0.030682501328, -0.260167854293,
        -0.047705152518, -0.085255098125, -0.074882565315,
        0.126922815355, 0.004417257203, -0.090036751577, -0.184877283664,
        -0.100282484785, -0.054720410644, 0.017695770941,
        -0.177166340774, 0.025234893703, -0.029130053513,
        -0.118185399821, -0.056765003529, 0.034161944165,
        -0.166826123473, 0.003376099958, -0.257489469457,
        -0.191759481650, -0.121439817771, -0.023422838484,
        0.056619776092, -0.086787718655, 0.194774324379, -0.090154528553,
        -0.111873111787, -0.165761456891, 0.203646026856,
        -0.094060340115, -0.238344258415, 0.037041117047, 0.066084396697,
        0.109934018555, -0.046450496344, -0.265732921462,
        -0.125013701943, -0.035601146077, -0.054517536402,
        0.003578325398, -0.104964522073, -0.152413159922, 0.165708296020,
        -0.117408742157, -0.027911496531, 0.192658501664,
        -0.054465001024, 0.170959171322, 0.104431723334, -0.187593783275,
        -0.030649482901, -0.228737210725, -0.068815476621,
        -0.042077194944, -0.154233908055, -0.077150553668,
        0.231732668457, 0.067460006546, 0.004594429699, 0.051215388515,
        0.031999683277, -0.072538818614, 0.073543302486, -0.070197101187,
        -0.094865827187, 0.209560141529, 0.037165480265, 0.177869568977,
        0.201149403098, 0.257542222175, -0.158135635914, -0.090796657946,
        0.191300584769, -0.003455408829, -0.141436426729,
        -0.047442035292, 0.055350250469, 0.167238939995, -0.179155567642,
        0.158364098423, 0.057453901259, 0.200012526470, 0.077129171007,
        -0.144641754287, 0.109566126303, -0.010079699072,
        -0.163340291125, 0.236502588257, 0.030203889711, -0.211746879940,
        -0.194962547348, 0.088600556441, -0.235315363679, 0.001907104376,
        0.175004954682, -0.024173878501, 0.056120090348, 0.017871592738,
        0.000596669570, 0.105888791292, 0.157363248437, -0.118461771672,
        0.173745078151},
       {0.142033388961, 0.018459947205, 0.083017935561, -0.072421115151,
        -0.029056297285, -0.100981975763, -0.187106541170,
        -0.075864299937, 0.027099408334, -0.018123816222, 0.130996875271,
        -0.083619091164, 0.041461999706, 0.187538438404, 0.171088974547,
        0.166968943507, -0.019417028994, -0.024168782189, 0.154103977899,
        -0.102097284300, -0.078984306176, 0.098668525375, 0.115279822767,
        -0.248486198199, 0.120096814303, 0.117079082421, -0.126316324241,
        0.224219312890, 0.132008041063, 0.111503116566, -0.112180753241,
        0.104137414641, 0.060300985657, 0.040112797855, 0.011023235994,
        -0.080195122649, 0.207240932983, -0.088857098080, 0.091002804701,
        0.163402721428, -0.160528927057, 0.217777542450, 0.137113107229,
        -0.209079365802, 0.203968817514, 0.100116812707, 0.154340905004,
        -0.133588393743, 0.016258507930, -0.199598763640,
        -0.104989786452, 0.138639702605, -0.205705116649, 0.080972324523,
        -0.055507453674, 0.105785471898, -0.124437029447, 0.034731571913,
        -0.017248399364, 0.099191172535, 0.237648957783, 0.060467657137,
        -0.077416485984, 0.058556224242, -0.015211475556,
        -0.116757919043, -0.074027644505, -0.001505508850,
        0.039099784949, -0.049927759226, -0.103815800229,
        -0.143491039095, -0.023053477045, 0.070700875299, 0.235284398199,
        -0.031559391482, -0.097156247464, -0.140629795549,
        -0.027628146262, 0.022732272041, -0.150497037398,
        -0.180773233603, 0.096635938499, 0.048884345336, -0.069787149920,
        -0.084945779610, 0.119021977910, 0.016252157823, 0.163742471847,
        0.183450913849, 0.174622137504, 0.007400683446, 0.075451016089,
        -0.040261276928, -0.108186319695, 0.092259758476, 0.046219029200,
        0.021219941978, -0.034336243108, 0.024465165235, -0.127810371347,
        0.037028778594, -0.004545339722, 0.009248664263, 0.086392794304,
        0.159715145434, 0.002390414892, 0.050590259476, -0.091893670686,
        -0.020015529626, -0.014327531409, -0.025673337682,
        0.003887643697, -0.011806266618, 0.098806956757, 0.075681931141,
        -0.066278622348, 0.031239497953, -0.138683085679, 0.042726120883,
        0.067489496821, -0.037536128615, -0.104840939548, 0.078889923640,
        0.063357264481, -0.125140879464, -0.190801062723,
        -0.013410064715, 0.279392867757, 0.072634133806, -0.117890218388,
        0.108244133439, -0.128932744556, -0.005661205563,
        -0.063846283785, -0.094961850342, -0.156464220916,
        0.018304277479, 0.037048269718, 0.049239317510, -0.064400046550,
        0.030584752865, -0.159511862033, 0.056931146276, -0.020044187572,
        -0.029515175999, -0.090012615759, 0.072696526766, 0.081187955704,
        -0.044072573337, -0.111666326731, 0.167580775297,
        -0.070131267840, -0.018724088765, 0.061944323802, 0.123005617679,
        -0.111408234823, -0.071918685763, 0.042080152370, 0.006537966182,
        -0.085001745569, -0.033979762783, -0.089843908108,
        -0.107419124752, 0.147563716597, -0.049230673002,
        -0.111217610221, 0.058103611695, -0.026359467478,
        -0.043616278537, 0.185725326739, 0.070990658105},
       {0.079429094606, -0.202356717144, -0.088307604448, 0.141615206757,
        -0.108119672753, -0.241861027199, -0.171745207487,
        0.076629826838, 0.064967793701, -0.128668082510, 0.019808730025,
        0.151776260331, 0.061409675930, 0.185002138724, -0.119488565300,
        0.261510796993, 0.096076956177, -0.013163565617, 0.000519367566,
        -0.151273691190, 0.034520385184, 0.097814714222, 0.088383076526,
        0.007682123733, 0.092699792118, 0.051493519781, -0.229065481229,
        0.131165446996, 0.096643486038, 0.043793872652, -0.077309648172,
        -0.248352783316, 0.105420716451, -0.074153874835,
        -0.084084571806, -0.195052196347, 0.025939574091, 0.009900387286,
        0.137500360907, -0.074429826788, -0.237628314252, 0.266788715810,
        -0.021509999185, -0.187613794453, 0.033044505949, 0.141088509646,
        -0.080344172467, 0.107489105303, -0.203248429138, 0.033196083910,
        -0.112884710043, -0.109747955717, 0.031861241586,
        -0.018921485994, -0.237758028144, 0.070695249403,
        -0.150630636306, 0.102050581889, -0.037048996315, 0.151141239123,
        0.157059104196, 0.090973420167, 0.070415858067, 0.130284733682,
        -0.004823272278, 0.001601099742, -0.001877478707,
        -0.043000145613, 0.303394295018, 0.054118425174, -0.102757471878,
        0.106549528107, -0.267870847943, 0.078914884652, 0.098245358691,
        0.273576764478, 0.056922874524, -0.052326993589, 0.069118889648,
        0.068714959923, -0.063224057210, -0.175715217440, 0.081528831011,
        0.067761710945, -0.041845253265, -0.030481711414, 0.070039841295,
        0.205868759375, 0.044969015426, -0.012693265058, 0.115911354628,
        -0.020432525517, -0.013399717589, 0.041406845882, 0.126498964874,
        -0.014940678829, 0.006279497382, -0.168538286419, 0.116611885515,
        -0.132844375239, 0.088396337303, 0.016597626442, -0.177330204985,
        0.190298980234, 0.041212560947, 0.083347474776, 0.002971129445,
        -0.043374745994, -0.038612243853, -0.154212365435,
        0.226061212075, -0.122214417374, 0.206859387679, 0.028140745425,
        -0.174956319826, 0.078822354575, 0.079315760603, -0.171113318535,
        -0.065833858860, -0.047443583633, 0.114250629136,
        -0.046451344147, 0.072178154888, 0.030466043637, 0.004940608103,
        0.175749832704, -0.166933179631, -0.124479565733, 0.143027260839,
        0.094896104017, -0.159355640620, 0.195416442729, 0.075183115240,
        0.024211875165, -0.126840366204, -0.034852363629,
        -0.171338067910, 0.059255746237, -0.072621241502,
        -0.232396398210, 0.063171058249, -0.090974884706, 0.109353874717,
        -0.040042577415, 0.114652542607, 0.142736076132, -0.000988895439,
        0.175591359074, -0.091493733864, -0.250560804183, 0.142529092304,
        -0.104828316378, 0.095230987637, -0.024265782427,
        -0.065671098961, -0.036606531132, -0.223605343706,
        -0.164512957651, 0.073324567393, 0.016810344588, -0.109721562129,
        0.113214818233, -0.118721465312, 0.157155420974, 0.162018567847,
        0.027486332786, 0.029023080775, 0.222967050535, -0.162667632336,
        0.180245429218, -0.031804577106, 0.157765681875},
       {0.235839607692, 0.029309868032, -0.084826045743, -0.081591435829,
        -0.163079238986, -0.108509706623, -0.031928452667,
        0.201104717025, 0.076139382827, -0.026160510043, -0.009346535193,
        0.113343948484, 0.070347295922, 0.181093355741, -0.065242985794,
        -0.105435143225, 0.120808843360, -0.145938992961,
        -0.072107770287, -0.084985087746, -0.134456054833,
        -0.005795691775, -0.090771986320, -0.268354829738,
        -0.123971629879, 0.042126915147, -0.066599860533,
        -0.040049285617, -0.010715026659, -0.067939201620,
        -0.208131607970, -0.081903913483, 0.195449778941, 0.088891036744,
        0.029206879433, -0.260492457095, -0.009488955667,
        -0.001614815700, 0.180733151184, 0.133423099430, -0.166674555306,
        0.069321007512, 0.259240055723, 0.074543068265, 0.067168838083,
        -0.152454967893, -0.001572379686, -0.007077215522,
        0.062280162864, 0.139965422787, 0.052378647797, 0.200594810980,
        -0.046086647992, -0.099260868210, -0.058628315706,
        0.109163310424, -0.145909659862, -0.014201885140, 0.216702389200,
        0.075024886642, -0.023831475064, -0.135427190404, 0.085038059454,
        -0.148417550097, -0.072669971174, 0.155202721981, 0.103345193466,
        -0.032969745227, 0.012058456961, 0.027498826491, 0.035460765291,
        -0.150599464663, -0.138771192516, 0.166238524704,
        -0.021360130825, 0.266074872786, 0.031272160852, -0.062456608289,
        0.018924035483, -0.064001980498, -0.155242181455,
        -0.135643472833, 0.239599103036, 0.010060041649, 0.065554014624,
        -0.183912585252, 0.175919658809, 0.152067462408, 0.279859195635,
        0.248264576054, 0.052012854313, -0.028047050335, 0.046117795276,
        0.049693895520, -0.178815489050, 0.060831996327, -0.116140522426,
        -0.165033928457, 0.087858298234, 0.008381380864, 0.069511273986,
        0.194078477414, -0.148694844431, 0.105049668941, 0.107498573590,
        -0.145706850913, -0.261444978348, -0.095061047023,
        -0.103353474511, -0.156794633633, -0.073088897361,
        0.120610956787, 0.002009232909, 0.051123758807, -0.103035139706,
        -0.112199032736, 0.145446845812, -0.001210150547,
        -0.081306481012, 0.078205233256, 0.022277891624, 0.034499250644,
        -0.072008770161, 0.239914473848, -0.114846999538, 0.229245333488,
        -0.209403618818, 0.111919567137, 0.047915455397, 0.123648503538,
        -0.124863221798, 0.063877890952, -0.124171775589, 0.055058724956,
        -0.008116157774, -0.037004581679, -0.109768969585,
        0.076665110819, 0.140094286591, 0.023589637391, 0.188296891232,
        0.079265300518, -0.151590409822, 0.072632163138, 0.239518566791,
        -0.148827437808, -0.153728005608, -0.036153133817,
        -0.135554891728, -0.189863683288, -0.014580278934,
        -0.071765138012, -0.131557493482, 0.059573579742,
        -0.055136897982, 0.075329843994, -0.138622770923,
        -0.016230880383, 0.050852649072, 0.074383823224, 0.150097248087,
        -0.222180272491, 0.008044443451, -0.012887762814, 0.106301003920,
        -0.039549902567, -0.150029170927, 0.050877161150, 0.126642649487,
        0.036799748167, 0.094200515923, -0.119763434309},
       {0.140578954243, 0.135540933423, 0.124227850128, 0.083136395581,
        -0.077933840672, -0.023366791202, -0.124995970272,
        -0.046378178319, -0.183783413397, -0.038907701656,
        -0.082423823318, -0.113462653427, 0.019517507366,
        -0.178377463721, 0.032144063010, -0.020947636608, 0.027508621175,
        0.049823956751, -0.001568524211, -0.156965197015, 0.056843193832,
        0.134874570088, 0.074193372510, 0.103813549984, 0.067654496044,
        -0.110994603814, -0.013222854834, -0.038922124290,
        0.010703069178, 0.102440495492, 0.185061644433, -0.005487262665,
        0.020687499218, 0.078145040014, 0.124315423601, 0.052601499978,
        0.052241330544, -0.167340398869, 0.103194158484, 0.135344083913,
        -0.121487257967, -0.009468201869, -0.111266007087,
        -0.034443904324, -0.093810041081, -0.048028854399,
        -0.154191716131, 0.001374989369, 0.008756281610, -0.258089297702,
        0.233653981358, -0.154441250067, 0.237561862114, 0.021814475927,
        -0.065457900565, -0.176895646600, -0.156615492564,
        -0.097965288356, 0.006894200536, 0.101615990535, -0.132462158534,
        0.015733039355, -0.131287578703, 0.026548518917, 0.049570301276,
        -0.221909300688, -0.021944776573, 0.116836347402,
        -0.042630225693, 0.110432679665, -0.075264687147,
        -0.078852109242, 0.034475341679, -0.170183984547,
        -0.105756653008, -0.146158406389, 0.071856241594,
        -0.126969486543, -0.103561791837, -0.020311981123,
        0.118768263572, 0.124575771741, -0.214583099101, 0.139540652856,
        0.066212521591, 0.095059879426, -0.305821753974, -0.209570034509,
        0.158773761639, 0.049922584769, 0.081032346404, 0.104146205441,
        -0.056413109743, -0.242143650066, -0.010454925014,
        -0.032614848818, 0.083038032909, 0.050233346961, -0.234976500622,
        0.050978795642, 0.097372387750, 0.071010218544, 0.233263740216,
        -0.025583144373, 0.017264006366, 0.131882342057, -0.188481465149,
        0.009177038885, -0.091474380766, 0.134679075329, -0.028561745865,
        -0.091007407392, 0.097015620090, -0.214224803586, 0.067010941575,
        -0.033417605483, -0.048896566154, -0.024164348699,
        0.057865865562, -0.157557319417, 0.060804093897, 0.074662750302,
        0.057027406339, -0.006757081518, 0.159087790842, -0.091423188063,
        0.107203425400, 0.212357560332, 0.018682094536, 0.198874607355,
        0.067728052401, -0.119537824500, -0.219977108214,
        -0.017386570275, 0.110961280008, 0.061994950754, -0.089271676976,
        0.020885834784, 0.035160154316, -0.014085298839, 0.033632539127,
        -0.235198931707, 0.135514159279, 0.168836902311, -0.169226405652,
        -0.079306391742, 0.148951926757, 0.190136864185, 0.211727049809,
        -0.057760804882, 0.134422328850, 0.040770096777, -0.159183934661,
        -0.011112017987, 0.242755117800, 0.021890708680, 0.152810059983,
        0.006506977610, -0.118140754485, -0.018829694400,
        -0.012129990630, 0.232452216606, -0.027293264564,
        -0.140761395093, 0.002591970913, -0.007097841334, 0.196924801889,
        -0.007888919429, 0.092150757748, 0.145880456882, -0.084152426537,
        -0.114844474574},
       {0.112047069298, 0.047298380636, 0.040686160744, -0.214295589140,
        -0.131164156321, -0.025206916530, -0.130531553283,
        -0.077028660673, -0.107414168855, 0.059374306014,
        -0.035129021754, -0.201168336293, 0.017413784601,
        -0.240757503248, -0.059717103190, 0.082032621761, 0.075620366093,
        0.248150518571, 0.130455898696, -0.181261156275, 0.123079541353,
        -0.076278887232, -0.176655649786, 0.128713162105,
        -0.201910845314, -0.217851688137, -0.205627951112,
        -0.054992325060, -0.227743551566, 0.113994528439, 0.195902752228,
        -0.087594447902, 0.004726356559, -0.118359001762, 0.161418364611,
        -0.184800753314, -0.119922158058, -0.001471737699,
        -0.186665017626, -0.078166503960, -0.026624985849,
        -0.226128021602, -0.096954612503, -0.144943802371,
        0.125948849047, -0.031172007698, -0.167682988394, 0.137613519391,
        -0.151052612244, -0.183461557188, 0.239691186478, 0.085516772183,
        0.124378539101, -0.111000792576, -0.010388701505,
        -0.080195771899, 0.010939266198, 0.000265299899, -0.046325198345,
        -0.158064804791, -0.048187374201, 0.151314925604,
        -0.058264980741, 0.223582189462, -0.017271679552,
        -0.021107260429, 0.030431165363, -0.005706331253,
        -0.059626414195, 0.159722065130, -0.224937852711,
        -0.202377860376, -0.105965385425, 0.114607101215,
        -0.009092908149, -0.282959148722, 0.032911405920, 0.034649210281,
        -0.033577097655, -0.155406653937, 0.254759881738, 0.049872974384,
        0.026553119201, -0.042682629679, 0.032091290572, 0.093394042450,
        0.056500519065, -0.166588351110, 0.026389450255, 0.078807316536,
        0.056111133013, 0.065536364477, -0.091045707873, 0.040586267246,
        0.033831144110, 0.189811664922, -0.132090004059, 0.242252832361,
        -0.252276152559, -0.035755118171, -0.215840785659,
        -0.140763076548, 0.072380960393, -0.155431818882,
        -0.083703182190, -0.174042775825, -0.024063936121,
        0.155745211268, -0.023303685538, -0.090356347483,
        -0.149504013698, -0.010295286121, 0.091593384049,
        -0.202351850926, 0.125262059390, 0.160138755340, -0.015686521203,
        -0.065538167267, -0.079780866856, 0.002953495779,
        -0.295673587893, -0.145797971896, -0.072510387136,
        -0.071478540492, 0.076785288469, -0.084845818608, 0.052957129570,
        0.179421007524, -0.247139242366, 0.216798332542, -0.076834502691,
        -0.073796017714, -0.153317669460, 0.279702944695, 0.122402356507,
        -0.011534479542, -0.172913348580, -0.022210014272,
        0.147616597332, -0.054270166705, -0.043207271150,
        -0.154494117331, 0.028395337534, 0.054259886093, 0.245057448033,
        -0.042668110275, -0.005128284719, 0.112643108709, 0.007777718524,
        -0.144828713891, -0.026321068905, -0.101958932920,
        0.045197042413, 0.147852919029, -0.013946121918, -0.005344067732,
        -0.044622309220, -0.105960226960, -0.164925488596,
        -0.040102700760, -0.096648959194, 0.187450196205,
        -0.264685135257, -0.185155469643, -0.021273717550,
        -0.219882346028, 0.097827457439, -0.104562190518, 0.073319304296,
        0.038061865065, 0.075381068169, -0.148571934417},
       {0.059814786268, 0.075179374342, -0.134337519250, -0.165536897189,
        0.068388962759, -0.216029138890, 0.014628788347, -0.014821342615,
        0.222965664753, -0.182976371949, -0.051190155677,
        -0.107859149090, 0.122451589870, 0.309240335233, 0.002436469014,
        0.102107810102, -0.040712569308, 0.300278719891, -0.014653377055,
        -0.032546274183, 0.229906773671, -0.158442736786, 0.031817196994,
        0.010887772167, 0.012078862694, 0.029726848469, -0.083578467599,
        0.032161852321, -0.331220290332, -0.101852879587,
        -0.008201469577, 0.158819677760, 0.111849734070, 0.113546709230,
        -0.221932619224, 0.052699085689, -0.121628740618,
        -0.308175540359, -0.060009798012, -0.113373937046,
        0.219610483754, 0.067461214057, -0.293505946932, 0.075337814438,
        -0.131048074544, -0.037636517810, -0.083006006919,
        -0.015330347510, 0.050958029330, -0.107553860999, 0.347323823729,
        0.099952471601, 0.296071239496, 0.004449139585, -0.026572205590,
        -0.049854705653, 0.026046578927, -0.057615462237,
        -0.081398424238, -0.261915005028, 0.128892111534,
        -0.155655633719, 0.147684965253, -0.166628297858,
        -0.140040375359, -0.072753966990, 0.019804885040,
        -0.039930677776, -0.029959604491, -0.231602301267,
        0.011760453508, 0.025447332196, 0.004099071351, 0.116018448417,
        0.233459317223, -0.339252921151, -0.176348085670,
        -0.185018386230, 0.203780914453, -0.187843013765,
        -0.023383569327, -0.173248645982, 0.048710749814, 0.196960426980,
        -0.082305071464, -0.113703793356, 0.192864113436,
        -0.001011643885, -0.170628729810, -0.046945569576,
        -0.110390031825, 0.108873743409, 0.189824798860, -0.011402518441,
        0.122330202651, 0.077079360784, 0.203693792525, 0.126800028265,
        -0.029908856832, 0.033052392600, 0.047562926198, 0.177863898677,
        0.263529355450, 0.119135445149, -0.157986602622, -0.117174957045,
        -0.265855678630, -0.092769423948, 0.056395514305, 0.092418404157,
        0.054185368519, -0.031078517476, 0.052265867491, 0.027906025924,
        0.218011883694, -0.113770399986, -0.134541513941, 0.017192220784,
        0.026859637067, -0.084107284607, -0.053462056847,
        -0.004764977661, -0.115861862228, 0.352504976078, 0.075399383991,
        0.246175496045, -0.088602495051, -0.043247878133, 0.086709756979,
        -0.146347486361, -0.171843592979, -0.028029319876,
        0.144656589223, 0.214057466625, 0.040445834887, -0.055558144276,
        0.089765102620, 0.016803148666, 0.276618997039, 0.058721142325,
        -0.120220774716, -0.108418310156, -0.118671458482,
        -0.030276198797, 0.017997088121, 0.075682476931, 0.166571536691,
        -0.140490563663, 0.000445292239, 0.013388707565, -0.085806736028,
        -0.092249427382, 0.051571683533, 0.106429111541, 0.072117958105,
        0.160256142088, -0.053602790227, 0.057051226662, -0.043867056609,
        0.097520159561, -0.265212097874, -0.176357751471,
        -0.183236598080, 0.201181201911, 0.026754948673, -0.059770082410,
        0.003270670445, -0.098516355970, -0.083932570467, 0.123528776075,
        0.062083053147, -0.037125883048},
       {0.141165639975, -0.032283676255, -0.034049684063,
        -0.165113308552, -0.112824639981, -0.095629288429,
        -0.081892813047, -0.147225740143, -0.147250068538,
        0.175231926940, 0.007042557975, 0.011513065233, 0.246471530747,
        0.102195647673, 0.116025236596, -0.111953349197, 0.208277408394,
        0.000743478261, -0.063083940570, 0.018839048964, -0.133972697797,
        -0.196463763642, -0.078644702442, -0.012556682235,
        -0.197273454553, -0.017995389038, -0.052606414692,
        -0.061294998467, -0.194579025782, -0.074462593507,
        -0.026848988902, 0.019252954649, 0.164452424173, -0.176738303713,
        0.194762815730, -0.030552501629, 0.094920351723, -0.003424544554,
        -0.086892231778, -0.065156023548, 0.061855792574, 0.058581361887,
        -0.064918929041, 0.082683724509, 0.235986401963, -0.081843884000,
        -0.077831102127, -0.004507977956, -0.061387017761,
        -0.198650350365, -0.062012071795, 0.088621070501,
        -0.129344219896, -0.165814061505, 0.083911993056,
        -0.017920293277, -0.033647648111, -0.139672735459,
        -0.030452019515, -0.119956089456, -0.162825527959,
        0.211543205114, 0.151970456071, -0.011984864663, -0.151766948885,
        0.073120800959, -0.003697487935, -0.090507369854,
        -0.159852131539, 0.124280911979, -0.230214141478,
        -0.040340447992, 0.101915823364, -0.111251078843,
        -0.021197054332, -0.052446164019, 0.184186607128, 0.130361790303,
        -0.055846933144, 0.129459164508, 0.062812893879, 0.157335216161,
        0.227663182846, -0.014373650070, 0.093663089283, 0.236642465162,
        0.017423529626, -0.139039203841, -0.074329625531, 0.150954385830,
        0.046698883956, -0.055961844100, -0.041434913710, 0.044633272741,
        -0.133388353064, 0.019876918675, 0.043924902382, 0.122899561522,
        -0.256119747150, -0.149314374822, 0.078911517243,
        -0.218728686564, 0.090318596982, -0.111832481913,
        -0.170871763259, -0.002557102944, 0.071899500291, 0.236091859944,
        -0.241178328895, 0.074325429572, -0.096626930333, 0.019974137406,
        0.147386867381, -0.112069114330, -0.041079606555, 0.130335758751,
        0.176305833825, -0.237581347594, 0.054769180993, -0.141554167483,
        -0.263587856676, -0.064719410321, 0.100769133283,
        -0.085896144499, 0.212382255786, -0.141849274496, 0.146203630663,
        0.182931016683, -0.133697410107, 0.037117496740, 0.191566777579,
        -0.227544955184, -0.032081795829, 0.266880811366,
        -0.002665571451, -0.055768635582, -0.036133487922,
        -0.089727165859, -0.014205776618, 0.126197963696,
        -0.245942621115, -0.107539336744, -0.088467441477,
        0.215763045225, 0.235852430698, 0.188202231559, 0.109246286241,
        -0.115596082868, -0.010583465019, -0.181926180594,
        -0.073319200999, -0.201516533690, 0.130127409694,
        -0.010051720480, 0.208969375475, 0.169557287654, 0.002877405938,
        -0.024265905777, -0.079892637032, -0.039094142264,
        -0.174091689097, 0.154578984399, -0.061772967596,
        -0.123683382239, -0.298525565394, -0.137730038116,
        0.038324735202, -0.141597141160, 0.061115732674, -0.152325308856,
        0.304903403481, -0.022866005633},
       {-0.121702014365, 0.091182667862, -0.017763185371,
        -0.024510061420, 0.159563480554, -0.012952557942, 0.018940280956,
        0.207641858177, -0.060321246165, 0.083198323553, -0.119452019286,
        -0.191838127255, 0.084854203786, -0.268799313362, 0.066747774143,
        -0.051981968239, 0.058863987132, 0.159315252566, -0.012741898829,
        -0.080832248150, 0.084335097962, -0.097888706082,
        -0.180878267701, 0.067871325365, 0.016245282712, 0.029980629090,
        0.027574686829, -0.151787088294, -0.073063762460, 0.055207089903,
        0.122384343626, -0.028300383255, -0.041305142004,
        -0.093356887996, 0.080249122445, -0.095788343351,
        -0.063823104947, 0.076898953468, 0.204419682295, 0.023225159604,
        0.027514104802, -0.019864176849, 0.164709500372, 0.034398904023,
        0.072238762049, 0.115328696567, -0.124363773860, 0.091094125712,
        -0.132806008299, 0.010690591483, -0.086150030951,
        -0.199311608172, -0.009644929857, -0.085367145322,
        0.084562313753, 0.087220068009, -0.113988978095, 0.000134105232,
        0.032592189681, 0.085133556291, -0.013550741546, 0.002239229193,
        -0.244958811796, -0.120141180690, -0.171998882936,
        -0.035221962105, -0.034082144802, -0.096475176712,
        0.084210484382, -0.000392135525, -0.092311714055, 0.050557826928,
        -0.170766211430, -0.165544334377, -0.094905185924,
        -0.070061555509, -0.038076211469, 0.055958643590,
        -0.014185407002, -0.134417457839, 0.248237356112, 0.056585281391,
        -0.265876479636, 0.056070698080, 0.060143000718, 0.169509696152,
        -0.130201763089, -0.089746076530, -0.018139638622,
        -0.062773598398, -0.066247485446, 0.043994217622,
        -0.279958079471, -0.229578318234, -0.080585135309,
        0.198821081315, -0.154122850104, -0.011369881090,
        -0.174016908523, 0.068416011741, -0.004394980117,
        -0.054327336252, 0.198365042770, 0.031486924689, -0.018214867732,
        0.119458854253, -0.140511601050, 0.131418039138, 0.039764704214,
        0.161540280764, -0.164949798642, -0.022521134396, 0.036010284004,
        0.025945777380, -0.010329023331, -0.102302175027,
        -0.038889819056, -0.129384770913, 0.216565192878,
        -0.122530173728, 0.086680314512, -0.147689749345,
        -0.021758989248, -0.096619960675, 0.086400841131,
        -0.239028266260, -0.213702584413, 0.007813356681, 0.043429808653,
        0.027272207943, -0.149738826849, 0.060656933027, -0.115410930485,
        -0.106471038645, 0.167603439066, -0.045356068792,
        -0.064597150925, -0.094664949219, 0.018815872474, 0.232815123646,
        -0.090915713702, -0.144260094990, 0.138204693549, 0.182156754389,
        -0.202242539696, 0.110660079124, 0.179680756373, 0.134712012857,
        0.134129200791, -0.051690338069, 0.104847600856, 0.019000204317,
        -0.106760820159, -0.122071805234, 0.259706318024,
        -0.061585036789, -0.195145494221, 0.047449181020,
        -0.161112264653, 0.086222304283, -0.173983563997, 0.101191206835,
        -0.042850196683, -0.115024545117, 0.060342027147, 0.091789731690,
        -0.172843830306, 0.054455879376, -0.181600584531, 0.128525115541,
        -0.403135802913, -0.069159605885},
       {0.166796599301, 0.169953614068, 0.155747617973, 0.155081769598,
        0.105492609776, -0.143197330104, 0.086115203826, 0.090477942610,
        -0.150653099462, 0.031204149067, -0.147584409872, 0.094484654653,
        0.223386961838, -0.182178601352, 0.111679439412, -0.123500268917,
        0.077063835747, 0.121960330959, -0.112672541288, 0.089742985193,
        -0.068329500042, 0.183067835390, 0.057353480286, 0.132854144036,
        0.200376161129, 0.064516420324, 0.041669302936, -0.037953933860,
        0.008852581345, -0.168376984535, -0.153236289294,
        -0.015257667596, -0.153010722410, 0.247446877217,
        -0.141621542770, 0.036528575718, 0.067515876384, -0.136465717393,
        0.119874833311, -0.081816214234, -0.138927465565,
        -0.106760025463, -0.027696185898, -0.084647316543,
        0.058838322054, -0.118151547291, -0.192898414700,
        -0.221100665838, -0.019759841200, -0.073699062038,
        0.011075004096, -0.349418615618, 0.218856234110, -0.155803946668,
        0.012495479218, -0.203763385880, -0.063027415801,
        -0.056135995735, 0.079411859741, 0.166720750379, -0.115309327073,
        -0.007205568818, -0.062764602469, 0.018787957376, 0.074816012292,
        -0.077438953061, 0.019872108967, 0.057317314167, 0.077374867869,
        0.078269724226, 0.141722528698, -0.114852049366, -0.082249750768,
        -0.033335967166, -0.185453854300, -0.186977076847,
        -0.150334756339, 0.083638155042, -0.084655733631,
        -0.111607724981, 0.008258325046, -0.127312945398,
        -0.244500562701, 0.113383108450, -0.145696221238, 0.170872445673,
        -0.090891109274, -0.060018726165, -0.090191838409,
        -0.087650397535, 0.087537878384, 0.169994205751, -0.135986698582,
        -0.138817199046, -0.044973929620, -0.081224216564,
        0.063984436694, -0.105025558573, -0.143675684631, 0.171868506327,
        0.082941652003, -0.021265068602, 0.154545691653, -0.101732139226,
        -0.138670556361, 0.103691493664, 0.001203579150, 0.168018889269,
        0.013655306977, 0.058091191179, -0.077066439924, -0.080823071093,
        0.058014518171, -0.081942436089, 0.074869582088, 0.015719925867,
        -0.176853515728, 0.211583052213, 0.022930457547, -0.097649041312,
        0.170627583969, -0.129516019144, 0.008148483336, -0.348582939983,
        -0.036777712223, 0.005639755993, -0.180585811955, 0.030974767152,
        -0.119409775512, -0.058483189708, 0.079248746897, 0.024058340646,
        -0.201062113206, -0.141021303778, -0.022766677744,
        0.160990207306, -0.025862464026, -0.094562180553, 0.079570649324,
        0.113375482819, -0.162995665331, -0.192790966658, 0.200403820360,
        -0.030824472317, -0.119639436641, -0.010008011792,
        0.193521136339, 0.214384159948, 0.098888415806, -0.008129692234,
        0.004012888284, -0.003874231430, -0.102217969061,
        -0.112832669113, 0.015289454200, -0.032787854680,
        -0.136018809331, 0.020245292816, -0.141532675537, 0.031000174482,
        -0.150255790481, 0.285118637782, -0.200108349728,
        -0.084865467132, 0.258209040880, 0.030761453989, 0.105042264139,
        0.327260873248, 0.152092925008, 0.084789203687, -0.153987894038,
        -0.139446408071},
       {0.140172265558, 0.166495674447, -0.113692889339, -0.190389178513,
        -0.088818940444, -0.081485139051, -0.112190473345,
        0.184970907461, -0.057249002564, 0.071762137362, -0.020234915984,
        -0.170070716950, 0.190721528133, -0.179611179972, 0.111298331431,
        0.072297884707, 0.027552081791, 0.071632329791, 0.115352183447,
        0.048075115190, 0.204508182272, 0.064823630889, 0.019788847695,
        -0.072462156408, 0.033669084154, -0.174521743392, 0.051117622486,
        -0.108134113575, 0.022493521983, 0.043813117837, 0.218279990581,
        -0.113702652127, -0.165752369728, 0.053770079049, 0.131664215139,
        0.070429556002, -0.125508451826, -0.100555750438, 0.050978542230,
        0.009586377765, -0.110014432330, 0.112034735781, 0.194946610302,
        -0.146742758185, 0.263554322311, -0.033335949691,
        -0.172763950107, 0.121820050823, -0.144557532031,
        -0.202565157492, 0.024124129052, 0.128637639991, -0.035000273212,
        0.001427489910, 0.006468321218, -0.065295754448, 0.025254397340,
        -0.149602369337, 0.151062764429, -0.058100002240,
        -0.030974793817, 0.209473201136, 0.066154874385, -0.130778015625,
        -0.129731137792, -0.166014292436, 0.021010771646, 0.021710752895,
        -0.178856108306, 0.253042093942, -0.225328223143,
        -0.139061638682, 0.095847447471, 0.186998465754, -0.010934720002,
        -0.135846387255, 0.165401232146, 0.133774788894, 0.076412651279,
        -0.267313669346, 0.267905647763, -0.087406013681,
        -0.143226322111, -0.083112142899, 0.072172659221, 0.117306797578,
        -0.093688975967, -0.182446426740, 0.029121484247, 0.188880297906,
        -0.054041339576, -0.059228395777, -0.095520264332,
        -0.128610064687, -0.135599135289, -0.117238825158,
        -0.123963859695, 0.002448362855, -0.230212136442, 0.090953363304,
        -0.018656432714, 0.034288766500, -0.047190404556, 0.046737488150,
        0.017606154582, -0.178286666943, -0.117146767395, 0.190284728569,
        -0.048432501650, -0.041988843302, -0.104343921729,
        0.162724953517, 0.107316573981, -0.066646528068, -0.058949773931,
        -0.125190386973, 0.126541323992, 0.031960118664, 0.106296748554,
        -0.082021913280, -0.093557372867, -0.000604046489,
        -0.042141489342, -0.145307578136, 0.197256736970,
        -0.154779465799, 0.148052526893, -0.006901611039,
        -0.220791540519, 0.200409145651, 0.004648844602, -0.008553616414,
        0.023369213495, -0.055396941934, -0.030077904092,
        -0.017607880764, 0.085112385429, 0.119103272114, 0.119948155037,
        -0.032364011217, 0.084413576486, 0.042138396286, 0.145186842148,
        0.012404458996, -0.077434277807, -0.061397426993, 0.134021014177,
        -0.007780669560, 0.127448919038, -0.107528419388,
        -0.055037838941, -0.103037709131, -0.136043997794,
        -0.084573851583, 0.153359809209, 0.072764515912, 0.008515030422,
        0.153014712352, -0.124226009689, -0.047736148695,
        -0.292554489928, 0.179125437350, -0.241440008205, 0.009907276695,
        -0.039226321962, -0.067780394078, 0.157170644285,
        -0.023842114954, 0.097492714896, 0.189802978998, 0.016373101303,
        -0.044545598192},
       {0.031605570652, -0.074771750676, -0.032753789365, 0.037849323072,
        -0.119138658013, -0.020441383018, 0.163302504246, 0.022911357621,
        0.062039149819, 0.123213105933, 0.082584941589, -0.052495165082,
        0.057727071953, 0.205571405513, -0.077348693748, 0.072136212678,
        -0.005663920361, -0.122629224512, -0.172963113686,
        0.096024981818, -0.245917756106, 0.123881872008, 0.119985419613,
        0.085611096098, -0.138136392337, -0.182651714463,
        -0.089656807069, -0.012785865665, 0.033211574019, 0.176164534783,
        -0.169496634226, 0.105136890996, 0.145804617650, -0.103045315052,
        0.036546722422, -0.082724497759, 0.036702139318, 0.079430723394,
        0.021116715050, 0.253121056589, -0.006601615693, 0.009864685961,
        -0.016565187025, 0.082709755031, -0.158981552130, 0.101993750160,
        -0.006602041230, -0.005169677316, 0.082859977512,
        -0.024472135552, 0.019803669665, 0.018557259434, 0.075172335627,
        0.213848120469, 0.062988509995, -0.066824614503, -0.167300031469,
        -0.045469561167, -0.144455817149, -0.160143400479,
        0.173163311525, 0.246792445824, -0.094808642563, 0.003123441111,
        -0.172140500315, 0.027814143018, 0.203864590022, -0.120940574951,
        -0.055441953123, 0.220184685613, -0.101413989968, 0.111027569703,
        0.032998530347, -0.032035590361, -0.000612636935,
        -0.106632074881, 0.098285775952, -0.071206600998,
        -0.236447946353, -0.165537147431, 0.023836849980,
        -0.093589974645, -0.123100075446, -0.256914845704,
        -0.184679735587, -0.118968916247, -0.021876393265,
        -0.172018382918, -0.006174160999, -0.004133319883,
        -0.004530604689, -0.043335292607, -0.179629353274,
        0.174373331731, -0.108928763106, 0.048907631127, -0.007038487722,
        0.054085047914, -0.139255284814, 0.054576691577, 0.088325612244,
        -0.000209080370, 0.005541389107, -0.079230065213,
        -0.012101912764, 0.124616330355, -0.105932427623,
        -0.105166447103, -0.051561422182, 0.009920470911, 0.061468658151,
        0.153609384704, 0.163553684357, -0.030447947508, -0.009605895809,
        -0.081424215890, 0.219073205060, -0.025164893551, 0.076173397136,
        -0.112411301671, 0.091496152440, -0.223909723094, 0.192134570629,
        -0.011920565566, 0.145061581372, -0.186774848468, 0.228265922722,
        -0.180403164389, -0.046579742485, 0.184893930912, 0.098663797031,
        0.085070616058, -0.150372621214, -0.161106360096, 0.094284191797,
        0.264895573671, -0.141178255886, 0.036637599033, 0.159438345587,
        -0.108803864431, -0.079002288857, 0.126928372790, 0.011354571308,
        0.110126668334, -0.177570500123, -0.103306328630, 0.120022628899,
        0.091331478468, 0.068562075739, 0.103858830664, 0.075940458082,
        -0.127321079217, -0.030491622756, 0.174372657219,
        -0.090770971706, 0.154624092169, 0.141852578030, 0.014064037075,
        0.076416379284, 0.110126116177, -0.090455964069, 0.163000989762,
        -0.075174153930, 0.008142960201, 0.161302378371, 0.070754357606,
        -0.048933240675, 0.030701972561, -0.017277120090, 0.105807496491,
        0.095893298795, 0.002669220255},
       {0.094930663236, 0.069438076843, -0.154698016532, 0.132787232076,
        0.159933673358, 0.110559784513, 0.219261573562, -0.074015097087,
        0.246649866021, -0.030901973629, -0.094997265377,
        -0.003212631663, -0.117701126664, -0.031311574832,
        0.149611638440, -0.197423216669, -0.045436211756,
        -0.005900376065, -0.071150355129, 0.026502128418,
        -0.141252850163, 0.080017537006, 0.042891346177, 0.024648543989,
        0.242388243538, -0.126993971041, 0.180093474067, 0.060126434846,
        0.030221744296, 0.060542336242, -0.041704708216, -0.064210089567,
        -0.063210149877, 0.134641038804, 0.021806499866, -0.146574240224,
        -0.034460512918, -0.040218320814, 0.207138213421, 0.312217706675,
        0.153394909635, 0.196901090758, -0.082419225015, 0.077821336450,
        -0.021729555236, 0.311050862675, 0.108427816742, -0.186174186032,
        0.093354411740, -0.198199712724, -0.172824086652, 0.011640190599,
        0.254691476694, 0.236365265875, 0.311561964787, 0.015916745673,
        0.010915479920, -0.159194409450, 0.065871358707, 0.127758216145,
        -0.102769434170, -0.134626751618, -0.095612338743,
        -0.178877582677, -0.049373132821, -0.121329810627,
        -0.034705935570, -0.026654810613, -0.138464868627,
        -0.080337271959, -0.132925792403, 0.286114736922, 0.094188809045,
        -0.161915051211, 0.046110853990, 0.196133240270, -0.068271650945,
        -0.139517358547, -0.265740956974, 0.082563790032, 0.019777485603,
        -0.015435668218, 0.043210117797, -0.011046604179,
        -0.180828684662, -0.213173897454, -0.160665148582,
        0.077596727819, 0.226804562006, -0.040215350633, 0.216908953617,
        -0.036500042527, -0.132861579012, 0.046000406497,
        -0.021011052698, 0.059286976337, -0.195138741569,
        -0.134820845220, 0.157467107980, 0.237994139778, -0.120619721384,
        0.237018057514, -0.060292528863, -0.140446010999,
        -0.166254489965, 0.008880541332, 0.141117396609, -0.102308369710,
        0.011498139166, 0.051099449820, -0.216305565825, -0.072921536619,
        -0.011895524071, -0.049865727967, -0.045765915823,
        0.014317055807, -0.077187801928, 0.080464036023, 0.280053111140,
        -0.222556690670, 0.199996855689, -0.008778331771, 0.181907065578,
        0.006169076091, -0.219339889818, 0.012139781995, -0.076491050696,
        -0.079879803336, -0.327278390486, 0.119307444521,
        -0.181136373052, -0.016180419734, -0.203840714034,
        -0.176730958031, -0.008811829527, 0.101950506900,
        -0.207515651262, 0.124528252152, 0.011562087156, 0.207011952850,
        0.003765156818, -0.177711299167, 0.066136447689, -0.051594267181,
        -0.062475503508, -0.115585247827, 0.141327962766, 0.144459216250,
        0.020868615933, 0.093964409727, -0.171500866499, -0.206290833690,
        -0.117409190045, 0.220964626167, -0.199957654980,
        -0.111083455568, 0.249295452827, 0.011747513101, 0.047535817499,
        0.142059519377, -0.117664721948, 0.001225159763, -0.055246081978,
        -0.044251559216, -0.008935604976, -0.083471318566,
        0.069198749980, 0.094084114564, 0.119460710102, 0.166737929638,
        -0.057023761361, -0.150412325278},
       {0.033065007677, -0.001130232525, 0.267308274208, -0.063745823424,
        0.065183271995, -0.041770124414, -0.109099616993,
        -0.009592600227, -0.155080989738, -0.019772999677,
        0.005428839498, -0.143237634312, 0.042325997944, -0.092230542981,
        0.095335063679, -0.152061448937, 0.173730696061, -0.146866972678,
        -0.107139081171, -0.067709574877, -0.204682781085,
        0.025399297168, 0.087874057314, 0.099930109679, -0.183732787202,
        -0.135744995019, 0.183721984706, -0.085217162875, 0.150703460636,
        0.095678267291, -0.002909443366, -0.160586966259,
        -0.200879595161, -0.070366665147, -0.204322877405,
        0.140200168847, 0.169975129931, 0.167505016706, -0.051010608344,
        0.216498693099, -0.109851150411, -0.143876855861, 0.233609736205,
        -0.181491021200, 0.071338701291, 0.193367129585, 0.002536158158,
        0.046812080394, 0.125769187325, -0.161892347480, -0.115211008179,
        0.147715709036, -0.066118200153, -0.009758180152,
        -0.102817640878, -0.220836307079, -0.025414078410,
        0.055414470401, 0.218135955326, -0.102264657749, 0.061714231232,
        0.006982968892, 0.064300006344, -0.084284169386, -0.227897108123,
        -0.049266535466, 0.061558099227, -0.009110897459,
        -0.132034127350, 0.003800757843, 0.062214645724, -0.077047565784,
        0.123699216147, -0.040813108913, -0.173502994549,
        -0.049868688337, 0.182773674250, 0.205638614034, -0.141569864810,
        -0.027117204873, 0.036177808512, 0.006998005253, 0.199098446710,
        -0.092937843755, -0.017100540869, -0.031908697410,
        0.253672475191, -0.123687820953, -0.247360903384,
        -0.056610827112, -0.022110355197, 0.176584321760,
        -0.071327302434, 0.118499389093, 0.074898340910, -0.015000454375,
        -0.188499736974, 0.036540771245, -0.032518209423, 0.203226677876,
        -0.081660394283, -0.011279895342, -0.024124147939,
        0.121355782347, 0.052546541175, -0.200836802757, -0.125071373488,
        -0.000442240915, -0.059211535713, -0.166784018589,
        -0.072555590638, 0.168704961389, -0.021879983379, 0.206010699645,
        0.097169405996, -0.003778309754, -0.006342963059,
        -0.081264382900, 0.139225102841, -0.096781991181,
        -0.040443454375, -0.217203626151, 0.130503431266,
        -0.055518256786, 0.086316967302, 0.135494855925, 0.110940580412,
        0.078375263855, -0.144982928594, 0.157032543162, -0.012759543531,
        -0.206878163380, -0.200777701819, 0.093151481163, 0.031230325371,
        0.178368588960, 0.052228584446, -0.092589301053, -0.047231264105,
        0.190910770220, 0.026444200424, 0.017930319182, 0.076461857479,
        0.017076708793, 0.049787852452, 0.017157299313, 0.029364669830,
        -0.158230055174, -0.113067964970, -0.069458812839,
        -0.083988416135, -0.148774038730, 0.036152601554,
        -0.001031600885, 0.012344711936, -0.029392602541, 0.076643644835,
        0.015641773366, -0.156747949932, 0.096246279231, -0.023993506110,
        0.213261539910, -0.042347792839, -0.104085917928,
        -0.221743412980, -0.244032278408, 0.066751374297,
        -0.203628598687, 0.124221861454, -0.074424514939, 0.067132068660,
        0.017505419779},
       {0.061317667377, 0.143056928791, -0.021793639674, 0.087116579737,
        0.184027002951, -0.014700963237, 0.277980456653, 0.087868558447,
        0.074270499433, -0.056730362816, -0.017766287329, 0.107660369243,
        -0.029846589521, -0.029854042441, -0.235598368265,
        -0.142889601582, -0.217781310818, -0.161965376853,
        -0.303010010085, -0.082712403661, 0.020206250264, 0.199623479648,
        0.077718686293, -0.084870172523, -0.031381342919,
        -0.051772252184, 0.169543470396, -0.002258144295, 0.075510915795,
        0.052787637293, -0.015687039361, 0.123321266506, -0.219439803171,
        0.110888792429, 0.072561432159, -0.094170675968, -0.008959361200,
        -0.162492237246, 0.190244227024, -0.107828312127, 0.191415094334,
        0.176764699002, -0.266682220646, 0.101254083446, -0.045238276715,
        0.098932344023, -0.062251770223, -0.126106863032,
        -0.206173893733, 0.071917082578, -0.022416655200,
        -0.206125124552, 0.019573242558, 0.115934432658, 0.254339527428,
        0.051241025628, 0.146884525583, -0.114905026840, -0.225459435764,
        0.061936572048, -0.173766682004, -0.258629896877, 0.000114049149,
        -0.165400338181, 0.013857490747, 0.028448134262, -0.062056772252,
        0.131576609607, 0.274664046530, 0.062318306611, 0.068987017327,
        -0.084894655793, 0.044972537395, -0.015049416606,
        -0.189117435316, 0.186252496103, -0.091235412102, 0.042906126848,
        -0.187489108101, -0.089192304173, -0.203757312429,
        -0.200375102739, -0.134238437402, -0.109220549675,
        -0.161287248391, -0.159703807725, -0.113730990208,
        0.024870957613, 0.112468988499, -0.065553746618, 0.025653683025,
        -0.070014219705, -0.249282170793, 0.157984302602, 0.112819184507,
        -0.174497670967, 0.004978419135, -0.018311821851, 0.026587964482,
        0.199131587198, 0.073130525173, 0.011329818300, -0.011949670676,
        -0.112493140513, 0.005269174746, 0.146067353033, -0.046908725679,
        -0.105511553884, -0.080275322383, 0.123629571943,
        -0.130762753825, 0.137800072397, 0.127127226887, 0.119300729222,
        0.191351237153, -0.004176758128, -0.262544968489, 0.060968047931,
        -0.049121473348, -0.059030189994, 0.044431418348, 0.030493695475,
        0.000920199774, -0.136610729962, -0.122912935001,
        -0.039652471759, 0.063716890640, 0.006922880424, -0.163830893135,
        0.136867212322, 0.043714119338, 0.160458683127, -0.088346441797,
        -0.278667095273, -0.092965872734, 0.054708677185, 0.059034673541,
        0.077388236162, -0.020840320123, 0.002706850602, 0.070337876615,
        0.044631003788, 0.055990335511, -0.110417739503, -0.157745164440,
        -0.129485463599, 0.214179841399, 0.219625710793, -0.009622212900,
        0.211295285210, -0.104332418377, -0.068701439863,
        -0.156485073855, 0.161723842926, -0.170773924249,
        -0.042637941636, -0.015789580834, 0.070470479257,
        -0.143796955983, -0.076416415659, -0.020596764880,
        -0.016508174178, -0.081488625691, -0.137418040928,
        0.084119306796, 0.202172986386, 0.048462764563, 0.183126644303,
        -0.112104007215, 0.218428759572, -0.346030900868,
        -0.149752804519},
       {-0.080633438084, 0.213554473143, -0.056889559958,
        -0.170223875953, -0.001797537620, 0.179259934524, 0.102302811526,
        -0.112986681607, 0.240793993309, -0.032959312792,
        -0.131639178018, -0.112178937455, 0.079250793402, 0.292934482785,
        0.178085443129, -0.212343227150, -0.146422206184,
        -0.233370212185, 0.079646864608, -0.257160423763,
        -0.159376150284, -0.094300275135, -0.178713088422,
        0.082363617862, -0.135352228855, -0.123745006501,
        -0.089886998133, 0.048667014223, -0.045963906895, 0.056520304327,
        -0.068848367208, -0.100976899955, 0.168220414478,
        -0.012167267064, 0.034952888500, -0.149859426573, 0.100404781651,
        -0.099812296000, -0.034514684498, 0.038121789496, 0.055302977672,
        -0.053903506659, 0.060623940055, -0.034401416118,
        -0.094223537697, 0.075389371327, -0.019120614940, 0.265804375959,
        0.062900757922, -0.064546088760, 0.154824057315, -0.095046113912,
        0.226366052234, 0.169633117297, -0.145877304289, -0.111522524049,
        0.005874608385, -0.023782582500, 0.015586862853, -0.182090179294,
        -0.027620508201, 0.115374056298, -0.033645933157, 0.133520948821,
        0.100582804536, 0.101770637126, 0.263843576619, 0.044939722662,
        -0.054367038466, 0.060418980805, -0.043187086707, 0.064926070274,
        -0.010873246884, -0.052770695054, 0.128365636875, 0.140684257051,
        -0.032137140557, -0.076903822023, -0.030556667633,
        0.079424435439, 0.189638970830, 0.024215202486, -0.089400407358,
        -0.010646811703, 0.041834037372, 0.075301954830, 0.153437684555,
        -0.082506688635, 0.135002371794, -0.146699275043,
        -0.203974725669, -0.055452556510, 0.070771927197, 0.355461042018,
        -0.106371636401, 0.059771233867, -0.179382904678, 0.207744937914,
        -0.083271606731, -0.102558803109, -0.199845494241,
        -0.109594593449, 0.064775007122, -0.151415746757,
        -0.139088719460, -0.178506455908, 0.147736992689, 0.056936399860,
        -0.181934355447, 0.078224348320, -0.002512215336,
        -0.062067922964, 0.161715600123, -0.070402194800, 0.152287926339,
        0.104804600795, 0.282297216553, 0.067688271342, 0.064287065165,
        -0.105860067689, -0.230437804187, 0.086604165850,
        -0.012735674817, 0.165962134804, -0.076402454793, 0.120250449303,
        -0.062728391687, -0.020715258370, -0.093159402356,
        -0.059932308819, 0.035846084759, -0.044234068007,
        -0.137761017541, 0.004457364290, 0.217855074441, 0.214306989287,
        0.210575864861, 0.046835503900, 0.013249913275, -0.146795423377,
        0.093504176963, 0.025858545907, 0.008475066388, 0.137371503920,
        0.169076115100, 0.056770781646, -0.025431360649, -0.157676553917,
        0.171643819204, -0.179946109622, 0.160573503418, -0.239482822881,
        0.076674799841, 0.215858374068, 0.009687092910, -0.051442464621,
        0.226765961493, -0.024573063037, -0.118782338971,
        -0.028173617071, -0.062006220166, 0.070214726201, 0.143794110132,
        0.010928974870, -0.177835798827, 0.160349601418, 0.184502085259,
        -0.083837369113, 0.132348524428, 0.086018650761, 0.070941014667,
        0.128710152271},
       {-0.024185781860, 0.017415536238, 0.120659061973, 0.094961555368,
        0.147282022337, 0.163360839148, 0.193574320202, -0.132111173919,
        -0.058818424547, 0.033345000412, -0.093339285451,
        -0.190639729891, 0.252972557194, 0.194008410772, 0.067538017651,
        -0.175265450663, 0.062343692864, -0.234978778719,
        -0.162390637082, -0.003168841581, -0.224094076575,
        -0.087740861303, -0.155748462662, 0.074948625265,
        -0.028540976436, -0.119041751366, 0.173198930471, 0.079312637559,
        -0.074881542987, 0.084261851770, -0.098678038616,
        -0.070940862395, 0.083376735679, 0.108340413416, 0.010525767108,
        -0.128232758080, 0.003783105876, -0.039661655034,
        -0.105929844919, -0.038266471337, 0.103058530265,
        -0.154701648758, 0.191743619993, -0.157787300773, 0.067855213219,
        0.073350049343, -0.161435854775, -0.009730657722, 0.179327709835,
        -0.044283651596, 0.102774540052, -0.108404211436,
        -0.090820650009, 0.059052595842, -0.110277381618, 0.045726481657,
        -0.179074035053, -0.206792994478, 0.129141697054,
        -0.233719938655, -0.045934884338, 0.217050474041,
        -0.128869393490, 0.224032420858, -0.056735424974,
        -0.061753725992, 0.044987783189, -0.125075767750, 0.091744075285,
        -0.047345992773, -0.169870227409, 0.169395219024, 0.163998004184,
        -0.126754249528, -0.002066367963, -0.218367659694,
        0.264167154146, -0.082430309969, -0.126232729745, 0.040019974429,
        0.211841029361, 0.063117575031, 0.078093381874, -0.100807481509,
        0.063253651077, 0.087439579077, 0.031882679388, 0.047817932797,
        -0.148478645612, 0.071717976060, 0.030974030086, -0.107060930861,
        0.039439250440, 0.251421304295, -0.125883800761, 0.050614538744,
        -0.056090823788, 0.175485825759, -0.210192116887, 0.026528795359,
        -0.038527475219, 0.006619883818, -0.063560035251,
        -0.049262827350, -0.045951845685, -0.229266138938,
        0.153122634186, 0.058461757801, -0.020578502435, 0.023263114939,
        -0.206838788571, 0.118036335582, 0.076829720255, 0.066209235304,
        -0.026272352423, 0.230063357797, 0.032481702978, -0.026058441131,
        -0.130518104288, 0.012660978291, -0.130434614848,
        -0.073041232160, 0.215506575530, -0.064526036932, 0.175105361373,
        -0.010523757023, -0.039829312605, -0.040333991699,
        -0.072451779025, 0.040121160574, 0.000533192987, -0.199985695932,
        -0.211439120920, 0.126877590058, -0.021028937480,
        -0.010340635750, -0.199792059122, -0.098090169602,
        0.094444549015, 0.036580501271, 0.124750269860, 0.114459269187,
        0.042028061494, -0.079945110885, -0.138185968810, 0.086345990721,
        -0.111133418891, 0.146417004391, 0.216595173873, 0.083961514133,
        0.151077283193, -0.174036808017, -0.111814844962, 0.056553847959,
        0.066213473964, -0.046242500622, 0.142709103309, -0.042243714216,
        -0.075299986015, 0.075251493410, -0.086087838257,
        -0.002315309911, -0.145156496348, -0.060664488911,
        -0.157286605323, 0.116248189864, 0.114041009604, -0.206302023656,
        0.063350112382, -0.062958149039, -0.012174487553, 0.226158132543},
       {-0.065679952143, 0.009814957328, 0.051188993642, -0.029967358356,
        0.099371440575, 0.041377748598, 0.227936825550, 0.187963914292,
        0.406815219913, 0.023355492017, -0.142264733060, 0.038579627469,
        0.118640750914, 0.215915916491, -0.101723546769, -0.127763608005,
        0.073483082484, -0.170883057009, -0.215812643211, 0.083941171355,
        0.025953014844, 0.142935475890, 0.266792242042, 0.155213707510,
        -0.052119697717, 0.087277534863, 0.175162263148, -0.052696485405,
        0.076047557199, 0.248903097133, 0.006587987871, 0.028965260760,
        -0.041620215161, 0.152038402388, 0.180753060205, 0.013398592328,
        -0.038101119348, -0.104102050080, -0.044796431947,
        0.065005192174, -0.005602055831, 0.087063301157, -0.156323327465,
        -0.063399687984, 0.007138160055, 0.093370484088, -0.041110607604,
        0.030018157985, -0.086615571958, 0.119821672422, -0.064102448621,
        -0.171192426838, 0.114817507124, 0.135861916065, 0.167320213223,
        0.055586506836, -0.052715168665, -0.140838880848, 0.004407928395,
        -0.024014463879, -0.084427921599, 0.021210735343,
        -0.122426989956, 0.107690422560, -0.124624211565,
        -0.134204110183, 0.144664678833, 0.207392287915, -0.138740108880,
        0.183359749230, -0.003469877125, 0.180098474054, -0.091838625305,
        -0.068402455911, 0.076977798670, -0.048868421770, 0.056577594372,
        0.121280424480, 0.014429993329, -0.087908654323, -0.109146835280,
        0.109702744404, -0.093614811048, -0.244944436671, 0.088345704029,
        -0.151798020401, 0.003584417866, -0.090381160255,
        -0.002995399618, -0.111393664644, -0.160504856516,
        -0.150989644788, -0.200222870296, 0.241936485974, 0.019344625995,
        -0.021018076064, -0.007589396766, 0.181052816233,
        -0.061767752313, 0.126476479286, 0.047106325877, 0.120561138090,
        0.171848490962, -0.008271046882, 0.018929398098, -0.107058169695,
        -0.126711246521, -0.031136442415, -0.106138315270,
        -0.017751341230, -0.081784585882, -0.052718904155,
        0.027154426568, -0.063220805100, 0.114821483823, 0.118844059843,
        0.171800620042, 0.044980781577, 0.111145837210, -0.274607970611,
        0.021823130679, -0.218839521120, 0.199801111681, 0.028252169939,
        -0.121359663235, -0.137592329303, -0.086249875601,
        0.121566128268, -0.244808552052, -0.025625110714,
        -0.213808452888, -0.050397234887, 0.034154703336,
        -0.005879367841, 0.036580817633, 0.238295770289, 0.002177759024,
        0.045850540343, -0.008251947899, 0.023764128628, -0.022763553801,
        -0.122798522511, -0.259052202546, -0.143388449072,
        -0.037359146078, -0.008606303797, -0.089075695806,
        -0.005480126742, 0.117649840172, 0.039756322182, 0.148409455105,
        0.033236556573, -0.110460931095, -0.052092437143,
        -0.115828933551, -0.200589458818, 0.009945900622, 0.120992432238,
        -0.056260612718, -0.090773836781, 0.105850787074, 0.031777050010,
        -0.105725156103, 0.051111425761, 0.164213500763, 0.126825185950,
        -0.000783837324, 0.257030152006, 0.048521912236, 0.147607193480,
        -0.181112884012, 0.085749892144},
       {0.133414071461, 0.043361226754, 0.028641431697, -0.096276383332,
        0.144420777999, 0.108037486532, -0.113073898459, 0.154937937323,
        0.125241614641, 0.048225803922, -0.086346053591, 0.040284242938,
        0.120944577159, 0.035864447054, -0.035670116083, -0.125947729620,
        -0.107324855483, 0.112549079073, 0.080346118461, -0.166101285388,
        0.248751429412, 0.008801262121, -0.241689945080, -0.243872901085,
        -0.132112643347, -0.183381589959, 0.019325795687,
        -0.020136161912, 0.198464922476, 0.016611904788, -0.106054718619,
        0.001744489654, -0.059444063704, -0.038979296629, 0.123140982069,
        -0.017961644907, 0.076074897913, 0.012132187259, 0.001764845686,
        0.150860068968, -0.011711430024, 0.020489357921, 0.071579504549,
        0.022045070968, 0.064848011341, -0.022713376257, -0.163284523271,
        0.030722599925, 0.087704721541, -0.192402944453, -0.085150963482,
        0.079623258785, -0.117251065240, -0.125264634578, 0.033868397360,
        -0.121556668314, -0.152251570526, -0.235961978016,
        0.126935198351, -0.093334921808, -0.054557223133, 0.116748716674,
        0.067803728912, -0.139417408714, -0.175597386559,
        -0.171501711128, 0.040447044687, -0.036645438955,
        -0.114938284604, 0.203094294515, -0.196190550974, 0.185187772576,
        0.108032598070, 0.098829248293, 0.018545022658, 0.085792628618,
        -0.280677514858, 0.083883133532, -0.022557644933,
        -0.120322932306, -0.024098728599, 0.104155427986,
        -0.002475402678, 0.212643805030, 0.216703643101, -0.106588581619,
        0.132455716154, -0.260294810883, 0.164132777550, -0.024315483799,
        0.096644167113, -0.086155058595, -0.055575557344,
        -0.109074032208, -0.033420727903, 0.117575409935, 0.057533258536,
        -0.021549952061, -0.062732574419, 0.127529884306, 0.115216878131,
        0.100698486598, -0.211899346206, -0.165980526393,
        -0.082606262679, 0.065406342666, -0.140128588570,
        -0.041092521782, 0.081308461114, 0.116113203502, -0.197825261228,
        0.071489420039, -0.067092654774, 0.139914871500, -0.083166294241,
        -0.070411802665, -0.102502156000, -0.216747546725,
        -0.066035957547, -0.097389510723, 0.074373893169,
        -0.232343569904, 0.206325284628, 0.196797018343, 0.143004746761,
        0.102132732883, -0.108282536236, 0.075662330552, 0.028026033736,
        0.051520050397, -0.029774291798, 0.089728896026, 0.059156749980,
        -0.122221837807, 0.019742279583, -0.006923301698, 0.094126832024,
        -0.068155000866, -0.132185440934, -0.030678779696,
        0.196215989473, -0.057008585945, 0.011831333524, -0.134923100654,
        -0.011120062153, 0.028410780429, 0.131429319768, 0.156045880408,
        -0.023665185832, -0.032837532451, 0.115135651362,
        -0.158922786630, -0.163005255771, 0.078294868826, 0.011113323465,
        -0.067554259778, 0.040570544990, -0.099508656814,
        -0.036388144569, 0.001258519999, -0.048779398980,
        -0.216207180046, 0.172201968700, 0.086900330749, -0.002590568208,
        0.230534466356, -0.141731779794, -0.157004682198, 0.042558298757,
        0.194430263956, 0.054458198772, 0.072284151364},
       {-0.028784393006, -0.045829171231, 0.157217986917, 0.086989515104,
        -0.003361625380, -0.024300225318, 0.144512226180, 0.133684484664,
        -0.122230170987, 0.020256653944, -0.002302511417, 0.099817943862,
        -0.003606009242, -0.225606568665, 0.195868768385,
        -0.005321088472, -0.003447440932, -0.083533577127,
        0.014254386810, -0.141027070066, -0.017727534498, 0.062466321780,
        -0.219763298597, -0.325939019694, 0.143652552328,
        -0.126533071813, -0.091272276359, 0.020510840561, 0.050350204680,
        0.213947443859, 0.044907801429, -0.106842527740, -0.211961630596,
        0.055792179711, 0.173479039057, -0.062713593365, 0.105728509330,
        0.178484830944, 0.159696978023, -0.061173443286, -0.029627243013,
        0.081857879523, 0.074616096221, 0.022854703524, -0.097993433892,
        0.071930640784, -0.035021352580, 0.078263119597, -0.031631322944,
        -0.058205011905, 0.149062446465, 0.036837922662, -0.167863666151,
        -0.158243088961, 0.033283648530, 0.055811748874, -0.177162912986,
        -0.158680868779, -0.037140754829, -0.050836366057,
        0.038528577841, -0.187598376676, -0.120340400787,
        -0.113552848723, 0.135307613298, -0.214709028130, 0.060677260800,
        0.218638072420, -0.037806065992, 0.045382147031, 0.008602328664,
        0.133315694308, 0.134489915630, 0.181975450474, -0.163783753289,
        0.046073347639, -0.140865884413, 0.158114812709, 0.098139233101,
        -0.116015781519, 0.059611208414, -0.115008351613, 0.044167976466,
        -0.027251864031, 0.170471010570, 0.123286642402, 0.016256823709,
        -0.015546546944, 0.078469496550, 0.018804438615, -0.100637298959,
        0.160922401632, 0.018561627134, -0.014684824033, -0.143634781564,
        0.193822964106, -0.111756238390, 0.180496566550, -0.028032121483,
        0.176061908007, 0.080333652245, 0.077551293593, -0.209685679105,
        -0.172952154106, -0.136222186161, -0.079188826394,
        0.117533297906, 0.105475378998, -0.174062467819, 0.071838906499,
        -0.131230433375, 0.062659229344, 0.170637136572, 0.087798639783,
        -0.136394143609, -0.112195985009, 0.041989233710,
        -0.154115607672, 0.174041788985, 0.007816090772, 0.111127732500,
        -0.039030280789, 0.164670978296, -0.273915546686, 0.104297718177,
        -0.127963543118, 0.025581800897, 0.099443356236, -0.108101895636,
        0.130326807698, 0.054750433887, -0.186985516838, 0.021509888981,
        -0.012017261113, 0.159255989836, -0.011800229893,
        -0.127422989663, -0.050384800989, 0.042309203689,
        -0.122381620216, 0.043975434919, 0.153067840068, -0.047446851049,
        -0.048792272587, -0.231025655697, 0.013775138912,
        -0.100879720450, -0.075377580196, 0.078426530583, 0.173836600746,
        -0.048820735747, -0.134920018924, -0.061605835906,
        0.089929453756, 0.081842005490, -0.165839606790, -0.033885688850,
        -0.169643796246, 0.111955268134, 0.128259057492, -0.148849701966,
        0.040381208045, 0.130007573530, -0.106560186560, -0.075569227202,
        0.090595431253, 0.056435969562, -0.065605677357, 0.078043161401,
        0.223989814698, 0.047450048032, 0.080110394150},
       {0.039586263777, -0.026070489035, -0.075079118964,
        -0.106978281098, 0.181482204775, 0.086940935234, -0.163324539288,
        0.050231393782, 0.126401564629, 0.040283772655, -0.020562777853,
        -0.032090994239, -0.028911700972, 0.099138558059,
        -0.017672315547, -0.222218413040, -0.083569686895,
        -0.310118809707, 0.012852727326, -0.236572971772,
        -0.258090685181, -0.025082307330, 0.092769134892, 0.039710154708,
        0.182790814070, -0.133938224169, 0.111558696132, -0.106885733197,
        0.111991210677, 0.189848014925, -0.062996057059, 0.010316172378,
        -0.158757442635, -0.150843947924, -0.118805885329,
        -0.123451835134, -0.144698702012, 0.212116052835, 0.023628066134,
        0.017205909340, 0.086060052886, -0.062543924294, 0.187440370057,
        -0.086782717105, -0.200726359405, 0.053115129241,
        -0.078976995525, -0.046092059737, -0.086927060329,
        0.181952574676, -0.020546937980, -0.040436587008,
        -0.243322113611, -0.161864734355, -0.110250250454,
        0.247881948270, -0.226563358438, -0.118157787711, 0.204959770503,
        0.161740411158, -0.290843464582, 0.063625080386, -0.136368306413,
        0.227204656776, 0.033203395594, -0.203990815455, 0.254531344636,
        -0.082514198238, 0.081877084742, 0.015384048317, -0.046200874203,
        0.029740917603, 0.076230228235, -0.005055310319, -0.250229943795,
        0.407402153963, -0.052122407289, 0.022260625484, -0.023934889468,
        0.079231325698, 0.076065862984, 0.056019485574, -0.314690839526,
        -0.242392461119, -0.120284940037, -0.103873669413,
        -0.330750770851, -0.266461420056, 0.187071122998, 0.045974675777,
        0.199576929673, -0.165451591516, -0.066642540886, 0.099068436256,
        -0.108586482967, 0.075476559644, -0.223168553923, 0.250392713747,
        -0.075282615181, 0.014430663264, 0.044050408984, 0.068239724177,
        -0.196550099513, -0.309400153308, -0.045189448353,
        0.250318152777, 0.058137968836, 0.113071330114, -0.188122180148,
        -0.049835939642, -0.046438750116, 0.290296509479,
        -0.038690482411, 0.127455631632, -0.021964142262, 0.050235686797,
        0.045650291011, -0.103376369000, -0.037875513493,
        -0.062301852058, -0.023486132155, -0.157622031865,
        -0.028656766376, -0.074088057054, 0.147943802537,
        -0.214486493684, -0.098035581014, 0.156254350939,
        -0.026310960108, 0.131553212942, 0.142450195330, -0.110221033170,
        -0.008730160577, -0.151366299317, 0.096165575277,
        -0.193033914577, -0.080993585695, -0.218783598884,
        0.106721272523, -0.157986750504, 0.141566716258, 0.007400249166,
        -0.083588891242, -0.084939265495, -0.085716427184,
        0.132530687273, -0.112335819004, 0.166329812408, 0.022570480568,
        0.230534248438, 0.115009764804, -0.071209736047, 0.146528048131,
        -0.057073441071, -0.020592235925, -0.203607598800,
        -0.041876673391, -0.116906569522, -0.057676569888,
        0.151863750458, -0.030633907777, 0.080158603244, -0.058227543730,
        -0.155602674694, 0.047107438052, 0.311539306035, 0.012603638195,
        -0.051048286853, 0.134127525397, 0.008553100625, -0.126030589028,
        -0.292505560706},
       {0.047994960518, 0.265873741673, -0.083832110460, 0.025953987636,
        -0.138295569921, -0.142163157268, -0.032633711768,
        0.100030992959, -0.059991719101, 0.097815168748, -0.018166035096,
        -0.067726661911, -0.147169206305, -0.211257438796,
        0.046833327672, -0.144405658857, 0.167247273555, 0.237439070048,
        0.138973667454, -0.081652646664, 0.267589157190, -0.099170241095,
        0.047887179115, -0.193445443002, -0.013887080738,
        -0.145845560914, 0.027753510079, -0.045305141299,
        -0.118302328675, 0.128459918240, -0.010719402409, 0.128280291195,
        -0.196312586904, 0.067282390889, 0.247242997184, 0.121837092730,
        0.005000470568, 0.104301770479, -0.077015968366, 0.219030595689,
        -0.074212738204, 0.036802878661, 0.065457407228, 0.051865019507,
        0.011023070936, 0.203132617516, -0.124714197585, 0.105250867255,
        0.150192672251, 0.028586930320, 0.113951189243, 0.230795198250,
        0.029291616473, -0.063816357951, 0.154072231569, 0.071422131567,
        -0.019803160958, -0.092707026151, -0.035374751524,
        -0.087827555042, 0.065204239456, 0.074371528764, 0.167061320498,
        -0.232468719204, 0.055081683179, 0.049454017379, -0.196854525086,
        0.084701161520, -0.164514871092, 0.126892576661, -0.021944846042,
        -0.149310520606, 0.110786169745, 0.197706691315, -0.056881437432,
        -0.295309221365, -0.234350647900, 0.073908637062, 0.197488149996,
        -0.213897243668, 0.259240625915, -0.151923710368,
        -0.035350273172, 0.235665132970, 0.036201534660, -0.103612854283,
        0.179333053931, -0.092285366120, -0.007649323557, 0.135680846061,
        -0.038311322439, 0.266701452086, 0.030272979650, -0.344900871583,
        -0.012189627142, 0.191079100988, 0.101916784963, 0.235545267585,
        -0.183157541054, 0.007560394054, -0.001165595445,
        -0.052527926336, 0.005206335398, 0.088902610901, -0.157518822604,
        -0.054614292753, 0.216281304871, 0.209451849454, 0.115712387359,
        0.058597835555, 0.058535711903, -0.121171963685, 0.213718572551,
        0.037251258167, 0.131599589034, -0.044471164497, -0.074510089226,
        -0.123979756876, -0.168720708401, 0.244327204362,
        -0.245469117783, 0.051976293535, 0.010386166257, -0.056372728379,
        0.236428228199, -0.060283901476, -0.065290834499, 0.081968400188,
        -0.098908500073, 0.191579749279, -0.136956628350,
        -0.138527766957, -0.075930014712, -0.002382570620,
        0.021032830046, 0.136187578124, 0.197804204670, -0.013180951621,
        -0.198024629026, 0.036942006411, -0.058468245969, 0.015153076263,
        -0.121844789971, -0.000715582454, 0.022781355312, 0.000949361989,
        -0.034838379829, 0.157296350858, -0.106335416058, 0.079909363041,
        -0.087062527007, -0.126157797011, -0.100852766691,
        -0.082791326301, 0.164959529737, 0.071106263293, -0.030382125625,
        -0.043851817568, -0.191232637296, -0.244725368342,
        -0.200343936096, 0.053385707141, -0.061653157627,
        -0.017165217354, -0.072339177544, -0.179361989169,
        0.130337565345, 0.069199997976, -0.022422244199, -0.074378193195,
        0.122730230661, 0.184120262385},
       {0.111933744555, -0.067890489689, 0.084774152677, -0.131453172916,
        -0.074575367789, 0.008717380294, -0.052755300938,
        -0.018557478005, -0.138663558409, -0.164750570895,
        -0.036277593514, -0.049392032873, 0.049050185337, 0.059090809707,
        -0.039023700177, -0.202593898379, 0.039804504717, 0.290573243461,
        0.233838933339, 0.132025608592, 0.249684203161, 0.149453171308,
        -0.104283989623, -0.180637463097, -0.099191843745,
        -0.037130371145, 0.031228918516, 0.187325670652, 0.064905407976,
        0.221879925663, -0.075378358263, 0.016657988919, -0.013966212074,
        -0.078628204996, -0.009258637209, 0.171982609241, 0.101801809701,
        0.004751867421, 0.038843649665, 0.192496251441, -0.103081278949,
        -0.081283065553, 0.031968150488, 0.117478875128, -0.212776376494,
        0.145923506240, -0.069855990302, 0.084350506335, 0.102299992162,
        0.077220410601, -0.087448193559, 0.035609991931, -0.299280859722,
        0.002321569689, 0.022466078610, -0.245844572719, 0.020439665253,
        -0.075318101807, -0.099650279186, -0.144063720656,
        -0.046224499052, 0.024035412201, 0.134536253894, 0.177505910566,
        -0.133415378323, 0.021412419304, 0.018591511139, -0.059918110725,
        0.011159706992, 0.130891552930, 0.016124783299, 0.129122397971,
        0.193056217989, 0.295116402575, 0.079023801930, 0.113038630394,
        -0.263150180141, 0.104586561548, 0.258732313708, 0.046233375418,
        0.017195152838, -0.029262875970, 0.050003282699, -0.027523169322,
        0.184178411147, -0.241247146639, 0.023902779389, 0.001436442735,
        0.128091490355, 0.178789443718, 0.182890169156, 0.133230403397,
        0.025124958138, -0.253388024941, -0.055164570014,
        -0.130527095563, -0.135974520844, -0.063491515635,
        -0.066931859838, 0.156739966647, -0.084630916079, 0.038625976210,
        -0.086146828746, -0.167482466549, -0.176812675336,
        -0.011747281799, -0.194215378674, -0.172609683286,
        -0.055729515034, 0.060094419992, -0.173480576602, 0.143096075598,
        0.025313412190, -0.112299907120, 0.083259303061, -0.056329635816,
        -0.051278434369, -0.027918622160, 0.006898086388,
        -0.071832964174, -0.082245176065, 0.014890096388, 0.203390177556,
        0.136074071955, -0.051707380448, 0.105161177867, 0.006123165418,
        -0.173873422442, 0.046319948062, -0.049584543291,
        -0.180060739622, 0.070176840242, 0.108884467417, -0.036241193477,
        0.127238067357, 0.098149968023, 0.020335492126, -0.160156234149,
        -0.176740258653, 0.076141170849, -0.078264365871,
        -0.059028794907, 0.126708108113, -0.122116765851,
        -0.148352404581, -0.199378804250, -0.090706104829,
        0.225015714645, -0.174921971719, 0.045048291832, 0.178385017075,
        -0.145397546854, -0.126423867942, 0.019628999846, 0.077862944499,
        -0.055945171024, -0.074430360375, 0.004164569044, 0.015420597572,
        0.086194149483, -0.109838116842, -0.221240352137,
        -0.148091375524, 0.217985079310, 0.060328053763, 0.224326840169,
        -0.108837471895, -0.097106356988, 0.040137164486, 0.083089565797,
        0.209848768159, -0.009215951808},
       {-0.073788438959, -0.108313820654, -0.073030124149,
        -0.055410065805, 0.012559263907, 0.103939496456, -0.079217449533,
        0.123981669178, 0.020095404000, 0.089054573872, -0.095851337914,
        -0.047989909134, 0.100740242515, 0.248847615220, -0.031026392868,
        0.000915522558, -0.123317448456, 0.021887744732, 0.044928878606,
        -0.064249694138, -0.011690649309, 0.205992996874,
        -0.138332765262, -0.264616776258, -0.060561147200,
        -0.208093939557, 0.037597173577, 0.264089139339, -0.041951397979,
        -0.072946830473, -0.046773007624, -0.023621607192,
        0.222877640143, -0.106103547605, -0.151636320541, 0.072237036436,
        0.035604850993, -0.159291237366, 0.051475720160, -0.022682545818,
        -0.032758359310, 0.046516337864, 0.041042398243, 0.017577636118,
        0.059941070957, -0.021073089933, 0.059866031358, -0.089384158376,
        -0.131003676000, 0.048235076216, 0.141577389521, 0.127275832999,
        -0.168447855818, -0.105485965352, 0.168377179447,
        -0.134712761598, -0.100395276700, 0.003334012879,
        -0.089020132656, 0.011948254363, 0.013464567218, 0.037668755057,
        -0.078341880469, 0.084874566865, -0.034089333716, 0.153674838679,
        0.076415950797, -0.202616968372, 0.059830067119, 0.158694247519,
        0.063029914828, -0.032231620246, -0.085063957208, 0.051542694705,
        0.120475042420, -0.010068047352, -0.021351625400,
        -0.205593363517, -0.005754770094, -0.202974934580,
        0.050257328349, -0.113737991321, 0.069926791262, 0.055317845350,
        0.147221811700, 0.049580609071, 0.121926323630, -0.078124983285,
        0.023146162105, -0.056083799204, -0.124583984093, 0.095770131036,
        0.021570736823, -0.148451556549, -0.172927810635,
        -0.161633697909, -0.021807868914, 0.117884886203,
        -0.066847843938, -0.110971455348, 0.081488566649, 0.148324990702,
        -0.258330807649, 0.163160278875, -0.155803002745, 0.128263474509,
        -0.098552164995, -0.028578418213, -0.108319779539,
        0.086824717933, 0.164618755110, 0.048759640548, 0.059642784080,
        -0.035621853209, -0.004467349695, 0.004732252743,
        -0.072417555553, -0.019415349556, 0.171328077321,
        -0.112864746682, -0.227102254306, -0.087644984606,
        -0.061562317287, 0.068105455211, -0.208058176276, 0.184360588684,
        -0.107400559994, 0.017888034514, -0.171912617430,
        -0.154014218568, 0.126776573889, -0.159507966272,
        -0.088113602196, -0.000732098416, -0.035261409439,
        0.036842569784, 0.097155000035, 0.037289956843, 0.009283393471,
        0.230830141739, -0.062199224514, -0.065603030333, 0.218626208612,
        0.050539969167, 0.004838646641, 0.054703105769, 0.003945861211,
        0.172541596822, -0.093516708130, -0.008144922755,
        -0.025514275745, -0.175598065917, -0.125953311701,
        -0.125914635215, 0.045553836211, -0.088979488583, 0.047812614953,
        -0.016368405559, 0.029661184338, 0.043442138830, 0.087188778584,
        -0.084085616452, -0.162471241059, 0.042944745722,
        -0.076685203303, 0.234137685828, -0.084313482753,
        -0.032899506373, 0.062534743164, -0.067866043659, 0.080777488266,
        -0.040132181576},
       {-0.091977140598, 0.076473575328, -0.063680768237, 0.010329436796,
        0.093425232421, 0.038192454462, 0.052550204981, 0.014669791549,
        -0.083702097708, -0.118628990709, -0.077995951466,
        -0.165474513547, -0.073402682681, 0.127282603769, 0.205998990289,
        -0.031012198723, -0.112292012073, 0.101347763474, 0.101610560002,
        0.122124923353, 0.150672719209, 0.063994971485, -0.049131758370,
        -0.184060474818, -0.189121345984, -0.117184010676,
        0.049344394853, -0.008937591120, -0.092684926535, 0.080615163207,
        0.170943700156, -0.037931044732, 0.137906386264, 0.171616911087,
        0.104907007141, 0.026603630890, -0.126883967029, 0.079033703560,
        -0.027015637429, -0.070424934394, 0.158101499855,
        -0.176683226957, 0.048691732597, 0.020131061910, -0.230209057358,
        -0.051676416108, -0.265850027055, 0.010358931907, 0.085407444148,
        0.068244292522, 0.013936761719, 0.014719222289, -0.158073036271,
        -0.095170281421, 0.056864471197, 0.069603181906, 0.047060054004,
        -0.173894031893, 0.148145095874, -0.205515206306,
        -0.016403344438, -0.012671752516, 0.062200248840,
        -0.127615062865, -0.239801810694, 0.165252619596,
        -0.131183611627, -0.084199112265, -0.127210006184,
        0.084305711239, 0.050710171353, 0.108696626597, -0.094730554716,
        0.324065994038, -0.018301777449, -0.076873297809,
        -0.300410670320, -0.121511883249, 0.004206374364,
        -0.237484122499, 0.026475774231, -0.002635989547,
        -0.027755689970, 0.050690853687, 0.133488727056, -0.098244659496,
        0.089173818825, -0.024415652690, 0.147496334731, 0.112094101972,
        0.069853001289, 0.255758657667, -0.089931735813, -0.022353825358,
        -0.158687188525, 0.102694630794, -0.122284038052, 0.194433575243,
        -0.147119491511, 0.160425626864, 0.109501917439, 0.108805457661,
        -0.050985882644, 0.060146218486, -0.111254836989,
        -0.228282964412, -0.133679774732, -0.099019588434,
        0.010852339237, -0.038371562324, -0.091762531324,
        -0.024251243952, -0.016182417688, 0.055638655392, 0.181581880538,
        -0.059985961924, 0.095412934831, -0.064103581505,
        -0.028040367696, -0.013791498788, -0.318430189645,
        0.021946697637, 0.010152905633, 0.200478674453, -0.120898167940,
        0.285387974138, 0.088518355244, -0.026245620548, 0.027303684924,
        0.189469516850, 0.012128546827, 0.025594175200, -0.027027934024,
        -0.198478490184, 0.152177395310, 0.085438405465, 0.101066407645,
        -0.161931364329, -0.144099207122, -0.057493926739,
        0.092955326609, -0.167771683233, 0.038435022417, -0.169100111527,
        0.154390806275, 0.145402955634, 0.204989124370, 0.071641354095,
        -0.155759428765, -0.093633477480, 0.135667272826,
        -0.145462169795, -0.085150100527, 0.107412055986, 0.024136493787,
        0.040041862711, 0.202485528095, 0.073821028855, -0.053890666322,
        0.154085322155, -0.203350685768, -0.089409610196,
        -0.013305097214, 0.141892230352, -0.036003674439, 0.171406669468,
        -0.083800613371, 0.027560990890, 0.077724058114, 0.022856703007,
        -0.030018297823, 0.266587315313},
       {0.000789531759, -0.037470845238, 0.024968081268, 0.090415268249,
        -0.147611930899, 0.256924028436, -0.008149938927, 0.024156878727,
        0.374345720179, 0.131087349461, 0.042644935857, -0.042782269040,
        0.119477310170, 0.278004622567, 0.006633734988, -0.138027963772,
        0.018231083713, -0.068662406119, -0.019314817420,
        -0.040196970590, -0.112063179344, 0.031278029718,
        -0.085646760334, -0.118571758111, -0.155136708153,
        -0.036262509224, -0.124762706042, -0.090737055274,
        -0.125695867924, -0.101444906491, 0.081031153538,
        -0.082660280636, -0.047932551429, 0.065700055362, 0.158363919798,
        -0.035905955415, -0.018700230744, -0.040856357346,
        0.128495653011, -0.035626184398, 0.020232210837, 0.143675227759,
        0.026213755946, -0.015208982315, 0.138705060492, -0.022505556253,
        -0.067628493160, 0.031443467439, 0.004081506747, -0.202775575063,
        -0.146304821126, 0.071026855312, -0.208978894547, 0.237763275023,
        -0.024181309369, 0.206887719023, -0.008765832593,
        -0.016041682924, -0.057795471969, -0.090849330617,
        0.182871282510, 0.074771698284, -0.097578172315, -0.053534117691,
        0.032827808028, -0.008403122485, 0.129785316377, -0.018957126739,
        0.180638313571, -0.103278014075, -0.076355934929,
        -0.001546321411, -0.080012876492, -0.001939056496,
        0.050695241878, -0.195484264285, 0.057522158905, -0.123242098919,
        -0.059895559987, -0.155497997053, 0.118390743061, 0.171954784918,
        -0.135655330359, -0.122418734124, 0.121218263381, 0.041257172593,
        0.174469735677, 0.136746882858, -0.186126012539, -0.089233105516,
        -0.171017336744, 0.056067170630, 0.025120297236, -0.103516907550,
        -0.104617587435, 0.127064912609, 0.123403636221, 0.113436679075,
        -0.188218844100, -0.055836504087, -0.016883598410,
        0.087649899897, -0.245487321613, 0.061698805308, -0.028420691106,
        0.105731651301, -0.204181556295, 0.118538239328, -0.136273333985,
        -0.079444179769, 0.087519689652, 0.093943117450, -0.243542507679,
        -0.134319303057, 0.119091583576, -0.095615626346, 0.107726220675,
        -0.071704500588, 0.089175496418, -0.104029025854, 0.046606632628,
        -0.002689678463, -0.161755393431, -0.028748888807,
        0.181109276109, -0.020489034266, 0.183723264068, 0.110243315720,
        0.092520023900, 0.041317924747, -0.092670332317, -0.051054360614,
        0.103494742189, 0.099930091230, 0.126365421738, 0.056509627033,
        -0.052934832872, 0.068894383545, -0.003352155162,
        -0.078481221367, 0.101188518600, -0.058530022880,
        -0.157701924427, 0.134048413978, -0.096751654066, 0.015527423779,
        -0.221457065162, -0.013653306462, -0.024113514815,
        -0.027213340957, 0.188952348426, -0.037438000937, 0.161796167241,
        0.192384698275, 0.042586591071, 0.022399302634, 0.021098545835,
        -0.200948078059, -0.030721340644, -0.106068494144,
        0.119739259565, 0.253925553143, -0.166427315622, 0.151878549627,
        0.064818621404, -0.014481191488, 0.001182184717, 0.019658546062,
        0.105655688016, 0.034332526837, 0.142178364546, 0.175194897200},
       {0.093483197173, 0.060518275247, 0.138675431399, -0.062551920684,
        -0.062677330771, 0.026748246959, 0.018600928657, 0.017360663609,
        0.003995200153, -0.100195954416, 0.139821599099, -0.134842610731,
        0.007855216273, 0.220178847732, 0.183452874736, -0.048841812942,
        -0.030248275848, -0.248658831373, 0.157684561563,
        -0.102329652530, 0.086131461176, -0.098835744781,
        -0.096573310462, -0.123533659002, 0.141580421431,
        -0.149356282233, -0.204218398622, 0.063807839285,
        -0.120813018617, 0.004611639867, 0.151006198047, -0.050417870333,
        0.068887805977, 0.055466054528, 0.257457606247, -0.046233373698,
        0.098751732267, 0.188209419036, -0.048519940577, -0.033527595638,
        -0.088393481382, -0.013565849586, 0.107524643853,
        -0.225546064633, -0.018035121365, -0.015930485611,
        -0.114191404466, 0.008836050271, 0.083124412159, -0.175446785740,
        -0.221210961711, -0.029652808271, -0.201605793862,
        -0.078555590488, -0.051908976145, -0.023264268917,
        -0.012360498983, -0.088540612396, -0.202679221078,
        -0.152005448112, -0.064542298092, 0.123345057611, 0.065859582435,
        -0.018163342612, -0.219554762237, -0.015876628177,
        0.025088789054, 0.023149385529, 0.079080800807, 0.058127714873,
        -0.205490238076, 0.239665083218, -0.003550323532,
        -0.077729566628, 0.116075171330, -0.141192925864, 0.157444259909,
        -0.140417390562, 0.102230249165, 0.066769348413, 0.068313957119,
        -0.134795574566, 0.103751674595, 0.069734915593, 0.144609676726,
        0.015437308097, 0.002082382617, -0.036100502910, -0.031734098491,
        0.133597710675, 0.006173716507, -0.023350918351, -0.000551873256,
        0.190110614118, -0.024150883107, -0.134781123094, 0.147305595376,
        -0.079744889058, 0.065233449960, 0.080574133230, 0.067509368809,
        -0.026181105246, -0.248150642167, -0.018327436771,
        -0.023687255300, -0.108767468013, -0.235357369017,
        0.086434697435, 0.119810218171, -0.154400348571, -0.088366333799,
        0.062684884789, -0.151003686013, -0.073955146864,
        -0.188815539607, -0.141469248746, 0.061242118274,
        -0.120719993506, 0.030690715412, 0.185236318914, 0.096816702416,
        0.072399578846, -0.113447698536, -0.044055894607,
        -0.041995594539, -0.114521272477, 0.273785772810, 0.131733528239,
        -0.026840974160, 0.048621581092, 0.040176611466, -0.014990511457,
        -0.113525961086, 0.150997710218, 0.087747125754, -0.200183744581,
        -0.087010132495, -0.247998748275, 0.004489894778, 0.097720506236,
        0.018066164942, -0.222505675596, 0.013546293347, -0.157099494383,
        0.238813218144, -0.052299431360, -0.120144655759, 0.085652809570,
        0.048555225782, -0.169713608585, -0.012937405903,
        -0.025562003128, 0.087397986257, 0.058292891453, 0.061654140751,
        0.077455944621, -0.103567514453, 0.155729658432, -0.105509224477,
        -0.021338564864, -0.123162199254, 0.142163749338, 0.018072281616,
        -0.051484549092, 0.143967623413, 0.004536419312, 0.119699600531,
        -0.090796806344, -0.063387380302, -0.107645562275,
        -0.040011971516, 0.190884538571},
       {0.027932869785, 0.068840877147, -0.114075124799, -0.174386123590,
        -0.069006609790, 0.181831476903, -0.051351537314, 0.250641286392,
        -0.089310078197, -0.096027741923, -0.131719364859,
        -0.016497883833, 0.022145066615, 0.377308125879, 0.022143869867,
        -0.180855508667, -0.030074503601, -0.045109410413,
        0.140548726461, -0.228680056884, -0.056219078356, 0.026096961963,
        -0.117692891665, -0.185460148826, -0.202207834417,
        -0.112819512828, 0.016273231465, 0.021570565091, -0.021768275525,
        0.193371803765, -0.185875058199, 0.014291465166, 0.191211869798,
        -0.059201946694, 0.314404952554, -0.027577250272,
        -0.216575749368, 0.235902798064, 0.051158058058, -0.051156700114,
        0.066282720040, -0.114815934149, 0.149232416585, 0.097405780649,
        0.033577563938, -0.288296011450, -0.119778753563, 0.112691420745,
        0.233215193495, -0.051882079554, -0.294759383832, 0.296751884970,
        0.021256960987, 0.083859901662, 0.036081878541, 0.191273132081,
        -0.094097191793, -0.061631230538, 0.197721989665,
        -0.072910177625, -0.115280895842, 0.167292970990,
        -0.079130665439, 0.093088489452, -0.046026432453, 0.131448026133,
        -0.066102361910, 0.029353737288, -0.105960380224,
        -0.055953356143, 0.028696852565, 0.066060779839, 0.129754822838,
        0.204466981907, 0.052050507240, 0.048142044387, -0.037025228862,
        0.269837211851, 0.089857678364, -0.092333284697, 0.048932443018,
        -0.086611157431, 0.183255755998, 0.194437777345, -0.160747834918,
        0.162559230747, 0.067660425328, -0.161901615506, 0.046397938259,
        -0.001219654486, -0.002136442416, 0.146409391489,
        -0.130316301194, 0.185316020850, 0.055908749390, 0.209117718045,
        -0.154302953169, 0.247022582371, -0.091856662191,
        -0.140661831878, -0.006402367519, 0.260424945346,
        -0.128043663141, 0.075406940169, -0.166147762790,
        -0.171490751230, -0.074717203793, -0.115732400935,
        0.065906688143, -0.099414253597, -0.274112625914, 0.082355010498,
        -0.301019366154, -0.055001571116, 0.115412587675, 0.235784429792,
        0.129540164508, 0.114632770095, -0.151950738566, -0.068580214225,
        0.031633224202, 0.001937402771, 0.121371099875, 0.105991175614,
        -0.097559144082, -0.009765874368, -0.022440411175,
        0.078343894540, -0.121412450144, 0.048891046166, 0.246908393406,
        -0.088151442738, 0.049610144327, 0.020370071965, 0.196488115492,
        -0.204740489906, 0.037736827649, 0.092948978630, -0.249453035088,
        -0.107542119812, 0.071298441964, -0.097887160960,
        -0.120666983609, 0.238127313979, -0.095123269750, 0.267472210042,
        -0.206106038192, -0.063658849390, 0.262984397563, 0.063128999536,
        0.208056777550, 0.045589160074, 0.052063366555, 0.002014763252,
        -0.096309022818, 0.115700200636, -0.063305572185,
        -0.197716012259, 0.046481329297, -0.012460130390,
        -0.111620353099, -0.035288112102, -0.116409500017,
        0.307385134456, -0.148408749481, 0.235067150918, 0.161773856600,
        -0.026400967287, -0.023061310488, -0.194419942653,
        0.282353634969, 0.020839850409},
