array({{-0.021050894693, 0.086040972640, 0.105846130358, 0.047214075596,
        0.186818475565, -0.162792395257, 0.050011185203, -0.128130990023,
        -0.065616618144, -0.108454925958, 0.104344792346,
        -0.130233557914, -0.041203520176, -0.184444109253,
        -0.104964193765, -0.002888752792, -0.063673189512,
        0.102581595618, 0.056170708055, -0.127372392030, -0.033199738268,
        -0.186838717793, -0.161557129416, 0.152217436147,
        -0.049816222289, -0.068467358854, 0.123577795792, 0.136293516027,
        0.103625635534, -0.142516840807, 0.134335622628, 0.044050647621,
        0.096591286014, -0.171077856810, 0.129632263122, -0.047761880914,
        -0.009370412923, -0.096037316238, -0.000846433770,
        0.166126096398, 0.099544610327, 0.055935988189, 0.048149476903,
        0.077178555839, 0.043461029649, 0.073871997497, -0.159955701751,
        0.160148231896, 0.074918133792, 0.084758361615, -0.144623586645,
        0.034500922323, -0.153321114779, 0.130447513442, 0.095803311138,
        0.165347314038, 0.097395417399, -0.167763752955, 0.145951692572,
        0.125007074860, -0.148054961201, 0.015935853006, 0.008893929797,
        -0.025594985538, 0.141255641440, 0.015166463416, -0.142310402792,
        -0.071199934970, 0.104014377724, -0.159715409889, 0.035905464070,
        0.110810683358, 0.141035003313, -0.146105563408, 0.068328999564,
        -0.097297567928, 0.181339292318, 0.001849459223, -0.106553810726,
        -0.189072611380, -0.091847611225, 0.181300304421,
        -0.029770951709, 0.081577236536, -0.137007965831,
        -0.077108913662, 0.036301496273, 0.044421879947, -0.046823889214,
        -0.078039141656, 0.080800930960, -0.117337787737, 0.026932380062,
        -0.154926829644, -0.021878834595, -0.188394318192,
        -0.124463689669, -0.064258300095, -0.035817982911,
        -0.064736124431},
       {-0.140837492255, 0.159796978004, 0.157130665386, -0.146191322340,
        -0.122975112953, 0.113078114853, -0.090724120066,
        -0.057662978195, 0.003214902642, -0.095811720794, 0.051617797512,
        0.119124735550, -0.141234206222, 0.152092122219, -0.033959013154,
        -0.069754949102, -0.089821740725, 0.129639267979,
        -0.012241006734, 0.197731809601, -0.020585378588, 0.069484735944,
        0.092132260793, -0.176904379576, 0.048691522994, -0.078891490791,
        0.053707411216, 0.053770734576, 0.065372718984, -0.036108750587,
        -0.068514729818, -0.137255429048, 0.034806125127, 0.009978654368,
        0.156038653819, -0.006291470593, -0.171384667835,
        -0.047711247178, 0.059940962844, -0.054211400362, 0.080650941198,
        -0.191488614425, 0.186300934496, 0.034526251126, 0.139765984376,
        -0.070930046482, -0.036037970876, -0.135165401300,
        -0.051618112487, -0.149181154924, -0.068085333431,
        0.050324857881, -0.101837722907, -0.024879016695,
        -0.056590956651, 0.028023155682, 0.126778481674, -0.043824139060,
        0.077411555287, 0.083701208462, -0.019380717031, -0.030558183725,
        0.009293074987, -0.101765801714, -0.188128518609, 0.111592000000,
        0.128762928028, -0.015914569328, 0.112502829917, 0.188703904211,
        0.095509712469, -0.027898512796, 0.120902354052, 0.060438429532,
        0.172723924198, -0.205317334243, -0.062685793335, 0.172272836208,
        0.132391571925, -0.162284688780, 0.006281437437, 0.147788328807,
        -0.172714226572, -0.169394230735, -0.080529080182,
        -0.005346623270, 0.049332741770, 0.190817564314, 0.150873106835,
        0.036586398393, -0.060014962411, -0.041580736167, 0.007124511701,
        -0.000127663011, 0.093402084417, -0.072807641339, 0.163155309340,
        -0.089644648713, -0.170221185323, 0.188235701284},
       {-0.049845674190, -0.185133567388, 0.191360109989, 0.020382071851,
        -0.081773009913, -0.061162337597, 0.043234064402,
        -0.106522242366, 0.051349544953, 0.038260430973, 0.090846420676,
        -0.022502997885, 0.036261628335, 0.087687636432, -0.030984075709,
        -0.057567425664, -0.147727558314, -0.058806132182,
        0.114173651504, 0.100403640978, 0.108504516930, -0.049631886538,
        -0.161830064140, -0.024546548175, -0.079103178685,
        -0.177252090304, -0.084868476579, -0.015658829893,
        0.162241372225, 0.051523444931, -0.091763519332, -0.125299063671,
        0.093997635500, -0.179246881067, 0.151394257670, 0.012477043312,
        -0.081321307966, 0.080687746479, -0.111874000150,
        -0.260119830176, 0.170109398336, -0.148582521152,
        -0.043142001920, 0.187972740508, 0.094301097961, -0.015369630756,
        0.042417596083, -0.160831669745, -0.026668234281,
        -0.178970585599, -0.148383855447, 0.091554697941,
        -0.084060536727, 0.155044617853, 0.056228220691, 0.046878015148,
        -0.090701896995, 0.016916357219, -0.103728390835,
        -0.181809812576, 0.131210434213, -0.115280721968,
        -0.069682226371, 0.122652182709, -0.112355086407,
        -0.058225566788, 0.188189423235, 0.136864949167, 0.109633318057,
        -0.163745006058, -0.085644821307, 0.166102725197,
        -0.110095260136, 0.050096623465, -0.113533435306,
        -0.076477122775, -0.050347477309, 0.161681923526,
        -0.162554727046, -0.134766817868, -0.005061920417,
        0.070723481851, -0.167363414846, -0.100950252812, 0.111579080507,
        0.062188259524, 0.027777474684, 0.144911239223, 0.035687623156,
        0.108468770037, -0.146516849189, 0.135042006314, -0.055842708846,
        0.147304199123, 0.114434988334, -0.004317748244, 0.082338027594,
        -0.184882961774, -0.179486723177, 0.093748056631},
       {0.138922304937, -0.064619333420, -0.030083220285,
        -0.093714351493, -0.100998357644, 0.170932880850, 0.098653702520,
        0.018866323762, -0.089513209213, -0.115729211843, 0.023004299127,
        -0.019033477210, 0.097632190893, 0.082096516042, 0.098524440509,
        0.032071468080, 0.150580408420, -0.119566636039, -0.022442245426,
        0.117223745459, -0.003693123174, 0.181200379568, -0.003798923819,
        0.098668526636, 0.065907101699, 0.042267073911, -0.098813971522,
        0.074104779047, 0.083646522797, 0.045095366086, 0.097413428368,
        0.154154389588, -0.164806163702, 0.050470178198, 0.003130756012,
        -0.027307168099, 0.102008917803, 0.139456248520, 0.135878053235,
        -0.045570811249, -0.127567317896, -0.121700848270,
        0.091201731153, 0.010111334302, -0.132757234301, 0.112370491240,
        -0.017563107396, -0.180653442284, -0.044368293267,
        -0.191222176070, -0.079683527553, 0.005986651260,
        -0.150206604527, 0.079113219018, 0.015847164588, -0.152654432076,
        -0.045560616327, 0.144073359194, -0.171755290487, 0.036523705579,
        0.182336834329, -0.119617475545, 0.138137629063, -0.127575588150,
        0.178989872989, -0.058361308681, -0.034910289150, 0.099287233322,
        0.128068365379, -0.159061374884, -0.019430078893, 0.022951879740,
        -0.144537471513, 0.115273568158, 0.042800347852, 0.134569466245,
        0.146899787316, 0.001244930284, -0.174948028869, 0.171194036761,
        -0.148059647936, -0.147083388181, 0.134084586312, 0.099147604625,
        -0.153502069034, -0.023345372590, 0.012884586523, 0.047610229278,
        -0.038670808281, 0.158965937440, 0.087319049408, 0.033544402008,
        -0.120612841337, 0.036105452035, -0.119831701525,
        -0.174173033792, 0.106391226066, 0.068065417853, -0.157058758760,
        -0.027891977745},
       {0.072401176136, 0.146017904936, -0.132325655756, 0.097832639589,
        -0.145707083768, 0.049756843630, 0.080072751634, 0.120551878664,
        -0.136230909586, 0.135483916020, -0.175320289246, 0.052589368275,
        0.125710095534, 0.012994477189, 0.069925794108, -0.181486443384,
        -0.007202401835, 0.150573511883, 0.116919997355, -0.153147691694,
        -0.162143575755, 0.045744345660, 0.124867595122, -0.015182318685,
        -0.048688601736, -0.166874288500, 0.137789800360, 0.154086684511,
        -0.077808741587, -0.047049826672, 0.163210834879, 0.118298107733,
        -0.158471531113, 0.122743148868, -0.161479302396, 0.152307666262,
        -0.045352881249, -0.076879874950, -0.007693800927,
        -0.112584074670, 0.126976945702, 0.172904263005, -0.007702155944,
        0.114705696071, 0.149608229108, -0.008911505236, -0.103221287740,
        0.154190142522, 0.060676771492, 0.040424531922, -0.133701209692,
        0.070490859525, 0.006630833711, -0.161866830913, -0.035352379186,
        -0.130372785092, 0.190299316695, 0.027621161155, -0.181809150696,
        0.172752494574, -0.084721116806, 0.144905210754, 0.183950619730,
        -0.086265599772, 0.110339825026, 0.000887590419, 0.105030684303,
        0.163237346163, 0.186040220569, -0.072813958889, 0.037744181899,
        -0.026123263871, 0.131559531778, 0.092610307678, 0.024175559840,
        -0.006934684561, 0.025591411434, 0.074649140434, -0.162767218377,
        -0.003930046406, -0.120034738324, 0.076942460210,
        -0.025565546960, 0.090125550177, -0.052507258201,
        -0.184041289584, -0.108455367344, 0.127473727222, 0.172672239668,
        -0.182767638940, 0.011424198461, -0.096116967690, 0.091320323366,
        0.180372138705, 0.128309957546, 0.131046406027, -0.114223066771,
        0.103294533495, 0.191274059970, 0.177832972663},
       {0.023895349148, 0.109460835850, 0.037805620943, -0.061455366007,
        0.131831073080, -0.001757153828, -0.058072367292, 0.040990248762,
        -0.119607139758, 0.097210847239, 0.141112209565, -0.108853355685,
        -0.181304806408, -0.099773096878, 0.188233359183, 0.089253672438,
        -0.124700122769, -0.145488361376, 0.013670603594,
        -0.094545055268, 0.027430393311, 0.013337437902, 0.038627619363,
        -0.038485145274, 0.026921381446, -0.026441844898,
        -0.171910110795, 0.061545077814, 0.007738937807, -0.112969304288,
        -0.090551801967, 0.082664741273, -0.174533839468,
        -0.026022349975, -0.044833629862, 0.054335273825,
        -0.041930245823, -0.106903922171, -0.127555269913,
        0.128209325768, 0.000099938940, 0.052320949492, 0.102473620240,
        0.067393491066, 0.055327583522, -0.131036314853, 0.009453310073,
        -0.191224367073, -0.183410533604, -0.002345488902,
        -0.121802748180, -0.046082773508, -0.103188627544,
        0.026411170403, -0.112421010334, 0.062168496472, -0.124583688402,
        0.034320722128, -0.156042525134, -0.083422436161,
        -0.100763099975, -0.108562079839, -0.010238766004,
        -0.191445238366, -0.080909329544, 0.039369255737, 0.147178039714,
        -0.068879161778, 0.119125095310, 0.055727892634, 0.119837264978,
        -0.107195079304, 0.181182559410, -0.092726504674,
        -0.066033595548, -0.043971041899, -0.057997605978,
        0.133369493482, -0.115343630023, -0.085019870045,
        -0.141703861915, 0.136911208570, 0.014195497153, 0.110368202163,
        -0.029473650120, 0.145893057058, 0.006375998261, -0.084820474671,
        -0.017467415552, 0.063861879669, -0.063974005831, 0.007434272135,
        -0.100266968905, 0.131069467952, 0.091646577251, 0.051060840716,
        0.147227885987, -0.031134673961, -0.081242935681, 0.077773755009},
       {-0.044839299857, 0.061662789627, 0.006908585906, -0.099318419077,
        0.013607008152, -0.041891528570, -0.098413160681,
        -0.057186413140, -0.058306105355, 0.116229430940,
        -0.115087396661, -0.084322906253, 0.179504201333, 0.076195959419,
        -0.156640669264, 0.079015605724, 0.044836032341, 0.042355829388,
        0.108472754407, 0.155833454860, 0.099492327789, 0.012282753934,
        -0.007005394518, 0.101186083781, 0.117918291568, 0.040652332610,
        0.065123565161, -0.120745217345, 0.105479882054, 0.001120701879,
        -0.172098532970, 0.103738684490, -0.044724831081, 0.088226903548,
        -0.130597790738, -0.086199078727, 0.006699050521,
        -0.107173069281, 0.114164153061, 0.011430326162, -0.043407416984,
        0.190885194899, 0.063834683770, -0.151800741026, 0.035757866616,
        -0.133419098097, 0.166634724993, 0.065092166225, 0.137946652889,
        0.124478036954, 0.154836516501, -0.079317797734, -0.089109332313,
        -0.041177046887, -0.136367423316, 0.173927454011,
        -0.117347148866, -0.076981319176, 0.136077978386, 0.048972511720,
        0.152065574985, 0.034607320706, 0.147311851041, 0.021461138593,
        0.013869319599, 0.035150178583, 0.123510745496, -0.188417889947,
        -0.086320377393, -0.080057086538, 0.148200184552,
        -0.035921961138, -0.013350588640, -0.177608838358,
        0.034400796926, 0.142164141445, -0.079204518520, -0.064695243654,
        -0.104323486298, 0.027741419932, 0.105364990054, -0.111632209667,
        -0.052318213916, -0.061758542762, 0.026654236388,
        -0.148562214590, 0.001367875247, -0.021271773425,
        -0.036437299638, 0.004542693469, -0.058544356604,
        -0.023070674553, -0.080738585530, 0.147408944253,
        -0.060317766000, 0.176187738399, -0.129085557783,
        -0.085328077407, -0.155374742001, -0.163491505924},
       {0.133625699531, -0.086308672090, 0.045703177787, -0.134050852970,
        -0.155509935171, 0.107154800560, 0.124542570386, 0.033193352187,
        0.097892010672, 0.076169293180, 0.001363849105, -0.011737844326,
        0.156431093938, -0.044251778065, 0.178000130780, 0.005831999097,
        -0.174432715595, 0.050699718918, 0.015433755295, -0.119972892815,
        0.035346219246, 0.049675437840, 0.138888660394, -0.017757644065,
        -0.052552095908, -0.165200601359, 0.005520620006, 0.099440453009,
        -0.083545645395, -0.035238604428, -0.173377926580,
        -0.111412575945, 0.186879649663, 0.030104021811, -0.138579902699,
        -0.025995467274, -0.104397175584, 0.075221887770,
        -0.055535793488, -0.015040538300, -0.018484494519,
        0.117008426368, 0.114602041737, -0.109514269634, -0.043368737518,
        -0.038169647862, -0.016292675486, -0.008145430488,
        0.050169626534, -0.144790663155, 0.173487229955, 0.009733554001,
        0.180228917160, 0.142191736069, -0.007654546111, -0.001056116511,
        0.021677936760, 0.190010225517, 0.004943800933, 0.138354790185,
        0.047774539101, -0.079269105507, -0.095868594786,
        -0.164770098366, -0.034775551776, 0.144852564095, 0.065939908635,
        0.152456268028, 0.093755330783, -0.191344147352, -0.138443897255,
        0.106739967658, 0.099567901447, 0.044987003146, 0.093646698350,
        0.059717352570, 0.089175641672, -0.049835513110, 0.055742518481,
        -0.021511880782, -0.132734447508, 0.184982826571,
        -0.163902231475, -0.006305777913, -0.065908802377,
        -0.146783769077, -0.092217428090, -0.127191282218,
        -0.116285714653, 0.159724999377, -0.132423491589,
        -0.109293722082, 0.079663704675, 0.087883724557, 0.157704873793,
        0.016301476760, 0.181915791734, -0.166328947957, -0.060769375885,
        0.025203705979},
       {0.026815144252, -0.053686731687, -0.057900187817,
        -0.046649650109, 0.153448087964, -0.003355380350,
        -0.060727144676, -0.007926698691, -0.004246083964,
        -0.128523740422, 0.082346262273, -0.163039912603,
        -0.120006689944, -0.029335189851, 0.041764078431,
        -0.094572281870, -0.069876809901, 0.130811543549, 0.180705021572,
        -0.047397815186, -0.133766216260, -0.044989221171,
        -0.181396858211, -0.153041513472, 0.074283334075, 0.112635720074,
        -0.152544744584, 0.026456210272, 0.185882540591, -0.064128023893,
        -0.046440203037, 0.149704618667, 0.128327727376, 0.103748049563,
        0.053933428104, 0.142409763951, 0.059295600968, -0.132196682470,
        0.160488431046, 0.049081550288, 0.021008786181, 0.068500131188,
        0.126842146617, 0.179203890916, 0.181063994387, -0.007222896557,
        0.132896174062, 0.189240293977, 0.073359428391, -0.127536715213,
        -0.009615955395, -0.098805246196, -0.059485938271,
        -0.000925666733, -0.163188649302, -0.114490869403,
        -0.132171395888, -0.145691112410, -0.124140301600,
        0.027067683922, -0.078836876051, 0.015340285577, -0.033927803419,
        0.062784732769, 0.177554670839, -0.071704879511, 0.020159514582,
        0.083185221310, -0.075387340165, -0.093880373861,
        -0.175256254118, -0.047969594377, 0.096965039497,
        -0.078665088723, 0.131663981842, -0.061544148379,
        -0.106639136415, 0.020332710701, 0.033028809202, 0.096965554931,
        0.171361189588, 0.092017514773, 0.061716086830, -0.122833711223,
        0.165790615187, -0.177581950643, -0.002753806297,
        -0.183648175834, -0.131569866802, -0.053479014256,
        -0.001668002056, 0.064172648561, 0.163811583212, -0.097320084269,
        -0.189859763486, 0.073463043568, 0.103974977337, 0.107755928892,
        0.090722619540, -0.053699992062},
       {-0.088427644650, 0.034213649290, 0.121990337156, 0.192845533127,
        0.188769773976, -0.091689541995, -0.063560736476,
        -0.002863778302, 0.029765151845, -0.144594298399, 0.057990305113,
        -0.084439599123, -0.168622721619, -0.066188545651,
        0.166242637911, -0.141972871258, 0.169189713013, -0.189971525339,
        0.112635534364, -0.127679378960, -0.170687521210, 0.191206082888,
        0.039730033799, -0.075949966162, -0.025880635377,
        -0.108146823984, 0.078146165051, -0.083948882912,
        -0.005501236220, 0.155052297859, 0.109142633991, -0.024905740520,
        0.149014864458, -0.002170458251, 0.160270050070, -0.115945458924,
        -0.058891104156, -0.128920506074, -0.182347996100,
        -0.054120026264, 0.176614124655, -0.131684123340, 0.030169523274,
        -0.133151711256, 0.122758753629, -0.125234523199, 0.042419913977,
        0.179068320728, -0.094010533691, 0.107930373254, -0.136181458487,
        -0.175469270193, -0.061716980364, 0.179825518536, 0.162587505377,
        0.124003494582, 0.044264696848, -0.061884211739, 0.103363995857,
        -0.188420430259, 0.145182159515, -0.001345181562, 0.068809964325,
        0.060980056397, 0.109601136121, -0.134120960768, 0.033716112349,
        0.125326948400, 0.031861355487, -0.147574019688, -0.025715948681,
        -0.011530770062, -0.020091509704, 0.174089392101,
        -0.186507652125, 0.017053564110, 0.059713030383, -0.177776894926,
        0.012416221505, -0.117107198967, -0.067788382424, 0.040363514212,
        -0.186752337975, 0.078440260223, -0.185041084406, 0.065487326779,
        0.046851920838, 0.086609479069, -0.017150803354, -0.003760638389,
        -0.023311983113, -0.128467748123, 0.104059945106,
        -0.169203994061, 0.019455211869, -0.131768840424,
        -0.186266759042, -0.010465089159, 0.031336913379, 0.176702005439},
       {-0.088304718894, 0.172073851945, 0.000624049365, -0.135025252688,
        -0.099871209984, -0.137196760883, 0.180375837266, 0.088790482663,
        -0.131580137161, 0.159954055863, -0.053126587932,
        -0.179646525887, 0.179122634823, -0.153292697787, 0.152646028692,
        -0.017219199143, -0.124159673294, -0.174971751354,
        -0.188957586895, -0.040141050407, -0.154551126516,
        0.119504085374, -0.065674781754, 0.107744772630, 0.115422882876,
        -0.112813498896, -0.024046717483, 0.158760419204,
        -0.116313118688, -0.020856449753, 0.094546298742, 0.018603773243,
        -0.132935027298, -0.061105436231, 0.175317445540,
        -0.184822056934, 0.071000948061, -0.136792219015, 0.133638463350,
        0.068201836381, -0.011928613558, -0.095026084099, 0.111094449057,
        -0.065232849309, -0.116519179851, -0.042511514768,
        -0.160746853825, 0.170283581683, 0.177450825113, 0.080371030090,
        -0.040540330089, 0.024053447714, 0.058691472383, -0.146467186910,
        -0.108190418615, -0.068744156641, -0.185339667287,
        0.044035181239, -0.059653549634, -0.037716271834,
        -0.025142551022, -0.077941864369, -0.024283625280,
        0.190781053697, 0.155508797146, -0.163976132743, -0.150991377931,
        0.038062782653, -0.125339147611, 0.041416310893, -0.013478828058,
        0.131629850866, 0.157239781410, 0.187036451981, 0.087011183250,
        -0.210250555753, 0.183717397176, 0.137117595878, -0.135149273087,
        -0.142393375143, 0.101662723388, -0.036510194928,
        -0.014706139593, -0.119980221994, 0.092162553962, 0.156015306331,
        0.004125540410, -0.066607808375, -0.037917347599,
        -0.019882654036, -0.045315885669, 0.024927987415, 0.010144126132,
        -0.183681137420, 0.036138469085, -0.100089169146, 0.063201510914,
        0.040554980566, 0.170639848398, 0.105824792140},
       {0.061159852868, 0.106648863106, 0.130838744513, -0.120468987861,
        -0.132546744700, 0.144740610197, -0.097105660156, 0.075009104968,
        0.102573449826, 0.001030389084, 0.120565155198, 0.109424135231,
        -0.123225651358, 0.136958573529, -0.019562829439,
        -0.068213069794, 0.071661447210, 0.008882885391, 0.141140039639,
        -0.000410186882, -0.131369932675, 0.137383092408, 0.060515114730,
        -0.153256481280, 0.169755857498, 0.181115606787, 0.057246610978,
        -0.047799772141, 0.142863862642, 0.056945198059, 0.071844899753,
        0.099525143618, -0.168222666793, -0.122000707365, 0.029753480529,
        -0.129391866323, 0.173387726115, 0.082230564841, -0.136967212543,
        0.098249417056, -0.061679116827, -0.154689556873, 0.044937391501,
        -0.165882777161, -0.104081404503, -0.001645971916,
        0.052938534779, -0.071149489732, 0.000618999018, 0.041604142899,
        -0.069770992755, 0.080537502101, 0.016123297081, -0.012104495280,
        0.055846876272, -0.014351853956, 0.142907208637, -0.136270574116,
        -0.017442059209, 0.056298077900, -0.157144579820, 0.093628940973,
        -0.097145923553, 0.036235337619, 0.009805463805, 0.024491002734,
        -0.179367025918, -0.033671700370, 0.032158449719,
        -0.049190070167, -0.066352642835, -0.068373101533,
        0.104956386866, -0.098650403943, 0.016284573496, -0.053305213564,
        -0.011058185736, -0.044932563471, -0.021695996897,
        0.186582425237, 0.003688344442, 0.049272881985, -0.040493249391,
        -0.158833698717, -0.139203050313, -0.092540719996,
        -0.154384848858, 0.077012815199, 0.177689754198, -0.063647819045,
        0.166846577022, 0.027160984688, 0.098171153801, -0.158005046147,
        -0.121501689755, -0.124550006756, -0.090756569855,
        0.164120769713, 0.165774548882, 0.072621506589},
       {0.171450857045, -0.055789088460, -0.041319410053,
        -0.138204293476, 0.032370541388, -0.179680607748, 0.034947317437,
        0.101769998013, 0.120790452539, -0.048059328142, 0.117216065539,
        0.095799442108, -0.120143116536, -0.148666553422, 0.128063817671,
        -0.110083097892, 0.066907246861, 0.182647000440, -0.138990307545,
        -0.172291828013, 0.021707582019, 0.126635324757, -0.081240020771,
        -0.096272998031, -0.107108930966, 0.095526681321, 0.072405783336,
        0.120603225817, -0.165890707603, -0.046468383474,
        -0.142532935185, 0.122202091672, 0.025131814436, 0.159264619496,
        0.057276139378, 0.103804637760, -0.175943155955, -0.157439383047,
        -0.059461834646, 0.203435289089, -0.102531562637, 0.062549192669,
        -0.164586531257, 0.120750658847, 0.180915276256, -0.040252755636,
        -0.174328898570, -0.155485683786, -0.010675897474,
        0.025565826563, -0.093262005023, 0.004429424262, -0.072921246485,
        0.113817330968, -0.116014094854, -0.180912829824, 0.032411921779,
        -0.043438651604, -0.107435554788, -0.131870662035,
        0.068879544266, -0.100059052237, -0.053384612306, 0.047998500373,
        0.133351470068, 0.079118103631, -0.121269368208, 0.122071448734,
        -0.115005120876, -0.055053949354, -0.028873684208,
        -0.089689984922, -0.140356179366, -0.090705300580,
        0.139056008420, -0.130173753970, 0.034214515033, 0.159329761759,
        0.022436186641, 0.011279873015, -0.185606093055, -0.111573883597,
        -0.019646614842, -0.105032124385, 0.106163479824,
        -0.186266599824, -0.071129226368, 0.016032697542, 0.114494972101,
        -0.011039530127, 0.055276941316, 0.028126337258, 0.073451603753,
        -0.140467788494, -0.029868515168, 0.062900358194, 0.120005765537,
        -0.015529057065, -0.176896493254, 0.123935210224},
       {-0.130446181759, 0.182353314165, -0.179423802742, 0.100644295114,
        0.116944050933, 0.160642497664, -0.036411280423, -0.104322294310,
        0.023874511517, 0.006032292112, 0.126951057787, 0.188991715966,
        -0.165022540223, 0.120464165819, 0.002435597778, -0.048071881706,
        0.002785971173, 0.070386447556, 0.025209658100, 0.115257825847,
        0.118441407392, -0.159450010781, 0.001323651588, -0.092348045248,
        -0.068197517464, 0.189187139011, -0.144650247000,
        -0.186423360347, 0.181909870298, 0.080421618131, 0.044610999444,
        0.093976198075, -0.131359645734, -0.094168266539,
        -0.043106381827, 0.138362770639, 0.010861867137, -0.112700905588,
        0.153401219220, -0.172338563918, 0.040348766721, 0.149488163701,
        0.116092243648, -0.113250410250, -0.139367091857, 0.186691597340,
        0.134391234775, 0.021568331295, 0.145125529529, -0.106526749043,
        -0.137536334575, -0.088322718817, -0.074473353249,
        -0.039100017473, 0.002000686647, 0.152126519357, -0.048682997650,
        0.091669217957, -0.190657080753, 0.190592747253, -0.029060042319,
        0.173638952731, 0.034885783084, 0.066640298076, 0.171576043113,
        0.092569362668, 0.056028923245, 0.173263347664, 0.083435692653,
        -0.170418319728, 0.037587288950, 0.138993032720, 0.117869427141,
        0.050388522058, -0.082271648022, 0.140776441301, -0.132902523490,
        -0.098196072569, -0.121483655413, -0.109551950376,
        -0.171138090107, 0.102838999057, -0.149994322918,
        -0.087756725345, 0.066797831152, -0.128676989559,
        -0.148672179170, -0.019426930869, -0.101722688305,
        -0.054624454190, 0.187606843897, 0.163932111503, -0.073924428015,
        0.044381527422, 0.100588542256, 0.191083852685, -0.141272370618,
        0.023556385241, -0.058920287072, -0.094093604087},
       {-0.075847130606, -0.188545307966, -0.057698164919,
        -0.050979296968, -0.161304170368, -0.181516446754,
        0.113484976714, -0.023323677966, 0.010273117999, 0.049170828546,
        -0.120756191096, 0.012218946648, -0.069423872215, 0.188116715338,
        -0.020979075082, 0.065532312165, -0.191559589142,
        -0.148429060470, 0.078257760155, -0.057836979592,
        -0.148304050548, 0.004028976895, -0.065712715834, 0.078821135634,
        -0.102173261037, -0.036620552172, -0.058483547906,
        -0.129287674557, -0.010402101005, -0.008393838902,
        0.153788546537, -0.109347866706, 0.066981020460, -0.129490683508,
        -0.010124012499, 0.104195368130, -0.067286410839, 0.079287187707,
        -0.048511277216, 0.100036881448, 0.110043855195, 0.132925326958,
        0.169452623713, -0.036421976511, -0.101108972177,
        -0.149333230848, -0.070153870201, 0.045888545500,
        -0.104341796026, 0.053912080566, -0.005546923175,
        -0.145621196093, -0.145660483557, -0.009780806752,
        0.100127599084, -0.147359956194, 0.055109203548, -0.049367455422,
        0.046762846594, -0.034727416986, -0.180166130179, 0.049378062811,
        -0.007240890490, 0.020765303838, -0.050594317747, 0.130292361853,
        -0.020771606764, -0.042380947318, 0.182342643763,
        -0.157037892621, -0.060761400772, -0.046001570830,
        -0.033112208928, 0.011707391477, -0.099362149208,
        -0.065097418687, -0.142051973144, -0.012102118751,
        0.046023232557, -0.076137233532, 0.095947183748, -0.006918921895,
        0.132502507045, 0.149486224310, -0.180922751991, 0.118471926174,
        -0.041268674122, -0.053749806156, -0.177933240785,
        0.031561719715, -0.117963221122, -0.156946220154,
        -0.085941061880, 0.121102203874, 0.188404063244, 0.008601108995,
        -0.124058924123, 0.169017335848, 0.082376724460, -0.107213338179},
       {-0.097214604837, -0.014403119365, -0.077724250446,
        0.024455320823, -0.001517322853, -0.062069674168, 0.078430348378,
        0.185877814909, 0.003776974687, 0.139851752700, -0.007553963875,
        -0.151222869879, -0.022895800561, 0.135368672335,
        -0.097122389157, 0.174319477568, 0.101639557064, -0.089934984931,
        -0.138921440805, 0.041760412103, -0.044666994073, 0.058323449564,
        0.052690204636, 0.052870180364, -0.167177845728, -0.037124662637,
        -0.001166493849, 0.094896288971, 0.113093486223, -0.171750164445,
        -0.150899461952, 0.050649611374, -0.151485037503, 0.144460710177,
        -0.054054056490, 0.036099194367, 0.182892199739, -0.146586399477,
        0.092879133818, 0.149849964468, -0.006226916841, 0.117753102699,
        -0.166619933728, -0.124944352256, 0.091941330013, 0.069294208638,
        0.023302010577, 0.072235373222, 0.091323968734, -0.081783519933,
        -0.050362319713, 0.189905494921, 0.051911183530, -0.089119679053,
        0.065536038059, 0.059212693180, 0.151922575696, -0.091961326725,
        0.082603251485, -0.095932593857, 0.037359211429, -0.152300495672,
        -0.028111696427, 0.150250157527, 0.008105405177, 0.042202734898,
        0.012779685447, -0.087057695476, 0.177312052136, 0.140819686717,
        -0.112091298673, -0.190557033554, 0.102832891511, 0.167069549607,
        -0.179881003473, 0.218390378756, 0.006855767384, -0.087830983749,
        0.158351180353, 0.171118483699, -0.021542589455, -0.051176375959,
        -0.074359699837, -0.072180993832, -0.073765273880,
        0.022120981478, -0.022729270483, -0.074795578970,
        -0.085780288361, -0.149322163578, -0.030281858102,
        -0.012361991609, -0.191221414302, 0.053565829524,
        -0.021331680544, 0.177575962125, -0.028669440599,
        -0.077128535503, 0.185631031701, 0.030418766771},
       {-0.007270135187, 0.052146204676, -0.054080941206,
        -0.186600274770, 0.110503929219, -0.028174260340,
        -0.028119481876, -0.108229276263, 0.138772601247, 0.018115871198,
        0.158809762180, -0.006011080825, -0.154597248445, 0.162446941533,
        -0.043978155052, -0.074388782691, -0.168659562787,
        0.136511316308, -0.045122538594, -0.072759733795,
        -0.071811574779, -0.095006173203, 0.037970763140,
        -0.147616440382, 0.101778339297, -0.003033804254,
        -0.166263234743, 0.028355603398, 0.169894924672, 0.067411851156,
        -0.043410403133, -0.105048251552, 0.101955686252, 0.027619299061,
        -0.010408612039, -0.074722824534, 0.158544445758, 0.028767008114,
        0.176143423066, 0.115774142611, -0.146211822680, -0.001187771624,
        0.114089959018, -0.178484450737, -0.167995190058, 0.087582366228,
        -0.081372882618, 0.059667259955, -0.146922909015, 0.011655984764,
        -0.166713162117, 0.054559392208, 0.092829664764, 0.171495222007,
        -0.156359774875, 0.060945532674, -0.190547407961,
        -0.184915907576, 0.070870714977, 0.022507086233, -0.183013298348,
        -0.182878264588, -0.135016901406, 0.060867316074, 0.146375047571,
        -0.012998867255, 0.088814736930, -0.149203624343, 0.073600590585,
        -0.082882058060, 0.086535730504, -0.012264552445,
        -0.086063222418, -0.053139971999, -0.102593640948,
        0.108795511526, 0.039838441361, -0.160941991032, 0.164514548196,
        -0.121246472289, 0.143360870024, 0.081903727463, 0.002690438985,
        0.103618889436, -0.147418021733, -0.153772341830,
        -0.116930647088, 0.153267476539, 0.063661820775, -0.088897586433,
        -0.089413191023, 0.131474539509, -0.123966441022,
        -0.096831654554, 0.035973765807, -0.070930700369,
        -0.001920020554, 0.176134146708, 0.017290587175, 0.007346568790},
       {-0.040717779826, -0.059055477810, 0.109078728895,
        -0.070811504395, 0.019790657741, 0.018649462117, 0.051756231729,
        0.067324771940, 0.087925587289, -0.021110406632, 0.163439307031,
        0.156621674179, 0.150479862490, -0.060927535887, -0.189057355378,
        0.023866975407, -0.099329534665, -0.179239013851, 0.108935933371,
        -0.033292280255, 0.104201661700, 0.128922147585, -0.043366718598,
        -0.066478347375, -0.146872430967, -0.172595099467,
        0.116007087801, 0.026495861559, -0.031945270318, 0.106121373286,
        0.000526427794, 0.012970719858, 0.020030885878, 0.078626142698,
        -0.120719442613, 0.117463501303, 0.098059643827, -0.121445627463,
        -0.137620233775, -0.170545123601, 0.023219370900,
        -0.106047924529, -0.093838965600, -0.042998320669,
        -0.120666149794, 0.002774765380, -0.119333385694, 0.173084788996,
        0.149900397348, -0.117421324101, 0.160467723048, 0.019984187142,
        0.055212842715, -0.105047582812, 0.169751624881, 0.096554461823,
        0.184696187661, 0.133504978861, -0.067869440821, -0.103873697094,
        0.024937164901, 0.165245395426, 0.169629675467, -0.008411374341,
        -0.161703836905, -0.168310134462, -0.049545958975,
        -0.145358829208, -0.176326371235, -0.010678030127,
        -0.110363060501, -0.011046043699, 0.086873623274,
        -0.119890120381, -0.023548471057, 0.072160719611, 0.136301773160,
        0.191025097892, 0.116265792026, 0.083245700575, -0.182381067130,
        -0.025423618456, -0.020861384488, 0.148698582410,
        -0.053617384987, -0.020772301253, 0.149551158984,
        -0.187312395613, -0.190702049421, -0.112303103928,
        0.002659043217, 0.124373707448, -0.040845313172, -0.001018525948,
        0.165952519496, 0.035909500157, 0.141347987059, -0.015671224571,
        0.041753804946, -0.145448077385},
       {-0.071757027692, -0.149237148544, 0.102359718397, 0.225900688576,
        -0.050988791228, -0.064434372533, 0.113685544910, 0.169912112358,
        -0.033132648887, 0.158363308854, -0.040410346397,
        -0.101505542150, -0.004373847037, -0.170380895159,
        -0.158003763886, -0.043961417881, -0.062829726501,
        0.151788656764, -0.055961016465, 0.148394409690, 0.028421712855,
        -0.142446270417, -0.023822688737, -0.165204797397,
        0.057665677348, 0.053693602886, 0.087212315176, 0.061482881164,
        -0.160648214600, -0.134454523978, -0.159123866941,
        0.108023947063, -0.008093150208, -0.134736514668, 0.035917374344,
        -0.112304324811, 0.180713095334, -0.052648959536,
        -0.131447093992, 0.090174267000, -0.117151465584, 0.114716054490,
        -0.185706124544, 0.050609820080, -0.111450611218, 0.124520585179,
        -0.088125946460, 0.026961998932, 0.172624422285, 0.064744692537,
        -0.133959297493, 0.048500540943, 0.002383858392, -0.073123319233,
        0.013525084211, 0.160965156709, -0.121095298117, -0.123560878109,
        -0.105091846379, -0.162595216529, -0.178233161407,
        0.036338157428, -0.063938991099, -0.090469561750, 0.014764038132,
        -0.052303696711, -0.046157379778, -0.162272390811,
        -0.178714100540, 0.066604308430, 0.035077450619, -0.038087145476,
        0.040333150975, -0.003574606905, 0.158741766026, -0.088284863944,
        0.091739462010, 0.011837122004, -0.107509261778, -0.018689009391,
        0.108492671910, -0.089983691609, -0.042308008272,
        -0.181810674338, -0.123604951296, -0.154958553074,
        0.086437791563, -0.102794606632, -0.173478740079,
        -0.128075348076, -0.048619402962, 0.147792280930, 0.043049091012,
        -0.123013989491, -0.138404291312, -0.156744222546,
        -0.081944781968, -0.156633712234, -0.013577093608,
        -0.153188889600},
       {0.069437447303, 0.148921906045, 0.019517274483, -0.161467170598,
        0.027298565024, -0.100778964074, -0.008298678994, 0.040712486642,
        -0.069340900170, -0.139566280946, 0.091434389277, 0.148669188520,
        -0.088617289091, 0.062031270014, 0.190436766638, 0.128584540959,
        -0.002881521142, -0.069290924143, 0.005608706069, 0.146983817188,
        0.047295634924, 0.050252854083, 0.150751451052, -0.139222850352,
        -0.182518771733, -0.130965255570, 0.011355962314, 0.187124977828,
        -0.094223697534, 0.040203019619, -0.068769284596, 0.089997096261,
        0.174795444585, 0.110204187905, 0.055587214827, 0.061048307219,
        0.122320924479, 0.099999540870, -0.174535042182, 0.019547657714,
        -0.083829596814, -0.156963782093, 0.032557851314,
        -0.076482547559, 0.125213117465, 0.031617704953, -0.003285507131,
        -0.144664574136, -0.146869309669, -0.012261641161,
        -0.094081794270, -0.148967913472, 0.006742188357,
        -0.112432453474, -0.007965039083, 0.054239481472,
        -0.019139448461, -0.041859237867, -0.183401926573,
        -0.033599792671, -0.033108645586, 0.126946855070,
        -0.128672778771, 0.175231411655, 0.009290852315, -0.051898291605,
        0.102673993223, 0.102821293712, -0.176909243701, 0.016749390193,
        -0.040758137642, 0.052689064663, 0.181001819086, -0.174345831800,
        -0.181055576936, -0.140474608556, 0.061617168634, 0.039885279520,
        -0.107626391262, 0.128925184649, 0.015820908096, -0.096659586396,
        0.063860883473, -0.067482524648, 0.088840860145, 0.020841079323,
        -0.189742090726, -0.012583115924, -0.074022935347,
        0.048429911587, -0.027720670556, 0.123257854528, -0.152576077322,
        0.127897043361, 0.100724542497, 0.096430658252, 0.114164879357,
        0.030553915018, -0.051815605123, -0.096849360120},
       {0.023898057054, -0.122148383452, 0.095933282938, 0.120508385385,
        -0.046998458039, -0.187179056299, -0.047779227377,
        -0.109337576898, -0.084543634111, 0.058592262502,
        -0.020607706052, 0.124997708757, -0.016142331261,
        -0.116023302341, -0.001743233364, 0.182015182731, 0.079036376409,
        0.027062196893, -0.082901066223, -0.168910415684, 0.127957425846,
        0.083875826722, 0.131387559243, -0.120420951823, -0.147958074462,
        0.104072693549, 0.181552310633, -0.048827435503, 0.126978520185,
        0.075962074210, -0.155659050518, -0.176827526443,
        -0.151137633050, -0.096827763773, 0.084948451422, 0.048641108052,
        0.060739404781, -0.109622940684, -0.169495090403, 0.138422040038,
        0.150303833496, -0.076517501586, 0.015398661903, 0.119534112875,
        -0.086304135921, -0.056891630544, 0.146378375357, 0.166731813039,
        -0.035907808693, 0.189644000048, 0.098342103857, 0.180905725271,
        -0.077001711953, 0.063582094214, 0.015729337417, 0.048330172364,
        -0.126068357638, 0.136485123860, 0.164886471114, -0.146895745903,
        -0.056141777873, 0.053928662315, -0.000312707934, 0.141524974662,
        -0.138004095887, -0.104364268865, -0.168491970775,
        0.029522327269, -0.134778733303, 0.050788224250, -0.138374902469,
        0.161150998222, -0.146419109392, 0.109314014418, -0.099782436936,
        -0.067262777761, -0.001337039968, 0.015717702591,
        -0.088914430393, 0.054485793766, -0.152549190401,
        -0.076898304604, -0.038158233389, -0.158259818195,
        -0.139337960039, 0.116853455850, 0.056521314489, 0.183275139493,
        -0.182585415046, 0.025479682257, -0.075163057351, 0.052663364491,
        0.088272383445, -0.112709863744, -0.079377721880,
        -0.045792985423, -0.168974709746, 0.169127179182,
        -0.093471355664, -0.029155798262},
       {-0.190106687948, 0.058113264446, -0.176817487532, 0.096536311120,
        -0.156826779158, -0.182396952536, -0.180997446261,
        -0.078817227273, 0.086102727773, 0.075430366719, -0.101830421956,
        0.102777855684, -0.023852417690, -0.054512270319, 0.074361856939,
        -0.076014622624, -0.143205255300, -0.172034069811,
        -0.158227517444, 0.212276737070, 0.067315309504, -0.178720690848,
        -0.126554369074, 0.061166903978, -0.167365705189, 0.126509787295,
        -0.000103632254, -0.005442390246, 0.172132883503,
        -0.119008035409, -0.163438627649, -0.105391484642,
        -0.135659768432, -0.091591594016, -0.067371444266,
        0.149506918573, 0.041526692302, -0.014050960243, -0.164299521569,
        0.000834518919, 0.051321277924, 0.148568016176, -0.130718297824,
        -0.135689990859, -0.041763404237, 0.095208057941,
        -0.045966264874, 0.087281141069, -0.003227955571, 0.135904206817,
        0.167755971652, -0.039827138231, -0.138170342872,
        -0.028839981118, -0.011621991109, -0.005269224471,
        0.043503956085, 0.100647153693, -0.168389692794, -0.049274894585,
        -0.007173319933, -0.174772010408, 0.029042599518,
        -0.103609337616, 0.025614929757, -0.060911090130, 0.151540534973,
        -0.030431790705, 0.063280555558, -0.124533034772, 0.092417309985,
        -0.119047829435, -0.093150485263, -0.013314433397,
        0.064201596392, 0.156000557582, 0.007315687445, -0.074875098270,
        -0.030137478466, 0.086983447582, 0.098306544728, -0.022695242421,
        -0.121264756417, -0.074689539596, 0.096903729014, 0.120056811678,
        0.140139296624, -0.137762659167, 0.084003841604, -0.187513765314,
        0.027467595466, 0.093459909304, -0.023251962787, 0.069770724179,
        0.172889909709, 0.189020312583, -0.110737353730, -0.124426926141,
        0.023433753336, -0.058181029997},
       {0.010998162528, -0.086560788077, 0.167639721285, 0.063026007944,
        -0.062177139307, -0.062381478904, -0.039121484076,
        -0.176545011240, -0.181137516450, -0.096511339368,
        0.051504524338, -0.182228404850, -0.181397689160, 0.006361795908,
        0.033141943672, 0.074713870437, -0.108229655419, 0.082165675602,
        0.132001139276, 0.027925268960, -0.009805714337, 0.140233118346,
        -0.082556945308, 0.136296713258, -0.077801150113, 0.180142926479,
        -0.072727552709, 0.029685313619, 0.182027223954, -0.030462374867,
        -0.141117361108, -0.109494951578, -0.033555797802,
        -0.049928471943, -0.033500501707, -0.104290786565,
        0.185595365384, -0.114299708547, 0.111934586234, -0.240499721447,
        -0.014546449245, -0.147376870952, -0.030755545339,
        -0.052851157663, 0.113818172251, -0.160752417619,
        -0.040392858541, 0.133188185818, 0.016662374895, 0.055788630313,
        0.079569003746, 0.094028377330, 0.034455723545, -0.096276588027,
        0.040001741758, -0.175169069982, 0.111404801437, -0.112068370434,
        0.057519347841, -0.120312949251, -0.159285582588, 0.096517859134,
        0.129879586363, -0.174306498145, 0.093463578584, 0.021388817056,
        -0.189846144141, -0.191498774591, -0.073254092446,
        -0.069520770263, -0.058678104536, -0.174181065955,
        -0.013704830686, 0.019107217671, 0.190128325907, 0.106945152681,
        0.075685831213, 0.008545663164, 0.148772494736, 0.092420360644,
        -0.170765918610, 0.184180225107, -0.171113596522,
        -0.019245375338, -0.052287841352, -0.047433116440,
        0.095370314665, 0.131573131931, 0.180365111096, -0.031338088330,
        -0.156539660771, -0.083005879978, -0.126288482483,
        -0.070000101205, -0.181108067636, -0.165732313987,
        -0.100243567173, 0.062298146495, 0.179461498133, -0.141833829755},
       {0.175420044181, -0.057306210220, -0.072492055079,
        -0.160712457295, 0.178108461982, -0.095172268221,
        -0.083458607509, -0.187390393866, -0.160127044205,
        0.077698394636, -0.115266892826, 0.165162770177, -0.095090106256,
        -0.120522047440, 0.024106092147, -0.005062747828, 0.019926351533,
        0.043490341183, -0.028206450921, 0.125725403581, -0.166781759619,
        0.185705498931, -0.158273274746, -0.008986506329,
        -0.011290369756, 0.038149072423, 0.117955704627, 0.107598846751,
        0.152043863295, -0.116418178176, -0.000731410457, 0.033348468611,
        -0.119923477010, -0.035535404978, -0.095289927474,
        -0.022509491515, -0.021008775045, 0.191400188278, 0.020559512331,
        -0.023239393511, -0.034126831012, -0.005494500854,
        0.151570567010, -0.006617646546, 0.061146917006, 0.182670347586,
        -0.177614590120, 0.092326611702, 0.124493249182, 0.145179850258,
        -0.051011576022, 0.177129717225, -0.094932395746,
        -0.092982689605, 0.168692005672, 0.037919038720, 0.176186702474,
        -0.036622528921, 0.086256942426, 0.050816035972, -0.139217381206,
        -0.097273403366, -0.175313899870, 0.000420247725, 0.175264264686,
        0.040567126834, 0.021243567581, -0.145555535221, -0.013639754978,
        0.158855496105, -0.083729399673, -0.086543055734,
        -0.133104836682, -0.051210526168, 0.048925766546,
        -0.115032875128, -0.161187480746, 0.005901736139,
        -0.146704820132, -0.180179008556, -0.108664953457,
        -0.108604305060, -0.139974103683, -0.143642784810,
        -0.183509769762, 0.144911771438, -0.088828808060, 0.172952981332,
        0.000874421002, -0.032955435868, -0.178638181553, 0.182991602762,
        -0.088289125025, -0.044088445633, -0.160807742182,
        0.124476326667, -0.015265636229, 0.125174820084, 0.036182955140,
        -0.117279412205}})