array({{-0.016283522885, 0.368119163244, 0.000153234716, -0.441818172048,
        0.244054362053},
       {-0.015256891677, -0.192907228978, 0.001292535239, 0.194476095966,
        -0.142614544350},
       {0.359254811093, -0.537769445034, -0.101566703472, 0.402196551652,
        -0.399533633327},
       {-0.007809905180, -0.359097532015, 0.082507755659, 0.346043995980,
        0.035835960479},
       {-0.050014815172, 0.204573912096, 0.028776850758, 0.050997842670,
        -0.464756945945},
       {-0.330138419369, 0.079155399054, -0.422740797622, 0.259132395894,
        0.118603001626},
       {0.206547261129, -0.108435759862, 0.080074043279, -0.375160147615,
        0.204895147666},
       {-0.020398142453, 0.250351209923, 0.147174978768, -0.124309484669,
        0.041636474912},
       {0.294972011004, -0.277511847301, 0.114490611589, 0.025348343921,
        -0.329336829242},
       {0.348947275337, -0.344755958003, 0.237970393696, -0.221219581157,
        -0.090572541821},
       {-0.076348434100, -0.129471032840, -0.024634718750,
        -0.433382194636, 0.037204292924},
       {-0.067296143692, 0.364954693401, -0.331407883120, 0.403770965315,
        -0.109426102150},
       {0.044837776763, 0.018459892872, 0.030281273161, -0.271730406256,
        0.252376387907},
       {-0.415102503772, 0.379255742638, -0.134168439821, 0.100728452189,
        0.044726349396},
       {-0.146726852021, 0.280871691116, 0.272154721214, 0.076230802136,
        -0.381844778689},
       {-0.323667467660, -0.264676907265, 0.085241405136,
        -0.060239535487, 0.335702596990},
       {0.197033156142, 0.124072423792, -0.399527764213, 0.341504623465,
        0.101110713131},
       {-0.047427100435, 0.240191615733, -0.499052204678, 0.358197265921,
        0.098030088515},
       {-0.168015656145, 0.118309105271, -0.217788447293,
        -0.363023203089, 0.234200495817},
       {-0.294643033141, -0.134541782356, 0.124298864221, 0.298337997621,
        0.126245975364},
       {0.429654673524, -0.266020571432, 0.159202724589, -0.094108811739,
        0.298818940097},
       {-0.314814379878, 0.096626025331, -0.312007719076, 0.055282864088,
        0.270925104525},
       {-0.306760220337, 0.151406082429, -0.175076349821,
        -0.308434923877, 0.225841385536},
       {-0.203628194095, -0.238210244015, 0.221079462728,
        -0.398199821355, 0.393415473073},
       {-0.431607546190, -0.029852449744, -0.239089190182,
        0.153473297591, 0.257688722365},
       {-0.050299223646, 0.248848528576, -0.313900722609, 0.264983136285,
        -0.146229498139},
       {0.091121479606, -0.310588475619, -0.291853679564, 0.189805782733,
        -0.124621198219},
       {-0.008569527877, -0.332820179063, 0.168046820315,
        -0.331381086335, 0.420263736441},
       {-0.141707197659, -0.259561196422, -0.322092446210,
        0.408279295108, 0.130192332955},
       {0.191508443840, 0.406976721558, -0.322276942143, 0.235262208274,
        -0.284328810029},
       {0.201409438245, -0.425038276031, 0.287815591096, 0.285519571744,
        -0.269945939604},
       {-0.198814090374, -0.275638916190, 0.197895640968, 0.074382906692,
        -0.107989408353},
       {0.315247539709, 0.187719329565, -0.326765139294, 0.200355246299,
        -0.316775662782},
       {-0.106579830330, -0.420327680996, 0.472368561220,
        -0.078097784668, 0.152291863769},
       {-0.280067204063, 0.224629375936, -0.237423400973, 0.374262006738,
        -0.270135083014},
       {-0.406486610938, 0.338533312198, 0.192600218292, -0.304993902522,
        -0.178669841957},
       {-0.479053376811, 0.195865515801, 0.113766433126, 0.351777984379,
        0.204226339320},
       {0.197715353710, -0.411829681613, -0.030189030445, 0.116196584941,
        0.255661068404},
       {-0.197091925880, 0.087002458585, 0.578287401575, -0.040940697417,
        -0.160428901316},
       {-0.376781396171, -0.018519201765, 0.212623027023, 0.099153584879,
        -0.349634903611},
       {-0.219270980296, -0.162569446211, 0.004643636370, 0.374012607745,
        0.320160652694},
       {-0.077769736712, 0.019078829109, -0.373326370943, 0.144534392280,
        0.089951968536},
       {0.219687105354, -0.258833893160, 0.021775205705, 0.454850624996,
        -0.080330542875},
       {-0.084096414776, -0.331894933207, 0.366659226968, 0.191649415135,
        -0.150790624952},
       {-0.372500530059, -0.394403168381, -0.075009486809,
        0.337636998321, 0.085572268289},
       {0.114671846224, -0.295908840929, -0.288445291138,
        -0.309147588611, 0.371584435988},
       {0.212043399044, 0.278830197122, -0.345076259301, 0.215450150994,
        0.045446457346},
       {0.278383417516, 0.054962362319, 0.198411696674, 0.086565802431,
        -0.130181791570},
       {-0.050594428415, 0.190545390916, -0.351310784836, 0.360940356773,
        -0.188810548336},
       {0.390882565026, 0.265244276347, 0.110637820665, -0.494398026838,
        -0.026324871181},
       {-0.337754026206, 0.218803689959, -0.105775666143,
        -0.374338599178, 0.405615316482},
       {0.184518851914, -0.012373964721, -0.038049831392,
        -0.257863981838, 0.254104801059},
       {0.203040135668, -0.005237024938, 0.101799867263, 0.379998930420,
        -0.400352490377},
       {0.025375070905, -0.380132438970, -0.365015854861,
        -0.075877550011, 0.459678427823},
       {-0.342956927794, 0.346695282056, 0.145339547071, -0.332787834722,
        0.205775928793},
       {-0.169848548300, -0.259143060775, -0.093746157461,
        0.385276789211, 0.036324607810},
       {-0.035649608501, 0.224756112653, 0.296697491070, -0.312602589054,
        -0.205457427361},
       {0.342562259926, 0.204536513753, -0.166428928755, -0.298283626960,
        -0.301802497909},
       {0.050460721426, -0.211600690799, 0.312007090327, -0.007328492337,
        -0.111893754763},
       {-0.031345012545, 0.079921225350, -0.348372497421, 0.267307307454,
        0.127041819220},
       {-0.025718959728, 0.104496761615, 0.159683008268, -0.247894385358,
        -0.234431147088},
       {0.100668696178, -0.146132039086, 0.192058320346, -0.292051073986,
        0.256113783219},
       {-0.229162792954, 0.016320711969, 0.036305741076, 0.008615662759,
        0.522509394279},
       {0.309398594114, -0.246762161539, 0.113325221296, -0.294797891814,
        0.202532570550},
       {-0.154546995173, 0.487131803433, 0.168083576543, -0.132805547483,
        -0.372829509081},
       {0.226163290034, 0.249412024014, -0.489334453821, 0.190968329238,
        -0.237939600482},
       {0.461615777005, 0.218551603124, -0.169879165002, -0.129635940301,
        0.139206083021},
       {-0.515378029177, 0.082826075104, 0.190115606284, 0.031301335061,
        0.337252108188},
       {0.043543878411, 0.215599275096, -0.123775838051, -0.224060407812,
        0.032733439361},
       {-0.061740136983, 0.259582760403, 0.036602853138, 0.114497225080,
        -0.301450324555},
       {-0.288616043281, -0.300873849242, 0.287814625773,
        -0.020386715424, 0.057233270050},
       {-0.517426679765, 0.187492379706, -0.048403424205, 0.248261479149,
        0.061884550956},
       {0.364356419031, -0.401367125127, 0.271937893292, 0.053180075849,
        -0.095711092814},
       {0.135428006710, 0.419939727894, -0.226200696997, -0.198484150372,
        -0.024854166601},
       {0.106765666521, -0.254151113152, -0.035924412697,
        -0.117373297333, 0.197113135890},
       {0.264681553513, 0.476134725005, -0.479359461552, -0.196135143830,
        -0.347826337071},
       {0.370289995982, -0.244846933608, 0.135803475951, -0.152145773783,
        -0.262794295898},
       {0.118303833937, -0.538211685392, -0.179426263122, 0.180642703341,
        -0.365928337639},
       {0.443939375839, 0.004850101949, 0.069897564180, 0.019097317072,
        -0.191993651467},
       {-0.180173148718, -0.114608288735, -0.109161686597,
        -0.311802606114, 0.476889729085},
       {0.077948776900, -0.570388739147, -0.337368251906, 0.227690114771,
        0.222084706225},
       {0.269664928264, 0.019217510237, 0.238968764793, -0.192544333293,
        -0.018088004256},
       {-0.110606238092, -0.109051984717, -0.382081225659,
        0.247777077111, -0.026717576693},
       {-0.041697731336, 0.247100597598, -0.074970008145,
        -0.320051490407, 0.174742652985},
       {-0.027641910280, 0.225788472549, 0.336928586343, 0.082364604602,
        -0.216830105190},
       {0.191897025817, -0.162031234825, 0.417436291675, -0.094440389894,
        0.050986477087},
       {-0.089422634440, 0.253105220302, 0.248950582112, 0.050483404623,
        -0.191734190454},
       {-0.355153162525, 0.391839959447, -0.034207106598, 0.121644594080,
        0.068661042977},
       {0.096673138008, 0.139718403321, 0.461037414061, -0.425443003135,
        -0.172591643181},
       {-0.159222991846, 0.034965881923, 0.119150104382, 0.307073996135,
        0.018005978482},
       {0.132686527953, -0.254387620581, -0.183134267969,
        -0.004145997332, 0.380125872731},
       {0.127111995869, -0.380159442830, 0.113960479864, 0.120717402779,
        0.074556274179},
       {0.207602229273, -0.324603876468, -0.232189005342,
        -0.120109454320, 0.259542705637},
       {0.001702509769, -0.176907274923, 0.409234091565, -0.179527592757,
        -0.134988518913},
       {0.330126360228, -0.267291497569, -0.270174134308, 0.250316370462,
        0.124409980221},
       {-0.252456995097, -0.355083681063, -0.243305207494,
        -0.316214057757, 0.393491453328},
       {0.056133776690, 0.414869640165, -0.122030789426, -0.342337264476,
        -0.183505534478},
       {-0.502528298673, 0.399580970998, 0.251511941486, 0.363836049034,
        -0.310791663960},
       {0.228201599982, 0.515514119266, -0.119013670040, -0.255700186577,
        0.130462142783},
       {0.242218778557, 0.269224091917, 0.059812715143, -0.294271361900,
        -0.075352718435}})