array([[0.748549974355, 0.278291033835, -0.981508996168],
       [-0.144627231446, -0.272454965573, -0.032862732234],
       [-0.032079713345, -0.031163546633, -0.061721989542],
       [0.043240508822, -0.211214730846, -0.009750455364],
       [0.339784900582, -0.022294000733, -0.096068927258],
       [-0.250251580692, 0.082500202864, 0.118544607832],
       [0.118349856875, -0.166303841125, 0.118569269966],
       [0.470362029425, -0.191329355652, -0.219342486064],
       [0.023966212368, 0.122131876060, -0.125053746457],
       [0.118927218407, 0.431403562643, -0.768045677078],
       [-0.651272620043, -0.020077293480, 0.375140669464],
       [0.165438918689, -0.464621722078, -0.034911713458],
       [0.582928363939, 0.199500855500, -0.067059375159],
       [-0.296171386712, 0.685009770092, -0.025226982091],
       [0.445154975279, 0.210353538792, -0.223781519016],
       [0.322258470252, -0.587593727483, -0.180035669598],
       [-0.215087762411, 0.002726120045, -0.124870698369],
       [-0.360571207654, 0.314475185182, -0.112069898967],
       [0.400900175617, -0.223551782324, -0.256332560934],
       [-0.258743421975, 0.180954741995, -0.193534038113],
       [0.045605476352, 0.219136741085, 0.465354320563],
       [0.235083103346, -0.158945993272, -0.164574168306],
       [-0.334366820870, 0.263245192764, -0.148198091013],
       [0.003461941833, -0.011308146089, -0.346413693828],
       [1.302628826024, -0.542499502853, -0.435883176415],
       [-0.696473827485, 0.188632648688, 0.369436597320],
       [-0.182743278924, 0.054026055202, 0.640190727945],
       [-0.225704555825, 0.040977639295, 0.322548231413],
       [-0.175681753456, -0.007248159902, 0.133492703789],
       [-0.173793995918, 0.839096846830, -0.598168073673],
       [0.066846374780, 0.332040091014, 0.183014875699],
       [0.023495280501, -0.046176284532, -0.056184746356],
       [-0.207877316190, -0.071545157972, 0.150119171732],
       [0.108466254062, 0.387693543464, 0.194768530738],
       [-0.047191908962, -0.063446519734, -0.240241728465],
       [0.181756258141, 0.097211260681, -0.329765501099],
       [0.156105876068, -0.476628300201, 0.352830109596],
       [-0.266106947583, 0.384939798363, -0.281521748548],
       [0.459814949778, -0.121882296316, -0.660007864452],
       [-0.458605655384, 0.554798169066, -0.448163334478],
       [0.053383751816, 0.232394162106, -0.712191389708],
       [0.205243693147, -0.057564732521, 0.199207159950],
       [0.081146886585, 0.115230952628, 0.115921466480],
       [0.260457447777, 0.099413853381, 0.281366692188],
       [0.316236132821, 0.220652335334, 0.236201614805],
       [-0.107701156240, 0.359868236811, 0.452271422506],
       [-0.561817532075, 0.525802123008, 0.133167836468],
       [0.290752543431, 0.005999125788, -0.313159055248],
       [-0.344603977779, 0.184158072457, -0.221436985029],
       [-0.405234796551, 0.037446799711, 0.048916418639]])