array([[0.015774256113, 0.184848219470, 0.125099856108, 0.066888945110,
        0.174166252291],
       [0.051788957686, -0.088825647194, 0.122662411056, -0.022110900315,
        0.024430500817],
       [-0.017424406240, 0.032645218803, 0.192438248140, 0.108559051244,
        0.093778108488],
       [-0.151049393111, 0.137214298588, -0.081429269862, 0.122826650181,
        -0.040299239575],
       [-0.156073684790, 0.103030829927, 0.009134685818, 0.140494603678,
        0.120985224821],
       [0.070991627799, -0.040859226240, 0.153340039726, 0.092785315000,
        -0.059780989215],
       [0.079966256465, -0.000554883779, 0.077487032609, 0.089080003382,
        0.141650394013],
       [-0.109956075703, -0.078012700327, -0.141348881395,
        0.076794033612, 0.092413953467],
       [0.150031178362, -0.108124654403, -0.140630597904, 0.112359539023,
        0.162459291763],
       [-0.135536602289, 0.106630708983, 0.111655954478, -0.135353607345,
        -0.110676285618],
       [-0.144100494646, -0.098426928979, -0.154382404259,
        0.106659692762, 0.057636995652],
       [0.064582346098, 0.015193963967, -0.108381866219, -0.025264973117,
        0.117196076423],
       [0.141804220497, -0.010327277700, 0.075236249117, 0.127958386463,
        -0.032728602513],
       [-0.099978653411, -0.055207229302, -0.011217768606,
        -0.133880548506, 0.071596202584],
       [0.144598563277, 0.126991566233, -0.101322790520, 0.023540042392,
        0.015140168775],
       [0.095831516578, -0.162435799617, -0.186424595790,
        -0.012472687911, 0.044139153031],
       [0.109531484267, 0.130968055211, -0.173102071226, -0.054606205002,
        -0.047588348836],
       [0.140299705164, 0.165862705961, 0.069290335231, -0.093017837465,
        0.153940550913],
       [-0.093986660712, -0.128868617353, -0.020942753599,
        0.061342105339, -0.153910423270],
       [-0.128382122284, -0.102259271441, -0.108598293788,
        0.155159898117, -0.142408345498],
       [0.059244905578, -0.159728031509, 0.167724107344, -0.122138815831,
        0.128996639165],
       [-0.156086042579, -0.143633433123, 0.005375509625,
        -0.066960208757, 0.164789799352],
       [-0.170513402707, 0.197000416814, -0.120673852094,
        -0.129126490937, -0.020033321874],
       [0.073727674566, -0.179822396296, 0.091340653051, 0.137208305392,
        0.191030760668],
       [-0.132839889962, 0.079454938974, 0.054001222644, -0.175607216194,
        0.110176921861],
       [0.042059082975, -0.006466026740, -0.128181080484,
        -0.108713330755, -0.013118668806],
       [0.053703865323, 0.127413435520, -0.056609323671, 0.011424719761,
        0.050449701539],
       [-0.013713112489, -0.046558075250, 0.134246506924, 0.138165775152,
        -0.131398261050],
       [-0.106264452671, 0.016898620235, 0.028424536096, 0.164336033814,
        0.160994252232],
       [0.025431661365, -0.114649128759, -0.089062239332, 0.056842540395,
        -0.056002752275],
       [0.002556153003, 0.075054387028, -0.137991616696, 0.117322712369,
        -0.041175609097],
       [0.095420381927, -0.010737721470, -0.098111392269,
        -0.126742907303, 0.083760666851],
       [0.041373121190, -0.043727789423, 0.054284190122, 0.018506381178,
        0.124294426550],
       [0.144085514684, -0.073461678479, 0.009217071102, 0.079915622172,
        -0.123232598404],
       [0.047166433038, -0.094522762198, 0.157447369880, -0.067284746566,
        0.186343950547],
       [-0.124459772532, 0.004647176655, 0.133622232576, 0.094941962210,
        -0.137461662181],
       [0.085676124693, -0.099484266438, -0.049665501376,
        -0.080443850498, -0.106913351235],
       [-0.088341048409, 0.013641060118, 0.128108951610, 0.177537950420,
        -0.004680325051],
       [-0.116903000179, -0.032381003905, -0.124855186602,
        0.186959841455, -0.098088702434],
       [-0.015504254465, 0.000648209497, 0.161878215356, -0.052894174450,
        0.001458292942],
       [-0.147513234094, -0.049952135585, 0.140308158761,
        -0.138442633959, 0.037901197719],
       [-0.037367901965, 0.043450605064, 0.165208673327, -0.139161632324,
        0.137435147079],
       [0.178541174065, 0.051810745942, 0.121772641914, -0.062056597150,
        -0.134667504595],
       [-0.186880424748, -0.008751722984, -0.124980043108,
        0.073684931448, -0.169498337245],
       [-0.043734062631, -0.123686950583, 0.085489508689, 0.023493870234,
        -0.136876652329],
       [-0.098255073443, -0.012000677160, -0.123849276993,
        0.186664378696, -0.150806436546],
       [0.058339486227, -0.087558507042, -0.078550018725, 0.109778164342,
        0.167209180591],
       [0.164815060977, 0.040587620715, -0.166089431778, -0.144407164214,
        -0.069569012419],
       [0.055303172663, -0.134060014360, -0.086116067373,
        -0.058156602913, -0.008692541756],
       [0.112357026538, 0.139983404288, -0.010273610608, -0.051346208500,
        -0.005108144532],
       [-0.085013745943, 0.014074062146, 0.159070893535, -0.191797152383,
        0.058320360552],
       [0.150240316215, 0.200661820990, -0.174748354377, 0.001780299028,
        0.020828349825],
       [-0.162330165355, -0.090457671339, 0.041932374066,
        -0.151499751209, 0.133264698523],
       [0.121350811280, -0.183145166077, -0.163502797907,
        -0.025361195924, -0.146674179171],
       [-0.142487221261, -0.120360248088, -0.175497245236,
        0.135907363402, 0.074131267019],
       [-0.011869971123, -0.147006496470, 0.076406619602,
        -0.179168160788, -0.146179872066],
       [0.104284557374, -0.108536986679, -0.028621318867,
        -0.117472224897, -0.154459397782],
       [0.081233539622, 0.009901340597, -0.170840209540, 0.075796623729,
        -0.115384433969],
       [-0.191497337408, -0.110405678325, -0.139319994159,
        -0.065060066418, 0.154777514063],
       [-0.121338320075, 0.079518706244, -0.097623578892,
        -0.052079358655, 0.043339494741],
       [0.180973729309, 0.169871360990, 0.012909426719, -0.132517283597,
        -0.104738000026],
       [0.025290866950, -0.029811597564, -0.162415374018, 0.139141527677,
        -0.055102345838],
       [0.099985057231, 0.128326594029, 0.200447348597, -0.035793462087,
        0.188930018157],
       [0.019309767379, -0.024534998040, 0.119075869253, 0.167591905312,
        -0.156700356417],
       [0.069231295809, -0.163014272226, -0.157158022667, 0.160147499343,
        0.058653880565],
       [-0.117011077298, 0.010290176305, 0.078836273731, -0.153862568444,
        -0.068827396692],
       [0.160584362202, -0.030607684404, 0.050269623901, -0.051279951507,
        -0.052066516691],
       [-0.108223730647, -0.019101767074, -0.024249152433,
        -0.074025871748, -0.070549591949],
       [-0.175526616833, 0.185242275907, 0.045675480520, -0.147756357106,
        -0.128829689911],
       [-0.084380899330, -0.029947163701, -0.177029344183,
        0.093440992965, 0.094579291011],
       [0.017400358781, -0.090865102387, 0.080836508923, -0.056181417335,
        0.069415044909],
       [-0.079168987222, 0.052038478892, 0.094928853682, 0.213655657729,
        -0.110166631855],
       [-0.099124297418, 0.116446755382, 0.087816538622, -0.113869683577,
        -0.004633126198],
       [0.035944763398, -0.142515062043, -0.129036572227,
        -0.141254940030, 0.096251581134],
       [0.012460665232, -0.170232028127, -0.081847538621,
        -0.019882653894, 0.030605052764],
       [0.008033365415, -0.149292371722, -0.132434318782, 0.079022004974,
        0.160301763109],
       [-0.025853466686, 0.140238809835, -0.037960657232,
        -0.161122344254, -0.114969253860],
       [0.001132824998, 0.090242772655, 0.078010373074, -0.176882897773,
        -0.127474783434],
       [0.193649552720, -0.160571060546, 0.148840233300, 0.059882348767,
        -0.048250129654],
       [0.184730341783, 0.045003016231, 0.148506677141, -0.058154159335,
        -0.115449935122],
       [0.042383910476, 0.165452800636, 0.158245385068, 0.148580322628,
        -0.046563164506],
       [-0.130198896661, -0.130521705251, -0.025961596152,
        -0.138620227927, 0.131949993453],
       [0.071906682475, -0.101210220035, 0.149513069177, -0.048252238471,
        0.012395078144],
       [0.141236192311, -0.068683390916, -0.160522558945,
        -0.010272323626, -0.082153040641],
       [0.044990305503, 0.067645806304, 0.032900005360, -0.007963033399,
        -0.117276471550],
       [0.060920479328, -0.049536017414, 0.094799866947, -0.119905691727,
        -0.174333981078],
       [0.180423142231, -0.071240083104, 0.101329746789, 0.112938227340,
        0.148683509695],
       [-0.201291606253, -0.058153668872, -0.022352908961,
        -0.180962066554, 0.108029917232],
       [0.036629852977, 0.090190796577, 0.066343685712, -0.016509782864,
        0.005574046421],
       [-0.019231650125, 0.106456630124, 0.008808961843, 0.093304316281,
        -0.016353298047],
       [-0.150539020658, -0.033183513293, 0.075187301631,
        -0.072224662946, 0.164067652843],
       [0.039806476116, 0.109945008731, 0.016191789636, -0.082091036844,
        -0.073655541175],
       [0.171273192252, 0.020366529456, 0.162571292082, -0.052129270471,
        0.037360664582],
       [0.167881123899, -0.075677007783, 0.001838969804, -0.166845113791,
        0.013270701838],
       [0.024560072199, -0.159430711559, 0.180228381603, -0.027959195927,
        0.020921119786],
       [0.141404084727, -0.149708597447, -0.106068121614,
        -0.116372220922, -0.135656014658],
       [0.079190008125, 0.042089688653, -0.161492032704, 0.081572103488,
        -0.161774000764],
       [0.134562993077, -0.086878182921, 0.021755851935, -0.115354748494,
        0.068692598643],
       [0.017141235196, -0.030743795171, -0.099088395889, 0.009023594517,
        -0.139517123184],
       [0.002644754530, -0.125418441538, -0.119371844767,
        -0.182637092763, 0.111293964773],
       [-0.153056811536, -0.049813710335, -0.070464711615,
        0.056704238053, 0.101207712971],
       [-0.035625158292, 0.091746624461, -0.138662315819, 0.066584917698,
        -0.136823085520],
       [-0.123821440596, 0.066888942767, 0.075774152526, 0.110920962452,
        0.073387814286],
       [-0.039598284273, -0.149638240989, 0.108030866798, 0.137528397505,
        -0.086075851307],
       [-0.009002853156, -0.192538437162, -0.106248915781,
        -0.048912880959, -0.081882191221],
       [-0.170300807507, -0.049122226946, -0.101438294343,
        0.004490573551, 0.032945155576],
       [-0.113895736887, -0.167025934642, -0.065900107166,
        0.184599988015, -0.159958411598],
       [0.096415719063, -0.026432124599, -0.084277669696,
        -0.112655024247, -0.189789282700],
       [-0.135756639955, 0.110336255527, 0.057437125451, -0.038863445206,
        0.092169748292],
       [0.149073903487, -0.012358319280, 0.075850007333, -0.083040648722,
        -0.156716298130],
       [0.113179808668, -0.160804767951, 0.043246213793, 0.108461350425,
        -0.153899347307],
       [0.203109254206, -0.029940409532, -0.180969162306,
        -0.008864993557, 0.167364189642],
       [-0.004464142937, -0.118868719849, -0.004659578177,
        0.134690970916, 0.076584960812],
       [0.108211408106, 0.031802245481, 0.177833130735, -0.140431080004,
        0.036715404262],
       [-0.022396848998, -0.165757885012, 0.018951172081,
        -0.065601870640, 0.026931661736],
       [-0.060616360538, -0.025257032305, 0.021712139847,
        -0.105499956579, 0.143715614084],
       [0.165237604802, -0.157608068094, -0.141982809114, 0.043679272006,
        -0.123581811407],
       [0.045673833869, -0.031544708578, -0.074491312456, 0.036011383089,
        0.105753039645],
       [-0.140563851649, -0.071930604139, 0.066410390695,
        -0.015514703874, -0.106356762874],
       [0.061523291118, 0.014174339803, -0.053596672747, 0.160369058087,
        -0.074531572990],
       [0.141183644453, -0.162252420563, -0.166442234106,
        -0.036714491499, 0.022317490884],
       [-0.085013759367, -0.174143220512, -0.150263969748,
        0.043101115717, -0.030222536208],
       [-0.094559362437, 0.198638340876, 0.149675039802, 0.144447944727,
        -0.066129386533],
       [0.032924743926, 0.085419000663, -0.099733136249, -0.126656229102,
        -0.136134585773],
       [0.036529727324, -0.013838252685, -0.132476401694, 0.155646909952,
        -0.069611837816],
       [-0.032309549519, 0.160485551914, -0.165914540338,
        -0.123570215641, 0.005986783819],
       [0.021389275197, 0.059624332256, -0.071936409584, 0.065505584788,
        0.147071475642],
       [0.027679559607, 0.112721021335, -0.211701052353, 0.158150305997,
        -0.121094187531],
       [0.154839856082, -0.020359687258, 0.128792895286, 0.160626286992,
        -0.079254868157],
       [-0.055004895527, 0.028399452439, 0.114412540665, -0.123707791894,
        0.031365358210],
       [0.182371952872, -0.122999827737, -0.195972349135,
        -0.068218452855, -0.050844347681],
       [-0.030666284573, 0.138009812338, -0.204326825527, 0.017256827795,
        0.009662941601],
       [0.134565228242, 0.058293320391, -0.139602925657, -0.176455979078,
        -0.129551006185],
       [-0.059217128554, -0.086166010287, 0.061615283485, 0.113045205321,
        -0.114612504828],
       [0.006317573461, 0.163425920605, 0.115695439469, 0.154195337055,
        -0.085247274425],
       [-0.133846197211, 0.160413728317, 0.163874162568, 0.109743703126,
        0.059017781648],
       [-0.125669216180, 0.094253823074, -0.069914857378, 0.001627198132,
        -0.157852567237],
       [-0.056267696528, 0.062086823573, 0.012893673175, -0.147126365940,
        0.019515176692],
       [0.145955195123, -0.008693331947, 0.053818113891, -0.171691064318,
        0.086752744211],
       [0.107893946229, 0.051244025878, 0.152032956107, 0.046712869861,
        -0.109834253479],
       [-0.002312851324, 0.107527700599, -0.192142271258, 0.074683677428,
        -0.022513713082],
       [0.176341830425, 0.065567522844, 0.171032877191, -0.077133024894,
        -0.104921251421],
       [0.139539217229, 0.071776344437, -0.127463609492, 0.191150976984,
        -0.042833041529],
       [-0.061640393096, -0.016766373074, 0.174423037652,
        -0.114886085575, -0.107095719246],
       [0.047203383172, -0.190854804719, -0.040047204531, 0.223572487437,
        -0.163458327583],
       [-0.000585491143, -0.153789412810, 0.145170575631, 0.080747658885,
        0.114030707903],
       [0.079263693033, 0.135460474711, -0.003880141719, -0.127772724016,
        0.035759763489],
       [-0.012773798493, 0.040593487819, -0.016481214899,
        -0.076220639130, 0.109842904533],
       [0.057686594552, 0.067315766504, 0.187212133888, -0.123215941287,
        -0.163721525572],
       [-0.064806255391, 0.129645443172, 0.022761112008, -0.054607639314,
        0.017608459606],
       [-0.077563833972, 0.023275507185, -0.056914625872, 0.037039217747,
        0.045701587049],
       [0.169518314506, -0.112342453382, 0.104143296165, 0.051432182280,
        -0.142081423092],
       [-0.019279157789, -0.176928118486, -0.022248452639,
        -0.090461421318, 0.113109800109],
       [0.100429831557, -0.068306278622, 0.087865073499, 0.151867554352,
        0.012567998677],
       [-0.016251205198, -0.122649532574, 0.126991134288,
        -0.103764189134, -0.174247932942],
       [-0.032819893002, 0.008678083165, 0.167915442844, 0.105961239325,
        -0.154217482743],
       [0.098124821869, 0.100802040822, 0.091016432764, -0.104226125350,
        -0.147172420228],
       [0.117141484010, -0.098820556574, -0.014614995517,
        -0.110763467521, 0.048992210606],
       [0.083039778540, -0.109733254882, 0.000531463055, 0.107012907286,
        0.089691498477],
       [0.034602472338, -0.052443525606, -0.079379006414, 0.087961760800,
        0.064047502352],
       [0.105604859180, -0.113420861213, 0.103505978863, 0.158636033231,
        -0.014329368766],
       [-0.157994025289, 0.164615522143, 0.025860602313, -0.114182075644,
        -0.027065795465],
       [-0.136079431887, 0.005481536831, -0.069891463132,
        -0.135940227955, -0.074296259388],
       [-0.155785773585, 0.090593940023, -0.071566889370, 0.030360059729,
        -0.124851052047],
       [0.131200949428, -0.189320849501, -0.076661262278,
        -0.112076840715, -0.091038835503],
       [-0.002202147600, -0.155427831479, 0.015123153823, 0.153403200287,
        0.068877538852],
       [-0.057705229258, -0.092796464868, -0.103124872274,
        -0.158689701742, 0.046350717657],
       [0.192429044840, -0.201208713716, 0.164450647276, 0.178985915420,
        0.031767722324],
       [0.002318620938, -0.189094216155, -0.062100825753, 0.003796279961,
        0.044899628832],
       [-0.173503153155, 0.158176259866, -0.010859009857,
        -0.022706655598, 0.120282223683],
       [0.045323470675, -0.140946469245, 0.137629908049, -0.120073768987,
        -0.132162521398],
       [-0.070449227372, 0.124467907764, -0.179135212739, 0.042372367745,
        0.045458398571],
       [-0.159994390663, 0.148882971462, 0.099090452150, 0.067972582259,
        -0.177616107816],
       [0.041346240346, 0.111620664855, -0.159843307346, 0.023159730607,
        0.169222369285],
       [-0.071326430733, -0.084734569180, -0.077087976949,
        0.188403873238, -0.072285979037],
       [-0.147596969921, -0.102788162701, -0.075395967204,
        -0.050532309411, 0.098408197949],
       [0.063915493568, 0.005925162096, 0.083564763329, -0.183705500082,
        0.048674093369],
       [-0.106974263168, 0.156648082978, 0.009757205754, 0.133698645856,
        -0.142685126802],
       [-0.106689929110, 0.085098392913, -0.055640686947, 0.109581844344,
        0.070039974514],
       [-0.106648227069, 0.190322898072, 0.083748460349, 0.012437590147,
        -0.019858404402],
       [-0.084854586777, -0.124210935008, 0.169623192975, 0.085206797504,
        0.123736216072],
       [0.039583020155, 0.134385192624, 0.113141528059, -0.157282710088,
        -0.133985086734],
       [0.153975200977, -0.093574189635, 0.043881249103, 0.098306938494,
        0.122281466274],
       [0.031138020000, 0.171880152134, -0.038873714595, 0.076190518337,
        -0.021091544764],
       [0.159148584681, 0.077847069095, -0.159765770305, -0.051368352303,
        -0.031313555492],
       [0.002439164614, -0.001202573059, 0.034476982056, 0.160647987488,
        0.066692293971],
       [-0.148409463146, 0.047547273334, 0.160684807763, -0.061223812334,
        -0.060735555763],
       [-0.166484297078, 0.122810051690, -0.108567723310,
        -0.151810791477, 0.148312915576],
       [0.155479846249, -0.123979486915, 0.122892112207, 0.004325979486,
        -0.170399396732],
       [-0.147639928756, -0.060740532765, -0.082948262621,
        0.029100799461, 0.151527994035],
       [0.128268741984, -0.143654178073, -0.035717037051,
        -0.002619880009, -0.066623294485],
       [0.143461640798, 0.027421274698, 0.127400257515, 0.040927092638,
        -0.128955921375],
       [0.073759831774, -0.047586530527, 0.059268094607, 0.078504704540,
        -0.115774499844],
       [-0.035118938687, 0.135605012548, -0.073049504308, 0.157294853555,
        -0.008854068231],
       [-0.076795695173, -0.059673920828, -0.183660263714,
        0.120820601106, -0.111957364232],
       [0.124670362336, 0.136869604972, -0.021021765655, -0.149683037378,
        -0.084934286271],
       [-0.077988406923, 0.138571410181, -0.095816876666,
        -0.080000919663, 0.146886474584],
       [-0.108769957376, 0.154342105292, 0.092411175578, -0.142079921026,
        0.106119355244],
       [-0.201857565389, -0.017071531719, -0.119173913518,
        0.154621304965, -0.067474210803],
       [0.156964119758, 0.077062964549, -0.119655014222, 0.066454982607,
        0.056070950005]])