array([[-0.070963494329, 0.128054903412, 0.003176635950, -0.107792461730,
        -0.055649225357, 0.000380981591, -0.090427145572,
        -0.004150268349, 0.029810803157, -0.027327775972,
        -0.019975393135, -0.139571649480, 0.059647775744,
        -0.089818688245, 0.105072776447, -0.066052460644, 0.095739247732,
        -0.070111250565, 0.014069231842, 0.048696245885, -0.011164287408,
        -0.046833676085, -0.015102514071, 0.025184414876, 0.015502316462,
        -0.002939089665, 0.103856012484, -0.026199155790, 0.004482995661,
        -0.009278929206, -0.002249384518, -0.018767334579,
        -0.043320390200, -0.111877296077, -0.128289574473,
        0.010049077256, 0.059474925224, 0.000141558940, 0.003423634458,
        0.075670434772, -0.005698319550, -0.052596271983,
        -0.005282269056, -0.027377727411, -0.000177956760,
        0.088544458190, -0.084246672644, 0.049560518311, 0.105221191408,
        0.051781076047, -0.079249297331, -0.114282907364,
        -0.065213470158, 0.046290587254, -0.012552935394,
        -0.049877462136, 0.076143477767, 0.062057567235, -0.063417773324,
        -0.000066623248, 0.000316258338, 0.000035270151, -0.020768345014,
        -0.147716572092, 0.089389210970, -0.081897156026, 0.076641672184,
        0.012691936478, 0.066000942109, 0.004104326720, 0.052265908376,
        0.011518920976, 0.074662729398, -0.025221862302, -0.038339127320,
        0.006400050077, 0.054216285098, -0.062465389285, -0.010706353007,
        0.081055575722, -0.045913794622, 0.021188416145, -0.010457891641,
        -0.014612299627, 0.055922342547, 0.064842760813, 0.018410164083,
        -0.030322516756, -0.071666058839, -0.007522880655,
        0.057774590145, -0.000002348545, -0.029213870506, 0.002726927147,
        -0.088387521244, 0.117266660156, -0.079272447063,
        -0.025481409654, 0.008192488858, -0.056699831218, 0.069576534293,
        -0.004435780113, 0.022324604559, 0.106872611093, -0.003534277996,
        0.052753664495, -0.040406800319, 0.112910850542, -0.000011236172,
        0.051866484179, -0.000000000376, -0.001076103684, 0.088737926163,
        0.041782448712, 0.000006995669, 0.018081130485, -0.070186075807,
        -0.032317123003, 0.058668929879, -0.084196527923, 0.119718186824,
        -0.048896659245, -0.074924304383, 0.101362251593, 0.052068841941,
        0.035715185745, 0.100927397604, 0.025196178118, 0.121762092745,
        -0.054966962092, -0.075709069369, -0.054822592922,
        0.075611972126, 0.074319441175, -0.077528907449, 0.072864633586,
        0.046846342694, -0.023148415954, -0.027934026347,
        -0.002605953728, -0.013776595510, 0.001301161710,
        -0.001677592009, 0.015212869097, 0.007843278128, -0.000000000215,
        0.041216872458, -0.044865064680, -0.073079306426, 0.000613733470,
        -0.006862153273, -0.069941428807, 0.078933787534,
        -0.089486874393, 0.013992186722, -0.020372562304, 0.007705703773,
        -0.070088664113, -0.047162683128, 0.030997269700,
        -0.023206470498, 0.008637070014, -0.082955664242,
        -0.120415735044, 0.011920677623, 0.002681167635, 0.036172778584,
        -0.004652976626, -0.006879908793, 0.015144845903,
        -0.000099563190, -0.118046049012, -0.012831113297,
        0.066481245425, -0.029907215501, 0.000009868486, 0.022436222962,
        -0.080600210791, -0.100667645992, 0.063980403326, 0.083245052967,
        -0.022315169875, -0.025713787181, 0.080130051979,
        -0.014410788654, 0.049655604173, -0.027479620186, 0.001331344131,
        0.020160203788, -0.079883148411, 0.061924457192, 0.013720603915,
        -0.085752761687, -0.000368570485, 0.087334765091, 0.017108825536,
        0.125956098791, 0.017979330950, -0.016045692137, 0.000000163274],
       [0.050819166744, -0.065040854555, 0.004745788358, -0.011299337810,
        0.006622728909, -0.021986180925, 0.010748633233, 0.016455531129,
        -0.094847505160, -0.013815766883, -0.063834764020,
        -0.065822389936, 0.084251663797, 0.084192203893, -0.003244319778,
        -0.003354962295, 0.067023439960, -0.153718053924, 0.052898482340,
        -0.106531125501, -0.085864594121, 0.122301101134,
        -0.022858037752, 0.014051298561, 0.049651699423, 0.026430150518,
        -0.011797668645, -0.019718927537, -0.001912942852,
        0.026776957237, 0.000000000296, 0.057299286643, -0.037720972113,
        -0.027240223948, 0.092933954113, -0.124617066099,
        -0.056111295660, -0.027918903285, 0.004035541741, 0.128358973799,
        0.087366117528, -0.003090008419, 0.009691586767, -0.068086505354,
        -0.031599227988, -0.000176969493, -0.028489006660,
        0.016906663713, 0.116061488666, -0.090498577527, 0.000004120334,
        0.113800649450, -0.006631568529, -0.006016408481, 0.122662421240,
        -0.013281469490, -0.005269112379, -0.000000923962,
        -0.052873822700, -0.011778033682, -0.078289685203,
        0.000040783846, 0.035444158209, 0.145820495040, 0.132080484828,
        0.092066836065, -0.010121432450, 0.049856753887, -0.003359157124,
        -0.000942190532, 0.043370552681, 0.006610207347, 0.029630241729,
        -0.097467919303, 0.002695958746, 0.125706045594, -0.037769010375,
        0.064517781364, -0.073325479318, 0.059525716807, -0.152531158540,
        -0.046472854773, 0.001478705909, -0.005877990102, 0.043151428181,
        -0.036358427928, -0.076094631037, -0.000000485730,
        -0.006407225271, -0.055530558961, -0.016326109418,
        0.000261436387, -0.038751375485, 0.056261898883, -0.079794013251,
        0.002036598675, -0.056818451269, -0.036889614204,
        -0.029233927754, 0.017970970064, 0.093157924149, 0.000056922338,
        0.008918336150, 0.070409010330, -0.003614832584, 0.011816679524,
        -0.049435297661, 0.157158748985, 0.075247338913, -0.003864187205,
        -0.014792538177, 0.059678753689, 0.023159934827, 0.000435797672,
        0.000222306968, 0.050178472440, 0.054232509546, 0.003547310187,
        -0.000540835386, -0.047724603278, -0.064095502881,
        0.015363658795, -0.000000041535, 0.044364515104, 0.026902788526,
        0.022998677946, -0.123486473523, -0.097693230894,
        -0.087229693056, -0.081251534033, -0.023915196107,
        0.072262582367, 0.056880111497, -0.039168776001, -0.014660808330,
        -0.001428663405, -0.000349315275, 0.110873115700,
        -0.088491718025, -0.109639979776, 0.025007635689, 0.033088075554,
        0.004732870082, 0.032602907323, 0.012560024751, -0.000777501054,
        0.002031987248, 0.013195459846, -0.016370235097, 0.000000117864,
        -0.055692483721, -0.106892752849, -0.014196288529,
        0.067311765497, 0.002679626930, -0.069061843799, 0.003269134590,
        0.001349397137, 0.108480060422, 0.036944451653, 0.008859168464,
        0.094584152870, 0.083523128031, -0.003779987542, -0.106767918021,
        -0.030568071621, 0.010713419232, 0.051732996676, -0.001669882351,
        0.008963823133, -0.076378945717, 0.071973002777, 0.069590397239,
        -0.080194048393, -0.041472775350, 0.051281942730,
        -0.022130373326, 0.034472142622, 0.111220072912, 0.012759903047,
        -0.041826402544, 0.000102610945, -0.030027209151, 0.073887732086,
        0.004133984642, 0.007238154026, -0.016736769884, -0.007213533934,
        0.000208606268, 0.066524922144, -0.000000000039, -0.000789789122,
        0.001018795946, -0.062719089535, -0.002820385444, 0.031182380812,
        -0.115731255075, 0.016843667379, 0.000001190089, 0.078145016254],
       [-0.001356132711, -0.000040095051, -0.009732748389,
        -0.040527002811, 0.010141072818, -0.041103011280,
        -0.083721612150, -0.021756625118, -0.000321393155,
        -0.054927731376, 0.070292196917, 0.035365425508, -0.078350705036,
        0.039508929608, 0.031834181979, -0.084363856873, 0.050950061271,
        0.136534394185, -0.130903628954, -0.000148247696, 0.003540563579,
        -0.104689432465, 0.062996639397, -0.003971327173,
        -0.113756344760, -0.049785549329, -0.083338735821,
        -0.071055593930, 0.005941880616, -0.004214574315,
        -0.000010929725, -0.000172402550, -0.011145090497,
        0.016136255732, 0.144134710274, 0.002613456006, 0.002934941425,
        0.000000000309, -0.023795714945, -0.144373002637,
        -0.021801728160, -0.044788945871, -0.079141532588,
        0.014956663162, -0.041880987286, 0.043001723968, -0.107424057696,
        0.117734920928, 0.098530299369, -0.027371244677, 0.034694027532,
        0.092407886493, 0.087516699224, 0.002587404282, 0.101078770425,
        0.043432944378, 0.097095558309, -0.011880086288, -0.022653799422,
        0.080646244716, -0.018071597062, 0.087881360918, 0.001129363138,
        -0.065836586007, 0.062794351027, -0.012914566881,
        -0.006307388550, -0.047245955340, 0.013083015479, 0.149405674284,
        0.028311083427, -0.001233456773, 0.061663487178, 0.133090799038,
        -0.006189685966, -0.003890977375, 0.094517096547,
        -0.106714489674, 0.033230142377, -0.001261931569,
        -0.070815097806, 0.062347558258, 0.064791742446, 0.101995818635,
        -0.004779589685, -0.032427842220, -0.000032754602,
        -0.017110863810, -0.030967076283, 0.027100880391,
        -0.041971468419, -0.027127420276, -0.000590043598,
        0.042240359987, -0.102889048439, 0.018019346157, 0.118759100030,
        -0.053451475288, 0.066324105830, -0.025822167939,
        -0.021266545990, 0.000000000003, -0.034417519641, 0.069486798754,
        -0.001570312293, 0.073835636791, -0.007669811036, 0.102981552690,
        -0.000003432892, -0.062086921944, -0.001724699936,
        -0.057462723952, -0.125836991639, 0.076245158070,
        -0.049962220553, 0.073503756445, 0.023515434523, -0.021060825150,
        0.074531126790, -0.075367409780, 0.070370877366, -0.086155720858,
        -0.000049682382, -0.001733533357, 0.018595728107, 0.035256646199,
        -0.116478508503, 0.046176308810, 0.005130634038, 0.028610414596,
        0.002566641990, 0.116726898045, 0.016548607420, -0.005533919440,
        -0.041679674097, -0.002052875515, -0.050171743811,
        0.018446283219, -0.105661597443, -0.064102817879, 0.002006718062,
        0.066409256860, 0.000024542927, 0.131665734815, 0.001121354209,
        0.003534282083, 0.052261062388, -0.030590427118, 0.079291415292,
        0.015910459615, 0.080865943314, 0.100844585016, -0.048257661130,
        0.025115110766, -0.061047699630, 0.086067743542, -0.072912338170,
        -0.115870008395, 0.127920203670, -0.128579903654,
        -0.035933755412, -0.086507678471, 0.110955003690,
        -0.002070010946, 0.021418962779, -0.039998989557, 0.000000688895,
        0.039697801961, 0.083761981610, 0.003603218046, -0.041182137456,
        0.096202323906, -0.004349741100, 0.046642832367, 0.016961811535,
        0.003824828000, -0.053041382203, -0.105479466910, 0.081524590049,
        -0.086155924998, 0.013870857588, 0.000000000481, -0.081872343748,
        -0.007951627566, 0.014005948969, -0.064596672869, 0.072421459614,
        -0.056652784115, 0.092264954092, -0.005278434157, 0.000029017325,
        -0.117169557901, -0.084179703741, 0.034267770222,
        -0.021816534292, 0.000000000164, -0.114073122902, 0.080255624901,
        -0.037905878569, 0.009445318804],
       [0.027009042809, -0.026399635313, -0.094454999550,
        -0.050242229600, 0.106644463649, -0.000002702725, 0.010693120828,
        -0.002163020438, 0.012546503347, -0.053837229225,
        -0.085632674129, 0.067904358094, -0.065279940188, 0.049866856219,
        -0.003282567414, -0.036832953419, -0.055011240876,
        0.004430849626, -0.124526772524, -0.110990151346, 0.051918847289,
        0.109385582088, -0.002703833103, -0.003355240358, 0.077062927054,
        -0.003242797894, 0.135719639235, -0.048626328420, 0.041519593575,
        -0.111802893312, 0.002141462895, -0.079517360058,
        -0.043801633759, 0.088017080836, -0.103967829244,
        -0.098424852798, 0.000011008903, -0.019594202921, 0.013003296361,
        0.093502601959, 0.001534738838, -0.053634706678, 0.021443428551,
        0.084869813366, -0.001496596399, -0.002490735299,
        -0.075271341603, -0.067558252422, 0.022436110499, 0.143311701557,
        -0.002354792019, 0.074131946450, 0.086290231187, -0.005177256683,
        0.098410543647, -0.003891805216, -0.003395902885, 0.040300815580,
        0.005277725398, -0.086364847977, 0.008950889826, -0.012345883444,
        0.014562477921, -0.101222565691, -0.057145920245,
        -0.000173586707, -0.071217193295, -0.043276447365,
        0.085582353826, 0.058647537879, -0.086581554376, -0.002933511615,
        0.002774421977, -0.066216870872, -0.035594594098, 0.113482706650,
        0.129371425828, 0.015393247912, 0.042604553598, -0.059645545334,
        0.151675155667, 0.089205255838, -0.002901594921, -0.084440636463,
        -0.023642394966, 0.088657482482, 0.064435948366, 0.024916372492,
        0.014370739179, 0.052183902819, -0.023982175286, 0.076851811118,
        -0.002697120437, -0.144538546231, -0.078735118174,
        0.011503367248, 0.042593498556, 0.094047567973, 0.000060425688,
        -0.003534869666, 0.002112884488, -0.003952478605,
        -0.000327486124, 0.041375198468, -0.050901238491, 0.069202922620,
        -0.002640330021, -0.050853838664, 0.069552847213, 0.008464605621,
        -0.047014902855, 0.027448922752, 0.021458569919, 0.000590266195,
        0.000000000420, 0.081433174815, 0.091420811570, -0.025542991919,
        -0.082423429431, 0.003164952567, 0.044701681506, 0.025155177019,
        0.000793114324, -0.064039817198, -0.091445311466,
        -0.037640618236, 0.086512815740, 0.021910085245, 0.002323224755,
        0.041089237993, 0.006511026940, 0.034640738129, 0.000112280407,
        0.057659162750, 0.003468595887, 0.009751471485, 0.000013424458,
        0.065681002293, 0.108785493100, -0.020506864710, 0.045954951213,
        0.031116246446, -0.048242628364, 0.009938796565, 0.085003824856,
        -0.009168796500, 0.098594670744, 0.080929493072, -0.003242833704,
        0.000135529697, 0.069448225951, -0.109985187742, -0.007454850886,
        -0.010699234657, -0.002981363033, -0.003872215142,
        -0.014974322181, -0.145340774736, -0.068434713370,
        0.105104778744, 0.074109625901, 0.001831780820, 0.006847038967,
        -0.030445576117, 0.063962601386, -0.026586570610,
        -0.017335620105, 0.032147186908, -0.037375790217,
        -0.060440511248, -0.000058379703, 0.049847161696,
        -0.022622090690, -0.058024114121, -0.006573079436,
        -0.000023165432, -0.024790286721, -0.002616834966,
        -0.152769492674, 0.051852631001, -0.020538709366, 0.090174920242,
        0.002721762175, -0.000000007678, 0.103742969896, -0.035911510363,
        0.047262093456, 0.084424470768, 0.055772900550, -0.000002458662,
        0.065435994724, 0.024755185057, -0.000011425918, 0.010008028603,
        0.000015405188, 0.056366633652, -0.116626694869, 0.034111542202,
        0.032048102876, 0.003575996294],
       [0.013292247226, -0.132185770276, 0.044442706354, 0.003557733957,
        0.086527057796, -0.038625475248, 0.045729602507, -0.084975240023,
        -0.071486437361, 0.125377506705, 0.084198009220, -0.000962519129,
        0.071714312144, 0.010876987942, 0.104614370448, -0.016146577698,
        0.011705497107, -0.016475386158, 0.105284643888, -0.003210639172,
        0.025893307035, -0.112127616782, -0.043582263286, 0.000336343091,
        -0.053356295092, 0.036326290832, 0.069451610829, 0.105901436979,
        -0.000000000462, 0.056374494497, 0.089845610563, 0.019817368579,
        -0.000098734441, 0.133783430340, 0.102063582386, 0.128223615626,
        0.059146155813, 0.000000190598, 0.089592676464, 0.044751985339,
        0.021125312410, 0.049807109794, -0.132845129528, -0.048870884597,
        0.002649416899, 0.060816146380, -0.100958894901, -0.002966560993,
        -0.090038801124, 0.115538758392, 0.020885528953, -0.093845563978,
        -0.087052420293, 0.050344879089, 0.122138506962, 0.051227686261,
        0.118976429008, -0.010372716989, -0.028611260386, 0.029472143942,
        0.000909369344, 0.069082990992, -0.002139854603, 0.130747640455,
        -0.088430147365, 0.058607746783, 0.002153221232, -0.001117429535,
        -0.002928929799, -0.044622460325, -0.060342484112,
        0.003478597672, -0.062409094978, 0.025391974716, -0.089242773097,
        -0.093669028768, 0.149971606485, -0.060506529176,
        -0.039922827679, -0.051590558981, 0.009727217719,
        -0.061319875036, -0.061793256131, 0.014382893523, 0.035625988323,
        -0.002941692423, 0.024226018749, 0.014541561241, 0.005136512191,
        -0.134878230154, 0.062119184255, -0.000965231974,
        -0.087095451260, 0.135707709431, 0.083661222260, -0.000337026876,
        0.121386542561, -0.002674897526, 0.000000048242, -0.022551885533,
        0.117836798224, -0.024835994955, -0.029103889794,
        -0.016980154843, 0.026607185922, -0.009284538621,
        -0.072091306268, 0.025579991065, -0.006774326322, 0.001951473182,
        0.009658664304, -0.018827685658, -0.005526483858,
        -0.035668620157, -0.001798382774, -0.001728489455,
        -0.000320768204, -0.005355686804, -0.023692902542,
        0.087451139494, 0.057872279884, 0.047994845823, -0.003569734856,
        -0.094529820365, -0.002744979293, -0.098783462733,
        -0.027547777137, -0.020979190466, -0.060883480147,
        0.002133547989, 0.088235972805, -0.070586059343, 0.072513001953,
        -0.028795831526, -0.090974797518, -0.016770421697,
        0.000001643740, 0.048660144682, -0.086192900441, 0.114399838827,
        0.014439773365, 0.046309688496, -0.000000120485, 0.102476918192,
        0.017258204057, -0.014240101666, 0.128060101592, -0.063001443030,
        0.000003471476, -0.047658960556, -0.046719297370, 0.015326400761,
        0.006365998871, 0.068669987801, 0.091100169126, -0.066371148164,
        -0.109749367745, -0.034724148396, 0.133779940997,
        -0.027441876694, -0.014996824445, -0.000440682316,
        0.086295591537, 0.089834037746, -0.026525543638, -0.047500212484,
        -0.032337553543, 0.070993052831, 0.055363863835, 0.007975013590,
        0.057941306235, -0.130223790328, 0.075987843148, -0.022126277486,
        -0.010276878543, -0.014363003028, -0.009421748854,
        0.077955987613, 0.089578786156, -0.089395669614, -0.000404299293,
        0.000073188683, -0.002160285589, -0.001093149778, 0.038655734564,
        -0.118836470237, 0.030049641050, -0.078327233998,
        -0.065308519591, 0.000317855696, -0.062254523589, 0.002627056236,
        -0.082802906443, 0.091290748830, 0.009729038325, 0.060337486380,
        0.031325482701, 0.066446546316, 0.000000000322, 0.075818587770],
       [0.037176422624, 0.084428097064, -0.044562378616, -0.097723828175,
        0.062921045571, -0.000000000328, 0.000018029445, -0.053625932141,
        -0.091926705901, -0.045839384910, -0.000162114502,
        -0.019954492946, 0.093058653668, -0.029268078338, 0.028232885846,
        0.048361739379, -0.000294750304, 0.123861011012, -0.024693473184,
        -0.045625521897, 0.091770696132, 0.099127097517, -0.065620751215,
        0.028987966706, 0.102233479174, 0.008668287813, 0.097527301696,
        -0.011409843801, -0.055808191990, -0.018795199933,
        0.050944235204, -0.033833264492, 0.060025639112, -0.043486949379,
        -0.046462026818, -0.041340846289, -0.090209336510,
        0.000230097003, 0.058833530817, 0.076645545282, 0.010283735823,
        0.017694444522, -0.025874554846, -0.014129996687, 0.031317314071,
        0.045852541242, 0.041208782387, -0.068430639393, 0.108758673477,
        0.143761282608, -0.003035909855, -0.003084325542, 0.096375986490,
        -0.023030391861, 0.119402184331, 0.053734243512, -0.005401366839,
        -0.001837605870, 0.051255472719, -0.000000166829,
        -0.002946128999, -0.040659638860, -0.010105606488,
        0.107756226000, 0.113359066709, -0.032379775457, 0.020589328348,
        0.041924175800, -0.000011332719, 0.077420752680, -0.001312032105,
        -0.004758162516, -0.080424743274, -0.015219845788,
        0.074463956614, -0.037655952286, -0.080488866429,
        -0.016946531364, -0.038378251001, 0.059965030158, 0.146382831688,
        -0.002123678995, -0.044390848016, -0.068090218121,
        0.032807799896, 0.068857036078, 0.012592227728, -0.082085134083,
        -0.060047049358, -0.012156962446, 0.028379681294,
        -0.032934921988, 0.077675359634, 0.077060457659, 0.101304907956,
        -0.067198148376, -0.079017520795, -0.095249107618,
        0.000627472652, -0.062712360219, -0.000816677245, 0.030340118331,
        -0.031082783119, 0.089191309313, 0.050738272586, 0.080178689164,
        0.019926440629, 0.039628096097, 0.000183044918, 0.041250440734,
        0.009700251184, -0.085028718479, 0.067784636315, 0.004090547622,
        0.038605993020, 0.023893001794, 0.053012663639, -0.039454230485,
        -0.045485460751, -0.003299076155, -0.007834921502,
        -0.040562676498, 0.084856487372, -0.014079243625, 0.002363472382,
        0.026842298178, -0.096856971694, 0.050626292827, -0.047520442126,
        -0.091868395139, -0.000449799094, -0.000831222076,
        0.061014125249, 0.057794437664, -0.000010917465, -0.071432852211,
        -0.052960167721, -0.023603250940, -0.079234241001,
        0.112486281563, -0.021922917592, 0.008507254736, 0.060500244940,
        0.044855968587, -0.014222871530, -0.052297593848,
        -0.004102867217, 0.033341680566, 0.039368772529, -0.000000000052,
        -0.092769032648, 0.002501614595, 0.040923483950, -0.000202015339,
        -0.092199619660, -0.034404700248, -0.069015943864,
        -0.060883931960, 0.037542116270, -0.084422495885, 0.035690147319,
        0.002927109664, -0.031875015338, -0.101290103459,
        -0.093167026624, -0.023744252878, -0.003759893118,
        0.048620065206, -0.004143688163, 0.071751770647, -0.006455589356,
        0.070601453556, -0.037397561616, 0.088270224884, 0.105219626549,
        0.001725548235, -0.084126504784, -0.015639790696, 0.030865586902,
        -0.119835952189, -0.084575461891, -0.066253628627,
        0.000540380205, -0.025160579479, 0.026233308890, -0.014602488261,
        -0.033893416548, -0.047707709517, -0.001931128137,
        -0.007529488735, -0.025672634657, -0.046026530663,
        0.052558697363, 0.001029080849, -0.006652121010, 0.060433345903,
        0.075410624375, -0.008297274424, 0.024325790957, -0.014360600368],
       [0.000426061677, -0.100687698162, 0.066475441832, -0.052475052665,
        -0.077417284429, -0.083547851736, 0.063142889072,
        -0.087387906730, 0.023220330104, -0.016939786514,
        -0.034200032322, -0.109145576568, -0.052927746616,
        0.006543694013, 0.024463751356, 0.027838175978, -0.004497402334,
        -0.006352733571, 0.005047252054, 0.056330529329, -0.088386128307,
        0.109491346628, -0.014585210314, 0.008367255047, -0.067119971566,
        -0.029375679488, 0.046471953497, -0.001063959699,
        -0.056219015658, -0.019733117521, 0.086033984511,
        -0.072201038129, -0.013243569042, -0.094815999398,
        -0.075579285855, 0.126038482356, -0.004349691111, 0.000807371610,
        -0.041212193998, 0.054812538051, -0.000103850243, 0.040553856239,
        0.099719342183, -0.062898349001, -0.063751720947, 0.004707724059,
        0.037631541833, -0.023815084429, 0.057370312990, 0.150829825193,
        -0.048509991561, -0.036849866275, 0.077245474052, 0.035056751421,
        -0.001072151934, -0.008958830953, -0.005789889537,
        0.015148377033, -0.018074532397, -0.001066326918,
        -0.000156869740, 0.036097289334, 0.007530477544, -0.028468657835,
        -0.116923619118, -0.020967460540, -0.080487605294,
        0.088705654992, 0.023560686687, 0.005393720767, -0.000438061621,
        -0.104741376659, 0.000012919582, -0.122302247208, 0.080913844560,
        -0.026442976280, -0.111007058432, -0.035775647291,
        -0.023950034633, 0.087444419458, -0.060868320846,
        -0.009571647785, -0.038927324456, 0.059791665469,
        -0.000000000345, 0.040407920838, -0.003208155209, 0.070210140025,
        -0.058484396846, -0.154452903257, 0.002203324163,
        -0.063145253339, -0.061827920769, -0.000546733272,
        0.137603670811, -0.048050681798, 0.014210239631, -0.083627772049,
        -0.054106619052, 0.078508646322, -0.003248650228,
        -0.023000948911, 0.026192605667, -0.032167022860,
        -0.074958874044, 0.048374464837, 0.091751630098, 0.030369697644,
        0.023304097049, -0.001475554138, -0.000012960564,
        -0.066640940323, -0.109227213747, -0.073030629019,
        0.000004679379, 0.091264717939, 0.046939423697, -0.075726633291,
        0.008040263800, -0.003470059056, -0.003988424548, 0.034668734609,
        0.000153278706, 0.134764727510, -0.013244277561, 0.106899855741,
        0.061021816575, -0.079745188041, -0.120082882736, 0.077365535100,
        0.038069455382, -0.115788529869, 0.036888812472, 0.031559017192,
        0.091192858358, -0.006362979357, -0.000737650163, 0.102840082148,
        -0.112245553947, -0.002650933847, 0.018308036889, 0.008441541198,
        0.081608654239, -0.012966737721, 0.001728934664, 0.092586616735,
        0.126591438548, -0.000000220645, -0.062630074243, 0.047126285119,
        0.033298314268, 0.106709923737, 0.120419451429, -0.003241922364,
        -0.008543811089, 0.000302643122, -0.032773038847, 0.008016642326,
        -0.070414573401, 0.057839687235, -0.001157822361,
        -0.091884670130, -0.019343337452, -0.044256335862,
        0.104839162926, -0.076191292155, -0.000027834100, 0.053422050433,
        0.034493499062, -0.090311293187, 0.025946337845, -0.110398382175,
        -0.002587698942, -0.013754281973, -0.086198146586,
        -0.043325560074, 0.000105943849, 0.024812147685, 0.033384036266,
        0.090210651491, 0.044857642099, -0.000691923723, -0.019770315467,
        0.029525206816, -0.002582901999, -0.022936610366, 0.103392956971,
        0.096651666009, 0.008880905455, -0.030679164646, -0.000781870924,
        -0.051484581578, -0.050436691776, -0.002896474192,
        -0.071676232632, 0.023287775493, -0.125561388346, 0.000688334615,
        0.028196496262, -0.012973453417],
       [-0.000033153346, 0.016467607647, -0.004723459198, 0.002788087159,
        -0.017303047785, -0.004523164852, -0.034429528034,
        -0.000000000011, 0.089828026694, 0.022508443840, -0.047060434629,
        -0.000522950801, 0.013846169026, 0.056620886885, 0.112169012014,
        -0.068627847846, 0.059698600428, 0.129498645569, 0.093586710525,
        0.000710086917, 0.003327717983, -0.094640091260, -0.035472629745,
        0.061407721311, -0.117589213997, 0.000839589184, 0.110551512893,
        0.147413722240, 0.058545218744, -0.053707973617, 0.014418619205,
        -0.001727356050, 0.000317559753, 0.112452917816, -0.137584154376,
        -0.073958943215, -0.010382152358, -0.009640376771,
        -0.089208461388, -0.099556569899, -0.057187591557,
        0.055297167786, -0.054413971498, -0.089977994486,
        -0.066943285576, -0.024951073737, -0.047753326612,
        0.115228893600, 0.073220295044, 0.115283154284, 0.000857670383,
        -0.100275842592, 0.057993170825, 0.036242922801, 0.011237464495,
        0.000009360322, 0.096899940274, -0.074489017796, -0.038920237257,
        0.002382622784, -0.089385742427, 0.067654128662, -0.002387951449,
        0.047329200873, -0.078562536331, 0.045952659944, 0.000017538238,
        0.028802096193, 0.000008834440, -0.062958644484, -0.063097564180,
        0.061872480863, 0.066052194952, -0.120509321650, 0.000277800436,
        0.042243834655, -0.022830099341, -0.100523956440, 0.019193774343,
        0.069821676938, -0.076846412571, -0.038562747068,
        -0.013469201276, 0.085026170471, 0.016560689524, -0.088433582416,
        -0.019901909566, -0.025998414248, 0.058735680515,
        -0.009944091966, -0.080989180964, -0.019231204943,
        0.110338568170, -0.054451438624, 0.047739805330, 0.009235455984,
        0.104916389762, 0.053165686131, -0.020680569841, 0.004161184671,
        -0.007143744357, -0.041996621263, -0.000117037576,
        -0.029800921374, 0.036446219636, -0.092417145444, 0.000501977515,
        -0.057472966943, -0.002338366421, -0.056057133142,
        -0.000000004501, -0.000163874851, 0.010154837360, 0.059921688398,
        -0.000005498173, -0.000863521533, 0.085825320372,
        -0.010121911967, -0.004540561859, 0.008321623363,
        -0.037878682393, 0.007656986714, 0.022387868922, -0.098592325190,
        -0.073606504533, -0.041358128807, -0.057025575206,
        0.134685046811, -0.016399558186, -0.000385550178, 0.018410373680,
        0.027226910939, 0.016680275765, -0.088947497582, 0.000548477290,
        0.004815531681, 0.013431247579, 0.042056696339, -0.028290168468,
        0.076820166939, -0.066068695029, 0.005070240428, -0.000159929832,
        0.087027159085, 0.134347265639, 0.081759319971, -0.048263541040,
        0.077002879170, 0.000129547719, -0.045864852908, 0.000017306647,
        -0.018244454884, 0.005987476526, -0.007719139131,
        -0.026830960559, 0.012243651004, -0.054558217373,
        -0.016601217558, 0.102904570001, -0.137368616991, 0.000343029913,
        0.083860327686, 0.085812671662, 0.051513005557, -0.117680514054,
        0.057680453288, -0.045124971792, -0.035793952725, 0.024929073925,
        0.033623094422, 0.017596750443, -0.061998789743, 0.053837931055,
        0.096002837159, 0.047989458985, -0.053815396670, 0.002106502114,
        0.043308238332, 0.086850018909, -0.033987007788, 0.073247689577,
        0.000249079012, -0.016844824384, 0.090077801186, 0.048740844052,
        -0.086595862623, -0.066386290109, 0.008891380207, 0.047801725825,
        0.000000007405, 0.045137798122, 0.027315922475, -0.012330133087,
        0.000761255865, 0.051197121213, -0.011030798841, 0.004295300261,
        -0.069142335351, -0.037140157203, -0.000368331163],
       [0.064606896839, 0.029116382345, 0.114042507445, 0.069824865289,
        -0.075538762953, -0.018427320418, 0.000400874662,
        -0.092286070456, -0.037183391454, 0.043030437883,
        -0.000391427448, -0.042304978619, -0.004147257230,
        -0.049330100853, 0.027235677289, -0.047640462585, 0.059294732621,
        0.076191205716, -0.123067492012, -0.064247852590, 0.078069157413,
        -0.002279805405, 0.000000000313, -0.032435062789, 0.036065631212,
        0.088951974981, 0.020836636517, -0.009267288184, 0.011335366381,
        -0.000080835971, -0.066336961594, -0.070465788468,
        0.040810198118, 0.113552737197, -0.073235664750, -0.006972490010,
        -0.002383805585, -0.021568322198, 0.002634595032, 0.022996511536,
        0.024732109710, -0.090078290357, 0.078145661766, 0.019382905179,
        -0.088014676149, 0.014414977949, -0.018202911781,
        -0.131327453079, -0.105263454398, 0.026064054030,
        -0.050446167108, -0.021567659614, -0.047549027417,
        0.034655941299, -0.098200945503, -0.004213880546, 0.003883792468,
        -0.091560960878, 0.001127473371, 0.035961530849, -0.000133553595,
        -0.000098063374, -0.000039948227, 0.119504901001, 0.077084939995,
        0.065949696128, 0.064118221083, -0.078988888733, -0.035104981165,
        -0.112354195295, -0.072265108340, 0.059825696869, 0.001447121188,
        0.107963999100, 0.000000458776, -0.047027435076, 0.014899998549,
        0.051199601419, -0.069615429907, -0.086767994719, 0.040212645264,
        -0.040266020007, -0.070460817166, -0.003522659607,
        0.018391734129, -0.000005302185, 0.035375017444, 0.000049222904,
        -0.003944019587, 0.082781587661, 0.032574752325, 0.020668551186,
        -0.007414033829, -0.113548463465, 0.062206282583,
        -0.101734212048, -0.074192787964, 0.003212682850, 0.005600432378,
        0.003398902009, -0.053132465009, -0.068799564254, 0.061621666912,
        -0.148140824809, 0.097834045485, -0.007835607398,
        -0.008779315509, 0.033743870639, -0.078027213565, 0.041282871396,
        -0.000000930762, 0.082634349783, -0.111757548596, 0.015104775787,
        0.027319279333, -0.010820174823, 0.001365062563, 0.001171817905,
        -0.098572480459, -0.004959601478, -0.063715403113,
        0.005286917354, 0.012320019234, 0.131478904216, 0.054710934523,
        -0.062561214819, 0.001304834334, -0.040989120015, 0.032706489916,
        0.074900040581, -0.041784079324, 0.044669504433, -0.084412911091,
        0.043351354369, -0.002314602222, -0.000266368077, 0.022961064020,
        -0.007640461877, 0.101434162742, 0.033566611362, 0.011950902389,
        -0.028367003437, -0.063614755676, 0.074469814478,
        -0.061804181116, -0.020301906746, 0.046245551375, 0.082512693858,
        -0.000000033746, 0.030538623303, -0.044945443330,
        -0.015614032475, -0.090549520875, -0.000032475319,
        -0.016026111511, -0.040533787500, -0.014195117570,
        0.137487325250, -0.050072222647, -0.106843195605,
        -0.017104684119, 0.090954656258, -0.093852731573, 0.122102117045,
        -0.106525812374, 0.088905552800, 0.092690915087, 0.064147695540,
        -0.079690615271, 0.003478427954, 0.066308388143, -0.121004848115,
        0.001267921806, -0.078056145803, 0.002110552305, 0.004702571458,
        -0.000000137858, -0.034504879643, -0.058463205065,
        -0.112490232845, -0.088407207858, 0.000573285820, 0.081132969644,
        -0.075321131418, -0.024305147468, 0.021779770245, 0.071196198387,
        -0.091772291287, 0.001078270595, 0.000655146253, -0.002898562867,
        -0.065714377401, 0.001097344737, 0.017209200333, 0.032963163829,
        -0.061282413979, -0.061673186951, 0.035508293721, 0.008416093490,
        0.005977561974],
       [-0.035570307527, -0.062434663635, 0.004370878548, 0.056061464078,
        0.011879251675, 0.000002259489, -0.064633207890, -0.000546306587,
        0.102762594330, -0.095296557676, -0.000000857030, 0.046554909907,
        0.008892278109, -0.013297572288, 0.044165904202, 0.098312792296,
        -0.038037374932, 0.003913251331, 0.104521543006, 0.045565707274,
        0.050953671321, 0.002560607908, 0.078244248565, -0.052598955516,
        -0.061276519245, -0.044918080452, -0.079169296341,
        -0.062903577338, -0.018644926673, -0.003789967330,
        -0.011531331219, 0.057033692944, 0.012563572693, 0.001381918275,
        0.126613233431, -0.005133738271, -0.018539681628, 0.091325754775,
        -0.057549528396, 0.106503596388, -0.001007672805,
        -0.002786565936, 0.003394638800, 0.027983721377, 0.074074693649,
        0.088511716081, 0.115324347769, 0.010963205455, 0.001172378929,
        -0.029617756080, 0.000042048809, 0.062762269860, 0.072787059232,
        -0.068513865359, 0.131732804761, 0.052620644736, 0.116582633282,
        -0.062123920883, 0.031736381790, 0.083207152581, 0.067156162271,
        -0.064898344211, 0.004661870305, -0.010390828411,
        -0.063843560056, -0.044843923155, -0.000000000035,
        -0.026851683674, 0.044561626828, 0.034693560518, -0.044183717113,
        -0.070755871632, -0.090470693691, -0.138607586183,
        -0.000001436475, 0.083857380431, -0.002954501122, 0.000078200185,
        0.084282605425, 0.048745965118, 0.074513358772, 0.080334630328,
        -0.003787882714, 0.004826999734, 0.002962411412, -0.000000048741,
        0.006672820816, -0.001344593476, -0.041882498808,
        -0.021481322101, 0.006392177042, -0.049808253395,
        -0.001774809631, -0.067035809777, 0.145680209341, 0.045709642483,
        0.082904144077, 0.036411267182, 0.074812587940, -0.003085300204,
        -0.099380440143, 0.083989283362, -0.000011899648,
        -0.066640589264, 0.019303434030, -0.037441619939, 0.048015628365,
        0.144514864650, -0.077687129040, -0.022165574032, 0.041179546912,
        0.014780743839, -0.063245887690, 0.031614494601, 0.063943899512,
        0.053015350216, -0.071823411368, 0.004886593131, 0.039349390542,
        0.086460945498, 0.027424965227, -0.026423829424, 0.016560187512,
        -0.018764381434, 0.026180442998, -0.017260086997, 0.002184824349,
        0.011943445394, -0.043566957275, 0.000484094913, -0.017652117558,
        -0.081544790667, -0.086879176681, -0.039679370964,
        -0.088302788584, 0.043116669064, 0.087561342733, -0.132994576851,
        0.006931220628, 0.031467211436, -0.109876610195, 0.005594986239,
        -0.047372765511, -0.014092635508, -0.014716692041,
        -0.031627704711, 0.118130114214, 0.073325409867, 0.007909390505,
        0.071638124517, 0.000854392551, -0.017274450319, 0.023154247215,
        0.011327226035, -0.075255524055, -0.043446062982, 0.007777960877,
        -0.110664853422, 0.082732179499, 0.136771861227, 0.088659652957,
        -0.073498598276, -0.062504259924, -0.073251631736,
        0.061675091924, 0.000003439859, -0.002487209155, 0.103948413263,
        -0.002247779988, 0.003436198354, -0.058819991864,
        -0.090800439340, 0.005641595087, -0.019804149594,
        -0.028573321766, 0.002984954953, -0.078789431148,
        -0.001160637074, 0.153849289007, 0.103946431769, 0.092133403332,
        -0.000181826841, -0.048770394834, 0.001164550170,
        -0.038434233286, -0.066428706304, 0.008954024586, 0.142589020384,
        -0.005382864275, -0.017911847034, 0.085755484617,
        -0.050889639755, 0.000009537440, -0.053897553645,
        -0.036991959315, -0.005054966684, 0.137473403881, 0.031941291743,
        0.004772947560, -0.001158500451],
       [-0.049380586229, 0.014916979018, 0.083649833674, -0.097030460804,
        -0.041588840406, 0.066701011016, -0.029939170378,
        -0.008321044934, 0.102820457802, 0.060051091433, 0.020205608446,
        0.044455884200, 0.008634815690, 0.039871876737, -0.003244950940,
        -0.002905454885, 0.076016268291, 0.028081144192, -0.025549185624,
        -0.100333171146, 0.096249312822, 0.117686859336, 0.050946779252,
        0.042518039521, 0.055022240148, 0.000296437132, -0.136349438797,
        0.137455427484, 0.052578812383, 0.065757995254, -0.063553816845,
        -0.022478502856, 0.075522595556, -0.038587719147, 0.013977622095,
        0.009229383885, -0.039355820143, -0.006795698997, 0.004577539373,
        -0.029723487791, 0.039457220433, -0.034978819156, 0.067446101740,
        0.057277108975, -0.024652443011, 0.000915850293, -0.000202641123,
        0.048632541204, 0.059009792942, -0.002430243188, 0.011191888027,
        -0.114962379481, 0.039922352657, -0.000107935244,
        -0.146377560197, -0.028927853129, 0.125762208032,
        -0.080157062295, -0.073031874212, -0.001591997611,
        0.007768612188, 0.018201061812, -0.003002450964, -0.050389758297,
        0.059459438855, 0.014636365024, 0.048094372568, -0.004439037058,
        -0.058851958191, 0.091962325507, 0.010872869339, 0.055913589001,
        0.019043482125, 0.014217623698, -0.003147581016, 0.074893943622,
        -0.031472975294, -0.029426514890, -0.045440907658,
        -0.000103332936, 0.088211127133, -0.076572508807,
        -0.077636769664, -0.101457539194, -0.000679326302,
        -0.070885308595, -0.003111861053, 0.000178063626,
        -0.127363412204, 0.042797492297, -0.003559562427, 0.031302292053,
        -0.099224439041, 0.101976184367, -0.073523421820, 0.001432051930,
        -0.079289617426, -0.016092850978, -0.000004028620,
        0.063584026619, 0.052258217589, -0.054030249322, -0.053125763512,
        0.040442793757, 0.094345813206, 0.009414086842, 0.001468576511,
        -0.161337942067, 0.034187835328, 0.008503528716, -0.019020230855,
        -0.000810924589, 0.000804889772, -0.006715184551,
        -0.074335830758, -0.070096578415, -0.055734826802,
        -0.031136407964, 0.009289646723, 0.101149924580, 0.098663147488,
        0.015424859224, 0.056824421477, 0.059063861328, 0.003183960119,
        -0.118800733425, 0.047035456703, -0.095220031792, 0.038167647317,
        0.079044088936, -0.014027020724, 0.002977075503, -0.013081914761,
        0.008963409465, -0.019734522461, -0.067024340206,
        -0.047240018163, -0.077807649205, -0.020932833390,
        -0.044236703639, -0.066044838141, 0.034789470556,
        -0.000041429837, 0.124474100284, -0.015166031227, 0.000000394347,
        0.129844428660, -0.066572105384, -0.019748488191, 0.002186871793,
        -0.046356304765, 0.021262265415, 0.066048671568, 0.011857483336,
        0.064017569494, 0.085570393228, -0.015703450552, -0.040926495363,
        -0.119813352831, -0.112268343784, 0.047034440785,
        -0.080962788844, -0.066113935995, -0.003052257551,
        -0.124719766496, 0.027594669940, 0.007875954522, 0.029125961489,
        0.048441655561, 0.003593050249, 0.078444323207, 0.069907741188,
        0.019988933177, 0.097324892803, 0.007463280712, 0.000171589938,
        0.055155976896, 0.004898336910, -0.132960597594, -0.131273343977,
        -0.000225678325, -0.003712745936, -0.082154750468,
        0.000045824892, 0.123860695352, -0.003341611211, 0.019170696450,
        0.127483394799, 0.007656852707, 0.025924108541, 0.006833127702,
        -0.139839839016, -0.060751458411, -0.000122981034,
        -0.067520749837, 0.079973374606, 0.018169089855, -0.017030050529,
        -0.042681464611, 0.091364917143],
       [-0.061493777805, 0.125081859964, -0.086914523735,
        -0.030200008270, -0.025256075576, 0.079796770226,
        -0.081392983950, 0.037250454316, -0.033892313227,
        -0.007051618963, 0.017533402702, 0.075735798420, -0.012567975240,
        0.081420225841, -0.118962993483, 0.004339936907, -0.113242665811,
        -0.022027353755, -0.100356074210, -0.047203367157,
        0.016798748911, -0.050459079180, -0.084618191216,
        -0.074470608871, 0.081977340226, -0.040027240861, 0.041145873989,
        -0.100273403920, 0.000004707168, -0.016654838296,
        -0.047045951366, -0.000051374604, 0.047025669873,
        -0.065006477312, -0.132061497638, 0.100915604772,
        -0.021228332771, -0.072290618063, -0.047960917869,
        0.037315775796, -0.035555475979, 0.056317291611, -0.120617596645,
        -0.006007845955, 0.000984295032, -0.023899816285,
        -0.002824052351, 0.112752516163, -0.089560157307,
        -0.010465132737, 0.020393843087, -0.123821031676,
        -0.046784177038, -0.000014818397, 0.001769548933,
        -0.049284179738, 0.109818189249, 0.000000000321, 0.073993770454,
        0.002263631983, -0.000027169284, 0.036336764183, 0.015760388589,
        -0.104074879636, -0.001487853997, -0.041692702115,
        0.083792306349, -0.000025104763, -0.033466473451,
        -0.118053609914, -0.010777137219, 0.058547493128,
        -0.041831913981, 0.077998002058, 0.000516333603, 0.002566452348,
        -0.011914542587, 0.032041895984, 0.025354940764, -0.000085504608,
        0.033369081899, -0.000000000494, 0.035779765954, -0.098327384865,
        0.037854047684, -0.000000125523, 0.000000025961, 0.039104525581,
        -0.010200277338, -0.004678403861, 0.014674454326,
        -0.048156625124, 0.024915416955, -0.117436669721, 0.099760325323,
        0.009100099002, -0.012428018325, -0.022294344144,
        -0.046833616506, 0.056963841966, -0.072764478133, 0.010144910156,
        0.014227565633, 0.040397756554, 0.025217989804, -0.007203908778,
        0.082182034380, -0.111499974083, -0.017294039853, 0.000007274435,
        0.053082820499, 0.085249149145, -0.093189933275, 0.081876125365,
        0.009167792219, -0.062897112373, -0.047859537695,
        -0.003504723244, -0.091343326713, 0.005458924180,
        -0.108161154213, -0.029792317792, 0.028026509545,
        -0.032579362527, -0.088605891296, -0.002325271359,
        -0.002781615700, -0.005880066643, 0.087730912810,
        -0.085315823809, 0.032091949819, 0.017552679117, -0.069005144010,
        0.042527689326, 0.051131137479, -0.083062677757, 0.066436327206,
        -0.097966579825, -0.131654995812, 0.106336301994,
        -0.028874189262, -0.004930262255, 0.013049143315, 0.078681882153,
        -0.013901811020, -0.001520760590, 0.029345957413, 0.013966940338,
        0.000000001067, 0.000720929807, -0.017160710674, 0.016639367321,
        0.083188885787, -0.067840482255, -0.107196193662,
        -0.002407126109, -0.077530000222, -0.026269395061,
        -0.103163505842, -0.114656512989, -0.035748567786,
        0.091659763217, -0.065334233974, -0.057382769389, 0.006332445343,
        0.003222548522, -0.068373282484, 0.048309819509, -0.082563362010,
        0.003415820751, -0.010095937801, 0.119964460002, 0.006040038356,
        -0.010454329880, 0.007364857050, 0.039043236019, 0.081735587689,
        -0.009639108270, -0.040748447535, 0.094858895518, 0.039771727923,
        -0.000002195628, 0.090721386010, 0.010339286353, 0.025318496381,
        -0.025296205748, -0.019569815163, -0.030182164594,
        -0.077322718605, 0.005452207030, 0.000000000303, -0.001436118092,
        0.005508284529, -0.026813760792, -0.032132284046,
        -0.000012470653, -0.036378207729, 0.003737028424, 0.072540251911,
        0.000122437144],
       [0.043146753476, 0.076067663871, -0.087364126331, 0.003073093987,
        -0.075165026180, -0.066731277214, 0.002560266143,
        -0.064182207211, 0.019678151574, 0.079663802758, 0.044764316307,
        0.036859531397, 0.016517520550, 0.062346887795, 0.018331818918,
        -0.000301669812, -0.008351019566, 0.109342105628,
        -0.070780823181, -0.011497915734, 0.003213450274, 0.046917264357,
        -0.000001845884, 0.012300664197, 0.025214233686, -0.000530804183,
        -0.106263788347, 0.096370529448, 0.010304424435, 0.032962250365,
        -0.043011432220, 0.052301316400, 0.038886334904, -0.102767362534,
        0.159645081668, 0.120077575952, -0.020933929895, 0.086820520709,
        -0.008311634580, 0.030921373957, 0.029651927302, -0.003486661297,
        0.029393247796, -0.013507278023, -0.000017819518,
        -0.050787369720, -0.003167154651, -0.128432814107,
        -0.082557271982, -0.053445944600, 0.000000084760, 0.063830001817,
        0.034781940268, 0.005925896887, 0.111979052723, -0.051028235889,
        0.006089978402, 0.035021940943, -0.037832162229, -0.041465755243,
        -0.023841130160, -0.000003832426, -0.009660860369,
        -0.063758395381, -0.126812078721, 0.039607108893, 0.002913882364,
        -0.012573400336, -0.001567588194, 0.004628504521,
        -0.053233044377, 0.026965343305, -0.060303142900, 0.132403330292,
        -0.084302313239, -0.088744487481, 0.121334149501, 0.047579358364,
        -0.043364382033, 0.067430961550, -0.067090617993,
        -0.031423805936, -0.031163319693, -0.064719481588,
        0.085052768031, -0.017598046431, -0.014385516742,
        -0.006528891105, -0.042101021113, -0.081423035461,
        0.001853824113, -0.086932189516, -0.038136122022,
        -0.020471652541, -0.011457276885, -0.002485866500,
        0.136939956712, -0.080999709270, 0.073296389443, 0.003305680717,
        0.029520754173, 0.015543074855, 0.007431304668, 0.103604478299,
        -0.039563893419, 0.008645623327, 0.001447991266, -0.106925717064,
        -0.081481971340, 0.000315886779, -0.006764488147, 0.059651820492,
        -0.013527381640, -0.056621297881, 0.000000000376, 0.003084388619,
        0.041562674093, -0.027059024924, -0.068089828391, 0.002827372351,
        -0.015614003590, 0.000452633912, 0.069981289846, 0.107040066299,
        -0.091206619418, -0.018360649389, -0.104262046765,
        -0.097604795108, -0.044694913450, -0.038140253594,
        -0.090082062303, -0.000001171323, 0.000720625329,
        -0.087089762045, 0.000007058954, 0.001348713727, 0.049713482109,
        -0.053770392411, 0.094486568188, -0.058020641781,
        -0.120522813453, -0.007848165187, 0.006196818203,
        -0.007023173673, 0.098769509730, -0.075449299606, 0.043413982060,
        0.000194747050, 0.015047072462, -0.066414552331, 0.065511663075,
        0.128489169168, 0.028984058093, 0.054631043174, 0.023919341814,
        -0.012083071168, 0.053241834096, -0.017255794203, 0.098312174091,
        -0.024026327873, -0.014167156859, -0.018173114124,
        -0.033328764836, 0.113769989513, -0.056318894776, 0.038929155797,
        -0.036156748290, 0.084737346618, 0.041313082521, -0.019011754662,
        -0.000000160816, 0.040571375896, 0.009638489173, -0.051475430419,
        -0.000499501626, -0.089976062636, 0.071160365765,
        -0.007419933692, -0.117180122871, -0.119686254515,
        0.062082712820, 0.069429176767, 0.000702046738, -0.090879754286,
        -0.093408269831, -0.006359456984, -0.047615947263,
        0.066927016973, -0.068388167834, -0.051360454866, 0.010779316576,
        0.000779936579, 0.000000173889, 0.014283886698, -0.073111365900,
        0.001315886247, 0.017265499641, -0.016837819467, -0.006835370585,
        0.000191780671],
       [0.070960985686, -0.010117822470, 0.089123978874, 0.035795639024,
        -0.097531892323, -0.003556255919, -0.025094858441,
        -0.000004059447, 0.107508215665, -0.086833278015,
        -0.000034764747, -0.079553636445, 0.004011402773, 0.054214836795,
        -0.006683214931, -0.089355792860, 0.000266604537,
        -0.056353999883, -0.132733551983, 0.075386948695,
        -0.028533184128, -0.020031101467, -0.002472392075,
        0.003496116937, -0.109324009666, 0.051717631285, 0.032525240972,
        0.041654736371, 0.086309513269, -0.043468822408, 0.004937118544,
        0.006741566067, -0.000144607947, 0.089057538657, 0.131614505380,
        -0.138965166326, -0.015314315652, 0.029186115714, 0.008980473400,
        0.000547554586, 0.075691264869, -0.003680012662, 0.036377210128,
        0.005317052133, 0.013109222558, -0.020635362130, 0.001617386757,
        0.044009110381, 0.118128769658, -0.065512244583, -0.001719487432,
        -0.038718385328, 0.066748422809, 0.000040761471, -0.139168855880,
        0.038745992310, 0.088697895064, -0.040076125588, -0.011388734737,
        -0.030436159311, 0.020896903081, -0.061710773513,
        -0.052416183354, 0.002833516358, 0.017285292253, 0.026435716256,
        0.004506390192, -0.047696184944, 0.000392423127, -0.018401789464,
        -0.023642339153, 0.036848439997, 0.000416149852, -0.110550490310,
        0.031663812148, 0.013234082457, -0.012335221245, -0.027249976208,
        0.038275078296, -0.088811640681, -0.020766372952, 0.032753977348,
        0.003032325922, 0.007422678030, -0.091858563764, 0.002891832759,
        -0.005402095775, 0.056261305006, -0.081019510062, 0.030631306641,
        -0.083092395551, -0.084734832525, 0.057064936520, 0.104152900567,
        0.081713267655, 0.044842789572, -0.035153688996, 0.054857725690,
        -0.056954490180, -0.002835155711, -0.002828105931,
        -0.073388361803, 0.012514977668, 0.110041396723, 0.086262266490,
        0.030176985197, 0.002280528311, -0.000395228790, 0.041538413903,
        -0.000803962543, -0.000023790005, -0.000078717499,
        0.096439980515, -0.061533350941, 0.039848800474, 0.013492975569,
        0.042170897510, -0.083070098487, 0.017474436054, 0.007973549085,
        0.028991222938, 0.000003348637, -0.059088013680, -0.097504418972,
        -0.045766210618, 0.060931858730, -0.055696817338,
        -0.048263340821, -0.067022198370, 0.000690360883,
        -0.005728418624, -0.038342419285, -0.045683880711,
        0.055197168563, 0.007550961854, -0.074437161393, 0.067512367620,
        -0.130340939514, -0.117511510939, -0.122320979244,
        0.120751145678, -0.009660084707, -0.076336074288, 0.054389180618,
        0.003803584709, 0.052664262666, -0.105773377248, 0.085281967953,
        0.059205458233, 0.018010246190, -0.092719545595, -0.031332160142,
        -0.059313501405, 0.000190434980, -0.021238524454, 0.004146550369,
        0.000058004585, -0.025080259884, -0.089682384872,
        -0.153752189987, 0.027378849973, 0.039168530544, 0.073935618983,
        0.038078661315, -0.034868711863, 0.005065131819, 0.000172086406,
        0.029984387300, 0.047169218282, 0.063481496097, -0.001173969628,
        0.029790975184, -0.049413121160, -0.016346705015,
        -0.007537516402, -0.033314642640, -0.032665794958,
        -0.067696173422, 0.061603756200, -0.104604173363,
        -0.031579162228, -0.065044882186, -0.059537077268,
        0.032804278173, 0.069775647740, 0.022028555816, -0.005317864808,
        -0.004606147222, -0.052814479884, -0.000000484355,
        0.028693735748, -0.013479114868, -0.009763734985, 0.073245268773,
        0.000335153676, 0.029769078981, -0.038125015466, -0.081036527637,
        -0.000005465947, 0.000084791380],
       [-0.071474360173, -0.117911070869, -0.075249537534,
        0.028793383733, 0.001293682189, 0.000000000468, -0.024894790071,
        0.007363284017, 0.051875043045, 0.149980078414, 0.069132275384,
        0.079139363386, 0.014965909290, 0.064771078563, 0.068227880999,
        0.015347077148, 0.092230634004, 0.059206966836, -0.125737329782,
        0.097823666701, 0.003222702591, 0.065950399020, -0.009160280395,
        -0.050860046522, -0.072226346973, -0.062434410358,
        0.105345489441, 0.136216049819, -0.008757832980, 0.019130246511,
        -0.000000645248, 0.068698554513, 0.026186042988, -0.146601753776,
        0.076173555827, 0.077336328098, 0.000000123988, -0.060916538050,
        0.020634020823, 0.070126201271, 0.085332984299, -0.009256324442,
        0.121814392457, -0.006686076161, -0.033396502379,
        -0.003726838262, -0.081199921921, 0.035338427916, 0.070362915616,
        -0.080808544602, -0.000003753067, 0.048153182258, 0.005586475718,
        0.052735264655, -0.134484149587, 0.115151023497, -0.086442265476,
        0.080378551834, -0.080599378927, -0.017124930493, 0.000752663180,
        -0.030996934001, 0.003678726706, 0.117605874318, -0.001653358125,
        0.060616340048, 0.070005713927, 0.030919561323, -0.069204752154,
        0.035858654167, 0.042889626942, -0.003843805686, -0.057728240234,
        0.089285424787, 0.008405703173, 0.024641917143, 0.126083461375,
        0.127318545090, 0.052296549681, -0.000051580484, -0.032762344194,
        -0.061052529031, -0.010707502985, -0.102010528353,
        -0.010823085985, -0.051387401763, 0.017390693563, 0.036450537810,
        -0.006133114887, 0.071239679862, 0.079829867629, 0.006914658324,
        -0.017224730298, -0.148261770512, -0.132069455546,
        -0.072683530510, -0.054934299478, 0.006353914072,
        -0.017255108687, 0.014819453348, 0.007727113041, -0.032046734441,
        0.011107547176, 0.026060844645, -0.097766697627, -0.011217347868,
        -0.025565258300, 0.057378294581, 0.042158242510, 0.056892378527,
        -0.055085776096, 0.000598125658, -0.048380120201,
        -0.011643883125, -0.084088540565, 0.035365661022,
        -0.070288044439, -0.000857840955, -0.043889109906,
        -0.027872018842, -0.051156914284, 0.050915056105, 0.062400221139,
        0.011725968690, 0.080000085233, -0.094843484688, 0.078018835285,
        0.133541316767, 0.072372939165, 0.014236022113, -0.027922975141,
        0.003294884541, -0.090602470085, -0.079462363876,
        -0.062481107285, -0.012211266172, -0.007468093651,
        0.137675190875, -0.094268957415, 0.095864484125, 0.071827841313,
        0.008687946795, 0.000004838621, -0.098844623693, 0.002378962053,
        0.016674210615, -0.119993254261, 0.088479864899, -0.004479236789,
        -0.000000000386, 0.040643492877, -0.007418484968, 0.048022848337,
        0.013051800921, -0.089920640291, 0.000026140757, -0.024363476541,
        0.003323362309, 0.116178626245, -0.075541460979, -0.030387149625,
        0.085387959097, 0.115982198971, -0.075412664261, -0.015758789776,
        -0.061530857113, -0.045495222585, 0.100369310303,
        -0.007341137587, 0.011660060955, 0.047925509861, -0.072866037615,
        0.078440169192, -0.063531951849, 0.066116319185, -0.000064689889,
        -0.006479726366, -0.079506536294, 0.021458897969, 0.094258023932,
        -0.004885130607, -0.008253593278, 0.070494771755, 0.000892577187,
        0.101683145391, 0.075150589907, -0.055748535320, -0.006976054449,
        -0.052080371330, -0.085350629812, 0.062867914948, 0.035942604503,
        -0.041913961389, -0.005034995562, -0.078697085412,
        0.000040570453, 0.130976801216, 0.062200185724, -0.005275220584,
        0.055200507967],
       [0.033700898154, 0.065266965085, -0.020715983364, -0.065429282549,
        -0.103880116580, 0.000228078822, 0.083220971592, 0.078539667785,
        0.031116357932, 0.073388003862, -0.053398795586, -0.094898974635,
        0.003395897805, 0.057968258500, -0.062242388542, -0.088239328069,
        -0.003407576261, 0.098668847591, -0.158867662330, 0.000787519882,
        0.061599521202, 0.058560161562, -0.061188641612, 0.059200945818,
        -0.097888336190, -0.090884322758, -0.111167181738,
        0.116309555866, 0.009141471656, 0.039625051342, 0.052818392128,
        0.017113362644, -0.023814141264, -0.076870845829, 0.151171535195,
        0.084630668667, -0.030436189090, 0.048610506765, -0.003700073422,
        -0.111977390892, -0.000020858475, 0.003083012232,
        -0.075266149134, -0.074542419924, -0.031806023383,
        -0.036861452594, -0.090164225944, 0.016386356412,
        -0.103590366186, -0.068326743144, -0.040493496906,
        -0.101141638282, 0.135270065361, 0.087187212472, -0.029093717170,
        0.055129687390, 0.051817383798, -0.023895119764, 0.092733665632,
        0.080590082978, -0.002495383751, -0.008242679015,
        -0.022527139258, 0.155437342790, 0.023984131225, 0.000300172077,
        -0.014736818001, -0.039686826724, -0.000000087520,
        0.068787222891, 0.000000037486, 0.001683166798, -0.001935703079,
        -0.144478932704, 0.081654877801, 0.008360106656, -0.131544372315,
        0.000131165154, 0.054457105149, 0.000008784839, -0.066242146042,
        -0.045648182353, 0.000662296583, -0.007113503012, 0.058623414699,
        0.030499353968, 0.021272831210, -0.032232269175, -0.010096252573,
        -0.058725841861, -0.022672198677, -0.000003180801,
        -0.005799960048, 0.016241517110, -0.082913039065, 0.076229883982,
        -0.063572957993, 0.060818994323, 0.062939827454, 0.002674366825,
        -0.087263616483, -0.009698109329, -0.000564726219,
        0.099893528738, 0.077633411449, -0.011674320691, 0.004304358018,
        0.056330074150, 0.016950931824, 0.000008620283, 0.015480885041,
        0.045262431670, 0.058220141811, 0.037952788450, 0.084094369649,
        0.007182353611, -0.000000072282, 0.022958703842, 0.074848084982,
        -0.002773256390, 0.100623485557, 0.000001393799, 0.088767430297,
        0.092504630439, -0.068857818033, -0.030703522648,
        -0.092894351042, 0.089734708303, 0.078695468587, -0.000528590348,
        0.003926182653, -0.056433521871, -0.086048504821, 0.005700715728,
        0.071089986435, 0.089549255768, -0.047485331658, 0.065146803153,
        -0.073252776926, -0.038782139996, -0.089037519900,
        0.007069083667, 0.011360246797, -0.100446662819, -0.015824390627,
        -0.003646399701, 0.039387728501, -0.000481689411, 0.035733883686,
        0.025383029204, 0.089201069333, -0.053849936774, -0.075509573196,
        -0.080751887436, -0.000816423320, -0.000000050463,
        -0.100460750626, -0.095574660386, 0.124995831236,
        -0.016716126694, 0.011587200758, -0.001377706848,
        -0.065060998564, 0.012182636238, 0.001549368702, 0.074474950250,
        -0.056725167949, -0.082857773344, 0.018459562419, 0.072110393023,
        -0.006837021323, 0.002138243312, -0.017682029604, 0.074829367772,
        0.027929926728, 0.073202038518, 0.000000011341, -0.063654261167,
        -0.075792575334, -0.036710955781, -0.053624169194,
        0.052191234536, -0.019313202199, 0.066350511269, -0.004955787716,
        0.054728908323, 0.008217366114, -0.131494165173, 0.030094515545,
        -0.001091178926, -0.016407138285, 0.047358672880, 0.007117678005,
        -0.003666392859, -0.079074753705, 0.000023164607,
        -0.008127598805, -0.073084602627, 0.033602451441, 0.036080370748],
       [0.063470262296, -0.008609609922, -0.052789520525,
        -0.023482292091, 0.004315909389, 0.000091012357, -0.024368078446,
        -0.038243405887, 0.066388274848, -0.023782695881,
        -0.010930550927, 0.041566582936, 0.034713411007, -0.065202982034,
        -0.044796854586, -0.002997473868, 0.038850466293,
        -0.050943106566, 0.050860974020, 0.106561151819, -0.026955817406,
        0.032209856622, -0.001935264995, 0.024843120218, 0.110858369065,
        -0.000012631549, -0.065603706758, 0.012870889375, 0.000653556035,
        -0.076873305306, -0.065255291459, 0.088082782712,
        -0.039873030757, -0.024520474347, 0.160842594066, 0.151601214463,
        0.000093502576, -0.015718949940, -0.004161632641, 0.103957407399,
        -0.000517394951, 0.030726005570, 0.117897031913, 0.067753774318,
        -0.000000000002, 0.052598397894, -0.020607033540, 0.089642376400,
        -0.107523755311, 0.136338441721, -0.053472262074, 0.013801888897,
        -0.132778868921, -0.004828200795, 0.003868915496,
        -0.014223578985, -0.004597845266, -0.024737498376,
        0.062246052456, -0.037592803239, -0.050213488222, 0.047517280482,
        0.024500575220, 0.024962367576, -0.030898838389, -0.019693914728,
        -0.000741291420, -0.012483684232, 0.062041181658,
        -0.005369119223, -0.057809035543, -0.061539337816,
        -0.048393670907, 0.027191066303, -0.028114215736, 0.021263097210,
        -0.091833772682, -0.083836145162, -0.089317915997,
        0.003308351765, -0.124771188232, -0.006465617089,
        -0.065151313920, 0.004685966567, -0.034479677754,
        -0.020274429605, -0.060602412374, 0.088019906847, 0.071533837713,
        0.022734851453, 0.078801184713, 0.030416626123, 0.001942329322,
        0.127232988218, 0.038799483592, 0.009542932193, 0.083499268614,
        0.100374095772, -0.013425391878, -0.014579082231, 0.057771400219,
        0.060940419230, 0.005030638330, -0.037898832946, -0.080071884671,
        -0.093969436176, -0.006523698371, 0.082041622244,
        -0.069035130862, 0.086948895668, -0.090188831191, 0.004992763633,
        -0.036180646179, 0.006067783557, -0.048796385657,
        -0.044486091924, 0.003661878383, 0.000472690002, 0.048269954132,
        -0.059148049674, 0.014839713868, -0.000131244569,
        -0.082108246303, -0.072653859201, 0.025351312111,
        -0.020157359994, 0.104324579624, -0.045616421207,
        -0.098551191847, -0.052205005274, 0.004095034652,
        -0.044868903745, 0.000000498745, -0.056647555348, 0.004057433848,
        -0.063614397227, -0.001157275782, -0.155686760106,
        -0.070514064050, 0.023874175951, -0.007954895084,
        -0.012314533263, -0.020831907991, 0.134017802425,
        -0.003086279181, 0.000012822022, -0.067772241132, 0.081466835874,
        0.068614169640, -0.076360596412, 0.004158592347, 0.018809000567,
        0.013251882600, -0.009478051637, -0.069024190241, 0.027349185567,
        0.028410126114, 0.096219576095, -0.054893712818, -0.000597379588,
        -0.000000000515, 0.056013957174, -0.038566034025,
        -0.002675191064, 0.075913530623, 0.000027605635, 0.000039957363,
        -0.032302674695, 0.068745776635, -0.001055611159, 0.000022233286,
        0.017354145694, 0.045431047729, 0.000103007798, 0.031802064028,
        -0.004484689422, 0.088000765907, 0.000117599071, 0.135401042806,
        0.047567721329, 0.086109169780, 0.000040045595, -0.000012669324,
        -0.029068983745, -0.050868385729, 0.008838308772,
        -0.000000065396, 0.021539504679, -0.044751284567, 0.025773433464,
        -0.029507282506, -0.064202555517, 0.051757712140,
        -0.028339551328, -0.000718185440, 0.075366087642,
        -0.023140058800, 0.034963049230, -0.001128057953,
        -0.008090153919],
       [0.007796864131, -0.058603866254, 0.093741122248, 0.043696993467,
        -0.017992727263, -0.009209079212, 0.050295591748,
        -0.056225119002, 0.043595633763, -0.112627635529,
        -0.001151424032, 0.004208991263, -0.055157930520,
        -0.077086161239, 0.016294598269, -0.074896099549, 0.039961072933,
        0.096065999586, 0.152737402933, 0.000490694487, 0.091962075406,
        -0.021391320352, 0.000000000005, 0.087321637780, 0.079100424272,
        0.018247838351, -0.025234479908, 0.030151529476, -0.000038875639,
        -0.029149242509, 0.025891850413, 0.026241407151, -0.081839550320,
        0.062848901213, -0.063065065778, 0.139264854148, -0.043530378479,
        -0.029711801989, -0.049489880796, -0.000817296845,
        0.002777307085, -0.033107730744, -0.124395100078,
        -0.035058939741, -0.078783816668, -0.000000090557,
        0.060987606326, 0.069733052850, -0.102388533291, 0.056131826723,
        0.065252483270, -0.044269204556, -0.024183868025,
        -0.055683857520, -0.075422680691, 0.001550066712, 0.030648679871,
        0.036434994106, -0.063794274174, 0.063946750007, 0.046060850423,
        -0.088230788948, -0.079455161634, -0.017019277182,
        0.014818914717, 0.004676298203, -0.077833931618, -0.069035499853,
        0.003116859273, -0.008957762043, -0.053008271272,
        -0.056472056295, 0.000152463847, -0.108597616731, 0.000923996777,
        -0.138450029374, 0.026097681271, -0.060752153428, 0.084560670306,
        0.029520352123, 0.121658063431, -0.017706934085, 0.062018335397,
        0.040763197107, 0.084914218980, 0.064076873012, 0.069157613397,
        0.048754514113, 0.050791347154, 0.079413503602, -0.065872405419,
        0.061504151534, 0.020290156909, 0.125954322069, 0.025612887603,
        -0.022791864812, 0.005552156987, 0.002828161804, -0.010696881832,
        -0.003164531284, -0.005389754087, -0.084367587298,
        -0.023063752956, -0.066143716427, 0.007459444623, 0.035011081398,
        0.010669051397, 0.096380938454, 0.008926169100, -0.078157665504,
        0.061506713316, 0.051995134766, 0.049097499374, 0.000205660564,
        -0.020834690087, 0.022577517163, 0.000004648746, -0.040935638706,
        0.003639165221, 0.010005493415, -0.130590040195, -0.076858199745,
        0.021010601818, 0.075783992833, 0.060908053867, -0.002719636588,
        -0.039590033280, -0.100506912121, -0.042228734204,
        -0.002899391422, -0.031874713190, -0.045958363526,
        -0.055602321083, 0.000008119965, 0.004603932405, -0.011255695863,
        -0.000528382035, -0.040149800969, 0.002181959422, 0.057014094690,
        0.001937633741, 0.081624549900, -0.026046773453, -0.121008431788,
        -0.068741228391, 0.023148054097, -0.089274078627, 0.043295918879,
        0.061942978766, 0.077289527205, 0.042898835090, 0.095466854506,
        -0.026267897883, 0.012778305331, -0.004101430547,
        -0.024422527886, 0.080246617976, -0.001162057429,
        -0.044785972286, -0.007251810951, 0.006238037971,
        -0.074215800902, -0.128023967029, 0.082948173001, 0.052501001586,
        -0.051722053115, 0.000000027275, 0.007780414947, 0.066058087728,
        -0.073820242142, -0.073513478265, -0.082653781654,
        -0.041684337817, 0.105352219565, 0.018611831340, -0.019704563585,
        0.000000001441, 0.000423151859, -0.122667787926, 0.016293299188,
        0.003209701631, -0.001569167202, 0.021736367045, -0.037712814466,
        -0.020723845383, 0.116877741381, 0.000680117508, 0.046201002472,
        0.088509117173, 0.001056466367, -0.050810054655, 0.005231729052,
        0.000240713201, 0.005264214630, -0.004992849603, -0.005391983530,
        0.067336751630, 0.044891025160, -0.064550288551, -0.011783291543],
       [0.014695577973, 0.148708551603, -0.057593085447, 0.033409124007,
        0.004535943660, 0.067724197889, 0.091318122135, -0.054485959846,
        0.149032645868, 0.014006500672, 0.015031536450, -0.026147845418,
        -0.015740359020, -0.093341705162, 0.005004208271, 0.022871726573,
        -0.029727664107, 0.016303978492, -0.039387086676, 0.011167658706,
        0.052119938014, -0.084390541017, -0.082065560504,
        -0.086409069382, 0.038179120148, -0.000027292369,
        -0.011738387401, -0.040660135146, 0.078036668536, 0.093832148388,
        0.074571963331, -0.007175109214, 0.085666713926, -0.002400691373,
        -0.045921104152, -0.011938254224, -0.000774831976,
        -0.088097103679, -0.074532053771, 0.094116839732, 0.000161435194,
        -0.004112712060, 0.006499384746, 0.129627512380, -0.000030223196,
        0.031602096502, -0.074358140260, -0.007354456736, 0.040340869295,
        0.110148380476, -0.025266196781, 0.025861321047, -0.024641125501,
        0.028986042600, 0.004093069786, -0.083985420745, 0.042369381005,
        -0.076344471976, -0.041053563851, -0.087893945754,
        -0.010214554240, 0.003388966726, 0.003281025582, -0.085307315327,
        0.055587220477, 0.034771499594, -0.026044073089, -0.063905962329,
        0.018335311179, -0.105854154576, 0.003023222570, -0.093572817145,
        0.014308335720, -0.050125604543, -0.016825843303,
        -0.060465724269, 0.063854295806, -0.057337366756,
        -0.010240060032, 0.085017400471, 0.145666547071, -0.023616470698,
        0.029480274556, 0.024220419419, 0.042438509558, -0.094108919846,
        -0.055077367953, 0.041849176631, 0.109352782901, 0.000446586635,
        -0.012122576331, 0.002405690924, 0.009000353020, 0.032036365523,
        0.028036411794, 0.078293424163, 0.008351948440, 0.024256252204,
        -0.000283144673, -0.068153134547, -0.061577586211,
        -0.026644317574, -0.038880214567, -0.101355021319,
        0.038222084087, -0.132197472326, -0.030631350969,
        -0.016645762697, -0.000000000492, -0.057918988756,
        0.000005891245, -0.025137835225, 0.078639559306, 0.009394781899,
        0.041121991291, -0.073991803469, -0.044065644654, 0.006256218894,
        0.057148137171, -0.095169712229, -0.141785424492, 0.007954631628,
        0.014726148145, -0.030462776527, -0.091311124418, 0.107502835240,
        -0.029049938587, -0.132705892363, 0.004698152623,
        -0.005457220891, -0.006909127293, -0.007408305175,
        -0.026732203242, 0.063069759119, -0.002306994421, 0.040748866170,
        -0.088429901371, 0.096581912504, 0.039752119330, 0.040675558792,
        -0.012385600094, -0.029742721963, -0.006783805663,
        0.119673819745, -0.099167294725, 0.025635301275, 0.064631590482,
        0.057895504959, -0.048491565432, 0.063817972647, 0.003969166737,
        -0.005522322680, -0.064839545902, -0.007482050556,
        0.047868463656, 0.000307325292, 0.035403256021, -0.002022005952,
        -0.114979625949, 0.104484506117, 0.073576334881, -0.024044667116,
        0.007639771111, -0.040908287729, -0.072524571243,
        -0.058912626775, 0.091297260307, -0.123683395415,
        -0.075338308892, -0.031819213779, -0.082675117305,
        -0.003303351768, -0.040665622932, -0.002227886626,
        0.007585392701, -0.067702501163, 0.017887270380, -0.009725292330,
        -0.016025923334, -0.014535815963, 0.086570937725,
        -0.009524557465, 0.065231718319, 0.009510944945, -0.050376807571,
        0.055184010595, -0.019709383381, 0.105379354051, 0.107288928395,
        -0.000000058689, -0.074960502235, 0.107751119540, 0.026943541120,
        0.060274673463, 0.044356246435, -0.080131948604, -0.097030541976,
        0.080578074304, 0.075371062863, -0.082293168000],
       [-0.000051293640, -0.060519171282, 0.045248812409, 0.077232444188,
        0.088654072255, -0.032680407493, 0.065720240597, 0.031287011548,
        -0.096567123157, -0.011182529928, -0.000000411732,
        -0.084546334970, 0.016287946635, -0.050929722170,
        -0.073832527503, 0.084968727177, 0.100802608856, -0.103414572145,
        0.087630167183, 0.072364221348, -0.068193195186, 0.105511277220,
        -0.000470106358, -0.022743311646, -0.003249219464,
        0.004422145722, 0.039780980802, 0.137988867163, -0.082551711439,
        -0.069817650094, 0.085295233290, -0.088513156745, 0.087568653941,
        -0.133258211641, 0.013384885224, 0.051347515912, 0.031361515687,
        -0.001724577007, 0.055285606747, -0.010653136709, 0.070392760697,
        0.012550410351, 0.126609883903, 0.005254628886, -0.000030584251,
        -0.065515925296, -0.091020194114, -0.028889237606,
        0.112285224853, -0.053448227513, -0.033498300321,
        -0.002960759429, -0.002026609744, 0.007454981408,
        -0.042300536315, -0.019074516080, 0.002173959579,
        -0.029122519670, -0.053743646582, -0.038817635316,
        -0.001334299005, -0.056249944146, -0.000080654452,
        -0.015955978032, 0.120453562591, 0.009387622296, -0.038204914127,
        -0.006923705772, -0.090880291025, 0.052714253605, 0.046721912242,
        -0.082154175875, 0.022375846375, -0.139346462174,
        -0.007995471604, -0.023459337301, 0.089855133925, 0.048263933215,
        0.008224803322, 0.077259315656, 0.069217314594, -0.000000005737,
        0.068380475566, -0.020612652847, -0.081869667361,
        -0.000000024399, -0.000001057370, 0.072509561422,
        -0.080298797852, 0.000997178942, 0.068442861297, 0.000000479773,
        -0.089545693625, -0.019129612104, 0.073050319489, 0.060248467444,
        0.069160048949, 0.043733535724, 0.009548579406, -0.002599044760,
        -0.025125750109, -0.073757460430, 0.016429720311, 0.103246775992,
        0.032005043294, 0.087702654541, -0.001581824230, -0.121785456246,
        0.017393218278, -0.000002661174, 0.000042946648, -0.056273324669,
        0.023417264252, -0.000669043812, -0.019019654190,
        -0.020612352720, -0.042806807845, -0.005214931929,
        0.046638012677, -0.003199158025, 0.053688160618, -0.026352061424,
        0.076223376538, -0.129010624509, -0.006673386475, 0.104142367775,
        0.100988847140, 0.078271066678, 0.047034244284, -0.000000522151,
        0.012153344553, -0.018017454850, 0.019700511321, 0.008372026187,
        -0.018360993968, -0.052635020085, 0.037748156755, 0.087475495045,
        -0.123070946273, 0.084474047208, -0.062476018508,
        -0.031076380171, -0.000000446222, 0.025845865634, 0.005208358318,
        -0.009954003277, 0.016479283084, -0.003665061804, 0.022655374407,
        0.029711519215, -0.060712884654, 0.039878681243, -0.057118110849,
        0.000141936579, 0.075461952193, 0.048697498508, 0.001851700814,
        -0.133373395196, -0.060263504990, -0.016708579520,
        -0.004233320990, 0.005035715738, 0.017134338799, -0.126737748408,
        0.000000000016, 0.000000086182, 0.008075925365, -0.090003969202,
        -0.011430160940, 0.030038155565, 0.070406819000, -0.050446910493,
        0.039636234556, -0.024350589276, 0.003908704393, -0.091541832256,
        0.022136521116, 0.000424910736, -0.060477420726, 0.001105173754,
        -0.029447463029, -0.003630645206, -0.052265139553,
        -0.002453306932, -0.021747923220, -0.019738903521,
        0.000037037458, -0.129771368135, 0.080620883951, 0.002671857481,
        0.000000000234, 0.049631592103, -0.000000000171, 0.011546141370,
        0.000000071225, 0.000856478615, -0.133340184508, 0.000036515945,
        -0.026520744482, 0.000560688215],
       [-0.000008724897, 0.135441477162, -0.002809451718, 0.104336398064,
        0.013782653708, -0.078059888713, -0.066884777116, 0.068057995424,
        0.011170503182, -0.010198950044, 0.091410377912, 0.074107706283,
        -0.001673266386, -0.003316848295, -0.015171836482,
        -0.003566924910, 0.000372165899, 0.102392996206, 0.007066748477,
        -0.044552585166, 0.066912563098, 0.099664932914, 0.033621121594,
        0.001923539476, -0.093436662600, 0.008452226333, -0.028392433630,
        -0.125498059407, -0.032391976441, -0.030772406579,
        0.065932900804, -0.000263491651, -0.067631644466, 0.119866974462,
        0.101288744552, 0.085225557229, -0.000000000010, 0.064095939968,
        0.067226139646, 0.096735265510, -0.022605249419, -0.012233618890,
        -0.095424532258, -0.046240108212, -0.070080251660,
        -0.070685878481, 0.076777719935, 0.121613572315, 0.052446987261,
        -0.125234745290, 0.004317688508, 0.042895812016, 0.029269326431,
        0.037589659665, 0.028505772051, 0.043718214070, 0.001106381177,
        -0.038481687993, -0.074464953693, -0.014037786539,
        -0.027945739874, -0.002884333070, 0.002601228803,
        -0.123125434308, -0.018431846224, -0.021070043889,
        0.083943571060, 0.085394836232, -0.026242231419, -0.007546800146,
        -0.024378088515, 0.059643446501, -0.004595932118, 0.001540566191,
        0.050964103918, -0.017363867989, -0.141520422111,
        -0.014612134457, -0.015260595254, 0.039700717703,
        -0.134184961892, 0.062616925928, -0.086687676595,
        -0.001347198086, -0.083699893025, -0.049390812415,
        -0.076224649806, 0.090188139600, 0.009868919871, 0.093358562161,
        -0.051079052541, -0.000256117815, -0.071456636568,
        0.142692056105, -0.123609320583, -0.005194381313,
        -0.019050478709, -0.106834541833, -0.086645395001,
        -0.064420105582, -0.004516298120, -0.052019076487,
        0.050317364976, -0.002318979957, -0.005244519899,
        -0.091479002731, -0.000210139887, 0.146161140766,
        -0.000854447809, 0.038235986726, -0.045264146169, 0.019309897239,
        0.010091096090, 0.049418312377, -0.037132752215, 0.027361638115,
        -0.007075598179, -0.075546770043, -0.047590287999,
        -0.006196508650, -0.022222653085, 0.027230006421,
        -0.078091440870, 0.075110793585, -0.000472735360, 0.044128908569,
        0.021034392248, 0.118391649172, 0.003750515773, -0.092286042719,
        0.000047197283, 0.058460145427, 0.000278267601, 0.033526341238,
        0.002359886453, -0.062092510562, 0.000549411749, 0.155047968558,
        0.094158394941, -0.070184448873, -0.063789586826,
        -0.063851388314, -0.072904064533, -0.031917744110,
        0.131747498240, -0.000018417475, -0.019484363466, 0.001706641358,
        0.000011208431, -0.000022662216, 0.000011618614, 0.073858633876,
        0.026003462617, 0.024111374250, -0.076614745176, 0.000772214176,
        0.092494948192, 0.023063426871, 0.056010143630, 0.055921372960,
        0.009585317412, -0.000518074062, -0.033321322721,
        -0.041501599214, -0.001712979953, -0.000002060991,
        -0.016030355742, 0.034061185437, -0.016379596807, 0.063204755103,
        0.032011728362, 0.087601143279, -0.001173978564, -0.067184558456,
        0.036824845745, 0.007758394295, 0.059701993377, -0.026558828974,
        -0.157594115153, -0.000614484793, 0.074651659629, 0.078165027542,
        -0.084701910966, 0.065336618594, 0.009124103810, 0.049892389138,
        -0.053005709967, -0.002505954261, -0.075661033058,
        -0.018021422140, -0.050255068766, 0.046414373688,
        -0.043691404291, -0.075264493681, -0.023522088033,
        -0.033123063460, -0.122917028380, 0.000000002244,
        -0.001033816474, -0.043574343808],
       [-0.088473617595, 0.099854766029, 0.019500261602, 0.091693741704,
        0.060492163280, 0.033515718142, 0.000010045097, 0.000832483052,
        -0.131942201763, -0.068053101405, -0.002418073124,
        0.009272501770, -0.014558573956, -0.002816963876,
        -0.002020714002, 0.091459474478, -0.052156811154,
        -0.076624893665, -0.092573410162, 0.060596063989, 0.003551214256,
        0.134937683593, 0.080570683103, -0.083818695453, 0.012831934290,
        0.050379496841, -0.111631665333, -0.015646480887, 0.039890168176,
        0.026253132465, 0.010316747853, 0.062646805182, -0.030403865747,
        -0.139048304322, 0.009377568247, -0.144064206477,
        -0.075017602765, -0.001561269565, 0.091528355902, 0.037172180834,
        -0.013782139181, 0.035907630449, 0.069186924089, 0.027774996230,
        0.000851255151, -0.000533486067, 0.050998221056, -0.088992062287,
        -0.052072826770, -0.158435175770, -0.054283129904,
        -0.010330495585, 0.021399023812, 0.010349479747, -0.075421429144,
        0.028837736592, 0.017369435436, -0.008150973582, -0.000159565839,
        -0.034397215356, -0.000469543334, 0.000024475208, 0.089068983848,
        -0.090914266168, 0.102630567342, -0.000085342510,
        -0.014979831949, 0.062996186976, -0.041006748862, 0.020342768675,
        0.090185044438, -0.003552079427, -0.064623490972, 0.061608301244,
        -0.017761990025, -0.087431460572, 0.006336633731, 0.011243505459,
        -0.025636475594, -0.040689561112, -0.103224978337,
        -0.021748713031, -0.003800035743, -0.004699655339,
        0.089333144569, -0.011714726517, -0.000000602298, 0.068799772661,
        0.015953047628, -0.012112380408, 0.000389973111, -0.069123925527,
        0.003978266833, -0.098198965418, 0.035761002693, 0.071197597955,
        -0.042966572142, 0.066815938251, 0.044777260223, 0.018125811311,
        0.026028560574, -0.000204075477, 0.059790538869, 0.006728367413,
        0.056232411325, 0.018448148801, 0.006917847439, 0.119530028680,
        0.005000716281, -0.021519850417, -0.002919806486,
        -0.006391807222, 0.086831047476, -0.007733091496,
        -0.007177357484, -0.035327734408, -0.010288111659,
        0.097350159989, -0.053267598362, 0.070338007736, 0.004044952856,
        0.084577027434, -0.032249285581, -0.083729726012,
        -0.081297278279, 0.052071790726, 0.064445098363, 0.026821783210,
        -0.081472344540, 0.027178841856, -0.028955003581,
        -0.074291064620, 0.090277827701, 0.056613004741, -0.006666978894,
        0.090618600397, 0.001024829973, 0.079167049356, 0.039545058128,
        -0.028456179287, -0.001290989363, -0.003482716867,
        -0.000003352144, 0.088781518182, 0.014298901596, 0.035826549365,
        -0.007419498297, -0.000002425214, -0.054442107729,
        -0.059185341567, 0.009357387331, -0.088915390498,
        -0.002608907402, -0.000012120380, 0.053374241751, 0.090717012179,
        0.092490245539, 0.032455379987, -0.105522530803, 0.134075565839,
        0.004680200659, 0.080154229317, -0.044452210178, -0.038014323978,
        -0.013568833000, 0.008166007036, 0.056999846145, 0.065690317630,
        0.037743122813, 0.007971160773, 0.024893009709, -0.127461120366,
        -0.010373744955, 0.010141892328, 0.103590364121, 0.044294967819,
        0.044298090902, 0.015964928625, 0.121745836346, 0.128494668129,
        -0.003414883200, -0.063755792173, -0.050878641730,
        0.034329180942, 0.122371941016, -0.004368043421, -0.001935267106,
        -0.128931432037, -0.087564742152, -0.003443559042,
        0.000598898945, 0.096458418513, 0.070782142835, 0.014823669324,
        -0.082838410871, -0.033352554224, -0.095519347292,
        0.003910543227, 0.000000000415, 0.016888008185],
       [0.071568570566, 0.095648643335, -0.002692942099, 0.010091255894,
        0.080385565001, 0.082968035003, 0.064565401444, -0.000212899520,
        -0.065008502617, -0.115574685456, -0.009948611755,
        0.034435313179, 0.051932679880, -0.012685153215, -0.076312414395,
        0.008531954775, -0.105798922271, -0.102448640854, 0.102443616052,
        0.007044606762, -0.102152446411, 0.111985152448, -0.019080987490,
        0.001971541348, 0.042163082006, -0.000228502516, 0.139974151110,
        -0.043358372297, -0.023763475042, -0.053036663779,
        0.000406383722, -0.033062176433, 0.025216008244, 0.139915830158,
        -0.110044852212, -0.096512846021, -0.015574957915,
        0.028258641295, 0.003869862893, -0.052810599035, 0.023654663568,
        -0.003941985117, -0.120686713457, -0.012702747199,
        -0.027222956723, 0.080175803810, 0.072086024394, -0.003857697410,
        -0.041523708038, -0.119725303931, 0.016097066707, 0.097364056504,
        0.005541394151, -0.003618596268, 0.120838126778, 0.076588165545,
        0.018753926848, 0.056790915880, 0.075533027682, -0.012854375871,
        -0.005339859215, -0.022505223003, 0.087146651738, 0.035086230880,
        0.101019581305, -0.002794550222, -0.000092287612, 0.068611474800,
        0.007312041093, -0.085384703356, 0.064554066725, -0.023149663467,
        0.053011521285, 0.089918912487, 0.062184389514, 0.031455039090,
        0.159366471235, -0.049312904063, -0.004792711367, 0.013402098275,
        0.040499225311, -0.042471674550, -0.041184413013, 0.064634451786,
        0.086627086440, 0.032898659734, 0.000000000258, -0.000092902602,
        0.003695196896, 0.005431900584, -0.091275835840, 0.062209257781,
        -0.039726289168, 0.013783936277, 0.026959556269, -0.104837805031,
        -0.017300971456, 0.030531018485, -0.088014310989,
        -0.040813256819, 0.071854833452, -0.020053432798,
        -0.070304630968, 0.037382006103, -0.001701499793,
        -0.048643409998, -0.005709796648, 0.005820572858, 0.012314315359,
        0.000142978062, -0.015634728257, -0.000218664413, 0.021028584351,
        -0.007659936030, -0.054322029904, 0.091070648179,
        -0.067865901134, -0.069643317850, 0.016146089999, 0.011160012171,
        0.055851908716, 0.049875547384, 0.029127661501, 0.081126974213,
        0.060259521407, -0.020669436838, -0.080665251593,
        -0.002267374310, -0.010464718950, -0.090700271203,
        -0.044833603538, 0.002627074039, 0.063975291117, 0.037640871089,
        0.081532650136, -0.007782478119, 0.039941104724, -0.095184223269,
        -0.102756991619, -0.090456200261, -0.075798695192,
        -0.005900587038, -0.078975466534, -0.056011340993,
        0.011909058556, 0.051730831891, -0.061043342298, 0.044089394608,
        -0.048424122315, -0.003306386123, 0.064238362682, 0.035347841709,
        0.056339046154, -0.055390107356, 0.041846527643, -0.037094103614,
        0.103803069296, 0.081959215881, 0.109376326940, 0.054116860008,
        0.052377566356, 0.062447190829, 0.018100918022, 0.065223983110,
        0.142875275155, 0.000010707786, -0.023321826347, 0.113282069787,
        0.013539285070, 0.003606208244, -0.001223805825, -0.042504919712,
        -0.004113838880, -0.006939354752, 0.057547917986,
        -0.055178458556, 0.000004594540, 0.137212241525, 0.094313773417,
        0.035526641647, 0.091192774355, -0.015657415220, 0.000000181586,
        -0.000000000490, -0.079629266946, 0.030837532836,
        -0.034112651921, -0.131097855959, 0.089130877196, 0.072302258581,
        -0.001815463068, -0.089439909810, 0.074948148925,
        -0.002141416465, 0.084827660244, -0.034709783492,
        -0.055684570693, 0.026052541973, 0.047330697600, 0.080987267239],
       [0.003280911849, -0.135228690324, 0.003953401131, 0.005047670308,
        -0.059687684683, -0.000287598029, 0.009414330826, 0.088233303906,
        0.093426757632, -0.001288138938, -0.045350538688, 0.021355760033,
        -0.057677108741, -0.012030314397, 0.074386249044, 0.050929849007,
        -0.017315375204, -0.021867035317, 0.107624183241, 0.003263372244,
        0.038852488505, 0.015443315208, 0.004191086123, -0.000018203482,
        -0.019101482604, -0.000982559491, 0.062255154944,
        -0.054646276477, -0.017045528050, 0.049015621537,
        -0.045000723461, 0.001533596727, 0.056519460003, 0.031798378777,
        0.001322540468, -0.148252263354, 0.052241194447, 0.038634964551,
        0.056657362911, -0.094498409792, 0.000000358434, -0.052830463534,
        0.034172728010, -0.003854723639, -0.009219868190, 0.011696065045,
        -0.014704494635, -0.096499741700, -0.119361441879,
        0.031057643263, 0.018020553599, -0.020009777155, -0.138009526500,
        -0.028243800020, 0.112046140506, -0.063274323408, 0.016590513366,
        0.014829908763, -0.007665065483, 0.001899761811, -0.009906384812,
        0.000526907956, -0.006136537256, 0.135836977934, -0.052511051444,
        -0.048470994428, -0.079990218901, -0.002430609985,
        -0.013679768349, -0.080688349235, -0.029052392758,
        0.035916155743, -0.026137772845, 0.114172654841, 0.025836728165,
        -0.001497836198, 0.027726864130, 0.000026922003, 0.019201656355,
        0.011460720027, -0.017937801643, 0.000002195404, 0.031036183851,
        0.001506637330, 0.067527349837, -0.068311427896, 0.003094277192,
        0.084112166658, 0.030294032461, -0.035404652191, 0.002974881884,
        -0.000011770345, -0.105830085711, -0.022034842097,
        0.076316399312, 0.068357664780, -0.073084755381, 0.055233441856,
        -0.000018678169, -0.033164652083, 0.088439403379,
        -0.061142111979, -0.005055252311, -0.105948178486,
        -0.077504785919, -0.022251048455, -0.037099182434,
        0.016385021301, 0.081406289211, -0.007162264055, 0.000213082137,
        -0.024729646856, -0.000683741594, -0.001095512271,
        -0.046805226874, -0.045023488818, 0.089502757941, 0.004665677402,
        -0.086940272934, 0.086404992880, -0.014111166822,
        -0.049433625632, -0.044930807765, -0.066198547843,
        0.007221988990, -0.007832744937, 0.018062503307, -0.083676565909,
        0.025360218117, -0.081009827856, -0.023908546152,
        -0.009576201539, 0.060810299164, 0.052805253518, 0.025022765199,
        -0.080117321169, 0.023917311407, -0.132749641752,
        -0.116476167892, -0.043102277001, -0.016199908300,
        -0.001106116409, 0.088734910868, 0.022927664644, -0.034450540708,
        0.000098887579, -0.007948915100, -0.000659557821,
        -0.000075012777, 0.006249452363, -0.024666177042, 0.088105114815,
        -0.064876571390, 0.055797807041, 0.004046766505, -0.007425625366,
        0.021057881016, 0.009129884379, 0.138036027768, 0.068530929486,
        0.000016222268, 0.068451360651, 0.005898346174, 0.088894565278,
        -0.010168063046, 0.031033630951, -0.031850234593, 0.038354583142,
        0.042925591033, -0.005075444144, -0.084035836796,
        -0.034748953709, -0.022657908310, 0.070035456327,
        -0.036657247791, 0.043744411565, -0.063173371466, 0.048795092399,
        -0.048842717027, -0.109018610321, 0.032544313109, 0.086872574429,
        0.034483464383, -0.000037998428, -0.005450885559,
        -0.107300145631, -0.007727592341, 0.054938793614,
        -0.091300108511, -0.049728462131, 0.037414272491, 0.023790821121,
        0.053901508056, 0.032384710771, 0.006558054476, -0.069968257266,
        0.077053400099, -0.054454254394, 0.012124262864, -0.078369892487]])