array([[0.626934939729, -0.450794064035, -0.143815375750],
       [0.726417827510, -0.455629546218, -0.158199621052],
       [-0.786487573890, 0.790574761700, -0.202931325071],
       [-0.079425301316, 1.262134040479, -1.513359005304],
       [-0.176901055679, 0.143359008160, 0.316996948858],
       [0.247311617848, 0.446045990422, -0.221696644383],
       [-0.079369832760, 0.394929738193, -0.435159072676],
       [0.132409457349, 0.422449740324, -0.056494431077],
       [-0.598790185507, 1.531241028263, -0.707789175648],
       [-0.534551903998, -0.153743229499, 0.470446076846],
       [0.255501742163, 0.349680005686, -0.610023631592],
       [-0.984910528165, -1.590641760017, 2.446728368606],
       [0.627549798007, -1.053179995257, 0.071316516853],
       [-1.368493320986, 1.962064219200, -0.672622759918],
       [-0.237713578236, -0.071871186128, 0.959714126250],
       [0.504451075334, -0.041566612214, -0.706220079828],
       [0.181974027116, -0.257097987181, 0.708817482065],
       [1.251161999378, -0.399876022634, -1.008644164053],
       [0.072157191735, -0.186095050513, 0.477438151297],
       [-0.409383883684, 0.385790410937, -0.531559824953],
       [0.287962033049, -0.125405642890, 0.145289572832],
       [0.024238539756, 1.211640994722, -0.891537319594],
       [-0.540033049824, 0.224917292800, -0.227404079111],
       [-0.052732195883, 0.733324781907, -0.556835651030],
       [0.665195371228, -0.236864365104, 0.082223725338],
       [-2.793791435077, 2.402277340520, 0.715401801847],
       [-1.114417941134, 1.226522303588, -0.399514399687],
       [0.469859946988, -0.365284073631, 0.400078095463],
       [0.525180759238, 0.519664101611, -1.158455576952],
       [0.205310056588, 0.263250288749, -0.363916528289],
       [0.021492965416, 0.251595648902, -0.022557730080],
       [-0.765731808534, 0.880128818550, 0.356662972646],
       [0.256862525377, -1.055490455269, 0.954439598232],
       [0.599263526964, -0.571996048873, -0.139465936661],
       [0.109332355695, -0.275340195764, 0.183939299122],
       [0.682667682614, -1.597138023720, 1.033992319005],
       [1.374793637788, -0.471675462739, -0.418519172407],
       [-0.184162543529, 0.524588998280, -0.734521432790],
       [0.470484436887, -0.911257153200, 0.049458142589],
       [-0.942077939348, 1.050042247857, -0.705556573474],
       [0.861144412841, -0.555318510475, -0.878807158370],
       [-0.153977420256, 0.175208445270, -0.537722757460],
       [-0.137629959977, 1.558083690955, -1.030698120750],
       [0.196239845325, -0.671469028465, 0.341390831520],
       [-0.634825411234, 0.559877249760, 0.130923340788],
       [0.676060631138, 0.373350813349, -0.467520301265],
       [-0.412567437930, 0.680130946794, -0.402729513220],
       [0.445288306718, -1.151520617332, 0.736459017355],
       [-0.281916549982, 0.249659218032, 0.264621736398],
       [-1.588641861696, 0.294296091003, 2.072798991943]])