array([[0.099137899723, 0.018607830915, -0.029432292205, 0.105621598816,
        0.108041314925, 0.067509555790, 0.128203943121, -0.017310716837,
        -0.060089024221, -0.042538413661, 0.018098862024,
        -0.024208610132, 0.021989563833, -0.083746314202,
        -0.106511455196, -0.013096977727, -0.101506983321,
        0.013772281615, -0.066056340374, 0.016322638233, -0.018642522581,
        -0.084172305140, 0.036383379003, 0.011068131541, 0.043371191132,
        0.026226527969, 0.108787408309, -0.094687890589, -0.113966235589,
        -0.095423182456, 0.073885176395, 0.065206081323, 0.036885973623,
        -0.107300455392, -0.037836241730, -0.088270946937,
        0.016761861981, -0.079647090424, 0.065355848620, -0.106861348625,
        -0.097562710566, 0.034820065200, 0.048676359101, -0.075519359573,
        -0.019569859977, -0.111823097832, -0.099821028135,
        -0.103959025595, -0.017779320004, -0.044352342557,
        -0.019134200584, -0.066315044233, -0.101950881806,
        0.099119493454, 0.103373518704, 0.103865683401, 0.099696094281,
        -0.123681327628, 0.108592785585, -0.038780973540,
        -0.114215329099, 0.010287910111, 0.089235220676, 0.094756644557,
        -0.043830943051, -0.011070267149, -0.045779682768,
        0.019332282569, -0.109319013541, 0.093995389581, 0.114604322623,
        -0.088022693867, 0.003970978926, 0.108545272734, 0.070604887482,
        -0.077653433444, -0.112966020300, -0.047448681146,
        0.040552165230, -0.097305600754, -0.015481139095, 0.015853440954,
        -0.004186975959, 0.102451272447, 0.035566525448, -0.117005718846,
        -0.065573182251, 0.005514774781, -0.106606752538,
        -0.115248311362, 0.070386689624, -0.093837475961, 0.102490222810,
        -0.015675740547, 0.057434850384, 0.071004484524, 0.075711945977,
        0.006117728805, 0.110521442336, -0.016677892912, -0.104071305290,
        -0.100134337436, 0.032302757086, -0.062714853042, 0.080089617638,
        0.073027710998, 0.014986398426, 0.036548153008, 0.047113161447,
        0.093877755213, -0.100944360817, -0.039363987189,
        -0.078546198437, -0.084686195448, -0.069521587681,
        -0.096621229258, -0.026696194106, -0.010176588819,
        0.095787201962, 0.082177647575, -0.016748307654, 0.065887963085,
        -0.006837963413, -0.022786134844, -0.122142825326,
        0.070857019030, -0.014043634583, -0.014687333991,
        -0.004964055893, 0.084968020330, 0.028997896665, -0.084963668223,
        -0.025262810015, -0.070616046366, -0.071833197696,
        0.028167112092, -0.129588704478, 0.023244416633, 0.069042995840,
        -0.057797269912, -0.050724878524, 0.085209877912, 0.065100897954,
        -0.083409713289, 0.087506927420, -0.112067034201,
        -0.009162697534, 0.102561050448, 0.095046931678, -0.046995394726,
        -0.109101913186, 0.104322341952, 0.071040919624, -0.045470919390,
        -0.005888894271, -0.005691074860, 0.036698767781, 0.009588952321,
        -0.095784727111, -0.099172268747, 0.001709129911,
        -0.084367743637, -0.068410435494, 0.057763493540,
        -0.063616009274, 0.035735336418, 0.028092337433, -0.044835719956,
        -0.095904996594, -0.036684733184, 0.014143367171,
        -0.018744062149, -0.134791085794, 0.019273777350,
        -0.115070463985, -0.003116086758, -0.022604278501,
        -0.023003387533, -0.074947742181, 0.028788972409,
        -0.024000079344, -0.038457602389, 0.133139591284,
        -0.047362146626, 0.025236754149, -0.051387018468,
        -0.112464311504, -0.093991693748, -0.124254365741,
        0.098331261929, -0.066839446439, -0.068033784067,
        -0.026527903883, -0.032860936681, 0.093003917442, 0.055564893417,
        -0.027968551097, 0.056159139728, 0.105966577903, -0.000007814962],
       [0.135421016374, -0.023611191778, 0.054079915442, 0.046989772124,
        0.013689002718, -0.077565458156, 0.001672185772, 0.123339743104,
        0.070686351833, 0.079800627005, -0.033957473219, -0.117526743271,
        0.080788865634, -0.039088991844, 0.005689254228, -0.118144704347,
        0.076232176378, 0.058668145140, -0.069115760876, 0.143485270342,
        -0.079703790742, -0.025691059156, 0.108559213677,
        -0.064998063898, -0.027361566796, 0.088880506325, 0.040351290602,
        0.090878962701, -0.068562930869, -0.067471793774,
        -0.054157951618, -0.024046314919, -0.044747282148,
        0.067386273637, 0.070329762617, -0.092254806954, 0.105682042997,
        0.041662510656, 0.041288243333, 0.052852278098, -0.055220809956,
        -0.119794141847, 0.051524047876, -0.084414792439, 0.049215362049,
        0.100544456610, 0.045251689307, -0.073380121753, -0.022800413267,
        0.106778958094, -0.055882658530, 0.022402046734, -0.125051384748,
        0.001222255628, 0.047121128691, 0.090790137594, -0.062459609187,
        -0.047218036808, 0.070238817897, 0.116626035238, 0.087745981844,
        -0.083696737575, -0.128238792125, 0.051467552167, 0.031321841298,
        -0.102257123637, 0.066202883720, -0.057201480330, 0.102694366720,
        0.035003933744, 0.016171431692, 0.104368436428, 0.068433368184,
        0.005416331674, 0.023283053874, -0.098203209083, 0.075715017313,
        -0.064326997444, 0.001422119933, -0.025417541315, 0.001400785013,
        0.103706652478, 0.057299311717, 0.111888101119, 0.070784613161,
        0.042341688663, -0.052568794273, 0.025514937619, -0.091065031401,
        0.118481481705, -0.115352719729, -0.067444387901,
        -0.094981182263, -0.083713423598, 0.000814747071,
        -0.027928642717, -0.034350321115, -0.046074855125,
        -0.006138818169, 0.007013134173, 0.104419621186, -0.091990993730,
        -0.016916571287, -0.091018002079, 0.019692535978, 0.066791956279,
        0.105627482659, 0.104634701187, -0.050222722268, -0.037051755374,
        -0.066968622160, -0.109819489146, 0.082302263857, 0.033123242691,
        -0.083582753969, -0.092959623792, -0.121271764725,
        -0.019377098380, -0.080568164201, 0.100114297373,
        -0.025663921906, -0.043876209965, 0.069866741343,
        -0.070991385340, 0.101455179782, -0.048897925164, 0.042028924289,
        0.009943713380, 0.006262215800, -0.015276481664, -0.086121478248,
        0.087690016313, 0.026086836353, 0.025786728122, -0.027213724336,
        0.066635510061, -0.100367956035, -0.055138294168, 0.001827814328,
        0.019450093173, -0.024239722022, 0.086456040869, 0.093475165926,
        -0.076049371462, 0.123064921733, 0.033814300779, 0.047040608507,
        0.050341167393, -0.077180638656, -0.045846333342, 0.031913540559,
        0.018950869665, 0.063967465257, -0.063099634987, -0.127281630466,
        0.105331363288, -0.102839658381, 0.039676166745, -0.036603532198,
        -0.084409425281, -0.021645528104, -0.005323623331,
        -0.106717896737, 0.082838518514, 0.073123541345, -0.053931377580,
        0.110167829263, 0.034644542318, -0.019134729639, -0.008273514872,
        -0.070290521565, -0.032385247618, 0.063193034247, 0.009746329249,
        -0.037532306482, -0.048690383817, -0.030926899687,
        0.000800471625, -0.029711830176, -0.034285610541,
        -0.001376928036, 0.093617636262, -0.140932104382,
        -0.028527061238, 0.111223573770, -0.004826921694, 0.096338647455,
        0.045523479044, -0.081379363655, -0.080980774123,
        -0.076018113209, -0.047678790686, 0.079420844505, 0.033069289754,
        0.011518278937, -0.066100419720, 0.019558816271, 0.015392189609,
        0.136946000419, 0.089828461843],
       [-0.030996073294, 0.009927358159, -0.117987769707, 0.121750458317,
        -0.000049019858, -0.107178109834, 0.070033525800,
        -0.098519309698, -0.019462018418, 0.105418220069,
        -0.004621120999, 0.109051278697, -0.063874371828, 0.033486634981,
        0.109437401833, -0.101668358941, 0.063222039829, -0.118835174330,
        -0.020908464154, -0.005592442170, -0.052806900370,
        0.054055793588, 0.115523276137, 0.116482395530, -0.005390078045,
        -0.020265182155, 0.049562872731, -0.123078995240,
        -0.067152441379, 0.133070683934, -0.023684449528,
        -0.059132576607, 0.026713299529, 0.029019304518, 0.012085189379,
        0.060663794403, 0.048613276923, 0.032288508808, -0.098441624033,
        0.021392931591, -0.067882848411, -0.026470578234,
        -0.121632835131, 0.050944061537, -0.085120632335, 0.091016732095,
        -0.005190689025, 0.094171094870, -0.010078317367,
        -0.051258330462, 0.105027946673, 0.098882254789, -0.051491764640,
        -0.064265148327, 0.107357367721, 0.092803636958, 0.020563299577,
        0.121764378121, -0.090108874905, 0.118393765804, -0.111588981649,
        -0.050943304418, 0.008439504028, 0.023119510127, -0.071974358305,
        0.114069071570, 0.058764195340, 0.033052180545, 0.087070792129,
        0.001678451684, 0.078866773126, 0.084389233530, 0.058078943142,
        -0.055608353164, -0.080485593561, -0.050106267941,
        0.037952785252, 0.051328624369, 0.072431523776, 0.085543972361,
        0.033793572358, -0.117423407034, -0.102116366048, 0.055008329689,
        -0.034421862354, 0.065362152615, -0.089591631656,
        -0.104019011975, -0.118812880200, -0.120488646775,
        0.001594445836, -0.021924901128, 0.051971572705, -0.021460390708,
        -0.100325947130, -0.084712597287, -0.068151996321,
        -0.036232647263, -0.090497421413, -0.069277161045,
        -0.048952993552, 0.114723175274, 0.047697682699, 0.068951511744,
        0.097576146008, 0.133353280416, -0.058754160061, -0.049052150566,
        0.050090439870, -0.053534053738, 0.042403226490, -0.011087078860,
        -0.061424237617, 0.008805998679, 0.078542209025, 0.015996475287,
        -0.010828086138, -0.088734297434, -0.006589834442,
        0.042246112538, -0.017517411668, 0.020535855324, -0.004954143552,
        -0.077278493529, -0.017962307110, 0.089051744154,
        -0.059679727930, 0.008079747688, 0.074981908038, 0.117273868746,
        0.052766826271, -0.102097725892, 0.039146848115, -0.112936586368,
        0.085893878452, 0.028315170504, 0.087519905052, -0.031198030220,
        -0.123636501152, -0.116069942549, 0.011742186514, 0.027104828258,
        0.074369845430, -0.079589802353, 0.004889467149, -0.059629170769,
        0.080149044494, -0.116481690529, 0.074473056464, -0.025050158506,
        -0.107329301778, -0.104691026876, 0.097537777171,
        -0.073970738786, -0.050948525381, -0.100084167488,
        -0.094083436049, 0.081142469991, 0.042320963630, -0.019654821933,
        0.036535440064, -0.090994769375, -0.045459441758,
        -0.036382114180, 0.007018236169, -0.018627361310,
        -0.057089677562, 0.035650437453, 0.058136658019, 0.044262645583,
        -0.060421113120, -0.062360333435, 0.025129150145,
        -0.036578244266, -0.109374991169, 0.083718170133, 0.059866113779,
        0.103164490945, 0.132689356206, 0.026830333949, 0.085646712935,
        -0.120700522407, -0.007577324480, 0.103129114263,
        -0.106051255972, 0.109116282728, -0.092485565042,
        -0.040510674570, 0.037609163593, -0.067533755525,
        -0.079925550508, -0.071213924724, 0.036686962815, 0.058297034830,
        0.058237213353, -0.046845767136, -0.033703554888, 0.083699831981,
        0.123764989290, 0.112122738574],
       [0.048337175514, 0.101162645299, 0.135583554061, 0.127209791022,
        -0.083064997801, -0.086991070776, 0.044736314165,
        -0.104768492283, 0.036406314566, -0.040327191959, 0.112462129409,
        -0.124898586706, -0.097715450047, 0.022496293347, 0.071852670623,
        -0.076256938979, 0.003115313663, 0.019023833256, -0.103663795661,
        0.023468820730, -0.044354485012, 0.095720952116, 0.056783077833,
        0.084248996144, 0.021047664094, 0.083604867078, 0.040927621563,
        0.095579078628, 0.013931906056, -0.054590857754, 0.034152404466,
        -0.053933478761, -0.127022770425, -0.098106624522,
        -0.009809705075, -0.024487581113, -0.059596548863,
        0.012116765770, 0.078033579146, -0.056361790655, -0.043968327000,
        0.034149679645, -0.044427881723, 0.119779164497, 0.065241612966,
        -0.117545248328, -0.059481358424, -0.039650941618,
        -0.008426597293, 0.071337769859, 0.068354163622, -0.089631339726,
        -0.037545183408, -0.134465183371, -0.097929987881,
        0.131968938853, 0.085244909471, -0.105093230312, -0.109262489000,
        -0.057717243039, 0.049365698055, -0.081415930937, 0.015735864005,
        0.044176199714, 0.030969603849, 0.027586167448, 0.031472831718,
        -0.053094818449, -0.076917568629, 0.077601765011, 0.088321472099,
        -0.110611057899, 0.045716318869, 0.060797785761, -0.019738868214,
        -0.086954010203, -0.023737839059, 0.059165131540, 0.045302155347,
        -0.103764982569, 0.100640838637, -0.052582543544,
        -0.108564738336, -0.000256383838, 0.025012838833, 0.062026815667,
        -0.126795903369, 0.032966215660, 0.062022616297, 0.030875445635,
        0.075021253243, -0.053613518019, 0.050368382547, -0.082839408514,
        0.065319029503, 0.084312886041, 0.016633268326, -0.078779921480,
        -0.001216476699, -0.082922770027, 0.103686954782, 0.056018370248,
        -0.007371542509, -0.095943916447, -0.124573576484,
        0.038199735620, -0.055208188040, -0.006393064137, 0.139062086080,
        -0.023563064241, -0.029134263222, -0.106443734686,
        0.013528481819, -0.005749232559, 0.102140656686, 0.035233661913,
        -0.032785851532, 0.096716067427, 0.129104924843, -0.080742515725,
        0.013297867572, -0.048117711339, -0.080198838420, 0.071435660000,
        -0.025561385174, 0.103520546286, -0.069999412735,
        -0.002286462841, -0.081142587872, -0.050125351017,
        0.013450859912, -0.001990608451, -0.043913995322,
        -0.107914800974, 0.025205083843, 0.007635982331, -0.064843610129,
        0.017255846111, 0.017860711355, -0.097868714078, -0.068436383895,
        -0.097870011753, -0.031163369707, 0.099185040484, 0.079897947434,
        0.074810366326, -0.013412101229, -0.003345531669,
        -0.038917873065, 0.084198368542, -0.038295254922, 0.069464694282,
        -0.110297947341, -0.071558767549, -0.115183255976,
        0.120353440309, -0.084614737010, -0.017368847207, 0.007761779311,
        -0.040660474375, -0.106778176442, 0.012317318517, 0.121905157086,
        0.124905711514, -0.062368825941, 0.065404490204, 0.032079623082,
        0.022133879918, -0.042582335960, 0.062171770833, 0.063047710799,
        -0.047421097542, 0.028632075822, -0.087705298382, 0.005720610290,
        0.069686210714, -0.003399370092, 0.020512207071, -0.093564563023,
        0.126137829939, 0.086471692086, -0.017323810499, 0.067445093387,
        -0.035346066077, 0.060729114754, -0.089453352657,
        -0.016100412152, -0.057436032125, -0.005360623449,
        0.096404937609, 0.037235737631, -0.025801566110, -0.000933871804,
        -0.107556022185, -0.006695342091, -0.072413626521,
        0.027911514027, 0.041471714760, 0.075071213975, 0.034443104114],
       [-0.054589629413, -0.083399922596, 0.097037511110,
        -0.104455947832, -0.095601720621, 0.020583924567,
        -0.020062385212, 0.094913846398, -0.045757684435,
        -0.154115517085, 0.054319883819, -0.059294511705,
        -0.023620320973, 0.053118932328, -0.114037185254, 0.012397962361,
        0.062110830876, -0.094318966388, 0.056807583899, 0.007418196901,
        0.001824969965, 0.064668525663, 0.013388326582, 0.076684152809,
        -0.057142978036, -0.022310896785, 0.004668215416,
        -0.023293413347, 0.136298337986, -0.089928153526, 0.010856716557,
        -0.013352692437, 0.073947847653, -0.093105266003, 0.039354595682,
        -0.082467120004, 0.123941293555, -0.071981452987, 0.095515491013,
        -0.129481803797, -0.073417761937, 0.004568758406, 0.001718528602,
        -0.071302446674, 0.015253269776, 0.055396206419, 0.044081449056,
        0.090346310865, 0.004701356811, -0.105420724472, -0.132716439103,
        0.005814725152, -0.085010664335, -0.011822601327, 0.149950154557,
        -0.102843186581, -0.117279933808, 0.094291238970,
        -0.003964603651, 0.044231346515, 0.074250724885, 0.108762891334,
        0.094635642841, 0.125554397576, -0.032834031646, 0.014061864998,
        0.055501075234, -0.034114531458, -0.077327527374, 0.108016660518,
        0.037855513119, 0.077573115889, 0.081582986527, 0.109425175590,
        0.021192102663, -0.028368156679, -0.042314825516,
        -0.129038070450, -0.116880180774, -0.124730026696,
        -0.019540490790, -0.070416563511, -0.045315673417,
        -0.119108987010, 0.020058592780, -0.046644475748, 0.122894549666,
        0.054921599685, 0.098319776358, -0.073292848396, -0.121440881556,
        0.074943250936, -0.030127035899, -0.037698584016, 0.105417041769,
        -0.009238484298, 0.078034600635, 0.040288527765, -0.068059043297,
        0.028077600115, -0.027966665902, -0.027485451271, 0.110339536303,
        0.136133938620, 0.045775744850, 0.062355433652, 0.145682467769,
        0.031793602613, -0.057336867010, -0.039418732152,
        -0.067587820833, 0.095294675537, 0.023157602337, -0.029417898589,
        0.006156677872, 0.045347410877, -0.026121203323, 0.076317870607,
        0.047025115886, 0.062568097237, -0.080698132966, -0.077401911270,
        -0.116659712734, -0.030042323786, -0.049117432202,
        -0.048564099143, -0.087571315400, 0.032041075881, 0.109734753978,
        -0.075779838410, -0.060777248661, -0.008672085226,
        -0.125047049633, 0.127124151065, -0.027070164075, 0.008991042474,
        -0.034240100665, -0.037197902058, 0.012886749686, 0.056997731896,
        0.082188953646, 0.093694727877, 0.081035220687, 0.109069647846,
        0.121326996369, 0.069790938167, -0.096951431856, -0.122407890841,
        0.103288144424, -0.111076843969, 0.034561024054, -0.088161012029,
        -0.009549326497, 0.139707924940, -0.101382372043,
        -0.059686130624, -0.043083537961, 0.102408752322, 0.061734277363,
        0.052561065248, 0.051873695346, 0.085198259307, -0.052474181198,
        0.091338506410, -0.066333029838, -0.025895406367,
        -0.010315695841, -0.072720343325, 0.052737986400, 0.092236532287,
        0.108704142492, -0.098903773538, 0.126961699333, -0.082750087252,
        -0.063839458726, 0.000172999802, 0.066859355084, -0.108949192482,
        0.106754386715, 0.048586392577, -0.061163282751, -0.037848339712,
        0.025796091902, 0.036151910349, 0.067391148823, -0.008323079054,
        0.038401296084, 0.092410672079, -0.120136961287, -0.119267694567,
        0.070895850218, -0.043291395160, 0.031026252223, 0.028551448716,
        0.038211024889, -0.132082028187, -0.128334387223,
        -0.090253805320, -0.053771865326, -0.049594474731],
       [0.018273796943, 0.066894454311, -0.024814584986, 0.061200329662,
        0.100856839027, -0.008014673508, 0.020853117361, -0.089021658451,
        -0.059412207699, -0.041509085020, 0.092711279900, 0.004352177607,
        0.098514244326, 0.102691692510, -0.055999583291, -0.105096478105,
        -0.077148416614, -0.011762379852, -0.027320739167,
        -0.109239162879, 0.000394007292, 0.072891326213, 0.067379669273,
        -0.047738652291, 0.112241656760, 0.106938768479, -0.106204768865,
        0.003602489914, 0.004910985341, -0.043020820710, 0.095452212810,
        -0.096560535153, -0.076255661092, 0.071621751117, 0.063250616722,
        0.014564750641, -0.023164101004, -0.128892156990, 0.060693453694,
        -0.080905408852, 0.104078349001, -0.053962552439, 0.024756508888,
        -0.089060012590, -0.031458335426, 0.023832519534, 0.111705696428,
        0.037425989377, -0.037005783270, -0.010281122110, 0.005800268408,
        0.039689551798, -0.027587740095, 0.013368123525, 0.012493541355,
        -0.075441542534, -0.092411362898, 0.032687467823,
        -0.075881136531, -0.059455995783, 0.069178422377, 0.074660216685,
        0.109745591060, -0.042032442424, 0.127450141891, -0.087253963943,
        -0.049541352730, -0.103826785736, -0.008431605810,
        0.111550450388, 0.060471749617, -0.013578674694, -0.046293830584,
        -0.059151648288, 0.041060339150, 0.060717180544, -0.080394684337,
        -0.029252767399, -0.001435270512, 0.109856446960, 0.095010178274,
        0.064867343561, 0.030468179296, -0.091540857203, 0.034812281095,
        0.076992537202, -0.088434378965, 0.049712248417, 0.022157822413,
        -0.103734045728, -0.113281377238, 0.048754552215, 0.018234072561,
        0.054587370428, 0.047818347699, -0.019067428340, -0.000640071056,
        -0.012888006114, 0.078080235953, 0.059543838675, -0.018834503737,
        0.028319122499, -0.014360832947, -0.021302720592,
        -0.066278954893, 0.027238264729, 0.115374053464, 0.102390283431,
        -0.064424092294, -0.053637387850, 0.070846324994,
        -0.016183038964, -0.103146241244, 0.060432624282, 0.051663679795,
        0.026840932710, 0.043230354614, 0.106271047351, -0.028937876832,
        -0.090912817268, -0.079572241066, 0.018222078927,
        -0.021923744341, 0.043944577534, 0.084810794212, -0.081646413288,
        -0.027585886129, 0.074487670927, -0.086055666170,
        -0.079103671816, -0.013995840902, -0.037480239774,
        -0.087653960604, -0.055310987749, 0.026784734392,
        -0.004255546407, -0.032757417741, -0.027124848211,
        0.111974070261, -0.015229264006, 0.006919505605, 0.053362562453,
        -0.042558959037, -0.015218503702, 0.000843308716, 0.016145829289,
        0.050074456009, 0.102411546803, 0.028415647997, 0.125831704842,
        0.095952931927, -0.035418491390, 0.071971991114, 0.037079436077,
        0.092900232456, -0.079765817579, 0.003902469632, -0.104192243551,
        -0.003651023378, -0.061280533146, -0.101172238881,
        0.103720892458, -0.051725850471, -0.103027765196,
        -0.103686042644, -0.058231647084, 0.043437835541,
        -0.028704724704, -0.068965933785, -0.027756999415,
        -0.019200637516, -0.068123140497, -0.062498752571,
        0.124861516222, 0.007048020206, 0.034574065557, -0.009431967383,
        0.049057454636, -0.098215918229, -0.032984364430, 0.023475792401,
        0.018891314212, 0.032016899074, -0.104721858120, 0.049014025785,
        -0.069204709553, 0.024164238533, -0.085556077810, 0.060578166119,
        -0.004533383756, 0.017350325863, 0.096879231856, 0.071152695296,
        -0.076343345700, 0.018363198354, 0.116014180786, -0.040509766851,
        0.070445915982, 0.117387269293, 0.042676355009],
       [0.011830498711, -0.085933734718, -0.039367329420,
        -0.089591437919, 0.017213786402, -0.022776461063, 0.107007650476,
        0.000958981579, 0.069592965264, 0.101097057836, 0.113468790056,
        0.056472124449, -0.122136451489, 0.073937390167, 0.127245505443,
        0.043395737626, 0.012319748179, -0.108679104550, -0.021419578459,
        -0.096770635506, 0.098717835112, 0.057279765699, -0.112726268056,
        0.021909567444, 0.016954159759, 0.006583074383, -0.001152928325,
        -0.081542182352, -0.056137302088, -0.024740174330,
        0.043440099191, -0.006888887589, 0.088804495613, 0.109631326976,
        0.030092790049, 0.061738725244, 0.061488747392, 0.063926123965,
        -0.079324459549, 0.093887421873, -0.090245658265,
        -0.057703679923, 0.042169157636, 0.040351007903, -0.040215603754,
        -0.089971914254, -0.114299204570, -0.022415633863,
        0.034120935102, -0.071339876577, 0.090835779794, -0.005475620731,
        0.094980367590, 0.081294457265, -0.113318442436, -0.099970632801,
        0.051605978284, -0.017620858598, 0.126023803171, -0.043125645766,
        -0.117934059403, -0.133886529036, 0.097140552405,
        -0.009878015256, 0.027355461386, -0.066501038264,
        -0.035696011337, -0.022977466444, -0.073609902001,
        0.053236899242, 0.082445237402, 0.112540180683, 0.072829171409,
        0.039902634858, -0.103455314432, -0.112751703728,
        -0.014107914924, 0.026942765556, 0.019099291436, 0.021543431652,
        -0.092652941297, 0.064637545807, 0.014616103863, 0.128268678490,
        -0.097455153877, -0.035113695110, -0.029552982449,
        -0.105674223427, 0.073349307315, -0.021737449482, 0.109828293819,
        -0.092936498978, 0.090614796420, 0.090060040216, -0.112752262417,
        -0.117786372290, 0.003946916517, 0.017283496454, 0.067790564575,
        0.060284682572, 0.002637117971, -0.083697063462, -0.078086247321,
        0.044730062911, 0.099999705795, -0.055824262403, 0.049196762553,
        0.080936384215, 0.098582744949, -0.033573517263, 0.054908701488,
        0.091645773154, 0.107142482163, -0.122723410561, 0.122580224659,
        -0.088054214471, 0.066706216178, -0.062633706337,
        -0.096401954333, -0.092510122644, -0.046216609101,
        0.014823751612, 0.057503465524, 0.088411095538, -0.123067591566,
        0.035408030903, 0.096099840169, -0.000642832228, -0.128035331876,
        -0.056021512756, -0.122876485207, -0.092565305401,
        -0.025848293758, 0.002095456681, 0.125105685699, 0.057815396945,
        0.013257736876, -0.101883137138, 0.077555118890, 0.106689254649,
        0.070439609225, -0.022951508449, -0.051564039765,
        -0.106809098969, 0.015121461184, 0.038293890881, 0.130609000662,
        0.022806582234, -0.039694961908, -0.028043762120, 0.055770229252,
        -0.071434658755, -0.008682625477, -0.046068638361,
        0.102731351947, -0.108667703769, 0.000003141098, 0.058197756490,
        0.042446245385, 0.084938845216, 0.055322110557, -0.016256195706,
        -0.023901140344, -0.109022985063, 0.069951523906,
        -0.002396162514, 0.055934131421, 0.010228993914, -0.062926109812,
        0.007396610923, -0.092345594277, 0.001806287474, 0.099239026042,
        -0.034472934400, 0.013118331893, -0.006934108072,
        -0.056151832942, -0.072321877299, 0.114193898021, 0.084793619123,
        0.100840393925, 0.026405343339, -0.108961347092, 0.000873578696,
        -0.039313345891, -0.006713022184, 0.071028110115,
        -0.087925614428, -0.015093090624, -0.000658260213,
        0.072159979634, 0.099731970987, -0.098014598088, -0.092513796748,
        0.091608515019, 0.069603603152, 0.013988397194, 0.072833566047,
        0.103823079618, 0.019411376245],
       [0.005020287911, 0.052507361219, 0.087694907526, 0.037299519468,
        0.019678944370, 0.092144082486, -0.007807372970, 0.037447485056,
        -0.083053000282, 0.041393052374, 0.035035204142, -0.045737795938,
        0.041045026163, 0.076809400455, 0.095363509248, -0.033357138234,
        0.053540233558, 0.135794754162, -0.034757575164, 0.069011872713,
        -0.012194494181, 0.083875968853, 0.077764084186, -0.111738939646,
        -0.046558023890, -0.051489911098, 0.033468091035,
        -0.069156346598, -0.068667232572, -0.086883411799,
        0.065297639125, 0.067229423710, 0.127358912424, -0.043001505960,
        0.042552874927, 0.084107310484, -0.022874368013, -0.074842409198,
        -0.054647264712, -0.085861029532, 0.115570144290, 0.055852878473,
        -0.016579211729, -0.116829379241, -0.104499159085,
        0.072180640034, -0.060050966199, 0.102185423292, 0.002895757736,
        0.065838010279, 0.058110190170, -0.016081890530, 0.021095269739,
        0.067864160175, -0.073721629890, 0.113940075768, 0.105240854035,
        0.031427961364, -0.035379541400, 0.050613654912, -0.087313821330,
        0.107536670462, 0.111706763574, -0.031926825648, -0.096083307913,
        0.126992562961, 0.047647483749, 0.029432658938, -0.111906056794,
        -0.042662018712, -0.000908906422, -0.122391639219,
        0.030186238810, 0.020398827588, -0.037634368439, -0.114249976615,
        -0.040586862569, 0.073156505328, 0.030212043776, -0.067430456797,
        -0.019044248651, -0.004563080061, -0.015962358599,
        -0.104250131250, 0.094380225418, 0.045819064026, -0.026299063608,
        -0.049725466013, -0.118943045401, 0.087819622926,
        -0.032630817202, 0.077591552272, 0.062477003949, -0.096780318128,
        0.075242895392, 0.100496492216, -0.018406225727, 0.030273012093,
        -0.043645360732, -0.011509767910, 0.017790447757,
        -0.111541009505, 0.100265205529, -0.098185848639, 0.023449614773,
        0.029906036019, 0.111858205718, -0.071042011890, 0.038355340063,
        0.042734099135, 0.101233313617, 0.054530999145, -0.057313157631,
        0.098019727758, 0.009664365442, 0.007721321806, -0.119800709315,
        0.000163171936, 0.025911290597, -0.106893349900, -0.060845898686,
        0.056833299153, -0.025554773435, 0.103857379050, 0.043101557779,
        -0.011740392995, -0.106295913629, 0.053492319374, 0.084976452445,
        0.020107951035, -0.014992897463, 0.069177474160, -0.069410933502,
        0.087931645698, 0.065967097148, -0.112649902053, 0.019484859494,
        0.072832299168, 0.084137009346, 0.059536026991, -0.113067964079,
        0.046527469673, 0.085288624776, 0.081141709791, -0.014434856789,
        -0.094102236637, 0.046693337856, -0.006157385626,
        -0.120553255575, 0.027667021307, 0.108379963099, -0.123400960235,
        -0.109287036931, -0.111118983830, -0.006838165505,
        -0.036517659377, -0.090208959321, -0.054085571806,
        0.117826993976, 0.001295708382, -0.090746636858, -0.065314984408,
        0.109368467393, -0.094147398858, -0.058806739322,
        -0.132960084379, 0.081014710954, -0.079409054695, 0.128016521297,
        -0.069310183039, 0.037808413702, 0.059120105375, -0.004113487494,
        -0.081429322517, 0.093968410855, 0.030067038162, 0.059166294192,
        0.056784571117, 0.052463087300, -0.110585604977, -0.008172109728,
        0.095164221156, -0.091797610112, 0.020741119341, -0.080626504884,
        -0.085685098869, -0.106841771289, 0.103061636199,
        -0.088214130053, 0.005853883902, 0.014088859209, 0.003319737022,
        -0.079022103060, -0.085706562037, -0.126683018780,
        0.081413683148, -0.069610196181, 0.005325010994, 0.074228501303,
        -0.055195296583],
       [-0.067394063245, -0.066201791578, 0.116977640225,
        -0.042863537363, 0.062711365704, 0.034504670428, 0.083343590108,
        0.060641098070, 0.022503159283, 0.065157426438, 0.040175599756,
        0.122083518557, -0.084831674945, 0.096585265283, -0.081715823223,
        0.077074207808, -0.009780657066, 0.043178734999, 0.032187947834,
        0.127952153142, 0.106594128625, -0.004269785276, 0.000739663295,
        0.057242803566, -0.010234631285, 0.063124525997, -0.054224693920,
        -0.026908753391, -0.013987713489, 0.032545133315, 0.116738171102,
        0.064762016768, -0.039312386099, -0.086272551779,
        -0.017470473761, 0.007201863388, 0.054881994632, 0.002134316150,
        0.116588235989, -0.002241388474, 0.015296273233, 0.108909197924,
        0.063656983147, 0.106284310406, 0.114411989333, 0.005245002727,
        0.065057227733, 0.050373077592, 0.038471561239, 0.040509856254,
        0.071480509080, -0.009542452622, -0.054774255234,
        -0.101225336349, -0.030221504070, 0.082930713924,
        -0.024686952514, -0.026995151451, 0.038610789504, 0.103382634674,
        -0.085674183202, -0.105723307152, -0.106012093029,
        -0.038243276913, 0.016278019981, 0.039329885842, -0.085835100502,
        -0.016558501885, -0.091536017946, -0.059306914100,
        -0.026359290977, -0.049402159558, 0.026886809961,
        -0.043612302267, -0.058139210769, 0.054832906402,
        -0.069186449408, -0.062403748404, 0.046483486933,
        -0.042753574908, 0.064819808598, 0.043160517327, -0.120970756020,
        0.095732314321, 0.004669400870, 0.011344117359, -0.077201968913,
        -0.059097192981, 0.033903374350, 0.100753790768, 0.103007232093,
        -0.089715135417, 0.064400582113, -0.045618200944, 0.020383354745,
        0.062684987681, -0.049892525862, 0.012688697220, -0.131242283666,
        0.095701182663, -0.114633257445, -0.100562586994,
        -0.072572759810, 0.015537151716, 0.005036176018, 0.036176793956,
        0.043572885674, -0.118038653191, -0.029352580496,
        -0.011297730780, -0.051045979427, 0.111542817946, 0.100542669287,
        0.004089129474, -0.031432313812, -0.021813613680,
        -0.016426030749, -0.086131552096, -0.052064857736,
        -0.106868817804, 0.034084961700, -0.097494825948,
        -0.081989290205, 0.010234556495, 0.131618583647, -0.069070876224,
        0.029125556309, -0.004600956981, -0.080286541922,
        -0.073014132696, 0.058040882768, -0.019066894715,
        -0.114207701178, -0.059206106246, -0.039131473810,
        0.064477004161, 0.087053498472, -0.066731650835, -0.111063309385,
        -0.041332128539, 0.023177949124, 0.082261535626, -0.039267004149,
        -0.095007508699, 0.102118252790, -0.003611905422,
        -0.075787318903, -0.002255359369, 0.025521311633,
        -0.112874169796, -0.069357724517, -0.095008496858,
        0.066651784909, 0.014366218320, -0.023947600200, -0.016450470720,
        -0.083657447008, 0.003847296788, -0.073073373358, 0.125343143618,
        -0.068350343592, -0.060965759869, 0.017636306920, 0.017439298521,
        -0.090768056759, 0.116868654700, -0.033315916574,
        -0.069091066548, -0.070120161533, 0.112861637549, 0.056545292250,
        -0.055872350411, -0.110794050065, -0.040707117965,
        0.130830569193, -0.033226120128, -0.052833063740,
        -0.073057803995, 0.127219927936, -0.104118389410,
        -0.026476805789, 0.098652520369, 0.090828073032, -0.064131572813,
        0.104932617187, 0.124263123915, -0.029914165493, 0.086022860148,
        0.066127984413, 0.073300068589, 0.111760724131, 0.080595095716,
        -0.049244221983, -0.067320636985, -0.003003772763,
        0.035719443674, 0.051178674760, 0.070980950347, 0.056329139413,
        -0.077910189832],
       [-0.062324787479, 0.040431268604, -0.005597106660,
        -0.035526371669, 0.109537610327, -0.119177892655,
        -0.127140569415, 0.098155994166, -0.033616682523, 0.080527563034,
        -0.099505676041, 0.014492279505, -0.082686698867,
        -0.006052737666, -0.058038163384, -0.018189235475,
        -0.015974642015, 0.028519545838, 0.041467332512, -0.018536391841,
        -0.033188008438, -0.124919817911, -0.053384510815,
        -0.020890634560, 0.106817127671, -0.075095209382, 0.079907895537,
        -0.120074548939, 0.025188892114, -0.051443407841, 0.007891802671,
        -0.011881594057, -0.104182908466, -0.131361296166,
        0.082626133441, 0.048557503480, 0.029158684355, 0.036784211673,
        -0.077803401546, -0.002786640569, 0.066529665102, 0.033122502119,
        0.008422308665, -0.042703689213, -0.094109389394,
        -0.102691564536, -0.015741554354, -0.037340071457,
        -0.143625482282, 0.050186255347, -0.032502149620, 0.030155949864,
        -0.104622001463, 0.045652887556, 0.088839926396, 0.005281547476,
        0.025864453787, 0.046553149472, 0.113722102906, -0.015506958155,
        -0.122192783185, -0.112257853973, 0.012533395215, 0.081298126490,
        0.090584936438, 0.059480108317, 0.058878124893, -0.111492495043,
        0.109462978980, -0.013644781546, -0.031266720544,
        -0.040106115135, -0.053901520799, -0.006831135834,
        0.095921647096, 0.043866549297, -0.066060599173, 0.045356855716,
        -0.075490041619, 0.009874431192, -0.021630958709,
        -0.011500827005, -0.107939841208, 0.021040429238,
        -0.077880200832, 0.080092675347, 0.057575375973, 0.120980454011,
        -0.075673183759, -0.028452475157, -0.094752902223,
        -0.075341413275, 0.092140008831, -0.061755961254, 0.063702878274,
        0.044232632357, 0.083636667754, -0.107818802041, -0.095686074950,
        -0.005176127326, 0.014502733839, -0.008382779758,
        -0.083790967767, -0.119820608288, 0.037437773362,
        -0.041303332262, -0.074081335124, 0.016574031117,
        -0.021496481318, -0.086969170204, 0.011301743076,
        -0.025153384461, -0.022528156145, 0.059877776142, 0.005508119368,
        -0.036823794301, -0.089655147149, 0.101995328596,
        -0.103306154093, 0.002519983338, 0.069689315044, -0.024612112118,
        -0.011544331683, 0.078724623247, -0.057381080541,
        -0.051428943450, -0.019073258667, -0.104546428812,
        -0.006389803511, 0.118158849703, 0.030395536080, 0.056530663690,
        -0.066587871917, 0.046574896745, -0.003556588308,
        -0.047266983107, -0.066139441541, -0.060050662018,
        -0.026623612026, -0.055795225374, -0.062540077820,
        0.032410414848, -0.060055387664, 0.083814998618, -0.048180709239,
        -0.086016359272, -0.091968580071, 0.100033229823, 0.016090270591,
        0.041951460212, 0.092011173651, -0.009664437866, -0.052534593793,
        0.074184116060, -0.034121070161, 0.029534239496, -0.019017726471,
        -0.070898237538, -0.063447971405, -0.002365380767,
        -0.043154696061, -0.039555583945, 0.013864655024,
        -0.051310271680, 0.093814824284, -0.088438793480,
        -0.065109923699, -0.137819187548, 0.107105107501, 0.075852749900,
        -0.095353891637, -0.019208247952, 0.036394465336,
        -0.091810885215, -0.132784332087, 0.100900510121,
        -0.084040338509, -0.025320678700, -0.034687670434,
        -0.022546570809, -0.101713489317, 0.038764494386,
        -0.051821265506, -0.061848585088, -0.081978786123,
        -0.048820125960, -0.026134248470, -0.064037182817,
        0.060161932184, 0.029612542064, -0.056763966794, 0.039304010847,
        -0.119225525036, 0.067498477159, 0.111378438226, 0.126288195429,
        -0.018719275434, 0.126913612146, 0.001914316229, 0.072105315953],
       [0.025487214206, -0.072019693287, 0.098948293822, -0.033989358733,
        0.083672730466, 0.080714093864, 0.040328699475, 0.067209036887,
        -0.012871394820, 0.053173940420, -0.098428307170,
        -0.037814184925, 0.021229094330, -0.007720923573,
        -0.024787913019, -0.103217257416, -0.094228387430,
        0.003832857156, 0.000246901007, -0.083983260079, -0.099669916258,
        0.029769682418, -0.089614662907, 0.113284919797, -0.045053724117,
        -0.088684363083, 0.073289629992, -0.093756456223, 0.019575838988,
        0.081577542150, 0.078378885984, 0.093728695023, 0.109716215350,
        0.045018640815, -0.092168175310, 0.045685291043, 0.102474420750,
        0.086937261809, 0.018787993477, 0.022984676455, -0.002342109711,
        -0.020421824509, -0.111815041071, -0.089920734903,
        -0.052702277563, 0.077672309424, 0.099631296706, -0.111754608640,
        0.014102638660, -0.053175154545, -0.084254028180, 0.059190336902,
        -0.049059629356, 0.056465504342, -0.032065763106,
        -0.050752062241, -0.041382480347, -0.002724955600,
        -0.118222727146, 0.105859725229, -0.023445675382, 0.134098604642,
        -0.065447786197, -0.066246215940, -0.060210213139,
        -0.019836041529, -0.112278841811, 0.040166768019, 0.058516524078,
        0.084589733318, -0.108066270149, -0.035977007181,
        -0.006757698157, -0.006359858946, -0.014595086443,
        0.075750056019, 0.037827476142, -0.113153275182, 0.001359815579,
        -0.063197533276, -0.097432875971, -0.065227049093,
        -0.052157395055, 0.102723710562, 0.031529485094, 0.034091503851,
        -0.123893331463, 0.052457662289, -0.007881678070,
        -0.013393187060, 0.020578167764, -0.080240076451,
        -0.003877809279, 0.110109869645, 0.099404633724, 0.088943124264,
        0.126647044246, 0.068596376581, -0.001337671007, 0.017144441496,
        -0.056838795125, -0.065164799227, 0.029880307235, 0.088133453583,
        -0.093034953372, -0.021481565840, 0.028083780624, 0.027499660872,
        0.028831876087, -0.039434205011, 0.028493015687, 0.012107274633,
        -0.066927418636, 0.010341273267, 0.097213280805, -0.080953794582,
        -0.022605518634, -0.077945974284, 0.102774670254,
        -0.054761238376, 0.107374284624, -0.020251558555, 0.051980046627,
        0.052591919564, -0.082191844298, 0.038795998923, -0.019676068965,
        0.102435512467, -0.068040293195, -0.063460040339, 0.061726529429,
        -0.014768107290, 0.017338153941, -0.088906297496,
        -0.011864041089, 0.081513174004, 0.055119899252, 0.006241991859,
        -0.111990018701, -0.001212475368, 0.024443451336, 0.091499585904,
        -0.042143235332, 0.046533858358, -0.015712832341,
        -0.022570253425, 0.082148634380, 0.099535438272, -0.074310837904,
        0.085853570242, -0.039394276095, 0.090970408473, -0.067898499248,
        -0.099641082860, 0.075599033408, 0.040482470077, 0.091288666465,
        -0.072477903525, 0.068706355952, -0.097736022155, 0.091172337151,
        -0.006505379156, 0.104437840409, -0.048741020515, 0.052019692132,
        0.097314432972, -0.004244191883, -0.016502712754, 0.069071556003,
        0.117748107166, -0.107322724013, -0.065428669600, 0.109632401786,
        -0.097607848763, 0.113036882623, -0.047237401067, 0.028569564269,
        0.044136973632, 0.076087828209, 0.032210560777, 0.117472857141,
        -0.111543520305, -0.050893034447, -0.068674535741,
        -0.046455134812, 0.026011521336, 0.069704892362, 0.096541183007,
        0.027092780333, 0.002163790141, 0.093525840832, 0.047663854319,
        0.008137218774, 0.016852134628, -0.051013859053, 0.083742177806,
        0.086410776792, -0.078873931266, 0.050856505400, -0.074280140914],
       [0.129683279754, -0.057503352240, 0.077758019122, -0.087611671000,
        -0.055036450140, 0.079534695087, -0.008456090437,
        -0.122712187841, -0.046141308896, 0.095266732294,
        -0.110752058809, 0.013453811125, -0.061602852444,
        -0.069874370577, -0.043448745956, -0.070194674195,
        0.099559646461, 0.129020203188, 0.017820554642, -0.140901124423,
        0.006071379042, -0.126256124991, 0.111914186957, -0.093380681307,
        0.130235185537, 0.028787544151, -0.051875656103, -0.053157461491,
        -0.055903778061, 0.001965134251, 0.083611142265, 0.062737261391,
        -0.007544448737, -0.046656599449, -0.099958091294,
        0.005438741841, 0.010529313734, -0.002514134293, -0.059583667891,
        0.080529071778, -0.072027447520, 0.023199054595, -0.059952877412,
        0.001920129330, 0.037985603382, 0.114686265859, -0.126939529140,
        -0.025785843142, -0.088373552741, 0.142235361483, 0.065820778372,
        0.104044077176, 0.049113267869, -0.010021431595, -0.033002583241,
        0.024930454441, 0.011193028727, -0.109976363139, 0.049505675344,
        0.021280892793, -0.079426826581, -0.006367867142,
        -0.082770447580, 0.115392332174, 0.070332321396, -0.023645084036,
        0.109709806666, 0.069916380195, -0.025353687606, -0.069835066992,
        0.020912635860, -0.085192467717, -0.001018600638, 0.070288187337,
        -0.018744586793, 0.094325551221, 0.101685129029, 0.040631346221,
        -0.101378087486, -0.017117756517, -0.069597490166,
        -0.058502684085, 0.023459558556, -0.065283767405,
        -0.033457904054, -0.003426629949, 0.058747440147, 0.023076976602,
        0.060225609402, 0.076852945282, 0.053343408398, -0.078621562705,
        -0.076452393547, -0.048555897359, 0.037957316955, 0.089212727359,
        0.001108543994, -0.088960477000, 0.048003105565, -0.051549855266,
        0.043149471135, 0.109694497300, -0.042606165732, 0.044901581771,
        -0.056797781892, -0.143158871755, -0.110840677919,
        0.024830181484, 0.107736125147, -0.017291381812, 0.039238025490,
        0.076542961246, -0.019418251994, -0.041595186288,
        -0.079129419073, -0.056742221012, -0.118612070883,
        -0.083107566522, 0.071249465121, 0.040988309610, 0.066237985409,
        0.023421201395, -0.095721908558, -0.081821382780,
        -0.071772671251, 0.091087972023, -0.044435144164,
        -0.084229304547, 0.079349967699, 0.037312093199, -0.079889029407,
        -0.012560071381, -0.100240962873, 0.079315745745, 0.067294437175,
        -0.080751883004, 0.010884624017, -0.045023358810, 0.058896253019,
        -0.051513786378, -0.022570071794, 0.129432143377, 0.019197983484,
        0.108859096460, -0.107980227396, 0.018148268397, -0.007399574657,
        0.027400675916, -0.036111267028, -0.077271261739, 0.027887557822,
        -0.053605479798, 0.087792718723, 0.052841589550, -0.022239128968,
        -0.097818255589, 0.072579284332, 0.082553829390, 0.036133995039,
        0.072004481504, 0.074174588917, 0.130810834226, -0.071937364580,
        0.031564312932, 0.105096057832, 0.017547431227, 0.049347838595,
        0.045320052615, 0.001986280440, 0.036418443019, -0.035505807641,
        0.099193056363, 0.102136340559, 0.057672527854, -0.023435536336,
        0.053587615500, -0.076786529030, -0.054246054352, 0.019121143320,
        0.015517154597, 0.120276391996, 0.036861246015, -0.085592025495,
        0.019796991011, -0.052776152231, 0.011325361176, -0.100049767974,
        0.089772093583, -0.064430213417, 0.049527667463, 0.079684521123,
        -0.023231388949, -0.075935746867, 0.000002458098,
        -0.059770317240, 0.062509046515, -0.115566901048, 0.040480325607,
        0.092710843642, -0.051037535270],
       [-0.016513291468, -0.088981179013, -0.011065520579,
        -0.066151517743, 0.082206456173, -0.049765138330,
        -0.042688671475, -0.089762889296, -0.106742966915,
        0.078809716188, 0.041152659711, 0.093887435720, -0.090371236847,
        0.050642862874, 0.031515186947, 0.012727525817, 0.023858500532,
        0.102290675535, 0.072835843636, 0.051586444565, 0.030806632409,
        -0.108713201329, 0.029900906251, 0.118196976610, -0.007521254247,
        -0.111380468115, 0.053388776128, 0.080379856299, 0.054597197196,
        0.056407855501, -0.057511341738, 0.013586887169, -0.033012013379,
        0.093487180823, -0.089040798722, -0.045323063083,
        -0.125004421064, -0.063946131987, 0.009795199257, 0.043635161144,
        0.143780122355, -0.097779862974, -0.069418405482,
        -0.004137762471, 0.133855763095, 0.036713121428, 0.035843996054,
        -0.121340166797, 0.114761449954, -0.108389100400,
        -0.000723654819, -0.131233883225, -0.020696768243,
        -0.113291426079, -0.104362721003, -0.092621689210,
        -0.041489256626, -0.064684114306, -0.072718747085,
        -0.091256406807, 0.095676553229, -0.090664447125,
        -0.112512182745, -0.011930386834, 0.005404570181,
        -0.088173075128, 0.083457335183, -0.084918749076, 0.007036587336,
        -0.051468712446, -0.013968654472, -0.105363403937,
        0.090866157917, -0.046015485116, -0.121688161826, 0.089724047064,
        0.112044921703, 0.029494261407, 0.066407700328, 0.062847394263,
        0.131328601730, 0.069814135082, -0.004709777204, -0.125074586021,
        -0.064840000415, 0.063419266341, 0.103647447301, -0.026686111237,
        0.013880721003, -0.043320209138, 0.051242160998, -0.124122606384,
        -0.030276263475, -0.132274645832, -0.000567770548,
        -0.086389448827, -0.053826867649, -0.018679404166,
        0.075897018995, -0.009450455512, 0.061540778826, 0.012840520002,
        0.067317527399, 0.031146289044, -0.101536281019, -0.111654045069,
        0.000039608412, -0.025037124089, 0.035452712080, -0.116778119712,
        0.048842864889, -0.022180959346, 0.022346268446, -0.087968453082,
        -0.056427876887, -0.088298484032, 0.046302984493,
        -0.111735254952, 0.108142584281, -0.098437956396, 0.085866243157,
        -0.036705348368, 0.036646277046, 0.060010242638, -0.068664085900,
        0.082126877102, 0.106065640555, 0.012584769236, -0.010043738081,
        -0.063100458935, 0.021075941554, 0.095762381676, 0.106681180400,
        0.035466097700, 0.064227470427, -0.055643160014, -0.055776310906,
        0.055062990550, -0.112118917627, -0.057470062524,
        -0.043362461222, -0.114375801431, -0.055746724103,
        -0.085251384819, 0.054571818034, -0.015640308455,
        -0.070040816398, -0.040504423307, 0.029252770979,
        -0.081335694296, -0.134228710839, 0.032862001009,
        -0.009518465823, -0.023309837322, -0.007784593031,
        0.135212321315, -0.001956712766, -0.087803768129,
        -0.066672990069, 0.093965590887, 0.027837916816, -0.024059830348,
        0.016432276860, -0.086245762833, -0.031574141950,
        -0.001542021477, 0.011443668600, -0.044805350682,
        -0.095435099097, 0.092391019717, -0.018142659396, 0.035528644350,
        0.111926886378, 0.111739915103, 0.008442327810, -0.053120025720,
        0.069048652879, 0.058038696997, -0.112648000394, 0.096879533755,
        0.092209559383, 0.009891833122, -0.031643914581, 0.071727139004,
        -0.004471143102, -0.020235927796, -0.005335490535,
        -0.018418763284, 0.011408250519, -0.119832706985, 0.033346404328,
        0.059529443945, -0.011721976854, 0.091040793727, 0.064960467795,
        0.033973346422, -0.132237966181, 0.026450366697, 0.025903887674,
        -0.097535272695],
       [0.092473090825, -0.109098419886, -0.003501105051, 0.084232591521,
        -0.050066184315, 0.059520983746, 0.106422983624, 0.010147935866,
        -0.018744251548, 0.085825588894, -0.033710265243, 0.112653035608,
        -0.090431823871, -0.009598242019, 0.026851393778, 0.107560355840,
        0.047610106878, 0.048773055082, 0.092269548462, -0.092512801097,
        -0.031637102616, -0.096608438795, -0.049072391414,
        -0.041126950679, 0.077608535711, -0.085004942411, 0.061206377379,
        -0.042515675520, 0.143913221780, -0.020759657672, 0.033012557551,
        0.017568110844, -0.051202982674, 0.029072242768, 0.025086044334,
        0.062871476543, 0.000784301141, -0.151295966276, 0.059657904686,
        -0.019307366559, 0.129351935801, -0.035851301282,
        -0.061013019286, -0.058188197826, -0.024294430236,
        -0.112737229725, 0.054287754824, -0.094374445998,
        -0.032133449049, 0.063861370842, 0.049575738138, 0.079532336990,
        0.083153335160, 0.040659097782, 0.071929077287, 0.020873008286,
        0.063648149581, 0.013644230409, -0.004686516361, 0.056020518045,
        0.087600213607, -0.009002926929, -0.095614544862, 0.038490546927,
        0.069848938103, -0.084644580925, -0.058966901504,
        -0.079895915304, 0.076150017777, 0.001577511692, 0.116003314272,
        -0.110922260784, 0.115980053318, -0.044934409212,
        -0.033577529090, 0.053860628798, 0.094476733642, 0.077454919165,
        0.062967284039, -0.028616099844, 0.046104591802, -0.038340722245,
        -0.087498466276, -0.047977181615, 0.137408103165, 0.006636241456,
        0.008091062739, -0.033182497646, -0.042876331848, 0.045036870954,
        -0.023812668414, -0.077808631394, 0.056839687760, 0.100863682743,
        0.102638519517, 0.009521820619, 0.073586251444, 0.129295214129,
        -0.025638339905, 0.100215197320, -0.054225974303, 0.120879283033,
        -0.096285130081, 0.022451309945, 0.041931046549, -0.037668423981,
        0.075859207316, 0.049618063393, -0.018809285605, -0.090236195767,
        0.054788966660, -0.040355224121, -0.006104303741, 0.077296702028,
        0.080302460635, 0.064797041170, -0.013528695274, -0.055787563144,
        0.009686616974, 0.069637036082, -0.068987894103, 0.039273588389,
        -0.054150953799, -0.111596615018, 0.007463436575,
        -0.015398575309, 0.039108319557, 0.126955877549, 0.114206450789,
        0.051052347247, 0.069369932386, 0.028310050385, -0.061708529599,
        -0.110356201497, 0.048940129076, 0.005385083822, 0.040736433044,
        0.016741692147, -0.025748573029, 0.058085188709, -0.078231987172,
        -0.066924961209, -0.028232897580, -0.036672778956,
        -0.009914678814, -0.002610291548, -0.070143796129,
        -0.033433917530, -0.050002882337, 0.056017592139, 0.075204899612,
        0.070973810995, 0.034696430835, 0.019177553880, -0.048940930467,
        -0.011704297505, -0.041606875579, 0.093876522737,
        -0.044927816279, 0.114281189515, 0.120171627545, -0.043693934332,
        -0.122008976618, 0.006978753780, -0.084065055298, 0.069243920303,
        0.045047774709, -0.043490434943, 0.060768474156, -0.013492032856,
        -0.062277793232, 0.010293067719, 0.007845156814, 0.078725971341,
        -0.071877630421, -0.116237915132, -0.086364354142,
        -0.046177999717, -0.051104169122, 0.006906959922,
        -0.083750372441, 0.078360637387, 0.090707338805, -0.104109635275,
        -0.005676593415, 0.099984985689, -0.006656493789,
        -0.037358263718, -0.012082183303, -0.077945679222,
        -0.088164488843, 0.050131062697, -0.037149969933,
        -0.024004353321, -0.117546342449, 0.118148296844, 0.082777775259,
        0.128086418832, 0.038162238547, -0.061112627458],
       [0.052347012964, -0.006289468803, 0.013779882078, -0.008415989245,
        -0.036364121464, 0.115340367421, 0.048234147602, -0.103948134747,
        0.025543921880, -0.059557276083, -0.030451661133, 0.068286342448,
        0.049264004198, -0.033719368591, 0.052159724307, -0.063148601504,
        0.040132373767, 0.083844248996, 0.066089846066, 0.030423789677,
        -0.097349900866, -0.030526548076, -0.034722955258,
        -0.013387599465, -0.083851902668, -0.002605880475,
        0.069758271941, -0.108233553244, 0.031500880453, -0.071530880423,
        0.117954901956, -0.041050880789, 0.001600799946, 0.067540796296,
        0.031312779601, 0.082011358381, -0.018871188233, 0.085224904913,
        -0.000742829276, -0.003330800751, 0.070666614579, 0.067458515521,
        -0.038093292846, 0.090938786228, 0.066857726843, 0.050648699210,
        0.004363757490, 0.106844592918, -0.083796768571, -0.032615664870,
        -0.025066802623, 0.087856754625, 0.006992832215, 0.085231495720,
        -0.101520345916, 0.065317593161, 0.062795368669, -0.101310636172,
        0.120566699765, 0.025036389745, -0.005906898347, 0.007426168260,
        -0.016641543857, -0.098102911605, -0.094116829120,
        0.005291381450, 0.041814643243, 0.035578155663, 0.051736325874,
        0.106388285568, -0.076392312757, -0.062468361965,
        -0.091452335815, -0.008067499205, -0.093125503015,
        0.069240071630, -0.001564703004, 0.031240526147, -0.053458931095,
        -0.114474753477, -0.138740404208, -0.014781020066,
        0.008577477036, -0.035126412137, -0.133934177907, 0.081995034463,
        0.021078088673, 0.025091749735, 0.059719529601, 0.033022182739,
        -0.065460567313, 0.017221285253, 0.076128485583, 0.089350190609,
        -0.131387520011, -0.100613039674, 0.035610109980,
        -0.068845003488, 0.055182654952, 0.098675429073, 0.073890988335,
        0.014087034075, 0.094542963589, -0.103069892233, -0.117885648803,
        0.073172505908, 0.007116406114, -0.036909176571, -0.112921722581,
        -0.031455717830, -0.121303797415, 0.056192204036, 0.133907810283,
        -0.071058183477, -0.051852976621, -0.089283787315,
        -0.062967704436, 0.002843436771, 0.113070780738, 0.051577200859,
        0.009457582948, 0.121701351094, -0.030728054960, 0.040270578480,
        0.084993506649, -0.049708049510, -0.082095162092, 0.133406897374,
        0.068853031446, 0.013487825063, -0.095879629376, -0.093043312277,
        0.054094194748, -0.108933211958, -0.008795596646,
        -0.082923395064, -0.102689304256, -0.126186297561,
        -0.100633963986, 0.035236006681, -0.078317293708, 0.087951532138,
        0.016485284209, 0.073588610372, -0.012071514378, 0.022368917352,
        0.091630221531, 0.021678277722, -0.052384212363, -0.110112123750,
        0.007912794884, 0.036760271769, 0.026194875802, -0.044423086569,
        0.057903541647, 0.032881770549, 0.079308970762, -0.074066116943,
        0.080642876635, 0.015572942993, -0.107199628240, 0.071101031177,
        -0.009646180595, -0.111140481589, -0.082267887155,
        -0.016094557041, 0.046543191251, -0.125609928955, 0.072030813739,
        0.101509848249, 0.056994783689, -0.092336559005, 0.049081747641,
        0.053348882813, 0.099923133217, 0.074456131798, 0.049482199092,
        -0.103633460397, -0.092419957035, -0.058788372425,
        0.111792020628, -0.046962177282, 0.059352452926, -0.025119195630,
        0.017963721750, -0.022500969468, 0.060056105557, 0.036147301213,
        -0.065157692133, -0.032049594174, 0.069394274662,
        -0.030041037173, -0.061643611678, 0.025202122074, 0.004294678765,
        -0.106471957674, -0.013916035054, -0.023110578055,
        -0.003978067209, -0.002456262701],
       [0.127652581903, -0.114547004093, 0.130945800064, 0.023021130708,
        0.153855100087, -0.106662503690, -0.025122374307, 0.092460472115,
        -0.115509799309, 0.027037393795, 0.018103216873, 0.030460909039,
        0.007647405472, -0.008953793245, -0.061850952656,
        -0.100192994211, 0.000812610988, -0.103648624547,
        -0.076050930806, 0.067336496356, -0.070845882746,
        -0.058044325835, 0.047126467385, -0.112394743341, 0.056383398625,
        0.079186373305, -0.003301371623, -0.077478100854,
        -0.082183461515, -0.086308690478, 0.088129653690,
        -0.115338398542, -0.093249621915, -0.004437941884,
        -0.122108865053, 0.117733954854, -0.162165482281, 0.137904924351,
        0.108346580739, -0.053126309476, 0.069536150158, 0.058470035162,
        -0.092800993650, -0.061888033928, -0.090525671210,
        0.017760614728, -0.023672632297, -0.015142865637,
        -0.123355779046, 0.012936012011, -0.042484191723, 0.063264200115,
        0.126593713055, -0.108309091965, 0.082241745783, -0.030633413762,
        -0.017096887018, -0.065154267408, 0.077037396710, 0.074996055416,
        0.047884934734, 0.050559176085, -0.012929615596, 0.069431376549,
        -0.019163957024, 0.108084123423, 0.084405646606, -0.047148339797,
        0.091224879121, 0.053698872099, -0.072282751910, -0.077567825390,
        0.066309173436, 0.017617489565, 0.058589092999, -0.098375435847,
        -0.066209199871, -0.039337827765, -0.142904835338,
        -0.110866362493, -0.014836803231, 0.027776523220,
        -0.123283749263, 0.044297588436, -0.123176876347,
        -0.041099561361, -0.083196031536, -0.065614906197,
        -0.098614470735, -0.021661732646, 0.006037600675,
        -0.115893750649, -0.115155697800, 0.075442281998, 0.024398678506,
        -0.108360524121, 0.047487558781, 0.016931304958, 0.046148868339,
        0.005098886460, 0.046063147682, 0.091544344894, 0.009097938212,
        -0.039598254736, -0.092425200189, 0.133323196108,
        -0.092299717505, 0.069287226314, -0.081757443560, 0.077288746373,
        0.034521400329, -0.052550948780, 0.017785711679, -0.100505640502,
        0.106137201112, 0.050401617010, -0.119640044158, -0.048001563407,
        -0.027430717667, -0.015239013938, 0.013041552029,
        -0.034767509186, -0.004888164715, 0.067989793042, 0.124631157735,
        -0.012800665707, 0.072383652961, 0.036503951855, 0.040078744017,
        0.074889238342, 0.033429350092, -0.078224668551, -0.124282990350,
        0.045781699429, 0.042389659364, 0.124171744861, -0.059989127517,
        -0.017378125504, -0.062729302103, 0.014116784898,
        -0.000317121142, 0.089348711082, -0.034507652258, 0.042125320773,
        0.077725162487, -0.040021880888, 0.118081661514, -0.057497264979,
        -0.123172223351, 0.128176037010, 0.091948320255, 0.025504940431,
        0.116717857983, 0.013510081105, -0.037665233724, -0.093514350283,
        -0.072955725038, -0.109257771625, 0.066071017384,
        -0.021276237253, -0.024218394594, 0.073692580936,
        -0.083139211933, -0.078737952028, -0.056775263140,
        0.080386270481, -0.042256013175, 0.014852508346, -0.130101851565,
        0.000045545961, -0.063642726203, -0.006656401078,
        -0.041991684762, 0.057709221484, 0.043423266101, 0.014344575382,
        -0.076496246257, -0.008611432296, 0.096552290804, 0.010102931965,
        0.088570589828, 0.047243258337, -0.073869821670, 0.056385214550,
        0.041175021094, 0.029804939321, -0.019791843115, -0.061267746434,
        -0.138046134073, -0.048349096123, -0.156689169137,
        -0.000655503062, -0.002643162463, 0.043531755955, 0.044796773327,
        -0.112847284223, -0.039734695508, -0.060554471304,
        -0.026493660341, 0.074805154964],
       [0.013624886815, 0.097958136549, 0.060952646242, -0.062516079242,
        -0.105726611887, 0.091250079136, 0.067077218732, 0.057074161884,
        -0.081059544516, -0.066925553960, 0.077284137575,
        -0.116444214026, 0.018689291836, 0.043668113154, 0.058041283108,
        -0.065788437507, 0.109152396913, -0.127360099845,
        -0.000064523396, -0.113260895045, -0.093471279705,
        -0.050654006024, -0.023002054244, -0.056923415349,
        0.095489576676, -0.024325311869, -0.035328176238, 0.136462356396,
        -0.043963248051, 0.018238332604, -0.106786799427,
        -0.075940509475, -0.072904200441, 0.137111957404, 0.088152150502,
        0.064119685523, 0.027430944032, 0.063173114884, 0.094092501434,
        -0.094061238902, -0.040275179721, 0.047192032957, 0.095132853868,
        -0.006997397128, 0.105386329711, 0.026262893571, -0.118229719418,
        0.103658575885, -0.114923000945, 0.117017494727, 0.025119737597,
        0.061083841991, 0.070660841642, 0.010604837991, -0.007143338185,
        0.097225678207, 0.110328435178, -0.014837949865, -0.025495805015,
        -0.092103145150, 0.103036512132, 0.062288004342, -0.045037988311,
        -0.041222450856, 0.107044659671, 0.114565432011, 0.008921695200,
        0.099406021313, 0.036177397782, 0.050379765512, -0.022154401418,
        0.053771257416, -0.076135346761, -0.098481784742, 0.074139671455,
        -0.040668253767, -0.108660265597, 0.059042801124,
        -0.084112642990, -0.038620423164, -0.048051284501,
        0.066347715123, 0.105466507451, 0.047332454155, 0.100883319020,
        0.051882070061, -0.024626929820, -0.083567185695,
        -0.105208889619, 0.026696771653, -0.140283483551,
        -0.034327835869, 0.037012741129, -0.001346316763, 0.079202799850,
        0.042279754298, 0.099625939543, 0.018081153067, 0.090778186259,
        -0.070597033929, 0.036098622148, 0.004047814445, -0.104410052662,
        0.106316251274, -0.105475714473, 0.086558813843, 0.121632163788,
        -0.078476267734, -0.146753988597, -0.085290255277,
        0.087907537725, -0.092560389496, -0.017695982387,
        -0.053150805188, -0.049891350350, -0.103808394768,
        -0.056527947019, -0.091335574418, -0.076296495735,
        0.120086778879, 0.089198621763, 0.054873717374, 0.097462224362,
        0.001888867024, 0.075013256311, -0.131159165015, -0.018895368978,
        -0.048252752939, 0.039889876371, 0.091339561924, -0.004326457484,
        0.008769439339, -0.059015164337, 0.078598266041, -0.042060805967,
        0.113568875364, -0.073932423901, 0.056013107842, 0.085826742476,
        0.039018094627, -0.050014265655, 0.088449217223, -0.084682380826,
        0.059430739578, 0.077280942941, -0.000370164084, 0.006648613310,
        -0.003357831855, -0.109996928333, -0.065640492729,
        0.098953197399, 0.073005666911, -0.060276313929, 0.065783194797,
        0.055457607769, 0.092977272561, -0.057148394456, 0.038090630081,
        0.034587491285, -0.059312024723, 0.055619654929, 0.037436097881,
        -0.014292011297, 0.014925176300, -0.108694159347, 0.001515643813,
        -0.052883784247, -0.048065362075, 0.036078373934,
        -0.035705594144, 0.074647644886, -0.015513127155, 0.053075904943,
        -0.126580038523, 0.074629923681, -0.134053425468,
        -0.016302449439, -0.047343916896, 0.011427873726, 0.046367160664,
        0.103089117615, -0.061669605147, 0.022327264830, 0.091504112909,
        -0.005896246296, -0.009937687634, -0.029965229890,
        0.027462221614, -0.068166744827, 0.020941118114, -0.077404780706,
        -0.040442917382, -0.035202645387, -0.096081359961,
        -0.052829156137, 0.123207125740, 0.101434762146, 0.072528494642,
        0.019834518985, 0.019948761539],
       [-0.075206238534, -0.019839160682, 0.010973952726, 0.093457153731,
        -0.075504627202, -0.018660594448, 0.046511497578,
        -0.021207567800, -0.031834482947, -0.082874856800,
        -0.055271148983, 0.056602105723, -0.057376785121, 0.022535515290,
        -0.074233602977, 0.085411283383, 0.054200565715, -0.030349739661,
        -0.102986744316, -0.095923950107, -0.034505007591,
        0.008006104187, 0.039252201197, 0.053683172057, -0.009342955401,
        -0.055184110886, 0.114847365693, 0.112017417311, 0.041308915167,
        0.020451646051, -0.022170549749, 0.066609627775, -0.152929399311,
        -0.028878896524, -0.046667127499, 0.011624426004,
        -0.123841588713, 0.086205568220, 0.004926616548, -0.063887165393,
        0.117648208939, -0.124186965409, 0.001415574986, 0.092277829441,
        -0.016450211125, -0.108022055966, -0.107472176066,
        0.050752129268, -0.013815904074, 0.030896292919, -0.026081020152,
        -0.041908807506, -0.091703477166, 0.044595681862,
        -0.132369227024, -0.042543265760, -0.029486136484,
        0.080395569554, 0.011874105164, -0.039979210843, 0.072890683396,
        -0.045629741163, 0.116891466561, 0.064492326056, 0.032778127934,
        -0.123966416893, -0.094854274254, 0.121019155093, 0.000622568188,
        -0.122002638006, -0.142314966517, -0.117784669730,
        0.033784716281, 0.088864729196, -0.015088746065, -0.112874642882,
        0.135579681969, 0.146457672156, 0.084988428918, 0.033814012806,
        -0.004815912980, 0.104094788029, -0.125188677940, 0.042985113597,
        -0.046697264027, 0.043471421734, -0.102132910670, 0.046386378904,
        -0.090370555771, 0.003161098249, 0.043770581107, -0.078974564418,
        0.017638360506, -0.015942347447, -0.019131587272,
        -0.069671506133, 0.019680794134, -0.084919676873,
        -0.064550091475, 0.041954160114, 0.090441038123, 0.094806731760,
        -0.040295967893, 0.098640848988, 0.056467963620, -0.079467217468,
        0.056317389302, 0.026381352028, 0.045527960362, -0.052831085305,
        -0.019758861056, 0.061594200011, 0.123296582002, -0.096488407763,
        -0.062232848147, 0.053779566047, -0.033649098096,
        -0.004398930399, 0.040884193536, 0.001321313204, 0.084484850913,
        0.085903557665, 0.049113611796, 0.100436868041, -0.055483363937,
        0.066282163027, -0.045081523551, 0.102502435263, 0.021908558134,
        -0.094304224623, -0.008555331554, -0.032641741018,
        -0.003540622030, -0.070886061177, 0.017754290202,
        -0.061558915091, -0.025234051356, 0.109365670458,
        -0.014832732922, -0.020373090888, 0.074920054968,
        -0.032496030636, -0.014189733981, 0.084384245758, 0.071544286447,
        -0.111526162124, 0.016412333890, 0.083167964297, -0.034934675206,
        -0.024852755795, 0.070669069123, -0.054302810225,
        -0.000474437238, -0.090087246291, -0.054399119190,
        -0.037401725187, 0.138742166445, -0.122057010128, 0.014888849811,
        -0.004577951401, -0.028067065486, -0.059808457938,
        -0.005544746583, 0.025897857152, -0.008460742327,
        -0.026105418664, -0.051503600551, -0.061323687958,
        -0.094185086371, -0.077656700961, -0.044619241914,
        0.086927694883, -0.033119067303, 0.016161639853, 0.101345843790,
        0.042953536305, -0.037283973984, 0.131802492670, -0.089218227606,
        0.030147206518, -0.093251542041, 0.064465032576, 0.024718138094,
        0.004855672050, 0.101174452961, -0.106070773561, -0.078359196856,
        0.065060700159, -0.120219736757, -0.006624537179,
        -0.047833821909, 0.013097762762, 0.077259276800, -0.034017812536,
        -0.042399654313, 0.033779227027, 0.024284566855, 0.003731466428,
        0.087535313690, 0.137168009559],
       [0.070189914387, -0.006372886406, 0.093014945956, -0.096407022024,
        -0.075032270497, 0.045188270936, -0.009571621500, 0.030168150614,
        0.071447391429, -0.068132064642, -0.035727293502,
        -0.039316975983, -0.119629578573, 0.095504338653, 0.090454238136,
        0.102638503527, -0.056360445040, -0.031151714622,
        -0.035602063761, 0.076698003527, -0.121272959480,
        -0.111130572693, -0.006575734291, 0.103869519628,
        -0.038174259272, 0.020996425835, -0.006204649603,
        -0.102093435524, -0.080881000715, -0.010875710395,
        0.021180305139, -0.012401992363, -0.022698926438,
        -0.097667376547, 0.052515582803, -0.055058921246, 0.063583825367,
        0.091173627391, -0.092275004691, -0.043469968147,
        -0.015037425520, 0.019548104776, 0.007867269986, 0.083603432130,
        0.021585074862, 0.063203938698, -0.015908842491, -0.093803321054,
        0.010218622011, 0.047513713680, -0.025539341053, 0.006264302497,
        0.041420667025, -0.119682107487, 0.004315393132, 0.028279540351,
        0.112165683500, -0.040229391053, 0.069402962019, 0.035619238773,
        -0.023971128249, 0.053136595301, 0.072238165004, -0.021557488107,
        -0.089991884576, 0.011965704037, -0.053286064198,
        -0.107784317438, -0.006680312806, -0.105863223105,
        -0.001000890207, 0.021510829556, 0.059114634180, 0.118092016852,
        0.013093952845, 0.104774818228, -0.032857680513, -0.052295487016,
        -0.117070283780, -0.043323244398, 0.043308290223,
        -0.057758928332, 0.115900238765, 0.074417178941, -0.019749564438,
        -0.061930508386, -0.096023177546, -0.003905019048,
        -0.117742508555, -0.012962793800, -0.023544965731,
        -0.087878412706, -0.041675054324, 0.008879052977,
        -0.010592071421, -0.111709427284, -0.013351461111,
        0.074613348511, 0.110555522387, -0.101959344714, 0.024590358191,
        -0.033027675949, 0.009622599508, -0.075797989449, 0.025764276556,
        0.035684695329, 0.106636712392, 0.059790103549, -0.068747579478,
        0.106275771742, 0.108614720759, 0.036858943721, -0.052768168157,
        -0.113806239062, -0.012995195378, -0.048274210987,
        -0.026582520886, 0.132651353620, 0.091295037214, 0.007255475452,
        -0.032478128488, 0.023583908576, -0.065809188024, 0.108366352679,
        0.067720805970, 0.021259053228, -0.028814242844, 0.092058524044,
        -0.036355214610, -0.001915630266, -0.024727787500,
        -0.095889338752, 0.045858866301, 0.044363184467, -0.134582717358,
        0.113685191216, -0.042354439395, 0.040190679498, 0.109337612695,
        0.064753327279, -0.012026055368, 0.022610733370, 0.005744392737,
        -0.018105523015, -0.045763866517, 0.108545766945,
        -0.086409378491, 0.059513042050, 0.060165569636, -0.093392250390,
        -0.002082141711, -0.064093344157, 0.010357625506, 0.069018276654,
        0.047419427483, 0.097301841672, -0.054038697099, 0.031318815072,
        -0.045921886853, -0.080545258481, 0.033437617687, 0.113709929666,
        0.019576287158, 0.060038880038, 0.031134145775, -0.072541725409,
        0.097268844168, 0.038210498339, 0.013819587125, -0.030178400532,
        -0.069074123766, 0.114787422056, 0.125352876549, -0.043326659904,
        0.088398665155, -0.004412488538, 0.019097741804, 0.036487186853,
        0.043527365921, -0.041833301898, 0.060266892410, 0.070463146601,
        -0.054840786194, 0.025901702933, -0.023963223676, 0.078562224690,
        0.071863447056, -0.072339993491, -0.074449416072, 0.002733898819,
        0.049862768555, -0.065923828675, -0.002533958619,
        -0.044074909034, 0.046912209835, 0.000294460945, 0.023216246605,
        0.082614293261, -0.090617318659, 0.098577911256],
       [-0.085764733250, 0.112479015135, -0.094624323034, 0.030328820003,
        -0.050454250206, 0.116968329986, 0.080047829882, 0.008032697875,
        0.018933982443, 0.051023213231, 0.027610154477, -0.074535600376,
        0.059922358821, -0.070217964553, 0.099171196732, 0.078146887730,
        -0.025092992028, 0.014832333718, 0.061890133371, -0.042068216976,
        0.057092038994, -0.084899310552, -0.093704999970, 0.022514936615,
        0.072915135747, 0.084702597546, -0.108052074892, 0.026802249325,
        0.015664099557, 0.094228082504, 0.075816049206, -0.085592506840,
        0.050801055781, 0.013872246457, 0.071042634761, -0.025500239756,
        -0.064546947550, -0.047645935159, -0.033458489442,
        -0.031326369292, 0.068055358896, 0.033810172040, 0.034947872350,
        0.088913960954, -0.068462970065, 0.057706688231, 0.090649381534,
        0.052406006510, 0.019596052688, 0.074194443690, -0.119840763857,
        0.089496963678, 0.004959862945, 0.021506662877, 0.053706825385,
        -0.113278552425, 0.007173305489, 0.008656199332, 0.090716697435,
        -0.001740669541, -0.088515075334, 0.066351106492,
        -0.103569294637, 0.037675292928, 0.052295971268, -0.106839244848,
        0.112608069747, -0.097498571092, 0.056209691017, 0.022093929588,
        -0.059268294025, -0.050853958315, 0.010569898227, 0.026463966084,
        -0.094039715799, 0.020784632895, 0.078321397615, 0.067956254668,
        -0.064282948257, -0.114830591546, -0.005172235434,
        -0.120465528223, 0.067956781762, -0.027357782488,
        -0.118345872395, 0.026904356631, -0.037684933319, 0.023817432309,
        0.099292334934, 0.129218660089, -0.080679936239, -0.032399993382,
        -0.027721888666, -0.053856408381, 0.001135046536, 0.045608219548,
        -0.007751946376, 0.098819605534, 0.078825644773, 0.057313793586,
        -0.017989152110, -0.058363235031, 0.034769235305, 0.032170785253,
        0.123584044390, -0.082309082368, -0.115548786753, 0.032899165762,
        -0.114671157684, -0.005920136835, -0.081969414712,
        -0.073401417939, -0.087648286582, -0.109740812123,
        -0.096008330514, 0.001689518501, 0.051733706882, 0.117242139041,
        -0.009395551267, 0.085258283800, -0.076352414845,
        -0.104354863271, 0.014744698865, 0.003149239126, -0.070472308513,
        0.001685720531, -0.087550858363, 0.021288876897, -0.058955732192,
        -0.024184195152, 0.022826853975, 0.020835820743, 0.068279405220,
        -0.079200794553, -0.051753705464, 0.065366123027, 0.060522805916,
        -0.046744204276, 0.075348940457, -0.079018841586, 0.005164911419,
        -0.057712862303, 0.036876670627, -0.027806786339, 0.117989616277,
        -0.115497977494, -0.092248313774, -0.020326800269,
        0.036611225599, 0.065114747429, 0.095745658759, 0.064376301165,
        0.061577192196, 0.077250664569, 0.024153640132, 0.014854207472,
        -0.032558238907, -0.067191728420, 0.020349912313,
        -0.058260815662, 0.111571249943, -0.086066509974, 0.082833780845,
        0.011366918340, -0.061524959030, 0.045072288059, 0.047030076198,
        -0.102255251770, 0.051350017160, -0.058748995255, 0.040319971473,
        -0.072605862138, -0.060239933702, 0.089971143575, 0.019476768256,
        0.039837408464, 0.094371466822, -0.013337925899, -0.075889374147,
        0.009225279048, 0.030721838593, -0.021077354863, -0.021042928087,
        0.118152677600, 0.127377838867, -0.063343043021, 0.082725609257,
        -0.003651759907, 0.122743227003, 0.002025401299, 0.045773326145,
        -0.063156062344, 0.002058257451, 0.096469172661, -0.022000968771,
        -0.104619037554, -0.085237073901, -0.078891796457,
        -0.037424299145, -0.040206831884],
       [0.039224843009, 0.012635865576, -0.019830020478, -0.096376469257,
        -0.086457202893, 0.046065966671, 0.064960397073, 0.111461065456,
        -0.031769140422, 0.043717961525, 0.075726724976, 0.014012047036,
        0.123283127471, 0.042062833369, 0.049025589001, 0.129453359029,
        0.075661105795, -0.055486360466, -0.073613850994, 0.078957027389,
        -0.117576261733, -0.059886920709, -0.047159834534,
        -0.007383615607, 0.067921026504, -0.111561728526, 0.050506970136,
        -0.092527816428, 0.079424904189, 0.054143891722, -0.092195922710,
        0.027849903800, -0.074920979204, 0.099564664120, -0.025816632258,
        -0.010824165023, 0.082474409294, 0.068148944017, -0.052815550917,
        0.014873655722, 0.099910225305, -0.115225631097, 0.087358556721,
        0.030923123143, 0.121150412569, -0.028763921596, 0.041479503441,
        0.047885178131, 0.109838140985, 0.023834989951, -0.053251199943,
        -0.032998263529, -0.079913328234, 0.101610362009, 0.096335383577,
        -0.054943613369, 0.025197485553, 0.108773547369, 0.084971060137,
        0.100908815031, 0.090760575113, 0.001933829873, 0.088969595469,
        0.073331376314, -0.098391672385, 0.115883342184, 0.041974506610,
        -0.095292046010, 0.111261842886, -0.061776645233, 0.055426657506,
        -0.039269990930, -0.094901232515, -0.045193158387,
        -0.014875799286, 0.100757802913, 0.002982383443, -0.081389394383,
        0.012620343118, -0.073684889628, -0.011224228719, 0.104335633194,
        0.059880938491, 0.001758562272, 0.066813213896, -0.107602044534,
        0.095963414261, -0.028040953685, 0.045423770882, -0.082548662138,
        -0.016307121889, -0.086418785880, 0.077027864137,
        -0.079377172484, -0.075533960247, -0.086122848644,
        -0.005561077908, -0.032452218593, 0.124782588735,
        -0.014829804716, 0.049345795118, -0.060866000784, 0.124208563926,
        -0.014027270264, 0.134294529621, -0.010278129841,
        -0.065358921491, 0.091278916565, -0.039006172813,
        -0.095885335491, 0.108112933173, 0.117353746756, -0.079890103600,
        -0.013320642138, -0.047094699137, -0.118474657278,
        -0.043855020854, 0.069895348286, -0.003876212686,
        -0.055692955554, 0.031026968378, 0.094364914020, 0.039096083561,
        0.049989503350, -0.025358776361, 0.095562204103, 0.114063203389,
        -0.018318911543, 0.125649755542, -0.106675767505,
        -0.036675565396, 0.102553594913, 0.087406229398, 0.009330095752,
        0.093491812246, 0.095389869192, 0.084053726577, 0.034912800012,
        0.080505634681, -0.038877902606, -0.030623568861,
        -0.055544601658, 0.061958521040, -0.069062897777,
        -0.007852213489, 0.112923649236, 0.028099594119, -0.099556276015,
        -0.148836282962, 0.043000023300, -0.054374619147, 0.051349490913,
        -0.010653397019, -0.072343250413, -0.064857068910,
        0.111284369462, -0.083525967933, 0.011372107059, -0.040918612799,
        0.133989881329, -0.071538123122, -0.120470012257, 0.059535741712,
        -0.038047263172, 0.073210261416, 0.089432712891, 0.014466753108,
        -0.078501592003, -0.056707064801, -0.025835027297,
        -0.079143632207, -0.009335530254, 0.002580264695,
        -0.026022955777, 0.103942894239, 0.097041829917, 0.000223921136,
        0.130302181746, -0.097236353922, -0.091426547899, 0.104645904052,
        0.076819838858, -0.082026417597, 0.074804180220, 0.063078742597,
        -0.007741533634, 0.097614572988, -0.031982827766,
        -0.073522963269, -0.030455310051, -0.066415022460,
        -0.069882661937, 0.000654084671, 0.053818399595, 0.119235944973,
        0.034131254936, -0.056251775860, 0.009271311744, 0.078622510614,
        -0.106294011635],
       [-0.089532293639, 0.058502020804, -0.115556164821, 0.025566111934,
        0.055553441499, -0.064331801665, -0.002085187234, 0.084465394265,
        -0.038220552635, -0.036504160998, -0.010009752008,
        0.116091430008, -0.034901456847, 0.097189328276, 0.034163941026,
        -0.063841528089, -0.075597825034, 0.129596764877,
        -0.109530698519, -0.056303980499, 0.008669319544, 0.098410076650,
        -0.067918977327, -0.054317037524, 0.111701196784, 0.059958945265,
        -0.071366226473, -0.123580321773, 0.119162963088,
        -0.025909013221, 0.011751373394, -0.015944561491, 0.108049642745,
        0.107728117059, 0.071570888752, -0.059826299269, 0.072361162287,
        -0.019732768927, -0.028665686531, -0.111337728649,
        0.044050689869, 0.104772521601, -0.097053244906, -0.031435714505,
        -0.019183466294, 0.026556320764, -0.003969715901,
        -0.109298645930, -0.072130413519, 0.062726674181, 0.018165321772,
        -0.060820932556, -0.110624467012, -0.062829286752,
        0.058558765841, -0.108563710612, 0.059381188728, -0.036313019673,
        0.104334256731, -0.091912455083, -0.050608594135,
        -0.068049933010, 0.134307440279, 0.089984879215, 0.028057696030,
        -0.092058533826, 0.029164705377, -0.068705539514, 0.115424201081,
        -0.071170831915, -0.015408253562, -0.103564623236,
        -0.088898223265, 0.050217957164, 0.047673177259, 0.054094078673,
        -0.029502733495, 0.084371695770, 0.093203268020, 0.032529210822,
        0.058976095935, -0.099325674735, -0.076734047283,
        -0.100529251576, -0.025580944714, -0.084740831332,
        0.063124965422, 0.128125512414, 0.024016947917, 0.024702718278,
        0.011161603861, -0.088124399776, 0.029958747630, 0.084739968180,
        -0.079846574194, 0.078203228417, -0.086982857907,
        -0.056774750052, -0.134280743633, -0.097630466875,
        0.077213575223, -0.045219187862, 0.054896689511, -0.124766527687,
        -0.016275163136, -0.092122998307, -0.095029380391,
        0.035374492802, 0.040365493222, -0.071437955980, -0.038117542241,
        0.030911141188, 0.060818310617, 0.021079426971, 0.053641191117,
        0.098940796004, 0.002506766978, 0.038445357105, 0.121175269690,
        0.044288539975, 0.032552210032, -0.067866054418, -0.057443290843,
        0.039160541373, -0.059429750542, 0.071566164799, -0.108125888653,
        0.001972450733, -0.107470117216, 0.113001861998, 0.107393941370,
        0.101918595672, 0.119382197624, -0.127391331759, 0.111625462791,
        0.094202287540, 0.110290899007, 0.052859036702, 0.109266940325,
        0.020916987058, 0.088145683016, 0.008784522179, -0.022361703862,
        0.043239676970, 0.051548238733, -0.019095584873, 0.031953581763,
        -0.088862166717, 0.080548919157, 0.039574594032, -0.043326466132,
        -0.096009518824, -0.094734061732, 0.028475741587, 0.037407056493,
        -0.134018700685, 0.000604277953, 0.083182620350, 0.066977383291,
        -0.083146758013, 0.059811456894, -0.073710279283,
        -0.049181150353, 0.124456355751, 0.021526360756, 0.031710570844,
        -0.083003526181, -0.075360634333, -0.085047181224,
        0.007906007085, 0.016163400702, -0.075582211045, -0.017916183475,
        0.043027504280, 0.096581762364, -0.124533688096, -0.097174998185,
        0.007665404936, -0.020643375944, -0.001062797812, 0.026825175335,
        -0.094601688845, -0.028287982496, -0.035891924815,
        -0.005311157034, -0.138270330996, -0.089078118120,
        -0.046964562073, -0.005706195848, 0.095632050642, 0.094409010057,
        0.113017647419, 0.005566873319, -0.056538357400, -0.050988729207,
        0.039720381851, 0.123988914333, -0.002138820384, 0.094290135881,
        0.069643957882],
       [0.087997466875, 0.027526377824, 0.082110657942, 0.081642374307,
        0.014771362529, -0.000493891146, -0.075225739779,
        -0.014378558516, 0.055004079897, -0.058214722828, 0.090403255246,
        0.065014988175, 0.032630824728, -0.116432369054, 0.061479446246,
        0.050091735669, 0.091230920691, 0.038108405119, 0.078230044312,
        0.000338333579, 0.061444083482, -0.006609145939, -0.028644345457,
        -0.078615812762, -0.061469331371, 0.056653377406,
        -0.006711528364, -0.042144694093, -0.000527055406,
        -0.030560170161, -0.091413628049, 0.079328762441, 0.032068738785,
        -0.008616731484, 0.014321541282, 0.059778525938, -0.106125968341,
        0.090910318055, -0.039991381394, -0.103877360197, 0.021319650614,
        -0.035651451534, -0.081345574690, 0.003371498581,
        -0.029947370887, -0.053129959051, 0.111605832984, 0.091337827870,
        -0.028867204618, 0.001776333400, -0.027811820606, 0.108066466625,
        0.046916179826, -0.016980588200, 0.103216179295, 0.103639366060,
        -0.015109562020, -0.030948998194, 0.047854717133,
        -0.059180873462, -0.006671463401, 0.011652466999, 0.090139325414,
        -0.081711319930, -0.071085912355, 0.091050954543, 0.013591344857,
        -0.035461808680, 0.083725071118, -0.101976587101,
        -0.064048064670, 0.036715871804, 0.082337101997, 0.031251190606,
        -0.063360476885, -0.085056479177, -0.052991272836,
        0.019986741566, 0.038082106416, 0.041790334765, 0.018698679323,
        -0.116406295892, -0.044527734757, -0.045605257478,
        0.088946499790, 0.009725011944, -0.120489189853, 0.100127006745,
        0.119479928779, -0.087398433408, -0.029018750986,
        -0.112449114093, 0.073731417077, -0.072366675090, 0.003663028653,
        -0.054012266790, 0.097464346895, 0.118954721657, 0.098525551922,
        0.097959373956, -0.071558289498, 0.051730972824, 0.095473999141,
        0.001159403586, 0.095095773211, -0.004005487261, -0.097767531077,
        0.061527256523, 0.067625162772, 0.007187621382, -0.047414578072,
        -0.100097244080, 0.028538265779, -0.037370243229,
        -0.122588971420, -0.096482744883, 0.075205350677, 0.044576020416,
        -0.103612902928, 0.093370572646, 0.054820215934, 0.025527528840,
        0.007027482601, 0.026728403178, 0.090251041255, 0.070969369565,
        0.041944342707, 0.112794768417, 0.060992642812, -0.108232882674,
        0.055509300512, -0.090034209463, -0.086646542318,
        -0.036794634037, 0.097894532624, -0.021279704186,
        -0.083925705451, 0.098240968171, -0.124387441928,
        -0.071820053011, 0.053112640522, 0.017230897984, -0.116065597075,
        0.017638344442, -0.080931810253, 0.085646047189, -0.049816443848,
        0.101112946643, 0.048000824013, 0.024751189432, 0.119213479979,
        0.084305980917, 0.024086947369, 0.097174749166, -0.092903287779,
        0.071410876599, -0.071676026360, 0.088629643465, -0.007752043394,
        0.084253261729, -0.073690292373, 0.052381744941, 0.011809177391,
        0.081881908015, -0.076626714845, -0.025656208923, 0.108309753253,
        0.000949008590, 0.045811851130, 0.067612705645, -0.073112076895,
        -0.100211749574, -0.064864383184, 0.052127022897, 0.041774658122,
        -0.014572189954, 0.040336604583, -0.083050355290,
        -0.091899053095, -0.045518465400, -0.033680643540,
        0.043071803233, -0.076477458959, -0.090460278258,
        -0.029964530944, -0.084089961806, 0.052951671392,
        -0.112386196905, 0.032191048885, 0.064613096530, 0.094721058049,
        -0.067089503931, 0.034743077633, -0.051603644547, 0.099580744574,
        0.022516345733, 0.068133998194, -0.069833034885, 0.023501312243,
        -0.080836953416],
       [-0.083907242559, -0.078773763029, 0.126670533841, 0.005715944858,
        -0.052204289111, -0.052958106973, 0.073739231892,
        -0.015129349037, 0.076572182889, 0.013781839781, 0.072050372208,
        0.012747631784, 0.070756912663, 0.099762064185, -0.131677538864,
        -0.125268606430, -0.127589533011, 0.041649637174,
        -0.022999048442, 0.055965037640, 0.011244903545, -0.075722741963,
        0.036053131180, 0.097411470250, -0.042603757041, 0.104893219312,
        0.042919920016, -0.072954517631, 0.090085452588, -0.072082538080,
        0.072858285961, -0.079502803583, -0.025300023885, 0.125282752545,
        -0.085826879971, -0.108859418516, 0.027396208531,
        -0.034477166856, 0.032785017722, 0.016230547735, 0.025074690555,
        -0.055448042116, 0.092334122335, 0.030218666293, 0.070008257901,
        -0.116527601560, -0.027192872262, 0.015322031688, 0.032297300135,
        0.078583874858, 0.059479570247, 0.033386418431, -0.090429959448,
        -0.064134010707, -0.065512553395, 0.095487551015, 0.012379938489,
        0.017688017163, -0.054757587774, 0.069235315479, -0.000828089331,
        -0.125447430961, -0.100206643076, 0.123059356454,
        -0.099196141177, 0.067295191325, 0.095180611599, 0.089288586011,
        0.047209533740, 0.086091935498, 0.106656045916, 0.024546018733,
        0.028235153316, 0.014981091992, 0.058640436556, -0.104498326273,
        0.038463541323, -0.012500305663, -0.066255763014, 0.016479443284,
        -0.050266371846, 0.050306298761, -0.073599187562, 0.020326088287,
        0.127785415270, 0.029105081074, 0.115524351300, 0.121465113666,
        -0.105825184447, -0.057817966350, -0.040557122115,
        0.117487993732, -0.053793588822, -0.044443721155, 0.008537411874,
        0.056073434209, -0.067923001280, 0.089432507645, 0.002210119792,
        -0.025255153352, -0.108660623946, -0.019510078403,
        0.062626205366, -0.017743058835, 0.069090227732, -0.036360610515,
        0.039956061603, 0.102760350455, 0.059748744448, 0.114234808523,
        0.013226506580, 0.020185928258, 0.070608600927, 0.122767493006,
        0.033714918487, 0.072146639020, 0.081911390148, 0.050521702713,
        0.056259868827, -0.100868629902, -0.035019490889,
        -0.041328185284, -0.106696934319, -0.051805549316,
        0.039749304483, 0.056801874908, -0.064060607727, -0.056230777098,
        -0.113605368446, -0.077708764983, -0.022363556759,
        -0.050131645818, -0.077389826738, -0.014480003027,
        -0.091041389440, 0.018933617381, 0.094238980853, -0.064200051211,
        0.070524824959, -0.086207733338, 0.068836720251, 0.071178067399,
        -0.058828936768, 0.020447083337, 0.076171354397, -0.034911535922,
        0.111531462651, -0.087975009577, 0.028219934144, 0.050165455417,
        -0.040459909622, 0.011160027484, 0.103716619887, -0.067056615914,
        -0.077620955458, 0.059149290418, 0.007279481343, 0.029708961286,
        -0.081902222774, 0.082163219037, -0.124596136883, 0.110573093721,
        0.010405598230, 0.054743943845, -0.099699829423, -0.013976510586,
        -0.055758709342, -0.040764309934, 0.109680808511, 0.041665405599,
        -0.036516404372, 0.098289860348, 0.046092786830, 0.040353259781,
        -0.065485154691, -0.002599805812, -0.097876862279,
        0.063722790191, 0.041721532312, 0.071848886498, -0.064257589788,
        -0.051414440645, 0.039193670942, -0.019435282503,
        -0.009829624905, 0.067039267383, -0.025367665139, 0.046636896439,
        0.055978031958, 0.099655161421, -0.016610917604, -0.069068826521,
        0.014376621765, -0.090558242385, -0.124365503948, 0.030307169028,
        -0.114756558568, 0.086139163124, 0.108360271454, -0.034409888629],
       [0.110955680087, 0.044851066710, -0.122289196151, 0.003509389567,
        0.098190605619, -0.115804034515, -0.080255755143, 0.121676238797,
        0.002653328674, 0.014871278560, 0.077158629570, 0.092210476263,
        -0.130230534866, 0.030890253604, 0.052235419913, -0.116083900802,
        -0.010828389586, 0.054625273014, 0.037578830332, 0.050865866710,
        -0.091373352027, -0.017198027701, 0.073963302059, 0.009104616311,
        0.034539252704, 0.055541029469, -0.011513733768, 0.029026408325,
        -0.025351191000, -0.055487245504, -0.024390007023,
        0.087909034425, -0.039746784735, -0.087984514131,
        -0.103736947976, -0.091242833302, -0.117948381427,
        -0.081532208902, 0.111954255432, -0.107287541090, 0.063457685815,
        0.018462216483, -0.130511149555, -0.022908585930,
        -0.058800845971, 0.104356961331, -0.062240413953,
        -0.017197634393, -0.026489422789, 0.022329350868, 0.015626492213,
        0.120133500586, 0.031687525842, 0.050212411942, -0.031932066742,
        0.045132583379, -0.043528889303, 0.060041767468, 0.005746189750,
        -0.055707852334, -0.041449857289, 0.085873594880,
        -0.077599376614, -0.046848731228, -0.047379220413,
        -0.002987159098, -0.023679740830, 0.006367644866,
        -0.059633408238, 0.063056988204, 0.007072848782, -0.014044258738,
        -0.123399618419, -0.080271067733, 0.090453277414,
        -0.066134768219, -0.116153031822, 0.029479355370, 0.084298399635,
        -0.016382612998, 0.127965119148, 0.110491420177, 0.035551593836,
        0.109508082019, 0.058868375194, 0.110849981517, -0.098005600008,
        -0.090410968922, 0.031346547405, 0.110897919609, -0.104856808903,
        -0.032774310011, -0.106340530546, -0.116000687263,
        -0.072957838809, 0.077906053292, -0.080317434505,
        -0.080047756066, -0.044624360439, -0.106120941846,
        0.014309214275, -0.001813231829, -0.003371802621,
        -0.030527030206, 0.003771818433, 0.023886535458, -0.022546086158,
        -0.003695850101, 0.132223926153, -0.039799980489,
        -0.067214975697, -0.068413279928, -0.055191750808,
        -0.096890007249, 0.000973723282, 0.050015892840, 0.043677670472,
        -0.035272764639, -0.021425000437, 0.070074676956,
        -0.063876261386, 0.015411166956, 0.001764040143, -0.027652056855,
        0.052895367000, -0.076858660942, -0.041663750284,
        -0.035319212963, -0.072443590825, -0.081343455298,
        -0.043350510151, 0.036348869631, -0.060038348218, 0.044349666255,
        -0.028856916328, 0.135049108962, -0.100758235107,
        -0.099637607306, -0.091025897669, 0.109404465292,
        -0.086416643506, 0.107595930020, 0.082257269573, 0.042653296536,
        0.017971946363, -0.002498887612, 0.004946409549, -0.110898077708,
        -0.127180651039, 0.019995343295, -0.078002471477, 0.089171866055,
        0.054336629382, 0.122590472311, 0.098505557686, -0.050669001505,
        0.052768397859, 0.046526355134, 0.028676993707, 0.051574928007,
        0.064296980167, 0.104132769455, 0.082310581443, 0.037473378783,
        -0.122748712634, -0.047384737467, 0.049849231704, 0.101812525253,
        -0.048367466357, 0.034324144650, 0.066078044198, 0.065392776645,
        -0.005531426419, 0.059672579514, -0.109032417116, 0.025846718852,
        -0.057840064670, -0.044391438348, -0.008561317458,
        0.015831947626, -0.012244147927, -0.078047077692, 0.063650937461,
        0.134527563771, -0.116238086026, -0.111512306431, 0.075477719979,
        0.013212899085, -0.022782324890, -0.009275234079, 0.061748900211,
        -0.127434625649, -0.104218757700, 0.064148539360,
        -0.071432323332, -0.128257125530, -0.001572471214,
        -0.055560943660, -0.003186871143, 0.052280635352],
       [-0.012206054499, -0.100864608289, -0.111456658333,
        -0.040078434437, -0.034807095852, -0.089526713448,
        -0.110191398695, -0.118510151065, -0.004317853849,
        0.071754143426, 0.107647331477, 0.096489491630, 0.006159528005,
        -0.006638701532, -0.078358982707, -0.087265902406,
        -0.068430872594, 0.072737552789, 0.048677684074, 0.071526637800,
        0.078948981416, 0.040863842767, -0.029797789009, -0.119606482702,
        0.011646331908, 0.093364064957, 0.056123220916, -0.084023306885,
        0.064455417024, 0.029932280940, 0.111648133079, 0.118972130413,
        0.112648346522, 0.048453165826, 0.112355136497, 0.039080568908,
        0.058664543265, 0.095719037764, -0.040938908573, 0.060665032001,
        0.013598875793, 0.049788991983, -0.015146827469, -0.031122644122,
        0.013194231760, -0.067400209983, -0.108996996639,
        -0.107010290826, -0.029909699001, -0.107080855015,
        0.056980861647, -0.076414653851, 0.037071446486, -0.050608425849,
        -0.051816229673, 0.081163333698, 0.050633402718, -0.125675046012,
        -0.099120975155, 0.032641857214, 0.031127271647, 0.099220609584,
        0.067594488785, -0.048999910805, -0.007755643857, 0.019665572275,
        -0.031754913496, -0.078961705707, -0.086645855693,
        0.038310045954, -0.005852961592, 0.044161768977, 0.054821721411,
        -0.019042558770, -0.034356989771, -0.036646836670,
        -0.003695677166, 0.055322351169, 0.009128557865, -0.044472149831,
        -0.054665816494, 0.017814255493, -0.028908544234, 0.007251410727,
        0.117091678777, -0.018360481476, -0.078833223267,
        -0.049885065503, -0.040262496001, 0.067415903386,
        -0.020753101525, 0.061335003843, -0.027951142129,
        -0.065620371622, -0.016712909987, 0.050222895630,
        -0.049738168702, 0.106445482512, 0.056065233838, 0.105733133639,
        -0.026567196103, 0.011091268831, -0.047487950704,
        -0.064487516516, -0.123064705761, 0.106817366203, 0.054034251802,
        -0.013940025813, 0.109910000886, 0.036214724140, -0.105517118168,
        -0.078618638896, -0.046653876929, -0.025598728077,
        -0.060224416585, 0.014592561182, -0.020954529441, 0.052664680962,
        -0.074710445293, -0.120914345280, -0.042961946661,
        -0.063978656578, 0.027389558122, 0.102890859417, -0.026105275547,
        0.105659518716, 0.072913842835, 0.046274284701, 0.100294810267,
        -0.057350572101, 0.111037633300, 0.045763027721, 0.087616268239,
        0.011341122802, 0.092094318451, -0.129844983501, -0.106661800338,
        -0.090779067302, -0.067377887729, -0.052328684371,
        -0.117610117288, 0.004077451622, -0.007181960367, 0.027423092396,
        -0.130593910620, -0.076554528826, 0.046538041635,
        -0.046632151108, -0.009343297511, 0.000944012365,
        -0.083134385571, -0.109864020456, -0.042283946564,
        -0.096758302934, -0.060260046260, -0.098339086085,
        -0.038315927681, 0.064611120609, 0.040834925870, 0.061669208563,
        -0.081788974386, 0.022603176391, -0.037265317657, 0.093787851802,
        0.108920187765, 0.058648547656, 0.056539404286, 0.046151705423,
        0.055283632480, -0.014347039095, -0.102247708376, 0.000759618130,
        -0.092877631412, 0.074785002678, 0.056357310035, -0.024631256638,
        0.014593675714, 0.098267637868, -0.018303119597, 0.124803385730,
        0.059214050417, 0.038845244924, 0.073298199672, 0.073666876322,
        0.029025412033, -0.128493330852, -0.000490910500, 0.030701414438,
        0.042563815251, 0.108475334495, -0.111603902223, 0.102195145838,
        -0.109957430789, -0.085459289327, -0.080824606664,
        -0.075220318048, -0.026749659755, -0.070659882170,
        -0.071451466948, -0.008047155264],
       [-0.026057281344, -0.034498751903, -0.075764257062,
        -0.018866649750, -0.106606491315, -0.044635230463,
        0.106133190337, 0.052853418317, -0.051273857283, 0.098133425063,
        -0.054160961567, -0.118207881663, -0.098818957341,
        0.037113125892, 0.031364200578, 0.047194039350, 0.102516628216,
        0.140296526425, -0.061282551305, 0.103878406044, -0.019748990898,
        -0.029604911351, 0.042002656627, 0.088781239799, -0.018036845405,
        0.027784716832, 0.015780543934, -0.107451791990, 0.062243361841,
        -0.002207754641, -0.124866090234, 0.061477437893, 0.004798671718,
        -0.052656881438, -0.001452494097, 0.057100280305, 0.126760184192,
        -0.002488951391, -0.047843424751, 0.058000520448,
        -0.013398486084, -0.034806788031, 0.103731690147,
        -0.005142509995, 0.039701225088, 0.031810611390, -0.124895634492,
        -0.062979539443, 0.083237835421, 0.064897039841, -0.067565071778,
        -0.035031209318, 0.114504683310, 0.056056692121, 0.035041347861,
        0.112155703230, 0.110714942393, -0.092295728034, -0.088114904416,
        0.049226179838, 0.030842791683, 0.036288497955, 0.130408469066,
        -0.073022314613, -0.028277050809, 0.040069358663, 0.109000985280,
        -0.104121545692, 0.045715903685, -0.089786945254,
        -0.024137114769, -0.001331321748, -0.003355476122,
        0.011381909956, 0.110859078923, -0.116987527040, -0.048294701951,
        -0.112483054066, 0.016367703107, 0.017479772002, 0.008198054469,
        0.070380764683, -0.012640772333, 0.030043539058, -0.029831326619,
        -0.048164210592, 0.080085265427, -0.017113473121, 0.074870610022,
        -0.039392692665, 0.020876976462, 0.125961951516, 0.049319376004,
        -0.039770045820, 0.091227682507, -0.001122236322, 0.061706326984,
        0.095552229164, -0.051684262378, -0.046433004930,
        -0.041920902137, -0.002724919444, -0.018196503465,
        0.107293995885, 0.051926997431, 0.097088855228, 0.098974223733,
        0.128814282762, 0.012824131608, 0.034728941229, -0.099437978289,
        0.005249363591, 0.005056273820, -0.008586895707, -0.000553765249,
        0.057256603142, 0.098382727554, 0.115511955095, -0.131955380811,
        0.066612851378, 0.109387442034, -0.051351441966, 0.037035854783,
        -0.093767141931, 0.048312364725, -0.002314910978,
        -0.098111028744, -0.126367080099, 0.086786589178,
        -0.075699455333, 0.116538493005, 0.102353887493, -0.017122662412,
        0.031164567676, 0.047800509603, -0.106848813219, 0.039231158558,
        -0.041741999792, -0.055522669778, -0.051108324855,
        -0.008963191259, 0.086195338535, -0.054198724008, 0.021160145371,
        0.064397151097, 0.039708614408, 0.130206206722, -0.112897677485,
