array([[-0.153480905350, -0.174413681868, -0.229524353941,
        -0.240321104909, -0.153993315102, 0.025332689701, 0.104271335511,
        0.221609113816, -0.116407667093, -0.278494659040, 0.129114229796,
        -0.215500412452, -0.116771521803, -0.088117190596,
        0.092418098014, 0.156668300602, -0.071747466386, 0.036674413931,
        -0.083340480373, 0.282538577216, 0.271587047400, 0.139653877863,
        0.275059523430, 0.155065024506, -0.153285914180, 0.166980927573,
        0.197129150229, -0.045350480429, -0.281700771416,
        -0.160449529979, -0.041793806096, 0.009536467655,
        -0.109442204552, 0.126926555364, -0.255914283695, 0.082405880030,
        -0.091869137612, 0.142975436703, 0.001430142119, -0.020346858573,
        0.057296710853, 0.265495194887, -0.122401980576, -0.017222497964,
        0.088256750440, -0.207910445296, 0.076988190727, -0.139145985782,
        -0.214999847847, -0.038594011291],
       [-0.037785295313, 0.183979467845, -0.187869018550,
        -0.106061010199, 0.059878089121, -0.199227851634, 0.022357942285,
        -0.068786236598, 0.259209441273, -0.284075051664, 0.089582839564,
        0.257377511194, 0.154974089344, 0.003082243532, 0.089275083768,
        -0.242655046024, 0.212407365750, -0.038876000655, 0.169315964792,
        0.042298235817, 0.045132676887, -0.213359409175, 0.134622894440,
        -0.194823662792, -0.190289165918, 0.261704957392,
        -0.038869325897, 0.159458343171, 0.140847252930, -0.217499502226,
        0.030244452469, 0.163402041037, 0.131622980115, -0.270405077223,
        -0.150269916652, 0.232245434006, 0.028104993032, 0.077475464198,
        0.192951110433, -0.125972315548, -0.178920808752, 0.150041338489,
        0.013814187539, 0.185843451356, -0.134093820011, -0.217008412121,
        -0.168805852961, -0.006688464476, -0.269812315687,
        0.094519666046],
       [0.093421885818, 0.079372173489, -0.178848300016, -0.143255754753,
        -0.231042241909, 0.248426747548, -0.169547538315, 0.110598116305,
        -0.245557003538, -0.111716633745, 0.071109562651,
        -0.219366505188, 0.192606541420, 0.213832035788, -0.011171036247,
        0.194569048108, -0.245253585911, -0.176089517961, 0.090919479875,
        -0.057974731460, 0.269571336070, 0.045380086020, 0.160437575148,
        -0.113347245734, 0.039352218889, -0.198539569360,
        -0.032603623491, -0.086733933023, 0.238881464610, 0.195478271122,
        0.038829840694, 0.042291678106, 0.207299859587, 0.161468068618,
        0.236714873207, -0.180944076616, 0.119347116615, -0.035555952317,
        0.156678050004, 0.190926964354, -0.041231451344, 0.229334376390,
        0.260128769406, -0.271182430526, -0.123795701636, 0.226517044749,
        0.110383281172, 0.031952178461, 0.284010216330, 0.026567567640],
       [0.180010823396, 0.193544005869, -0.009670123429, 0.035015738867,
        0.103418690174, 0.119557011874, -0.255367501962, 0.013325834143,
        0.185093097773, 0.001453515114, 0.026218214712, 0.072436423875,
        0.199327132405, -0.114596482828, -0.168187625820,
        -0.211455019288, -0.042621591704, -0.231330996252,
        -0.168478584242, -0.167050836887, 0.174338185048, 0.216192736434,
        0.211185934714, -0.134982433533, 0.245529044887, -0.056645507156,
        -0.056635013533, 0.247868525379, -0.159154785783,
        -0.031620654302, 0.183388241102, 0.105072250900, 0.031690464723,
        -0.032357649214, 0.074192956949, 0.102866385468, -0.175880231622,
        -0.279161818662, 0.061749217757, 0.014468012528, 0.151872659086,
        0.270024108280, 0.137825546936, -0.062589587261, -0.240585691366,
        0.233256574564, -0.033217047169, 0.099364229342, -0.249139286968,
        -0.187011333426],
       [0.038330360781, -0.165726412664, -0.208774460554,
        -0.232390578537, -0.266591855904, 0.037423160051,
        -0.279563139505, 0.070277352769, 0.154924152296, 0.225851701409,
        -0.216503075261, 0.193832721383, 0.277921623081, -0.132155399915,
        -0.157881444499, 0.192050517813, -0.159671582328, 0.058562141479,
        -0.039457201680, -0.049762517572, 0.276257638226,
        -0.236203316791, -0.011524785116, 0.218318105616,
        -0.107874787501, -0.160666205537, 0.168884982690, 0.267487554912,
        0.053791174817, 0.175739323973, -0.036252826684, 0.236814400191,
        -0.260002128496, 0.033882632380, 0.215619852029, -0.210725143546,
        -0.112533583509, 0.036559704365, 0.198465139622, 0.096256673986,
        -0.274090087325, -0.099879160996, -0.047784777752,
        0.229332950876, 0.281512961674, -0.172426959025, -0.137704470637,
        -0.035282026704, -0.051257272672, -0.167823455815],
       [-0.153489923924, -0.026922208449, 0.249908684635,
        -0.224943599205, -0.230993454518, 0.015457618263, 0.191046593641,
        -0.126983784778, 0.279304834748, -0.141822445241,
        -0.275534843768, -0.279537394385, -0.186687474087,
        0.223711422430, 0.030110643367, 0.097757542340, 0.035831077256,
        0.028476249616, 0.189898711024, -0.188686497963, 0.134478728881,
        -0.121546021248, -0.204432447749, -0.081060689545,
        0.280529282674, 0.218794753285, 0.151362795598, 0.088092482680,
        0.131671093346, -0.189450401044, -0.269218402785,
        -0.243098165346, 0.118240089825, -0.279726923488,
        -0.250133053036, -0.239368564733, 0.145892680575,
        -0.270005910917, -0.182538151936, 0.098449307751, 0.070018859669,
        0.105673311048, 0.108825779993, 0.134607939000, 0.157553293603,
        -0.181088041112, 0.136802391677, -0.075185829268, 0.031030554758,
        -0.077891354519],
       [0.008291170687, 0.002540670986, 0.108908050934, 0.113531988066,
        0.196697124226, 0.271052046837, 0.126591903023, -0.162976265616,
        -0.211719306834, 0.047288253281, -0.186379930628, 0.203092924246,
        0.193860686855, -0.197224354705, -0.117049550698,
        -0.222355744228, -0.119445674318, -0.159852227381,
        0.203094131860, -0.122869843414, 0.159501595682, -0.279134845429,
        0.227878931087, -0.037873067673, -0.108634760400, 0.219583918944,
        -0.036479588729, 0.203439135477, 0.021984048161, -0.183680410166,
        0.245017299350, 0.197983338927, -0.049212956596, 0.121883856526,
        0.245024894972, 0.229218555574, -0.270606865771, 0.145429229598,
        -0.021490984188, -0.219287670147, -0.264604275376,
        0.142527909957, 0.213761111657, 0.141802633430, -0.220612132557,
        -0.083459043668, 0.226730007516, 0.137743504279, 0.212247966696,
        -0.157446332321],
       [0.269809521548, 0.113757274624, -0.199053790571, -0.197325384661,
        0.120314222105, 0.202679354534, -0.271862071204, 0.135168036504,
        0.170976783386, 0.026675506599, -0.255393296319, 0.214732885147,
        0.194276064910, -0.199039396343, -0.086337364105,
        -0.086844213772, 0.038971143085, 0.125170011897, 0.156090837755,
        -0.104482351494, -0.229402193261, -0.083256130167,
        0.248423990039, -0.113460489771, 0.145945803895, -0.008862749983,
        0.211332581512, -0.091584358987, -0.179130809539, 0.278367968173,
        -0.205954463726, -0.227105209469, 0.169623297654, 0.149725967686,
        0.139140642344, -0.093423946375, 0.232754503209, 0.201518773286,
        -0.246067693396, -0.102522599950, -0.126227103305,
        -0.113956862273, -0.186273390286, 0.190143312677, 0.257543338655,
        0.013173312447, -0.073796005208, 0.231809784685, 0.185814141699,
        -0.009689162773],
       [-0.116634416402, -0.081486297861, -0.111547407983,
        -0.242233308635, 0.097493943155, -0.126570796676,
        -0.193296462698, -0.064201092782, 0.275038717213,
        -0.226015755329, 0.072874581306, 0.025786926931, -0.168472988440,
        -0.206081511774, -0.063764196710, 0.035936887806, 0.069689474912,
        0.240285843912, -0.253358606220, -0.220528752271,
        -0.118328680006, -0.236255661257, -0.024803652083,
        0.060134791851, -0.133495379678, 0.160625136516, 0.084475813184,
        -0.097626624107, -0.280909110650, 0.055799223465, 0.206827110746,
        0.017710926241, 0.070040027324, 0.031680485255, -0.131447308764,
        0.094303700170, -0.060314868462, -0.159911737025,
        -0.000781251713, -0.191414612172, 0.271365740348, 0.122047000136,
        -0.216233203937, -0.204645283613, -0.241530908748,
        0.178978413415, 0.118811433925, -0.107406601998, -0.211019158169,
        0.191457317773],
       [-0.234284480286, 0.261015594688, 0.189668108904, -0.231315878248,
        0.208929456956, 0.252103657063, 0.129577184011, -0.281426948286,
        0.197850737164, -0.161116876065, -0.128602178028, 0.138703917828,
        0.148346342492, 0.139758712438, -0.155797344216, 0.079704611280,
        0.281443222067, -0.095040172748, -0.007734120771,
        -0.146774397469, 0.064120770278, -0.047325673151,
        -0.223939177398, 0.275667157856, -0.179757359082,
        -0.178748859187, -0.031658586994, -0.053312430757,
        0.195757555758, -0.123425880816, 0.056813310268, -0.178982410633,
        -0.280011316522, 0.187733066224, -0.139470850308,
        -0.185977644478, 0.072178308042, 0.160743914603, 0.095510209495,
        0.270632852840, 0.190654357188, 0.254903334523, 0.129603387902,
        0.112254210224, -0.006709306646, -0.049002942307, 0.266657946318,
        0.274424968754, -0.134506869577, -0.110712132420],
       [-0.033162381475, -0.003892524394, 0.159359850329, 0.103798436695,
        -0.150134169722, 0.084706317777, 0.055327531977, 0.188866382106,
        -0.091193037834, 0.073804876203, 0.182040110560, -0.048015605237,
        0.005835453186, -0.260492604518, 0.000967363273, -0.014994373104,
        -0.051820801083, 0.142668754073, -0.202940477402, 0.267783910608,
        -0.125913265976, 0.008942855855, -0.270631772263,
        -0.115680168794, 0.207447797981, -0.258082960053,
        -0.194327542799, 0.172221606680, -0.073319661082,
        -0.266296965342, 0.082941965423, -0.114429379641,
        -0.147990312362, 0.154227727631, 0.267955557917, 0.199303650987,
        -0.063550265159, -0.037072409341, -0.030843213894,
        0.001637236418, 0.221735445829, -0.054001791495, -0.200416787544,
        0.150113366828, -0.190646741365, -0.261436935850, 0.065322554089,
        0.100770446856, 0.082912696818, -0.253599750573],
       [-0.004683795141, 0.210520274666, 0.268924362171, -0.225684040920,
        0.176023844846, 0.045918779059, 0.093534802027, -0.079961731818,
        0.279811977747, 0.231456658361, 0.074097546660, -0.054069545412,
        -0.138179368825, -0.196319923921, 0.271168515312, 0.224671051173,
        0.155638550041, 0.124407502334, 0.024946232547, -0.216586866852,
        -0.086364472565, 0.270708078609, 0.283031469148, 0.107689876397,
        0.035967318272, -0.007273373714, 0.012112855165, -0.242337034679,
        -0.069122354381, -0.160308546310, -0.100001744529,
        0.040150727326, -0.175098828760, 0.022256017089, -0.086582245447,
        0.005707404199, -0.085465144160, -0.205080087436, 0.181112828079,
        -0.122508944587, -0.025397193932, 0.254524177712, 0.249699569536,
        -0.121142410796, -0.282566035393, 0.094000149494, 0.124813612574,
        -0.246909340655, -0.020369405162, 0.132870628674],
       [0.002544356239, 0.245475737802, 0.129093976255, -0.128814181170,
        0.049045565896, -0.098873770068, 0.174271273991, 0.116271529112,
        0.115339214718, 0.036433679775, 0.040916481726, -0.076247866269,
        0.075220594026, 0.273837103321, -0.217815545581, 0.042428758180,
        0.178700707284, 0.227739499173, 0.008515166049, 0.021965937246,
        -0.248274745507, 0.256257610895, 0.025691596577, 0.262451513483,
        0.226898530619, 0.171537800039, -0.106105607671, 0.036131649367,
        -0.050870447714, 0.169643686209, 0.240207116433, 0.090560448920,
        -0.104926134270, 0.158230609286, -0.048285976935,
        -0.135070706385, 0.219326411611, 0.254270074767, 0.109151969811,
        0.199055767679, 0.253456461282, 0.033772642237, -0.058118302859,
        -0.120718198495, -0.083445868105, -0.149878796689,
        0.160486707555, 0.071610181790, -0.139405716267, 0.144356123583],
       [-0.075756362115, 0.149747517633, -0.102425657602,
        -0.119602026114, -0.265505408170, -0.065928275356,
        0.007676085215, -0.262564335081, -0.277401558621,
        -0.231467588808, 0.165655630408, -0.099216748950, 0.233109724031,
        -0.268632410665, -0.207098141708, -0.160319210000,
        -0.200075039593, -0.263899729698, 0.151062485510,
        -0.101589094131, 0.120114027834, 0.234374842617, 0.166633975007,
        -0.077292084682, 0.153464256343, 0.106102581076, 0.084750569744,
        -0.061289566807, -0.031660385380, -0.157970824521,
        0.026493128381, 0.019340837704, -0.088017539584, -0.198295042546,
        0.008990558856, -0.093647521206, 0.169809268664, 0.193046043107,
        -0.154387087077, -0.063525151520, -0.179150189666,
        0.039301998995, -0.092488156270, -0.265159495247,
        -0.243669836852, 0.244604829568, -0.056938228707,
        -0.157077553364, 0.191628594286, -0.258459346215],
       [-0.153398667912, -0.259587640676, 0.103409712657,
        -0.044233443299, 0.206449235158, -0.153570623958,
        -0.202118545557, 0.063618859000, -0.068093885263, 0.104175907590,
        0.150271539927, -0.084351552509, -0.144882820173, 0.089032794565,
        0.103578692772, 0.246499183237, 0.176749275028, 0.107026596533,
        0.196966869324, -0.172603250615, -0.054437116758, 0.234558206547,
        -0.175881479686, -0.048090190723, -0.222865509943,
        -0.029600030590, 0.092943828622, 0.263233828305, -0.049624564059,
        -0.128519528515, -0.200910402709, 0.227978291221,
        -0.038973771936, -0.207093901799, 0.226972614577,
        -0.260772480373, -0.045116695655, -0.247779890420,
        0.162473201596, -0.072593706329, 0.172059741563, -0.217651239674,
        0.114533234840, 0.057404561286, 0.184592679737, -0.228672942708,
        -0.259360760782, -0.026392394169, 0.229380192734,
        -0.227027831528],
       [-0.090378887023, 0.037644756359, -0.121381544384, 0.225415515672,
        -0.240571087808, 0.016753881816, 0.103441132714, 0.182863083235,
        0.126955252089, -0.109543348023, -0.197535776478,
        -0.044488879807, 0.000135280598, 0.070621144142, 0.155453000403,
        0.104625010191, 0.281056442772, 0.160446051235, -0.163293005355,
        0.016543667016, 0.189068871829, -0.059735163256, -0.062417733793,
        0.138108614344, -0.276212060574, -0.050084497099, 0.237430517314,
        0.264960200714, 0.146955168378, 0.044618093672, -0.249394782839,
        -0.205432886345, -0.209333773092, -0.003397746671,
        -0.262476444568, -0.076115375131, -0.096380487857,
        0.005294615014, -0.278347791198, 0.124528285787, 0.083063754664,
        0.172097490349, 0.232103521241, -0.007543326069, 0.260331544406,
        0.116438626705, -0.130066497583, 0.015286564272, -0.048559617054,
        -0.204035081234],
       [0.057382952499, 0.278424401667, 0.167520560105, 0.001005827241,
        -0.135657274409, 0.104102226413, 0.027201924369, 0.202641069158,
        0.213414625120, -0.075585855884, 0.041825297988, 0.182716417401,
        -0.268656586519, -0.187924072633, -0.117826103666,
        -0.180667339253, -0.029463021009, -0.039660697138,
        -0.058158746507, -0.261224164116, -0.191215154011,
        0.008046994817, 0.153669872139, -0.029559423085, -0.179439056246,
        -0.123593340922, -0.202780683031, 0.040055612144, 0.163267600426,
        0.125451907572, -0.248253448034, 0.002189892751, -0.058308741270,
        -0.080687694026, 0.060353817565, -0.194405018623,
        -0.181126067025, 0.043226035476, 0.091425389337, -0.256161152490,
        -0.144132118625, -0.069456589232, 0.188908596820, 0.271423292378,
        -0.246244856770, -0.211859138683, 0.146741965587, 0.255891825674,
        -0.263887110897, 0.030765153764],
       [0.249380152549, -0.172306869017, 0.098214947035, 0.052881429048,
        -0.181031190611, 0.039480161716, -0.007805438223, 0.249936164038,
        -0.005839883129, 0.084722201683, 0.201730943291, 0.132563620490,
        -0.182540751143, -0.149566879216, -0.235285932610,
        -0.114109653180, 0.088282572050, -0.227193573993,
        -0.040985552250, -0.028723001953, -0.134305508384,
        0.088583246864, 0.007309998136, 0.262100715628, 0.004204530872,
        0.170573224262, -0.202503927397, -0.012719919809,
        -0.036772346049, -0.105688640639, -0.149941318225,
        0.245339569023, 0.282507568944, -0.074967703346, 0.265806694411,
        0.196658226123, 0.019697985841, 0.251035746925, -0.001475281070,
        0.091158161535, -0.028128992148, 0.213645777935, 0.138234300719,
        0.098214797752, -0.220066533602, 0.042889908789, -0.214236436817,
        0.068921134987, 0.215689398017, 0.047981434110],
       [-0.069538185424, -0.238250642381, -0.015571658198,
        0.152583183794, 0.184261647175, -0.008843786052, 0.063358200561,
        0.215420746322, 0.195036184197, 0.208342475421, -0.036622818469,
        -0.212192525337, -0.007535140665, 0.020399469744,
        -0.174181776124, -0.046436116927, 0.214638259425, 0.003626204112,
        -0.085869267340, -0.028525999729, 0.190223830565, 0.204214119384,
        -0.010026869887, 0.102486858204, 0.171468863916, 0.208290276061,
        0.222300545242, 0.282398369145, 0.169559847886, 0.189521872103,
        -0.276387761258, 0.138572591630, -0.032072047361,
        -0.148821360048, -0.148786960909, -0.155127209854,
        -0.009732360198, 0.258660048332, 0.235854720755, 0.264358293355,
        -0.182690165754, -0.182594847896, 0.141585869428, 0.203347738177,
        -0.024083239703, 0.013132828524, -0.037260950185,
        -0.021671620366, -0.037741941477, 0.185559374968],
       [0.036387392877, -0.188332531608, 0.150747254845, -0.144926361214,
        0.276145518025, -0.111726438272, -0.002985481056, 0.014768675484,
        -0.262572593630, 0.279021178290, 0.258962497995, -0.275890800843,
        -0.172820904634, 0.083610879429, -0.016605367234,
        -0.267044502517, -0.065397732983, -0.040041219756,
        0.104523002552, 0.146521099582, 0.131988255528, 0.012197652793,
        -0.280547961406, 0.096518887472, 0.183894994980, -0.192473479929,
        0.266233402424, 0.099944168705, 0.214100935220, 0.072778089612,
        -0.236812706388, 0.114889674946, -0.033500364230,
        -0.256318332389, -0.062832516862, 0.044369367665,
        -0.014155641949, 0.191494151464, 0.176305210639, 0.051506932641,
        -0.078911855911, 0.031241245785, -0.144467410751,
        -0.054205665655, -0.056359010792, 0.165803917098, 0.018899055741,
        -0.014878542283, 0.102664034967, 0.128772111416],
       [0.259857759458, -0.166082342328, 0.262984403357, -0.163631465448,
        0.245415872729, -0.104058001112, -0.147698457499,
        -0.066607772063, 0.001712295452, 0.127041127895, 0.249957450010,
        0.169057230950, -0.062402033362, -0.064275654261, 0.034582380199,
        0.277163294561, -0.110489143842, 0.020590415178, 0.202609212639,
        -0.117508327120, 0.039068640618, -0.008620111134,
        -0.235898979566, -0.270042680602, 0.034589460986,
        -0.167264711487, -0.120884859906, -0.145164269874,
        -0.283534593076, 0.226967832178, 0.197399218891, 0.033007299859,
        -0.214142908071, -0.125281287343, -0.097440543424,
        -0.044678710315, -0.051001520299, -0.126078369334,
        0.079135441220, -0.268091131546, 0.034414000098, -0.131228509723,
        -0.159978435637, 0.080470121157, -0.176965300069,
        -0.281779694424, -0.165056588475, -0.081295583171,
        0.229111689336, -0.256302468121],
       [0.165587568227, 0.044210867823, -0.258081713542, 0.243061158019,
        0.189428829580, 0.104369553206, -0.145608333185, 0.005311386131,
        -0.063240148699, 0.018366492081, 0.204950251349, 0.030217822355,
        -0.136051673603, 0.036304277358, -0.174643945908,
        -0.217323470401, 0.165838684714, -0.260925678061,
        -0.063148859728, 0.201090703861, -0.205305284706,
        -0.160557054569, -0.112256350145, -0.225028833539,
        -0.050699636776, -0.211558265506, -0.177105363916,
        -0.220457800853, 0.249785878986, 0.056678197473, 0.129008382139,
        0.060681022156, 0.227068766894, 0.167903863378, 0.250633444320,
        -0.038385013401, 0.130607177609, -0.140410923825, 0.159180032922,
        0.094264945899, 0.223564543688, 0.096851083190, -0.115895277084,
        -0.105612470884, -0.118201751299, 0.201103154681,
        -0.230280940877, -0.262630103578, -0.118611810000,
        0.178466119504],
       [0.074506921022, 0.131268083023, -0.099757383279, -0.036562548807,
        0.086448034515, -0.266865996959, -0.134677826547,
        -0.029002761566, 0.001243141523, 0.007528668079, -0.169516466981,
        0.113769333007, 0.021351760955, -0.174675384548, -0.161870671352,
        -0.073190112426, 0.135695040831, -0.261682310875,
        -0.038544214772, -0.038188647899, 0.019565533535,
        -0.106275410934, -0.197885535820, -0.137798940640,
        0.274549083572, -0.071521471399, -0.225911952889,
        -0.001490940956, 0.069251537594, 0.020708528139, -0.140440720778,
        -0.181442786366, 0.057438679278, 0.016935421770, -0.043947241013,
        0.239111577934, 0.102532619080, 0.219608171987, 0.211030283048,
        -0.260661893057, -0.038472019490, -0.150634645034,
        -0.240031549474, 0.283920373919, -0.000666872906,
        -0.020732542850, -0.250300242765, -0.056116374915,
        -0.191073021210, 0.051909189546],
       [0.173142746447, 0.113475387141, 0.218639131614, -0.040996668763,
        0.215925078357, -0.079647943775, 0.206595707333, 0.242437314951,
        0.245404264419, 0.071073523829, 0.070403487278, 0.041690015602,
        0.000178015238, 0.147441566411, -0.159674131204, 0.117881114504,
        -0.214936425073, -0.017223614993, -0.098285753652,
        -0.212684140498, -0.234060152161, 0.075494991975, 0.248487221045,
        -0.266985597238, 0.250167103898, 0.019031696704, 0.165487526300,
        -0.013387589883, 0.216627274130, -0.152555730951,
        -0.067289034933, 0.240775567248, 0.211629306759, -0.057205135317,
        -0.024756427032, 0.072519508476, 0.204129441461, -0.087967971247,
        0.106941278428, 0.130937521755, -0.134551750442, -0.124554980265,
        0.235978455253, -0.178528085954, 0.072206493713, 0.219245748130,
        -0.228662417608, 0.081017724355, 0.078917271378, -0.088793421647]])