array([[-0.080637498789, 0.178113857049, 0.038419572625, 0.249881191054,
        -0.252667197169, 0.142142079174, -0.092626902745, 0.117991227954,
        0.174770761494, -0.070275662893, -0.108795037646, 0.101815768317,
        0.207519926516, -0.207470914827, -0.124419037331, 0.280118140121,
        -0.192162580865, 0.215049827181, 0.143116455859, -0.019591680729,
        0.268680223259, -0.195996171515, 0.013616202662, -0.156447543691,
        0.169146158972, -0.146377148460, 0.077137406457, 0.202238766268,
        -0.087504118335, -0.004536766392, -0.060134662238,
        0.121318553012, -0.222288263608, -0.086619817345, 0.047448354911,
        -0.012774202651, -0.096197840919, -0.119536266366,
        -0.026916093308, 0.017466773532, 0.062246219116, -0.055633603328,
        0.044736458650, 0.035180550442, 0.021268451164, 0.022110163330,
        -0.256671439133, 0.067956938181, 0.064836938767, 0.068844887003],
       [0.002394753512, 0.045547810757, -0.022757174619, 0.057423226102,
        0.221348839374, 0.143850737823, 0.221934331492, -0.078219558602,
        0.035525414079, -0.252619282626, 0.057681791202, -0.252602748286,
        -0.205668337622, -0.102393097141, -0.040726162346,
        0.010359541794, -0.093478514718, -0.098756415784, 0.018008615863,
        0.113761682848, -0.008972643796, 0.275247104825, 0.081524034467,
        -0.067173084529, -0.073332162976, -0.239207013676,
        -0.018520540159, -0.213562702816, -0.074083305095,
        -0.171996437385, -0.132675079577, -0.009378137178,
        -0.066535229666, 0.232372173458, 0.192382084610, 0.166129433132,
        -0.167320269821, -0.121185519843, -0.179293949673,
        0.077728907480, 0.226501811869, -0.020930127959, 0.066293140081,
        -0.199580140264, 0.072895713996, -0.118783986303,
        -0.000833994891, 0.278081473278, -0.237476497232,
        -0.097769576325],
       [0.244948123591, -0.254767484171, 0.102856698017, 0.064033285099,
        -0.094577005573, 0.004046523305, -0.067772674457, 0.163905157221,
        0.085059648435, 0.140139823635, -0.132998269468, -0.119623168052,
        -0.006498801323, 0.146443600666, 0.000250197222, 0.096188548867,
        0.100051536684, 0.122416575318, 0.080575754674, 0.022802362536,
        0.124533904753, 0.136346423415, -0.194514402145, 0.052581069271,
        0.222584417967, -0.170997021068, -0.245427299471, 0.126578853095,
        -0.018249752127, 0.195621622601, -0.106045424016, 0.210016787625,
        0.008572644026, 0.185603136895, -0.257906659523, 0.156590920820,
        0.219133638177, -0.206041575458, 0.214698100437, -0.212196104260,
        0.006087501570, 0.211596716297, 0.002428945868, -0.045597283994,
        0.032663055923, -0.198428024095, -0.017269406192,
        -0.018850238149, -0.074283134229, -0.236373982654],
       [-0.174119300198, 0.149815077884, -0.102682251274, 0.128425825321,
        -0.245899794259, -0.178779171591, 0.022222522374,
        -0.174793586683, 0.241511722049, -0.100216483265,
        -0.165455573607, 0.101134914804, -0.177188777433, 0.192878865033,
        -0.278234217122, 0.170740474802, -0.179325808416,
        -0.055944739577, 0.112471222476, -0.203474619179, 0.034713993495,
        -0.036118115478, 0.216157644814, 0.044664477267, -0.200280345600,
        0.139634428623, -0.233088833494, 0.179494841031, -0.137711350822,
        -0.138016731387, -0.039474303712, 0.059222307470,
        -0.228482766588, -0.238943272388, -0.206603367305,
        -0.254869970406, 0.002558792480, -0.038754282704, 0.111184614768,
        -0.237247500478, 0.276140829923, -0.277605540873, 0.016114864983,
        0.088857480361, -0.218746655320, -0.083462940829,
        -0.265414197509, 0.247039401003, 0.081795393715, -0.074393085914],
       [-0.265043944070, -0.162516481759, 0.026015802337,
        -0.245889197721, -0.207044365501, -0.265139566751,
        0.071528207409, -0.160307328059, -0.225438315243, 0.107502714578,
        -0.174559601818, 0.147445769388, 0.053560264583, -0.052151208170,
        0.078292574858, 0.151730370368, -0.035156388798, 0.046142474596,
        -0.189823660708, -0.274648196912, -0.066308817619,
        0.253012681279, -0.063072186181, -0.099845969792, 0.112592391805,
        -0.069294768810, 0.075893442716, -0.208773420486, 0.099953153556,
        -0.160797343956, -0.122608713457, -0.157936825130,
        0.109686500309, 0.271032387033, 0.044637031118, -0.229787821759,
        0.133900603297, -0.166985462000, -0.193103117326,
        -0.248680297326, 0.108904343280, -0.231053017713,
        -0.071285638091, -0.073777313985, 0.208621141473,
        -0.096681387343, 0.258643318665, -0.042447769166,
        -0.153808299806, 0.283448491578],
       [-0.232228644827, -0.195785143504, 0.055702843342,
        -0.205358043098, 0.173889951233, 0.122538924687, 0.127516867299,
        -0.166217254292, -0.045930698255, 0.162725774477,
        -0.172870589476, -0.147243454360, 0.127690652294,
        -0.126411143491, -0.174850932186, 0.214274273046,
        -0.143858555809, 0.133106465151, -0.028366762151, 0.132088199456,
        -0.246854886752, 0.219602076327, -0.061866131737,
        -0.225112558842, 0.064178806559, 0.072377274809, 0.084125353479,
        0.250067666023, -0.224520886309, 0.093900403755, 0.224808613378,
        0.073619501729, -0.106398018234, 0.172646371235, 0.042453286330,
        -0.267960422091, -0.091582493765, 0.210929820589,
        -0.245790225796, 0.244566246572, 0.242884906585, 0.145581655687,
        -0.163217904685, -0.080937002446, -0.145286160994,
        0.088496130754, -0.097429739315, 0.270520506967, -0.058881731444,
        -0.018457634147],
       [-0.156331004641, 0.248064188885, 0.156287633228, -0.210849708735,
        0.140023765896, -0.035820118123, -0.080655158380,
        -0.223685854943, -0.077706253016, -0.188278991228,
        0.126581904505, 0.090476333569, 0.062303122588, -0.218317832069,
        -0.219824005310, -0.263671794970, 0.080405003139, 0.096202916725,
        -0.254065762118, -0.201239374496, 0.203381942112,
        -0.262588247016, -0.084533455939, -0.257153211608,
        -0.244371034668, -0.007095393395, 0.190870483211,
        -0.065797854044, -0.073728858417, -0.284590884717,
        -0.259924139619, -0.023752636286, 0.048403713120, 0.032518472402,
        0.096278245485, 0.204868288816, 0.180811674460, 0.196560853291,
        -0.219308461566, -0.035615556817, -0.197181739672,
        -0.204719003266, -0.281995895983, 0.137766831842,
        -0.236574066646, 0.141601491039, 0.152475195019, 0.006168322015,
        -0.049862630619, -0.057436322767],
       [-0.021161194561, -0.154915674455, 0.187838411207, 0.252099610327,
        0.101341518422, -0.261092148598, -0.156454036516,
        -0.113899121737, 0.004058500440, 0.157514852191, 0.245753572415,
        -0.235055866315, 0.200477879788, 0.081704490396, 0.067985401507,
        -0.244705305521, -0.199020306454, -0.039098097633,
        0.051413410986, 0.095134642235, -0.073604925051, -0.065299745294,
        -0.087315592485, -0.121616266455, 0.230184732869,
        -0.158402972500, 0.258950494383, 0.113247263016, 0.236616514813,
        -0.014806023894, 0.268011452588, -0.088578988299, 0.222392616763,
        0.088583544151, -0.063189043109, 0.022757847565, 0.064180255926,
        0.129256747864, -0.153376112300, -0.234487876601,
        -0.145067773990, 0.061653901349, -0.051814496494,
        -0.030717302401, -0.078344412888, 0.261175060293, 0.159204316612,
        -0.082192351835, -0.038796852608, -0.136570466801],
       [-0.016666149485, 0.067402467018, -0.095543043217, 0.189931787714,
        -0.043302689827, -0.150837716728, -0.037772399424,
        0.155167434996, -0.106024737913, -0.059197161403, 0.036886641570,
        0.003654501718, -0.009480116838, -0.191200756605,
        -0.015061665984, -0.001760460388, -0.054551744855,
        -0.166401445612, 0.052432708760, -0.056494352912, 0.194401768657,
        -0.033383000736, 0.212248887455, -0.031236601554,
        -0.161925091875, -0.166879122777, -0.250427858714,
        0.095501706034, 0.211118871630, 0.179427446201, 0.208345848848,
        -0.057736718314, 0.177339692277, 0.089546538244, 0.142688594743,
        -0.097934622792, 0.145328812513, 0.058309548755, 0.185634075465,
        -0.257331983174, 0.157141607194, -0.244001561440,
        -0.071075375621, -0.070601307340, -0.268765408515,
        0.268101719728, 0.218703259895, -0.225814815976, 0.059920475302,
        0.154065823139],
       [-0.160143187406, 0.002763030205, -0.009955402726,
        -0.213474590986, 0.173958290939, -0.231687312149,
        -0.186978819581, 0.207094230160, 0.101211321219, -0.048617332119,
        -0.049237253473, 0.009385698597, -0.219120812787, 0.006767025492,
        0.200693491330, -0.029318576217, 0.156417620045, -0.141479172515,
        0.068663611519, 0.163203319311, 0.095516343739, -0.054243930661,
        -0.148227726925, -0.176710111767, 0.186465667542, 0.066656540184,
        -0.132989451224, 0.255870305226, -0.279984535188,
        -0.191781981800, 0.053156669795, 0.032036011191, 0.216024819917,
        -0.015437567104, -0.110916254023, -0.099508378171,
        -0.197256958377, -0.034770776911, 0.200033686892,
        -0.108752395549, 0.199930363918, -0.008675952388, 0.104808557565,
        -0.108231777114, 0.272584285743, -0.204015269224, 0.007892356695,
        -0.112475304022, -0.050946680931, 0.172089114305],
       [0.253357094553, 0.116382584883, -0.193170195807, 0.094416796666,
        -0.026380159459, -0.244408180333, 0.004354939043, 0.218080067224,
        0.066407119598, 0.092202354528, 0.179715914438, -0.062520370516,
        0.194625655017, -0.064991705214, -0.055241989070,
        -0.059082841332, -0.069433536044, -0.135893792361,
        -0.116534095307, -0.161468734171, -0.243384771993,
        -0.012546266308, -0.144715535451, -0.215056767433,
        0.261710583074, -0.187212127566, -0.172382276665,
        -0.233533273555, 0.039046636938, -0.210270032998,
        -0.112676284616, 0.055189043237, 0.264914326804, -0.227448670063,
        0.250065208012, 0.182527185637, -0.076993284248, 0.243785913628,
        0.205158655073, 0.169845933805, -0.122328054229, 0.282614420046,
        -0.021156831389, 0.124877096566, 0.171268695869, -0.009623496799,
        -0.264005430424, 0.041479992983, -0.223628782697, 0.267223022522],
       [-0.155826472227, 0.112968884390, 0.059232547693, -0.005287857491,
        0.230246154793, -0.121394885029, -0.200508559365,
        -0.205642007976, 0.121637935531, 0.090603542385, 0.151577651779,
        -0.160867487907, 0.165217225077, 0.020526054051, 0.211069479143,
        -0.069039759051, -0.218654541214, 0.223611913224,
        -0.100606574835, 0.160368789456, -0.105244919368,
        -0.050663538790, 0.158917815726, -0.164723719622, 0.126750419319,
        0.044724369802, -0.033266503672, -0.180719440477, 0.249379549115,
        0.267345401820, 0.038515090467, 0.266956435600, 0.252082805414,
        0.105579752972, -0.063510073252, -0.191028987646, 0.098639560373,
        -0.261306030117, 0.165322635082, -0.232812077747, 0.219299991877,
        0.001613150537, 0.276741906450, 0.184092846975, -0.125111928276,
        0.007981046793, -0.021115704704, 0.120180653207, -0.088033607680,
        -0.111074177777],
       [-0.232441481182, -0.104547327788, -0.099907726665,
        0.219547987300, 0.055366218639, -0.018859931952, -0.213396849000,
        -0.255757875924, -0.255411985054, -0.227501629469,
        0.052891595231, 0.205613485033, 0.083864341574, 0.253042971909,
        -0.074662109462, 0.116269892645, -0.226822885899,
        -0.025042528675, 0.082344292521, -0.132000754074, 0.222911469188,
        0.251151147080, 0.106771857327, -0.144200445470, 0.183991618161,
        -0.010801394240, 0.119012756404, 0.018415682426, 0.252566229115,
        -0.158537967391, -0.105966317920, 0.036419637683,
        -0.215484689634, -0.168362369699, -0.143127414374,
        0.032625161711, 0.044637798672, -0.268643856683, -0.273120641862,
        0.153114062658, 0.247435286201, 0.150517360447, 0.053517372124,
        -0.192530379920, 0.019097422610, -0.155098998273, 0.074854219885,
        -0.075477556401, -0.180758761728, -0.179354233356],
       [0.186555990990, -0.216859905752, -0.082144526599,
        -0.135588651533, 0.125098167723, -0.039954097507, 0.273579343655,
        0.155885676907, 0.090421811795, -0.202967529046, -0.142635887375,
        0.198919447876, 0.033964271631, 0.195868523677, -0.160451400077,
        0.159198017789, -0.281377626205, 0.265008368937, -0.118320282625,
        -0.134768429417, -0.028360969979, 0.251217564661,
        -0.282372913939, 0.082233305389, 0.070056773003, 0.249141192771,
        -0.281270066951, 0.033362559972, 0.205886581788, -0.179418427279,
        0.039034924453, -0.090032615446, -0.199177376637,
        -0.154414987935, -0.039330240040, -0.024298515287,
        -0.065983728364, 0.120004747191, -0.206999926013,
        -0.008069329685, -0.063597222123, -0.188311372272,
        0.257346586277, 0.209356399851, 0.035760655516, 0.153355136561,
        -0.076373898858, 0.270489493089, 0.172209507943, 0.034888648913],
       [0.257097815266, -0.049494841382, -0.151966099378,
        -0.126623230758, 0.141627514807, 0.043924602622, -0.254156262792,
        0.152778481414, -0.052995028628, -0.189971599102, 0.065455208094,
        -0.223385604477, 0.061183615161, 0.210423810282, 0.039610574198,
        0.193409771385, -0.168336480118, -0.180588458052, 0.113224247449,
        0.211094267596, 0.056291390386, -0.007674612275, 0.248862987381,
        0.004694145328, 0.056047799215, 0.234544372495, -0.028859320656,
        0.253951350074, -0.126919689107, 0.031123873582, -0.028043417825,
        -0.107328347452, 0.238023912969, -0.063798000863,
        -0.077324266886, -0.249588155712, -0.125329518992,
        -0.247102939862, 0.223218044311, 0.028522598271, 0.233856019569,
        0.209210602368, 0.047707968198, 0.203381631521, -0.028092348543,
        0.176398022478, 0.212371340779, 0.197058036355, -0.002424723938,
        -0.277473561126],
       [-0.179597562286, -0.150314130162, 0.051807745669,
        -0.270824243894, -0.277740853439, 0.153830054146,
        -0.070638189543, 0.188595831976, 0.198038720955, -0.209030315524,
        0.237890844497, 0.131532263390, 0.182059795451, -0.091835587745,
        0.182447528422, -0.209031168151, 0.168547998800, 0.242047497019,
        -0.063018598242, 0.060504313306, 0.224228988090, 0.087038683419,
        0.014994690472, 0.134162116722, 0.183632520409, -0.145745039338,
        0.002001735207, 0.002033840100, -0.214594062428, -0.065089838410,
        -0.265518554702, -0.151974554363, -0.129972954595,
        0.002853987813, -0.100741058119, -0.143440839401,
        -0.084289492138, 0.245125255280, -0.211567168730, 0.057168934227,
        -0.067090241472, 0.154165845624, -0.130372051241, 0.111292523666,
        0.090448108091, 0.131920661867, -0.167613862534, 0.264733951362,
        0.221588753482, -0.195443300225],
       [0.195349300133, 0.183916685013, 0.016892955281, 0.038562197882,
        -0.093287608413, 0.065192825359, -0.225966066762,
        -0.128952494558, 0.224108289760, 0.019598377400, 0.023493877199,
        0.224792195129, -0.077513727933, 0.051145864688, -0.236359773105,
        0.061679724913, -0.132319451793, 0.016360562787, -0.255155754564,
        0.020937409020, -0.006335881322, -0.084704170426,
        -0.197478224807, 0.055313749340, -0.021532830384,
        -0.154807396565, -0.022129800160, -0.097139037048,
        -0.200633748898, 0.130573520256, -0.195283830411,
        -0.125195341545, 0.046332686811, 0.213865624065, 0.277568669125,
        0.131932572759, 0.239474624889, 0.170831041502, -0.205320430390,
        -0.072307672918, -0.186702364104, -0.049037426845,
        -0.049890536948, -0.037615217852, 0.081799828570,
        -0.121487297492, 0.039228204608, 0.125828562272, -0.104347322913,
        -0.062296025530],
       [0.194727114141, 0.128685666479, -0.149944644483, 0.281095918457,
        -0.040667143521, 0.177211924366, -0.167138713580, 0.009361534479,
        -0.087186705644, -0.161544489739, 0.120700249680,
        -0.036704943809, -0.072276575316, 0.122702741255,
        -0.240044814976, -0.139960182482, 0.146248170127,
        -0.156071080785, 0.265904479435, -0.021404142066,
        -0.123135352036, 0.240806252971, -0.175335948046,
        -0.272216451997, 0.179260378144, -0.097760755245, 0.083314059660,
        -0.004105819331, 0.004238895952, 0.041330814375, 0.283463301375,
        0.242871747134, -0.272037109268, -0.170249156509,
        -0.002056354824, -0.094697472445, -0.032674440709,
        -0.282937996719, 0.214450458818, 0.210717092552, -0.175385769499,
        -0.044219680321, 0.158516743141, 0.265336928062, -0.089006673707,
        -0.255654333317, -0.258095244379, 0.167865495841,
        -0.220116474465, -0.250843136148],
       [0.063333502095, 0.248857725098, -0.013272436049, -0.241760480794,
        0.059578963243, 0.202805194908, 0.264728320790, -0.164267292773,
        -0.229217953886, 0.282006961903, -0.236011512539,
        -0.135886389380, -0.016205058689, 0.055553604052, 0.218447614387,
        -0.143039854328, 0.100926867816, -0.012130584084,
        -0.043272050340, 0.001705948359, 0.092143756350, -0.001494692003,
        0.135282355916, 0.202374010004, -0.231329357369, 0.079426575360,
        -0.278491576924, 0.153292709376, 0.149399287203, 0.245828806877,
        -0.147623008977, -0.027921120357, -0.188648468639,
        0.191543474694, -0.110573176627, -0.272916435653,
        -0.230329428035, 0.258834801474, 0.205458476330, 0.127901999418,
        0.255987929729, 0.038968970488, -0.087345478334, -0.158987964203,
        -0.267969824199, -0.182141639195, 0.027902998641, 0.082233267761,
        0.189426556475, -0.121276336554],
       [0.153338257484, -0.179202132601, -0.243701127183,
        -0.046219932778, -0.116709154749, -0.177809507154,
        -0.265048810281, 0.264137008073, -0.144742640611,
        -0.075245062684, -0.086735727024, -0.145273410641,
        0.283501861662, -0.023635689405, -0.103009675856, 0.220182359841,
        -0.129375772800, 0.107750240073, 0.088760215881, -0.049707283267,
        0.097350992376, 0.144922414175, -0.046791233939, -0.251060772875,
        -0.007140479464, -0.268166529031, 0.278930317945,
        -0.126146119873, -0.257717159230, 0.117584504020, 0.154924558321,
        -0.066139382992, -0.263058605998, -0.008441394225,
        -0.089994645774, -0.272638578964, 0.279582086169, 0.073455107328,
        -0.002201753388, -0.170089320664, -0.162622071526,
        0.136995951773, -0.249333563160, -0.043036809426,
        -0.018584994240, 0.234930101518, -0.261471444706,
        -0.160521521758, 0.000450907917, -0.058014181402],
       [0.108298986967, 0.091573556069, 0.069580680722, 0.044920972077,
        0.102847808982, -0.082415406505, -0.114619544699, 0.066452417478,
        -0.241213412227, 0.190144436594, -0.066595813323, 0.093420597394,
        -0.248058833234, -0.273132989471, -0.141761805390,
        0.024851650491, 0.220697157015, 0.272632200838, -0.033696809996,
        0.066705733186, -0.055013373197, 0.245792093354, -0.054829805391,
        0.256561745233, -0.266246849682, 0.111156463969, -0.244766076220,
        -0.000683629955, 0.269538861243, -0.075203855669, 0.160103595469,
        0.026511848022, 0.212418120017, 0.228217688443, 0.228384790244,
        0.191645252055, -0.269643674239, 0.132279023841, -0.126815238559,
        -0.254992498230, -0.134775709258, -0.119244647610,
        -0.275078374395, -0.201851370758, -0.128918732124,
        0.180358943101, -0.166460239770, -0.177037997944,
        -0.240454528668, -0.029512771065],
       [0.024230872821, 0.266847993972, -0.057694651525, -0.085729155058,
        0.029083479389, 0.139549250352, -0.248075455564, 0.184767939052,
        0.099922063249, -0.254956952315, -0.204875062390, 0.253869638971,
        0.200769993919, -0.273714729191, -0.273912636244, 0.052103175949,
        -0.254364090602, 0.000670908162, -0.155029972579, 0.074982093982,
        -0.202699985831, 0.031338314163, -0.149287681408,
        -0.251028077497, -0.126194179518, -0.262605817360,
        -0.198497482241, 0.115717392034, -0.008915975962, 0.274205314116,
        -0.196526634573, -0.091815291018, -0.108488091108,
        -0.038713560154, 0.110320962161, 0.091330051782, 0.051796958244,
        -0.024129638128, -0.206097508784, -0.102660598234,
        0.024943950718, -0.223489198145, -0.126861697543, 0.145555276475,
        -0.193128075936, 0.129390618028, -0.019832876888, 0.206703326196,
        0.178503272244, 0.168168539462],
       [-0.251813782660, 0.041078760012, -0.055615391083, 0.228993103033,
        0.160764353835, 0.192293708629, -0.186880459504, -0.097648390041,
        -0.153941088115, 0.123820178041, -0.149132361752, 0.238244828277,
        -0.029709819465, -0.281069077135, -0.203575007479,
        -0.028416467574, -0.193825340510, -0.167955734919,
        -0.258553656330, 0.182689450068, -0.281901430754,
        -0.246836771804, -0.277766865746, -0.273741942404,
        -0.040256143990, -0.004004219325, -0.100459280502,
        0.150899586730, -0.084258518343, 0.088871750643, 0.020848000712,
        -0.255770842187, -0.080168772195, -0.212898043494,
        -0.243156959637, 0.082636029093, 0.194995925786, -0.094353814516,
        -0.014879388200, 0.013502114139, -0.003952951661, 0.283394783525,
        -0.249980096245, 0.048939807602, -0.164296075088,
        -0.228899023576, -0.053593595827, -0.072314176837,
        -0.095785657002, 0.196043856544],
       [0.010382788165, 0.074428815357, 0.283829180978, 0.222810726897,
        -0.119016882528, -0.007097144514, 0.088408311781, 0.038719953907,
        0.273695132092, -0.011420067380, -0.098652386707,
        -0.248890135976, -0.261537496545, -0.063650825141,
        -0.177966055255, -0.023645960184, 0.154026166572,
        -0.128767437822, 0.228562179007, -0.199075956069,
        -0.094078687046, 0.074072840744, 0.205533874699, 0.063907714272,
        -0.202922633603, 0.015126756479, -0.020314128584,
        -0.010494503755, -0.184715125708, 0.183322110681,
        -0.265142163668, -0.043167539291, -0.162350191819,
        0.229691643386, -0.118745941888, -0.138330033490,
        -0.107012210260, -0.150017129736, 0.183795252872, 0.242623468758,
        0.053887531589, 0.251069815505, 0.170269986784, -0.246475196593,
        0.142318843581, 0.115758243675, 0.188056641833, -0.010605508288,
        0.129567096478, -0.067614640691]])