array({{0.010171627362, -0.078067463421, -0.133270452615, 0.082702447412,
        0.142719047917, -0.152561798167, -0.062554079479, 0.105356833272,
        0.134226744884, -0.117460227356, 0.173751082768, 0.094397285201,
        0.113558805874, 0.119643188836, -0.151657630227, 0.016536848119,
        -0.093278032027, 0.122450720707, 0.130193268958, 0.039936040655,
        0.075173417561, -0.065872330974, 0.125247401837, -0.149398366439,
        -0.121379864242, -0.034311693472, -0.122252898567,
        -0.116915014481, -0.040098049888, -0.007015874825,
        -0.170078851266, -0.175205249434, 0.103417843260,
        -0.145200392843, -0.084037810529, 0.027266523350,
        -0.101444189418, -0.132299057393, 0.159364304121,
        -0.140205542472, -0.113308715740, -0.094468301611,
        -0.212268698236, 0.106855946567, -0.167895945699,
        -0.054383155105, -0.166521093515, 0.028754146091,
        -0.143787178072, 0.039947119005, -0.157453000368,
        -0.130580667749, -0.201545676793, 0.045078691686, 0.181556065474,
        -0.079144172306, 0.019185274453, 0.060841281874, -0.046377518403,
        -0.107102879832, 0.032955293436, -0.100005033442,
        -0.013036054677, 0.053000600921, 0.203608084957, 0.066157505694,
        0.101123095502, -0.154269542962, 0.029792910113, 0.128404512869,
        -0.059258394972, -0.048412848259, 0.078492747632, 0.070543767013,
        0.070858289035, 0.016459466404, 0.188775715126, 0.101875635629,
        -0.163719494585, 0.097234333546, -0.156507527763, 0.103685818637,
        -0.159769825662, 0.195508649896, -0.037029583068, 0.001118648969,
        0.122044621375, 0.000028912941, 0.124340451225, -0.058542640454,
        0.096396525867, 0.042410445017, -0.053601024714, 0.150937467203,
        -0.195456745833, -0.144941872105, 0.109497658236, 0.083494521321,
        0.152007381303, 0.067403655833},
       {0.128001444895, -0.068789521220, 0.057625345261, -0.133756916623,
        0.090869141672, 0.142442403628, -0.054781947546, 0.094008642018,
        -0.084220695169, 0.146492050995, -0.046698945945, 0.026311447145,
        -0.134017596096, 0.076607210154, 0.089422274789, 0.016150268102,
        0.104818629038, 0.005619867692, 0.081276817181, 0.094376585449,
        -0.086396781941, 0.126550382682, 0.025869225091, -0.205109153651,
        -0.192752089577, -0.018449724060, 0.005375787386,
        -0.060770670846, -0.026148645773, 0.088740546967, 0.048582365831,
        0.020967055980, 0.044905993016, -0.148326575776, 0.039036906247,
        0.159030296268, 0.056494700017, 0.022383215446, 0.105095483362,
        0.025869946625, 0.118288850786, -0.048263866844, -0.143574001156,
        -0.010313399193, -0.017362933293, 0.141012171512, 0.151299668162,
        -0.141199825838, 0.061639833397, 0.075585727412, 0.075666712658,
        0.107199992759, 0.102702949558, -0.094722161136, -0.081262312650,
        -0.001985032215, 0.226868820580, -0.084464410964, 0.119962979217,
        -0.028305035501, 0.169219464156, 0.093815908095, 0.097458589080,
        0.125814632111, 0.065355340865, -0.074468412443, 0.083053421506,
        -0.038992216332, -0.049715696226, 0.138802294277,
        -0.072007717448, 0.118249078195, -0.171603156785, 0.093612825591,
        0.033532684194, 0.163243515306, 0.174236831880, -0.101950443548,
        0.178245958967, -0.028843716390, -0.075560716973,
        -0.030037150103, -0.042259649849, -0.083878224878,
        0.034539522554, -0.089171821817, -0.072966333694,
        -0.091545796475, -0.125228026210, -0.013608817227,
        -0.074486726448, -0.014237170446, -0.024916489966,
        0.112181974933, -0.147305908705, -0.018524626093, 0.185342915865,
        0.007565110556, 0.092433460639, 0.045871533844},
       {-0.046028306200, 0.139331683152, 0.007288465577, 0.053428333355,
        -0.209613740374, -0.086255503918, 0.143837192706,
        -0.140030306481, -0.007536993256, -0.048519443856,
        -0.125441266902, 0.011157873331, 0.063577748484, 0.006855876784,
        -0.147991915686, 0.051449572356, 0.031798891453, 0.173591756505,
        -0.027037154369, 0.064855961734, -0.004039158017,
        -0.102638911302, -0.010745597121, -0.068957315378,
        0.084726898158, -0.247023116494, 0.135148364750, -0.126916988014,
        0.174517130503, -0.019071103579, 0.180660508122, 0.306747065571,
        0.020391289067, -0.158487806071, 0.035622721052, -0.205891636028,
        -0.101744783613, 0.199833728046, 0.140043954716, 0.034300834780,
        0.006515918760, -0.104593951928, 0.142609903138, -0.121244011962,
        0.143892403035, 0.126300606237, -0.196586928365, -0.060300996300,
        -0.013683123519, -0.037341761589, 0.145902047760, 0.037131705638,
        -0.086717728410, -0.088989984226, 0.063513813765, 0.196808983846,
        0.056613029182, 0.031328236120, 0.191375478408, -0.126892664340,
        -0.158336234937, -0.143142328214, -0.117988965002,
        -0.006489548852, -0.252022006314, -0.003495421398,
        -0.104320062675, -0.167018208806, -0.062862001352,
        -0.159791213073, 0.069876817272, 0.119696191166, 0.284117899067,
        -0.361047721978, 0.173658840002, 0.040321420136, 0.037433675722,
        0.093733558598, 0.086516398069, -0.089982759341, 0.095286698486,
        -0.184123466282, -0.201346421273, 0.035288856375,
        -0.222820640929, 0.180988797526, 0.083446118089, 0.042556459309,
        -0.067847819739, -0.021400306084, 0.032276761968, 0.072251064339,
        0.077991537977, -0.015852909794, -0.075364583217, 0.122668110166,
        -0.346660519557, -0.186557903936, -0.083548132419,
        -0.084923247869},
       {0.272937319149, 0.028695397820, 0.058480994479, 0.274890939607,
        0.078970444058, -0.048175625460, -0.133045928090, 0.041394359170,
        -0.161472932800, 0.002666649439, -0.017224676339, 0.159596042196,
        0.165385314465, -0.086335222257, 0.088966229148, 0.217950185191,
        0.087612285800, 0.114644616066, 0.193212304413, -0.007712571765,
        0.129864559192, 0.078316766242, 0.029612015731, -0.084902850134,
        -0.028468039642, 0.098177736415, 0.211403237344, 0.160155398018,
        0.207314481997, -0.137109549976, 0.182018509303, -0.111788473357,
        0.043173518330, 0.057184250747, 0.036591363397, 0.049502099214,
        0.108394953560, -0.233366447120, -0.014053109225,
        -0.159168825183, 0.179890605635, 0.135429869491, 0.146114750979,
        0.023899511089, 0.113991799410, 0.010005806058, 0.146593268688,
        -0.169263671877, 0.068697474182, 0.098256895316, -0.237701633049,
        0.009076927953, 0.129996571603, -0.142134552798, 0.165365274580,
        -0.215841855891, -0.054084788399, -0.062955276889,
        0.048293165988, 0.119990839518, -0.171105450011, -0.076152576735,
        -0.007766955855, -0.077448936775, -0.125812377665,
        -0.091540621597, -0.015529689168, 0.148177962570,
        -0.027495324183, -0.185378069637, 0.104137820628, 0.019250498620,
        -0.091482593978, 0.247837598840, 0.209730670198, -0.312527246545,
        -0.067820457446, -0.006789262053, -0.041373811419,
        0.031468608926, 0.303045289294, 0.048791801009, -0.160820255316,
        0.094424486307, -0.074696233886, 0.029213502787, -0.091465076689,
        -0.060823817548, 0.119978359401, -0.188616961486, 0.256759703173,
        -0.172725520103, -0.057597789210, -0.200500034889,
        -0.290755231464, -0.046057581627, 0.358495096115, 0.117318271312,
        0.037616500700, 0.126281700812},
       {-0.132866097319, 0.032637847943, -0.057773918351,
        -0.067025443516, -0.013660087876, -0.079340062375,
        -0.182083733188, -0.056588414315, 0.099988659920,
        -0.069720931082, 0.010305968003, -0.085354406581,
        -0.016883105873, 0.072761710342, 0.118061117185, -0.132566889688,
        -0.116235698720, -0.098561172751, 0.138214298371,
        -0.099169400162, 0.005818286107, -0.158718125422,
        -0.085026009443, -0.136389235541, 0.019759972459, 0.026615264064,
        -0.123350468490, -0.165472699523, -0.037880614867,
        -0.141989415812, 0.069099120643, -0.215825543541, 0.012521546324,
        -0.161490945488, -0.044485459981, 0.155514715052, 0.044074497749,
        -0.092727619151, 0.146742285226, -0.028427511714, 0.018406700734,
        -0.139071805415, -0.028063295782, -0.176011358946,
        0.029147318460, 0.116802507701, 0.119351097545, -0.119881131561,
        -0.132579738849, -0.121182101998, 0.111181201474,
        -0.058965589670, -0.213569894891, 0.040962782550,
        -0.028711735579, -0.023374368985, 0.088927771449, 0.085412114029,
        0.063756849125, 0.153752092491, 0.000110399516, 0.028849490957,
        0.084834142688, 0.085182017206, 0.038074417792, -0.037960583200,
        -0.051076988150, -0.177626415482, -0.057928858299,
        0.099457010279, -0.113387824213, 0.006758510148, 0.098708994304,
        0.046139383429, -0.081503452610, 0.035445874227, 0.005265907662,
        -0.033210115944, -0.118694798889, -0.190089164638,
        0.038951427743, 0.181795558984, 0.082944115085, -0.081360338040,
        -0.097638251225, 0.160896569386, -0.110764124170, 0.003437286636,
        0.064438126548, -0.067119187290, -0.001438384822,
        -0.193811786286, 0.145253394278, -0.099264877717,
        -0.076699667083, 0.054874517333, 0.111167954981, -0.005645765209,
        -0.102533408841, 0.125427257217},
       {-0.024744156702, -0.177244512656, 0.091715538578, 0.033883471927,
        -0.021284630714, -0.039705227698, 0.079529858835, 0.010558279628,
        0.139688981135, 0.105007453063, 0.174583480963, -0.170739448214,
        -0.119817236829, 0.020526900244, -0.025105375263, 0.024820537831,
        0.112006768801, -0.178833366819, 0.035531779110, 0.043030013584,
        -0.007634942758, -0.053252787894, -0.045346730615,
        0.060407287140, 0.074680818554, -0.145174772895, 0.072635131673,
        -0.099019476921, 0.087555974553, -0.108859740049, 0.067397217079,
        0.107025207387, 0.063298820783, 0.157553453007, -0.086487282107,
        0.024765498344, 0.027632981818, 0.120199302601, 0.004438625915,
        0.062889340844, 0.121400866760, -0.173215934705, -0.125066234809,
        0.100909580529, -0.063933013687, 0.171297112826, 0.000449277075,
        0.081215473951, -0.147888664730, 0.127287952941, -0.112490593938,
        0.180874539142, -0.213885942653, -0.094669520321,
        -0.003811741552, -0.106816250960, 0.223963896322,
        -0.137549209035, 0.182548551782, 0.084252193993, -0.095081312990,
        0.086423608141, -0.176329071310, -0.111751627018, 0.067279065499,
        0.020740533962, 0.023802283357, 0.041534318436, -0.021278149283,
        -0.048186060152, 0.038776461032, -0.007700071033, 0.125747183178,
        0.113113361205, 0.150136930021, -0.122969020316, 0.082257622966,
        -0.137840360910, -0.012990892067, 0.128142120693,
        -0.080868565090, -0.000816904051, -0.146274294779,
        -0.066426308863, -0.048798276051, -0.096440068358,
        0.139764481501, -0.125001635679, -0.068819627259,
        -0.077301330840, 0.132114120716, -0.019860035211,
        -0.048921094428, 0.071282972607, 0.061174098448, 0.053014589438,
        0.054255739232, 0.095722997070, 0.141291413972, 0.004459924201},
       {0.114031478578, 0.080054249901, 0.019739395536, -0.112786284591,
        0.386362756580, 0.073076962851, 0.106934392641, -0.027144886600,
        -0.054701862903, -0.029529193895, -0.034087988453,
        0.335239837794, 0.147443921706, -0.096492160559, -0.075504852932,
        -0.014647297380, 0.117922985989, 0.022228453799, 0.132555158163,
        0.157368760129, -0.010343138507, -0.162461190279,
        -0.049883449391, -0.114020239600, 0.162007686593,
        -0.093241546523, 0.117993481951, -0.255563276126, 0.120244763166,
        0.312576115528, -0.120681149104, -0.168270764406, 0.044043241555,
        -0.293021473642, 0.032904352256, -0.251138253464,
        -0.073042783910, 0.145089950909, -0.153855458537,
        -0.021979768756, -0.150620567798, -0.010529607869,
        0.052950191180, 0.118280466659, 0.032753092008, -0.179490427025,
        0.095214787998, -0.045024144338, -0.047886483870,
        -0.049515766578, -0.102392762600, 0.065651501283,
        -0.045077447942, -0.130163109949, -0.004439714862,
        -0.173073933840, -0.224438707927, 0.256976635182,
        -0.124908452441, 0.135565858003, 0.096752959702, 0.037867861000,
        -0.290980030779, -0.121241342507, -0.035515797744,
        0.002909591428, -0.018354133014, -0.040409669468,
        -0.046992071340, -0.013119989222, -0.060608551327,
        0.011248505442, -0.058214226058, 0.026526640717, 0.047519048592,
        0.230019105762, 0.106112955041, 0.195490130731, 0.155271593619,
        -0.328069362703, -0.176484649962, -0.122659646681,
        0.026892003420, 0.040215423503, 0.294244417013, 0.046930443630,
        0.120602097661, -0.045619622326, -0.074166641572, 0.062490737497,
        -0.219738444999, -0.011007734101, -0.038595057358,
        -0.157548557938, 0.054453583182, -0.119313929072, 0.109508572102,
        0.078889597735, 0.023121661105, 0.219039422583},
       {-0.115767814264, 0.139121557810, 0.245929064357, 0.314986483662,
        -0.226360490190, 0.029040492205, 0.181052860640, 0.106084653774,
        -0.095720534809, 0.054342755908, -0.062563288591, 0.045344159710,
        0.052355811699, 0.184893898140, -0.211189019882, -0.012402192786,
        0.082669196051, 0.031698522650, 0.143023053488, 0.265647904039,
        0.125665179256, -0.023298801173, 0.053994071532, -0.070525339306,
        -0.037878180104, -0.233469784402, 0.139183819035, 0.044005041272,
        0.000223961438, -0.161631264689, 0.089559107127, -0.086560959418,
        -0.169688797617, -0.006638517422, -0.142809674214,
        0.014146110974, 0.263705972170, -0.025276987329, -0.000709498390,
        -0.101079814329, 0.046017630162, -0.037835190294, 0.179830939408,
        0.160125074348, 0.177696984822, -0.078217858289, 0.054777908618,
        -0.042160082570, 0.068497977505, 0.173780399195, 0.033800029372,
        0.130036354280, 0.058169813448, 0.133802537976, 0.091731447450,
        0.073067100640, -0.151061220938, 0.129940442377, -0.009117717661,
        -0.082074227822, -0.050729911836, -0.114632557873,
        -0.050630476045, 0.015685450511, -0.153984874075, 0.094908611195,
        -0.031440591921, 0.131940518937, 0.032968947158, 0.145503066500,
        0.145125373951, 0.117365416188, 0.066689013373, -0.242640223888,
        0.230699159308, -0.153702203043, -0.149847251864, 0.045362718760,
        -0.000117002495, 0.042211851822, 0.130723340233, -0.032477390115,
        -0.008131237491, 0.036563606779, -0.025323995164, 0.075985414425,
        -0.012267947298, 0.001445041614, -0.128163531245,
        -0.016990425408, 0.000156056731, 0.003268341409, -0.112716742542,
        -0.074708457529, -0.033763337311, 0.083679206949,
        -0.316619608006, 0.191357707833, -0.306373866188,
        -0.148394121712},
       {0.029133254076, 0.059009640586, 0.061950196462, -0.059031964577,
        0.022035533512, -0.006903148997, 0.121447344140, -0.124999787518,
        -0.100542091255, 0.121792165081, 0.192600871755, -0.129079969611,
        0.126105664348, -0.131691720243, -0.061649058451, 0.082586739443,
        0.015739078088, -0.074474912234, 0.135829990882, -0.072361566594,
        0.061164494074, -0.066881584024, 0.056464333612, -0.000817326908,
        -0.196351210615, -0.018182712206, -0.176329461481,
        0.174503943238, -0.133507478015, -0.037271875478,
        -0.022805596831, 0.013749907667, -0.101406500285,
        -0.137569576250, -0.105987557699, -0.086445726420,
        -0.195628313842, -0.168138247320, 0.094410824427, 0.062372975306,
        -0.116653586466, 0.037323310800, -0.042977113260, 0.048110160794,
        0.133621375197, -0.117436657666, 0.004668239104, 0.006839471357,
        0.070632813947, 0.062870696922, 0.128886738912, -0.014557762170,
        -0.085268708237, -0.143708564300, -0.123253404701,
        0.112675055914, -0.052676534209, -0.071359262875, 0.195305603428,
        -0.061715154063, 0.130818204782, -0.077812464241, 0.133204545776,
        -0.093717209859, 0.135281742132, -0.058761623459, 0.020848498582,
        -0.115287083236, -0.087245866068, 0.024528240660, 0.086470910801,
        0.131689129451, -0.198625106757, -0.053679293066, 0.151908761021,
        0.180784177775, 0.141935029203, -0.018137212736, 0.079641550779,
        -0.002484533521, -0.039982794072, 0.153217836267, 0.105482982875,
        0.005324873855, -0.087261208495, 0.158396358507, 0.120364694402,
        -0.136562548068, 0.095778650834, 0.131004180270, -0.047352375938,
        0.138520497931, -0.031182249700, 0.202894130792, 0.109076601033,
        -0.129617507433, 0.149915693539, -0.033672983181, 0.114535058144,
        -0.137263051291},
       {-0.165164760975, -0.003111164150, 0.054990388276,
        -0.091258789025, 0.179739337269, -0.101753000543,
        -0.029947938706, 0.052928795410, -0.174627639681,
        -0.019981489670, -0.136995848741, -0.095940063395,
        -0.115244053788, 0.067554190296, -0.202717257125,
        -0.099213723264, -0.302421114616, 0.199130375657, 0.149411644975,
        0.008113004666, 0.138790348166, 0.067098768208, 0.088541152439,
        0.015374383369, 0.113019181407, -0.104388867127, 0.108796474677,
        -0.102550100605, 0.012427959371, 0.123183365413, 0.117423045738,
        0.190875253879, 0.066549425028, 0.041902573977, 0.014324440938,
        -0.048432774065, 0.151977699331, 0.054674758778, -0.065097599155,
        -0.127952332561, 0.131797574305, 0.141211913335, -0.019370646658,
        0.052337369040, -0.029609773148, -0.070695933972, 0.149763610587,
        -0.190941442198, 0.073101504979, -0.106588173889, 0.181099996843,
        0.019391473807, -0.051996199908, 0.003924947262, -0.025671517431,
        0.017958674348, -0.155835828213, -0.077897920870, 0.027990767814,
        0.299074811457, -0.009005699919, 0.115017874570, 0.281608683594,
        -0.026062432682, -0.171683985433, 0.108866309870, 0.131668894715,
        -0.075487904727, 0.158172154672, 0.004077517462, 0.029874213796,
        0.038819146716, 0.000514859462, 0.062348053240, -0.041088417273,
        0.037808060859, -0.249800052209, -0.052416803960,
        -0.128355291252, 0.069044924634, 0.211642608665, -0.140507619722,
        -0.006186803194, -0.015520302763, -0.153325207613,
        -0.035461396695, -0.135729256220, 0.062530954426,
        -0.169151741242, 0.182962278785, -0.122297976484, 0.057031081042,
        0.219005657689, -0.209563717608, 0.019308542086, -0.158174870126,
        -0.035762381178, 0.210710284571, -0.023262034321,
        -0.143309589821},
       {0.106085262006, 0.035496919765, 0.146331308741, -0.090344696775,
        -0.111400521141, -0.157252324771, 0.026220487570,
        -0.030545828899, 0.108184044650, 0.164684091335, 0.156558148195,
        -0.158738185872, -0.111369256353, -0.280493522636,
        -0.167654616346, -0.186527755626, 0.126297504132,
        -0.204837975980, 0.088342389122, 0.048976698394, 0.164345419708,
        -0.283357356159, -0.029991771310, -0.018262745601,
        -0.214121727065, 0.045774938904, 0.128597515637, -0.087568370333,
        0.154688130322, 0.049417041710, 0.111514519986, 0.045336973283,
        -0.034717515367, 0.116534141818, 0.030694801536, -0.263410545790,
        -0.001604885987, 0.102270364686, 0.094534327145, -0.246829536974,
        -0.008182202893, -0.098162769769, 0.170895593267, 0.113293993655,
        -0.026489731547, 0.077420218672, 0.080627031322, -0.002924204814,
        0.010164311603, 0.013592424770, -0.176231655322, 0.090293754188,
        0.022330486215, 0.062868728316, 0.009144473363, -0.117840093065,
        -0.262199074030, 0.183452622300, -0.109494640940,
        -0.054434356757, -0.095433585111, 0.099881198838,
        -0.127858029435, 0.114075072727, -0.247770454450,
        -0.034468996687, 0.232886065474, -0.088059886850,
        -0.110639079398, -0.001600335119, 0.061564217912,
        -0.126709149006, 0.106448165482, 0.114551883337, 0.124860270661,
        0.037254217697, 0.001347854415, -0.006831288199, -0.101253353236,
        -0.170106884237, 0.146049548648, 0.108583480035, 0.093948120461,
        -0.070386802918, -0.050762212254, -0.174411946790,
        0.011252745643, -0.246592337508, 0.010090927531, 0.085508939318,
        -0.034191547122, 0.022866670419, -0.032844721702, 0.266411093729,
        -0.093955651664, 0.087162108766, 0.079314389160, -0.131072335134,
        0.125359701797, 0.161270542931},
       {0.039703241258, -0.128174324907, 0.140741374084, -0.085210994123,
        -0.132265035100, -0.121751728765, 0.138125191080, 0.210840382650,
        0.080102939105, 0.163084643062, 0.216198932728, -0.093891002106,
        -0.098291919660, -0.042278820459, 0.052267300486,
        -0.165215856413, -0.159636613902, 0.024237484729, 0.196964041824,
        -0.085168164406, -0.167267053317, -0.103033077733,
        0.047420538165, 0.044870449440, -0.129021128219, -0.042048810118,
        -0.046540300404, 0.123567980208, 0.090755733847, -0.022311303163,
        -0.191274200938, -0.009663579124, -0.124103714968,
        -0.053408815326, -0.128500535349, 0.234897604519, 0.045890942595,
        0.103565640889, 0.135344178124, -0.049886207706, -0.144429123445,
        0.046052595881, -0.194714006821, 0.126418305581, -0.138330332337,
        0.175164936028, 0.044170585973, -0.050413743880, 0.007253720989,
        -0.048831193850, -0.046599297603, 0.033938118939, 0.063536716647,
        0.106996104364, 0.205893001289, -0.041695979661, -0.068628284409,
        0.190895965334, 0.159195323924, -0.126492725338, -0.140976904913,
        -0.150879614521, 0.053864519173, -0.100538472490,
        -0.025993094551, 0.100409424433, 0.026852259974, 0.057171603937,
        -0.092695533858, 0.012489744692, -0.088847324829,
        -0.056696130506, 0.058550463067, -0.026821351218, 0.056168474250,
        -0.038892830580, 0.112472308043, -0.139837420189, 0.146663501332,
        -0.080790225116, 0.081461680468, -0.099865945801,
        -0.063329516994, -0.009864997847, -0.012007947518,
        0.007925279948, 0.136970703352, -0.098735497458, 0.077537978510,
        0.117449801383, -0.145423919479, 0.060160344289, -0.079593908369,
        0.092287628353, -0.025663138440, -0.132577326100, 0.186250514317,
        0.056909615584, 0.239620448272, 0.075556300952},
       {0.034343738933, 0.006721456934, 0.201426435126, 0.007378293160,
        0.115958460872, -0.148813526655, 0.168615511478, -0.058159196432,
        0.009536226083, 0.001492259362, -0.065214008631, -0.116176867072,
        0.127959483628, 0.003323399390, 0.068304802475, -0.036253942566,
        -0.121175002709, -0.101702586831, -0.041134826536,
        -0.080748347640, -0.076994507343, -0.043901128708,
        -0.134076455962, -0.196352672386, -0.113280627445,
        -0.056289672911, -0.050187271436, -0.190757655513,
        -0.163986506234, -0.201646570169, 0.235766375903, 0.239601304921,
        -0.106616093408, -0.096040454401, 0.130473943375,
        -0.081775624373, 0.111067475961, -0.058234963773,
        -0.166503692936, -0.040103377414, -0.066856832149,
        0.137095067728, 0.162375480990, 0.005574018136, -0.031782264207,
        0.023330610897, 0.164200934482, 0.142825994162, -0.063314881981,
        0.125190050587, 0.064086845105, 0.184452377374, 0.068163474708,
        -0.040309733325, -0.238019307215, 0.074731857753,
        -0.303208026083, 0.182158484236, 0.193342169504, 0.007119692920,
        -0.217291896749, -0.000707489761, 0.130909700031,
        -0.204160026204, -0.072926481478, -0.089667764197,
        -0.117606849752, 0.079192863488, -0.086156948935, 0.227757446028,
        0.136624999983, -0.141411811410, 0.011360387039, 0.085711539563,
        -0.076083435207, 0.214783627127, 0.113099906034, 0.020305324600,
        0.145344419442, -0.084862744425, -0.106317526058, 0.037256350442,
        0.078340740103, 0.047113455485, -0.167149894131, 0.000040418844,
        -0.028799683951, -0.011553976281, -0.043697951566,
        0.052705031675, 0.092951052048, 0.102024035567, 0.094511825046,
        -0.116279219665, -0.028034397997, -0.132477582765,
        0.058681695982, 0.104620950711, -0.080623169236, -0.057055402713},
       {-0.219611270921, -0.122720355465, -0.043328593063,
        0.025830458865, -0.264135627453, -0.076657818816, 0.188037178975,
        0.052418196908, 0.235495013769, 0.118111017540, 0.110133321036,
        -0.167531488297, -0.117228811432, -0.226366556070,
        -0.231114022744, 0.052638082531, -0.169126271880,
        -0.178043154869, -0.234084457451, -0.016531603804,
        -0.080735548378, 0.021774473736, 0.094501628133, 0.166353541970,
        -0.054781363071, 0.159765938557, -0.330349022020, 0.003892885615,
        -0.207284919511, -0.026442099900, 0.130587642579, 0.185297597869,
        -0.191580721510, -0.061358351011, -0.124878158894,
        -0.027830932231, -0.215037395733, 0.006790821497,
        -0.200450904275, -0.232333381439, 0.160273487703, 0.021607222335,
        0.044522810116, -0.063224908391, 0.126678656329, 0.052088412442,
        -0.022753865411, -0.008859729834, 0.029014411566, 0.078718947756,
        -0.066142599888, -0.112693974472, -0.229814834125,
        0.126372215802, -0.065428402201, -0.072790042335, 0.072036152670,
        -0.033205308158, -0.127902068586, -0.121706117396,
        -0.057526751012, -0.102473450248, 0.064952538271,
        -0.100088084808, -0.009023779708, 0.053944649460, 0.015896408896,
        0.065982723951, -0.127218812762, 0.129536222619, -0.059376285421,
        0.036731590717, 0.230526904808, -0.080904297483, -0.110905512246,
        0.100592591167, 0.181197441449, 0.158061985650, 0.164101129821,
        0.180835407645, -0.116893702235, -0.132249016755, 0.072758408349,
        0.041672291442, 0.046665341591, 0.027544672948, -0.005972141260,
        -0.166546841468, 0.192066765753, -0.067861521199, 0.208844574112,
        0.015900372387, 0.009178156368, -0.013084313655, 0.235089792520,
        0.205284307716, -0.268498215734, -0.158817843778,
        -0.222455708647, 0.133613442833},
       {-0.084760937100, 0.028997272528, 0.267309918090, 0.120472565835,
        0.186567772798, 0.061372886625, -0.068580613613, 0.099777430416,
        -0.098952322054, -0.153611887457, 0.079028665443, 0.060674110531,
        -0.073372148831, 0.138746216852, -0.140384350919,
        -0.159996869757, 0.067792892347, 0.235219799183, 0.059993454916,
        -0.002684987721, -0.146668259779, 0.118777405397, 0.080346494486,
        -0.293616150694, -0.064077971361, -0.002553162051,
        0.039800937453, -0.039032252443, 0.105740566983, 0.078248340705,
        -0.028710189071, 0.082800684664, 0.145219994994, -0.160029123160,
        0.110356913614, -0.089310589663, -0.139018956379,
        -0.078109461667, -0.221716608997, -0.015732445402,
        0.164259200727, 0.146744024785, -0.000366900693, -0.127361340438,
        0.012131170817, 0.062153757730, -0.107553704508, -0.017148671739,
        0.068765803355, -0.069307260429, -0.177449032523, 0.120876684618,
        0.028542286485, 0.087943219270, 0.061360835634, -0.052228412768,
        -0.072016848013, -0.026478957945, 0.200493203075, 0.137744765364,
        0.120062234990, 0.053678873434, 0.039138157862, 0.067877616617,
        0.087195646115, 0.068650589617, -0.147599191075, -0.084238625528,
        -0.135391958102, -0.016570564821, -0.208739347808,
        -0.102147305264, -0.107341323007, -0.024153876423,
        0.143460949087, 0.143264106575, -0.118185494050, 0.161533464643,
        0.146747750225, -0.110477413478, -0.128721724359,
        -0.065737618111, -0.037020567254, 0.028885338519, 0.096137395389,
        0.031378559296, -0.000482806429, 0.224306394014, -0.222716062747,
        -0.017756991842, -0.112380405144, 0.104122872605, 0.072700742073,
        -0.164924178988, -0.001352998908, -0.067336724962,
        0.020940343689, 0.020648490333, -0.101306527551, -0.027873400276},
       {0.045030049063, 0.112931247641, 0.196854948068, 0.116764964686,
        0.118540860283, 0.144400543567, 0.030179236780, 0.042129995494,
        0.205118027098, 0.055938963483, -0.037862184759, -0.098039739811,
        -0.187485026880, 0.072998523759, 0.066125978400, -0.002117628037,
        0.009023970745, 0.036214086823, 0.076312657748, -0.116284608903,
        -0.123704529856, -0.083418995072, -0.132971165977,
        0.054256347147, 0.029894240585, -0.034479953791, -0.041383453734,
        -0.245097507095, 0.043279438353, -0.115594997649,
        -0.136214282457, -0.182363279158, 0.016766280955,
        -0.107749315339, 0.078966344667, 0.038429376042, -0.106595949384,
        -0.025029236660, 0.063984090171, -0.119582172806,
        -0.070132932263, 0.061038071140, 0.039770931754, 0.061052830488,
        0.132637339306, -0.051426551429, 0.072773995167, 0.143471137072,
        -0.028013180516, 0.093795781389, 0.091354662784, 0.153009497651,
        0.191915302491, -0.159099732260, -0.112998512519, 0.028571928517,
        0.038184615362, 0.088679049752, -0.120454930124, 0.057966050347,
        -0.110523728854, 0.134723779225, 0.013610695468, -0.185298642896,
        0.148943012994, -0.133777567724, -0.014580311644,
        -0.025196324894, -0.125159975652, 0.016911663626,
        -0.080963826201, 0.151018742540, 0.058024083473, 0.036859421428,
        -0.117175043449, 0.184373722212, 0.177580308467, 0.228264460684,
        0.087936196429, -0.162069120929, -0.122562427458,
        -0.159794948069, -0.100375598027, 0.029692100674,
        -0.002320314750, -0.031077367075, 0.140064098724, 0.048621140906,
        0.047388058150, -0.069056663729, -0.020748218698, 0.062871861250,
        -0.163056539235, -0.019704757790, -0.121722008619,
        -0.075237452138, 0.171063890982, 0.245283114401, 0.159196858721,
        -0.043076970130},
       {0.138467209292, -0.055824036864, -0.122884330926, 0.110851309366,
        0.223399869711, -0.022217531072, -0.070689440421, 0.154943625861,
        -0.116896122331, -0.065225540269, -0.105308645191,
        0.077729859006, 0.082311903776, 0.107270348693, 0.106304029121,
        -0.065538979940, 0.101366181892, 0.049040498581, 0.005417234847,
        0.007474492343, -0.087572923198, -0.137669310386,
        -0.029091315122, -0.090653347884, 0.128557012184,
        -0.000492149573, -0.104061446271, -0.091740127616,
        0.088439129189, 0.087935549553, -0.024872263145, 0.027927345380,
        -0.003259168262, -0.031523852531, -0.032043274931,
        -0.111279435565, -0.162999313377, -0.210798691745,
        -0.028367299979, -0.023865892521, 0.006760896998, 0.166841108387,
        -0.109096366991, 0.161847052505, 0.108606043207, -0.068304885688,
        -0.156809714277, 0.098142785222, -0.081363038293, 0.087370368605,
        -0.162146857953, 0.119109857596, -0.015458605578, 0.123811309494,
        0.052385145189, -0.061577669152, 0.123555937091, 0.006540134621,
        -0.134951623655, 0.137719825792, 0.151815497526, -0.123870166182,
        0.047057628705, 0.033347091029, 0.002890192439, -0.016887749034,
        0.145270435410, 0.021580370599, 0.142126216780, -0.114361539832,
        0.001135454187, -0.054300311680, -0.037736938567, 0.017285397505,
        0.005521066174, 0.201057111310, -0.120236901285, 0.024111047466,
        0.175732484320, -0.003523270889, -0.174956807478, 0.167874645710,
        0.070244509028, -0.011239966467, 0.162898554160, -0.040034591060,
        0.005645154451, 0.009935844155, 0.027488132914, 0.159431040286,
        0.155331375787, 0.010422246969, -0.017970135639, 0.004381980334,
        0.158003245291, 0.093822076355, 0.060678786304, 0.018296763862,
        -0.026121838995, -0.118154825011},
       {-0.006030158998, 0.123092644632, 0.153404224596, 0.222666235679,
        0.111310046665, -0.079167498368, -0.124988685108,
        -0.072955852114, 0.043825005529, -0.116478781423,
        -0.205729168312, 0.047173838204, 0.026149598810, 0.191353945791,
        -0.023192326432, -0.148640430904, -0.001683297119,
        0.186222071877, 0.122423373589, -0.179305811403, -0.207709562108,
        0.177105286889, 0.120594674380, -0.221730490355, -0.062117185624,
        -0.185798850133, -0.262587370739, -0.101986261189,
        0.090400073575, 0.117670020530, -0.040881710260, 0.268951473649,
        0.035429524895, -0.076363058412, 0.160771197549, -0.069897704833,
        -0.003726357263, 0.039550827047, -0.134374179602,
        -0.077465281888, -0.041687987034, 0.058331368309, 0.107976536626,
        -0.126023342774, -0.074270763558, -0.230224793827,
        0.271394251525, 0.077276888102, 0.196003086489, 0.231092784414,
        0.155345213901, -0.096515535738, -0.044572207052, 0.026491991940,
        0.137957987092, -0.059996770211, -0.210769187553, 0.097083092759,
        -0.196241455837, 0.150972451795, -0.146887336770, 0.092159151477,
        -0.044489179734, 0.095173261973, 0.254918969653, -0.140908568879,
        -0.084969133742, 0.113896434605, -0.033475851265,
        -0.019517923346, -0.068280317188, 0.109820715933,
        -0.211072779005, -0.256604424396, 0.160330780415, 0.159728682159,
        0.007989040846, -0.258131541482, -0.125638390627,
        -0.248108206650, 0.044974582965, -0.177363943753,
        -0.030116798525, -0.004672578557, -0.016012750578,
        0.071973163730, -0.051303540166, 0.168271786787, -0.075645688498,
        0.192024563268, -0.068240432501, -0.111588450712,
        -0.168994800148, -0.323989027782, -0.114773395371,
        0.048211516317, -0.239008762847, 0.171937826302, 0.249883810864,
        0.078349558454},
       {-0.020244356961, -0.037982823929, -0.070512237617,
        -0.135383930858, 0.035360028502, -0.073756193808, 0.028387276556,
        -0.139839962721, 0.164121401614, 0.063712510529, -0.048736213054,
        -0.154335303812, 0.122373820038, -0.133334817282,
        -0.105131690801, -0.071615853347, -0.194712608454,
        -0.092576006440, -0.089174752019, -0.102528539278,
        -0.131826308619, 0.144580719208, 0.023151406747, -0.183937671241,
        -0.121987960028, -0.101251259625, 0.093702985414, 0.039187254189,
        -0.014854064767, 0.023232499905, 0.038235259821, 0.219272782844,
        0.156104607101, -0.129245806806, 0.113486942095, 0.056433426976,
        0.083828932716, 0.061441652896, 0.187841922106, 0.027260204377,
        0.040145906503, -0.158153666507, 0.170629974359, 0.003863437108,
        0.153050575758, 0.153425086141, -0.108367373023, -0.010333325906,
        0.106677852954, -0.011625506671, 0.097080309851, -0.194952357499,
        -0.047675403274, -0.097560136404, -0.014607203118,
        -0.115781260632, -0.034026255279, 0.082234779342,
        -0.186834716186, 0.011720468948, -0.103635675278,
        -0.077287906244, 0.068039264415, -0.148022914555,
        -0.067548273399, -0.099022548532, 0.039133497970, 0.146881788771,
        -0.139851456022, -0.056132047148, 0.052834289714, 0.138490664622,
        0.006270294337, 0.026787466280, 0.089573368677, -0.035741544502,
        0.117592422297, 0.168402705237, 0.052348438396, -0.085644727261,
        0.173766434527, 0.025872692103, -0.095430162814, 0.033429354233,
        0.096607542298, 0.079986732967, -0.044682783107, 0.029367454201,
        -0.235567315140, 0.006771180788, -0.082438034232,
        -0.138058669484, -0.133755415533, 0.085058439376,
        -0.133636009460, -0.071830772372, 0.055234023205, 0.118714694324,
        0.001227716280, -0.033122849136},
       {-0.063197752638, -0.072923584723, -0.166080938742,
        -0.136013050628, 0.070663743090, -0.211697759533, 0.057387110133,
        0.108288304251, 0.032386356268, 0.063096910988, 0.104842894997,
        0.009624977351, -0.129639248785, 0.011561439994, -0.066185336585,
        -0.151153904548, -0.153101293498, -0.004675934568,
        -0.039945531766, -0.103574135022, 0.074434724731, 0.005498862560,
        -0.062478914021, -0.067299744828, -0.041865930044,
        -0.026358298397, -0.223296525022, 0.216627806046,
        -0.265267080492, -0.117472875648, -0.005974248875,
        -0.017401896285, 0.001911821397, 0.143578161878, -0.190995214164,
        0.201274555608, 0.032720434128, -0.130472218818, 0.055768712229,
        -0.148472252240, 0.104983762641, 0.092984076285, -0.124838055324,
        -0.023991109104, -0.147617555174, 0.065729132220, 0.122290794638,
        0.041719161650, -0.051057887616, 0.089351445025, -0.120182785089,
        -0.114733225376, -0.209781504536, -0.211377408814,
        0.000735124358, -0.001183177426, 0.149389875723, -0.017752731128,
        0.123795757365, 0.152249644911, -0.001013505451, -0.141922571938,
        -0.067860134723, -0.162871783222, 0.131278756488, 0.089228368807,
        0.053421352230, -0.009992880469, 0.035298577526, 0.219987216945,
        -0.128962660564, -0.060973190308, -0.023777249167,
        0.043988815716, 0.020725852765, 0.140712599491, 0.054368166941,
        0.094700818862, 0.017928045880, -0.092761601838, -0.081424696201,
        -0.116132686724, -0.253040186186, 0.269601727103,
        -0.029573334666, -0.139336716839, 0.046505280063, 0.140740535785,
        0.150943042835, -0.052844072268, -0.146540356184, 0.038047221969,
        0.099845175929, 0.010697057506, -0.219174822181, 0.080340214791,
        0.170048603861, 0.042015946794, 0.137172724499, 0.121045618266},
       {-0.050806998669, -0.071525968104, 0.124682255084, 0.142808456438,
        -0.043085190049, -0.192951526839, 0.005592453591, 0.010836740199,
        0.042225676200, 0.124359310646, -0.007120520714, -0.251858028943,
        0.145787138882, 0.047611691543, -0.036492819512, 0.109868083418,
        -0.191724396713, -0.273230830637, 0.088024121642, 0.035209697043,
        0.082144198983, -0.177039326874, -0.015306401197, 0.183956317860,
        -0.135605407282, -0.181143331631, -0.007991112208,
        0.146643955597, 0.005677903604, -0.191270534083, 0.324499627739,
        -0.144429307756, 0.121294162729, 0.074605003509, -0.206188258613,
        -0.070092789194, 0.067712330792, -0.055453465794, 0.235382869898,
        0.140369828653, -0.075762393857, -0.078000948612, 0.101995734871,
        -0.187481193100, 0.029927257592, -0.226070493730, 0.026859302870,
        0.142263038830, -0.210590925238, -0.035111444343, 0.078227278458,
        0.019205051799, 0.076616273766, -0.039402669777, 0.018762306428,
        -0.124452961763, 0.022046909635, -0.094804963680,
        -0.089627398105, 0.166773440619, -0.169191419203, 0.023321937563,
        0.108486043316, -0.034547961395, 0.033740319555, -0.142206319562,
        0.034111360412, -0.122509949995, -0.173849470536,
        -0.208028745427, 0.189110760184, 0.064047907089, -0.021552448759,
        -0.030616524605, 0.263584837473, -0.140644648618,
        -0.002490237531, 0.048486141289, 0.231239633629, -0.024017879553,
        0.038104649475, -0.022972590263, 0.116738035070, -0.272669024327,
        0.138308607277, 0.238805198814, -0.108847876072, -0.238695054248,
        -0.083789701756, 0.054834787827, -0.004116418236, 0.084569211882,
        0.147999949181, 0.229069194405, 0.184743519720, -0.072878709817,
        -0.055365806514, 0.102804904467, -0.186715429299, 0.003313204634},
       {0.094121479746, -0.021528785174, 0.094779240522, -0.090982044478,
        0.113661606401, -0.197972111649, -0.015534584071, 0.106900764658,
        -0.037548237131, 0.038839670323, -0.047413179032,
        -0.041987645482, 0.027272326419, -0.030237524364,
        -0.110611378052, -0.029692298035, -0.108159881976,
        0.003886001336, -0.067492777682, -0.043482838584, 0.145508275418,
        -0.100511292843, -0.081957132006, 0.125569474265, 0.023131366618,
        -0.060571584002, -0.141010135119, 0.031098835704,
        -0.014238047482, 0.175338526130, 0.027583529570, 0.023502780560,
        -0.001094203585, 0.095200208215, -0.120432994436,
        -0.127224045246, -0.177277052070, 0.108437725045,
        -0.029414104149, -0.085154311720, 0.136739150344,
        -0.123204448712, 0.114521870055, 0.036976604970, 0.001328403339,
        -0.021246854735, 0.057566165156, 0.094624150327, -0.129533884961,
        -0.073198834269, 0.093999546769, -0.163164992435,
        -0.111230095291, 0.026527031967, -0.145743957948, 0.001573279400,
        0.095404962870, -0.000780738163, -0.055860675480,
        -0.000495123313, -0.042576684707, -0.072420086063,
        -0.132531997946, 0.055754260465, 0.063519820561, -0.051455780724,
        0.163580293483, 0.030162694691, 0.246218318525, 0.021123112543,
        -0.305651851332, -0.038573824657, 0.060667001246, 0.244689538463,
        -0.177658146589, 0.248615226113, 0.003222885193, -0.016169261199,
        0.052909052998, -0.113112006899, 0.099676298826, 0.059503054006,
        -0.104978246230, -0.013200240491, -0.001841306071,
        -0.189491963156, -0.014178239829, 0.056359572916,
        -0.056463816842, 0.077719863480, -0.126080994217, 0.147676543371,
        0.044430827368, -0.122412444565, 0.088926473231, 0.001742331174,
        0.210886783070, 0.110725782120, 0.227741679008, 0.131356967464},
       {0.047825172368, -0.091340965589, -0.001536293356,
        -0.155561952423, -0.029809669955, 0.036205647658, 0.044957870072,
        -0.006297654775, 0.119247837354, -0.038422246907,
        -0.000064451668, -0.074983896064, -0.094140203108,
        0.149460620126, 0.132649349033, -0.062079655243, 0.003945630333,
        -0.192874268123, -0.016442197490, 0.083053410900, 0.009796758368,
        0.073007033890, 0.118429068541, -0.060005256733, 0.013407401823,
        0.146681587431, -0.016822547216, -0.087089556085, 0.031253512550,
        0.124069031982, -0.121876241678, -0.053985118374,
        -0.028281124223, -0.031249088961, 0.127758923543, 0.068212183736,
        0.014199584695, -0.183206426462, 0.074265127158, -0.029983638923,
        0.091983885042, -0.120105562427, 0.035736637292, 0.096528225512,
        0.136222861805, 0.028660558419, -0.023849788231, 0.028750405943,
        0.023489280751, 0.089702790311, -0.010835125876, 0.203938633442,
        0.022443642843, -0.067065325668, 0.144270026732, 0.077685076761,
        0.070451649922, 0.097062556917, -0.093218120257, -0.158025541405,
        0.008529839426, 0.135380531585, -0.090918833248, 0.035478994784,
        -0.122432876905, -0.110321152883, 0.190872677527, 0.063774447831,
        -0.022285042063, 0.002479470252, -0.016748526543, 0.090478286660,
        -0.114782899207, 0.208191982463, 0.068132209155, 0.046501314061,
        -0.001950465390, 0.097723641591, 0.049039626126, -0.111603635039,
        -0.032222775876, -0.020192879439, -0.137467134039,
        0.093578211065, 0.167611385116, 0.098790840988, 0.031057480098,
        -0.055759037536, 0.203560835220, -0.145212132007,
        -0.038812922743, 0.008382499478, 0.091470923334, -0.115007050133,
        -0.197317014347, 0.002022258986, 0.028150727827, -0.050250530607,
        0.169827705492, 0.191051303364},
       {0.192319474771, -0.116537281757, 0.016229826797, 0.042994633096,
        -0.059034140714, 0.061110316881, 0.064786330473, -0.039727083947,
        0.049279569506, 0.005492053751, 0.181335440077, -0.208001717283,
        0.003232927022, 0.017619618579, 0.140123690654, -0.092205506442,
        -0.148870340724, -0.122294851301, -0.070944626566,
        0.168130034268, -0.035351709759, -0.054417685179, 0.126131931812,
        0.196029706354, 0.174367213520, -0.143161173979, -0.118456764576,
        -0.024328729823, -0.035386612212, 0.003727171163, 0.033546986934,
        0.210275934151, -0.045849076857, -0.111337798375,
        -0.068954295038, 0.115545449919, -0.025141242330,
        -0.011334097411, 0.068269722568, 0.134296162069, 0.036933639925,
        -0.031428780541, -0.220302310814, -0.161147976863,
        -0.031092251019, 0.157721553078, -0.104255445182,
        -0.109509403616, 0.036404147794, 0.092143212943, -0.059673399629,
        0.191830733162, -0.040152898835, -0.137274901922, 0.132800064586,
        0.091770390738, -0.098909374121, -0.072083780062,
        -0.002152268285, -0.176190738723, 0.010421422623,
        -0.118122010956, -0.043919549886, 0.113448353535,
        -0.094362700786, -0.110330712288, 0.041732964191, 0.051383635749,
        -0.177658350736, -0.126549314046, 0.162627261576,
        -0.132726195672, 0.109868909109, -0.069023120327, 0.065687824394,
        0.110928571990, 0.156463080472, 0.003664431563, -0.111316970314,
        -0.020051626586, 0.137007410884, 0.125092170508, 0.007524266811,
        0.013079791722, -0.018566856436, -0.041771963988, 0.027208348882,
        0.018646053556, -0.112308418005, 0.142634663208, 0.208820445513,
        -0.091489373141, 0.052200632468, 0.056994738712, 0.097758845168,
        0.230063460669, 0.020233845510, 0.044538600834, 0.095623406642,
        0.036213185751},
       {0.262810945152, 0.252000020408, -0.127201433563, -0.093551804442,
        -0.106365540202, 0.142400147874, 0.100264293814, -0.061653451941,
        -0.015566651316, 0.099252105028, -0.060190311650, 0.131443966134,
        0.045428309989, 0.160829452422, -0.132966368551, 0.122986635656,
        -0.050484441427, 0.239835400828, -0.027806616501,
        -0.088683079740, -0.071426305343, -0.081918337609,
        0.065878664678, 0.106025474437, 0.011091413605, -0.067487864689,
        0.149200765769, -0.100963714933, -0.045698513526, 0.098408884869,
        -0.038830407982, -0.123452257457, -0.091237599548,
        0.122199615993, -0.048759449552, -0.000899249890, 0.100336150684,
        0.109507628209, -0.223397395755, -0.094835804256, 0.140581015025,
        0.061485480609, -0.171658234714, -0.183458323571, 0.066437802089,
        -0.027636901860, 0.080960679520, -0.143277857088,
        -0.148238970034, -0.175317540571, 0.148493778244,
        -0.035377060559, -0.325457981523, -0.012634497125,
        -0.065849192907, -0.041305059991, -0.024575929187,
        0.042343514056, -0.140939514608, -0.074839365173,
        -0.176073800575, -0.037474147342, -0.110883142644,
        -0.116634253027, -0.193589748548, -0.089197693540,
        -0.001823770716, 0.006945793266, 0.008977586103, 0.101282701784,
        0.121131345716, 0.095162458563, 0.030185341163, 0.104293370379,
        0.060228762535, 0.079646131656, -0.094952557581, -0.214186913577,
        0.044272916973, 0.282478134747, -0.080447481669, 0.110079238485,
        -0.200409374624, 0.113118269774, -0.100455846334,
        -0.097577011291, -0.212981632426, -0.135619834400,
        -0.185905508657, -0.016723713957, 0.025468481219,
        -0.007519559320, -0.024774040674, 0.077330794991, 0.106644105033,
        0.300065475774, 0.075448548478, 0.076897034005, 0.187778114314,
        0.021454552745},
       {-0.047597860254, 0.126681357631, -0.121156772123,
        -0.141205920918, 0.107354018456, 0.186372814990, -0.107845333790,
        -0.024765070452, 0.152225316488, -0.215057275519, 0.029356919030,
        -0.004981316093, 0.156197083235, 0.316795092620, -0.043674722656,
        -0.103681637417, -0.086757734630, 0.167501744925, 0.069035953870,
        -0.000738313755, -0.003760369258, -0.108755532648,
        0.136219624971, -0.099947910076, -0.180755621979, 0.034553477681,
        0.076827684125, 0.148980351057, -0.124954303360, -0.084484870406,
        -0.059374024137, 0.054800939088, -0.093060912172,
        -0.037038958484, -0.055284716200, -0.043838063901,
        0.080335329413, -0.108260957128, -0.029778638991, 0.115424831580,
        0.141178785902, -0.086148771264, 0.030042251708, -0.166615907352,
        -0.135021304371, -0.043945734530, 0.163507016674,
        -0.099942603600, -0.043309278769, 0.033050359820, 0.233262382489,
        0.116869540101, -0.014584645617, 0.050875147187, 0.199603230403,
        0.122597791094, -0.007896911578, -0.048772918907,
        -0.206703856574, 0.185510270573, 0.164347195506, 0.186506268290,
        0.036306471963, -0.198484345028, -0.076505190866, 0.132128623093,
        -0.048732482940, 0.108631052635, 0.209441767734, 0.115073799720,
        0.064087074563, 0.145157250017, -0.018390840865, 0.199941966732,
        -0.050910936435, -0.122690942074, -0.004265257624,
        -0.246396984118, 0.068950688454, 0.030998301636, -0.189036921955,
        0.092676775668, -0.058177087828, -0.139589638414, 0.054469649361,
        -0.276356772133, 0.034715714961, 0.031542088745, 0.125093269116,
        -0.089242528910, 0.128645255249, -0.175110564080,
        -0.221755349466, -0.115826566036, -0.132096116364,
        -0.022342589252, 0.052068602641, 0.269308113884, 0.338154017660,
        0.178423923810},
       {0.101224178550, -0.079694809844, -0.167289409880,
        -0.221961881170, -0.143043868856, 0.132485594849, 0.189321023209,
        0.139998177176, -0.206853032911, -0.037457672586, 0.259155242818,
        -0.064481320925, 0.194106837023, -0.033692259593, 0.032321219918,
        0.011189739490, -0.035323754853, 0.145101845521, 0.075398312025,
        -0.142669102376, 0.174138691922, 0.101298566709, -0.066853187284,
        0.078361375509, -0.156797881800, 0.008833676921, 0.111666467308,
        0.296911511793, -0.251059812536, -0.109011759059,
        -0.215319147433, -0.158487981742, -0.159238895468,
        0.008552331109, -0.313506523105, -0.164557914544,
        -0.124208284411, -0.035728909339, 0.037102155061,
        -0.254398039901, -0.082536616009, -0.016620771329,
        -0.233134279879, -0.068328889546, 0.009349612815, 0.214673639720,
        0.045614583662, -0.012910951845, -0.041106084034,
        -0.106546848640, 0.285024218892, 0.029599935359, 0.008840820091,
        -0.121798666261, 0.122520689816, -0.323554772005,
        -0.227144209368, 0.089345837784, -0.108623071807, 0.175536054883,
        -0.120527398467, -0.002869533080, 0.159481801226,
        -0.016933184373, -0.175541752208, -0.109946986427,
        0.166491382228, -0.055475831892, -0.057132284864, 0.071195390575,
        -0.150289558056, -0.135234816313, 0.078801223841, 0.194049982853,
        0.113905362421, -0.044889016692, -0.100029621085,
        -0.096415656485, 0.076852135202, 0.148392308333, -0.102327434539,
        -0.010461768341, -0.139037373626, 0.117603616912,
        -0.050709045052, 0.026213885515, -0.224047267384,
        -0.075102174601, -0.132611202028, -0.092830547438,
        0.187582982989, 0.040598332837, 0.112076067844, 0.068919629014,
        0.154323667068, 0.189243988111, 0.181420102073, -0.043100129720,
        -0.081014714431, 0.168635208269},
       {-0.013944810523, 0.131278219643, 0.112318214546, 0.106112936324,
        0.010581306697, -0.078055550909, 0.005530934579, -0.008793870456,
        -0.021943297296, 0.102320574524, 0.001909920446, 0.130815998736,
        0.077421966192, 0.004231120747, 0.141898216079, -0.105155055727,
        -0.021157695520, 0.140253050587, 0.071576644438, -0.208867930160,
        0.110829304180, -0.202171787194, -0.034221125916,
        -0.002240522127, 0.031349792455, -0.082534862652, 0.166870562341,
        0.212867998258, 0.035917303565, -0.098859682776, -0.101971476754,
        0.049268762312, 0.054095701361, -0.171490856392, -0.025005455410,
        0.050057945035, -0.040700584543, -0.024257781887,
        -0.235913627596, 0.025458024692, -0.070511016436,
        -0.141241501225, 0.002060038318, -0.083764111538,
        -0.008074108975, -0.052104146496, -0.129220510246,
        0.110909863313, 0.031759274634, 0.089651685076, 0.032355396944,
        0.066887877984, 0.096766628086, -0.082383608509, -0.213853004872,
        0.056940236986, -0.112178962694, -0.001939654793, 0.143115810617,
        0.124625101968, -0.036709205439, -0.014907570281,
        -0.122295815300, -0.063785639952, 0.073158156285,
        -0.049567484434, 0.215160289075, -0.119273139061,
        -0.035868639425, 0.123981894392, 0.086771513619, -0.138293283634,
        0.141087580673, 0.099853576402, -0.018131663262, 0.121224678818,
        0.112900065399, 0.195638335543, 0.103542126016, -0.018002460297,
        0.056232679081, 0.161488543522, -0.049499411422, -0.076097743185,
        -0.163827842548, -0.097582057262, 0.080268217216,
        -0.206960677264, -0.051358251584, -0.088412524645,
        0.171976333496, -0.153808548704, 0.027230578166, 0.157781881091,
        -0.096517328482, -0.113292580046, -0.013625592714,
        -0.041800531069, 0.124710442127, 0.267256666858},
       {-0.016237087995, 0.174239666566, 0.013877193090, 0.068003239904,
        0.038691382012, -0.130030725549, -0.169903430516,
        -0.043320488010, 0.097425974842, 0.104119915828, 0.008512376327,
        -0.114816089562, -0.087283928747, -0.084050659957,
        0.093959250260, 0.000367810326, 0.073146793190, 0.141137321095,
        -0.124909923538, -0.044771382303, -0.182520397691,
        -0.035910782805, -0.026535014035, -0.198025588143,
        0.180446438220, -0.133165206632, -0.036559741407,
        -0.125527694072, -0.156866777127, -0.065593358644,
        0.202159624608, 0.122129638673, -0.175604159159, 0.091816105270,
        0.102232211724, -0.015819525850, -0.107861464258,
        -0.218078667838, 0.164583330910, 0.240308030750, 0.076416971168,
        -0.230837026001, 0.161123143676, -0.053424827964,
        -0.057110047266, -0.053835491235, 0.001782922130,
        -0.035988776036, -0.069140327813, -0.118299332383,
        -0.159292098628, -0.009038048697, 0.216642444756, 0.024545320687,
        -0.155516947873, -0.089402531845, 0.030732073047,
        -0.189046071673, 0.084239590799, 0.025264675861, 0.145019110849,
        -0.083310268915, 0.139551367248, 0.201854213856, -0.002398952543,
        -0.230036689232, 0.151788120433, -0.099132420771, 0.006557108145,
        0.043793282114, 0.009266887912, -0.011196254107, -0.044410774863,
        -0.242043673447, -0.145707891269, -0.157552662787,
        0.224592726814, 0.261907095647, 0.170391301702, 0.010137298190,
        0.023964923348, -0.053951289086, 0.012156312825, -0.207636203960,
        0.015173616930, -0.000858619636, -0.058532832897, 0.024921341342,
        -0.067000163407, 0.003833271497, -0.031889224116, 0.149674442434,
        -0.116250394283, -0.029043936804, -0.035184499526,
        -0.163175943251, -0.093137155800, -0.079778490326,
        -0.260425930493, 0.096517190608},
       {0.189272883132, 0.077244221738, -0.025793646506, -0.064623108646,
        0.084730181191, -0.039364921272, 0.103389010663, 0.179175215228,
        -0.031779527278, -0.011660294460, -0.124410745499,
        0.131096400547, 0.166630557508, -0.134037114645, 0.126146726672,
        -0.114447008099, 0.043440322164, -0.020025269223, 0.131037295342,
        0.138675749141, -0.177780171695, 0.097013483717, 0.040128687682,
        0.144827966658, 0.054880553134, -0.086774447110, 0.099172634139,
        0.083442922727, 0.039280162355, -0.060545596556, 0.001625400230,
        0.011005619261, 0.061333780197, -0.085485607910, 0.098871015239,
        0.176624139354, 0.018110122515, -0.050948270919, 0.165524507714,
        0.067572613717, 0.112270347648, -0.084773097766, 0.005284716457,
        -0.075712525393, -0.014111451090, 0.017295695350,
        -0.133661806609, 0.025811466507, -0.091447824051, 0.096052784229,
        0.059561443725, -0.072978300548, -0.088238576977, 0.100642148134,
        0.004510478260, 0.030292033085, -0.068425949439, -0.027111767515,
        -0.043876806691, 0.082867051220, -0.125902134998,
        -0.111010060139, -0.040640774019, -0.066373943444,
        0.134991729951, -0.073948213178, 0.043628767259, -0.030227450703,
        0.104848036676, -0.015908735231, 0.089469144200, -0.004416287100,
        -0.198288187936, -0.054246834581, -0.195544591668,
        0.061395802180, 0.124108223899, -0.044798684339, -0.122322232456,
        0.182238135228, 0.096537335059, 0.012889769563, -0.083599301123,
        0.028356434019, 0.112762190895, -0.095014946631, -0.000978658893,
        0.179992714479, -0.080938424219, -0.153173382382, 0.040800920274,
        -0.001551198978, 0.159680300599, 0.141107418153, -0.056671551300,
        -0.074654733253, 0.197067644286, -0.029498419029,
        -0.029801904408, 0.062035284093},
       {-0.106778770711, 0.061359377898, -0.068888339036, 0.094840949414,
        0.171426916694, -0.128590874974, -0.016540749588,
        -0.013415865447, 0.050487688078, -0.132077479298, 0.140151292607,
        -0.174423178803, 0.024674357104, 0.219794663492, -0.027472667354,
        0.156940240175, 0.095088910736, -0.106837197768, -0.032733613451,
        0.187142890278, -0.205212390328, -0.084945692573, 0.032495652951,
        0.223545282176, 0.050667004546, -0.246534574549, 0.055902178215,
        -0.056612307857, -0.129064558802, -0.114146076983,
        -0.010877258141, -0.040223178254, -0.192963097003,
        -0.034595386172, -0.000983761295, 0.139579170102,
        -0.112492533005, 0.113414205688, 0.181393669656, 0.307604441679,
        -0.113214226251, -0.058173072110, 0.212607925444, 0.099613879028,
        0.280347622102, 0.110239040027, -0.157786580782, -0.155794208349,
        -0.035091257847, -0.014758936913, 0.075797730339, 0.125371416516,
        0.162868178726, -0.021035709735, -0.080717214638, 0.056898804258,
        -0.098303710920, 0.096343355791, 0.086804321595, -0.215102202010,
        -0.007325911298, 0.183455767852, -0.003826959280, 0.100283423519,
        0.178469681193, -0.103256629309, -0.261586837970, 0.317161222743,
        0.088344679488, 0.181746873300, 0.044933720624, -0.065675416112,
        0.037352990853, -0.043798739547, -0.050029223822,
        -0.067500544304, 0.105081933506, -0.098495977679,
        -0.067797564120, 0.084921180160, 0.022021406329, -0.089378851782,
        0.028313525245, 0.144524380563, 0.340285424751, 0.144665074870,
        0.118956819174, -0.009460686788, -0.069005410131, 0.115301727192,
        -0.141915815707, 0.056911434081, 0.000334749770, -0.057513697910,
        0.009920200629, -0.163232779947, -0.104006397226, 0.158878051640,
        -0.218829877807, -0.216222161920},
       {-0.013004507192, 0.136150642362, -0.072436844572,
        -0.231434338030, -0.221126819487, 0.133155535436,
        -0.036881578918, -0.091303864230, -0.097466090107,
        -0.060409756256, -0.095191189564, -0.027134329111,
        0.133533912916, -0.037454416510, -0.166297058691,
        -0.119009330437, 0.110016395097, 0.096201935286, 0.163982903753,
        0.169670315178, 0.082456327700, 0.183578627736, 0.181763923071,
        -0.024055856963, -0.035446922810, 0.126011685430,
        -0.046835473329, 0.179566203597, 0.047557060534, -0.003842450820,
        0.005332274254, 0.019638290000, 0.124929319535, -0.142080464924,
        -0.084580166563, -0.099013735934, 0.075784127064, 0.023248251170,
        0.090291843410, -0.107095997870, 0.107519706449, -0.064495093605,
        -0.160757492557, -0.196204219829, 0.071038723548,
        -0.117582185005, -0.024058807121, -0.194533995705,
        0.088508757582, -0.043470352027, 0.254331880841, 0.035742256224,
        0.022023386121, 0.166441250615, 0.041678424715, -0.063635705437,
        -0.248730742632, -0.013742463336, -0.029279471867,
        -0.097616911944, -0.049395110879, 0.036734378590,
        -0.011717677148, 0.050639051367, -0.103433146875,
        -0.093879188419, -0.112173530899, 0.164588713363, 0.181980609500,
        0.236020594547, 0.035918099544, 0.158633097296, -0.068867544695,
        0.202148194890, 0.045678981290, 0.091903934726, -0.135396265043,
        -0.193052528506, -0.036340773840, 0.048745805593,
        -0.138152628461, 0.044461237780, 0.018103051663, 0.067640655206,
        0.105472049980, -0.069793404196, 0.007634696632, 0.133908659248,
        -0.161011150723, -0.153718101190, -0.106226492696,
        -0.029602885060, 0.172806180177, -0.030962283497,
        -0.109422572904, 0.228845192407, 0.183633348699, -0.092696716225,
        0.037359109409, -0.194753395668},
       {0.050144518003, -0.367702538479, 0.291994161050, 0.107574993408,
        -0.033874757050, -0.000282666283, -0.248802113932,
        0.000851726738, -0.167846992078, -0.064891535440,
        -0.053988584794, 0.101887910944, -0.270107788259, 0.173250225909,
        -0.129209221926, -0.119312889192, -0.041317504264,
        0.248504114651, -0.286379496658, 0.123243077912, -0.168731117881,
        0.117159210622, 0.277834691140, -0.150038974851, -0.020714307136,
        0.200926480703, -0.062344378560, -0.295760348910, 0.172473775846,
        0.152682049522, -0.088727153206, 0.023918775758, 0.096989730690,
        0.126407920918, 0.184725221161, 0.133925819171, -0.032315598713,
        0.063075182774, -0.129106382542, 0.027539933288, -0.117942150927,
        0.119126399866, -0.012407711533, 0.076652935631, 0.099144304010,
        0.143749837046, -0.097968163623, -0.028444500081, 0.224294128543,
        0.006207520435, -0.027615264170, -0.015344147165, 0.052844122907,
        0.031006198400, 0.261551434144, 0.053005949325, 0.045915174416,
        0.225809819230, 0.137823806548, 0.022947875682, -0.127524038885,
        -0.018633105660, 0.193673203188, 0.075374009759, -0.078000388559,
        0.165068561890, 0.302267262224, 0.127149621957, 0.149450728148,
        0.015198219982, -0.095937734688, 0.063346553308, -0.154593330712,
        -0.052115889522, -0.013880984959, 0.209134467243,
        -0.284013570822, 0.038131270715, 0.035062203145, 0.119946582273,
        0.048885209175, -0.084495473068, 0.199515925869, 0.065168886431,
        0.054423819655, 0.080227844934, 0.039571595501, 0.126447522196,
        -0.187910668451, -0.205144538130, 0.091077618882,
        -0.272198358783, -0.046638365872, -0.105686656357,
        -0.090551136576, -0.088605647428, -0.077064951044,
        0.035740810765, -0.102967574964, 0.091116233091},
       {0.067911650779, -0.088136743948, -0.133740064872, 0.114728394428,
        0.199396519179, -0.132635201005, -0.143809738422,
        -0.086621054419, 0.025894428754, 0.079815612778, 0.109071023444,
        -0.195517142284, 0.139513715851, 0.159999601870, -0.026660610998,
        0.120991760348, -0.029798876047, -0.047672148328, 0.142433876698,
        -0.036771380454, 0.060253169338, 0.062389646492, 0.037305497651,
        0.061311364615, -0.191049763962, 0.051458251448, 0.008942435658,
        -0.172873159090, -0.158718627710, -0.110190268646,
        -0.083949359239, 0.035474885934, -0.110708482716,
        -0.161388215619, -0.041574917804, 0.127183926233, 0.033078909119,
        0.016089649323, -0.032780005497, 0.033543346546, 0.068230387868,
        -0.105189524938, 0.073922154969, 0.065110599326, -0.081035500603,
        0.131481338168, -0.016294803103, -0.107598121045, 0.102146062510,
        -0.024725931235, 0.030379804924, -0.150628835305,
        -0.111081620487, -0.068031315189, 0.017294687416, 0.098309432304,
        -0.032258216468, -0.083476622289, -0.136306526872,
        -0.008038763135, 0.160840162788, -0.139172189618, 0.036089907766,
        0.006906182462, 0.056365161740, -0.048733403586, -0.017774084502,
        -0.148725782817, 0.166488267762, -0.000807747735, 0.080647486301,
        0.065830101321, -0.014131797785, -0.038923138381, 0.047954445583,
        0.168655604471, 0.131002989773, 0.058954105042, 0.168125605652,
        -0.000913324240, 0.068143703606, -0.007348630667,
        -0.095276079315, 0.155889353166, 0.173723152667, 0.107091369443,
        -0.068973897769, 0.127255525562, 0.096360373417, 0.160874722534,
        0.154804741742, -0.034125549126, 0.072621052924, 0.017707697201,
        -0.026090234017, 0.053010916061, 0.036587958996, -0.165016346121,
        0.001621666105, -0.021210185529},
       {-0.180377304663, -0.115304478429, 0.208373883408,
        -0.115884984443, -0.078761988952, -0.235269190716,
        -0.041127942942, -0.133142869892, -0.095654397800,
        0.386825842124, 0.084275398461, -0.199002968634, -0.134757869596,
        -0.214752247773, -0.082485840511, -0.169447760800,
        -0.022312525124, -0.076389313028, 0.142773926355,
        -0.105897880249, 0.267380509785, -0.109817009039,
        -0.285987128163, -0.059596409095, -0.362013219958,
        -0.181546977714, 0.120500196968, -0.196538008997,
        -0.271511972003, 0.284653646310, 0.040654646871, -0.254057515128,
        0.096299877387, -0.192248629942, 0.031277496792, 0.013368109808,
        0.044652198367, -0.403991922768, -0.117592681608,
        -0.103624436001, -0.309865080582, -0.190548466614,
        0.079205520508, -0.040820699352, -0.193459259145, 0.227308234154,
        -0.071181714995, 0.418542484228, 0.108548889758, 0.246972710628,
        -0.087242032201, 0.070151124909, 0.160375414190, 0.161464285362,
        -0.057380090341, -0.145560584765, 0.208327939218, 0.089832599331,
        -0.130172187526, 0.042118846911, -0.114360581554,
        -0.040310302575, -0.301438532240, 0.215167308237,
        -0.195247473671, 0.113801035892, 0.065925217013, -0.321569268435,
        -0.116271255432, 0.036124831094, 0.000450675657, -0.362346752862,
        0.100910975955, -0.006551573714, -0.019621741556, 0.235181620597,
        0.121634246045, 0.156378230271, 0.359812906273, -0.308199376178,
        0.155179858105, -0.114039064562, -0.094632976149, 0.021719371908,
        0.066827643231, -0.049948830047, -0.065839122820,
        -0.196039102937, 0.290150701197, -0.244985068639,
        -0.093559070044, 0.047193852136, 0.073556641234, -0.014334587283,
        0.050299741311, -0.091925357248, 0.052238564010, -0.188722933292,
        -0.016237411504, 0.094485338955},
       {-0.152348036356, 0.205024535331, 0.222088952610, 0.046279860731,
        0.100914796728, 0.127290045603, 0.174461259050, 0.008995002105,
        -0.193357406257, 0.159962510269, -0.252575637301, 0.165808643826,
        -0.138622968587, -0.078886841651, 0.011133601102,
        -0.126774358277, 0.236213585418, -0.026883246419, 0.072560133886,
        -0.120368814875, 0.206651380628, -0.128411598639, 0.130241032578,
        -0.087105137477, -0.016262952181, -0.109147433385,
        -0.014189007907, 0.090911317539, 0.101046825309, 0.003003777016,
        -0.029899731099, 0.090096515640, -0.140004133578, 0.189710941687,
        -0.151455055095, -0.269979951925, -0.005808730728,
        -0.056932768337, -0.068312737379, -0.081349953572,
        -0.090690535508, 0.093717394122, 0.015321875894, -0.058291846828,
        0.089971557591, -0.113521143263, 0.196629138273, -0.201754296555,
        0.121514355181, -0.006402374395, -0.116987937554,
        -0.110757751541, 0.154483172503, -0.007220333249,
        -0.269771487369, 0.184919512376, -0.055973768666, 0.245420188378,
        -0.043373697941, -0.161480010717, 0.145785232270, 0.137142972573,
        -0.187124007897, 0.176729014566, 0.061804215841, 0.234208759811,
        0.220557975158, 0.150468140143, -0.026055171411, 0.256891669753,
        0.052065961666, 0.122652338302, -0.195413887240, 0.124055389800,
        0.114385915305, -0.062735485272, 0.240321686944, -0.028006445339,
        -0.062945879101, 0.052278648063, 0.056561414750, 0.130139097841,
        0.065733761062, -0.083423291455, -0.042338119487,
        -0.144413197216, -0.187714473233, -0.038719236675,
        -0.151917484099, 0.027953765496, -0.086926567943,
        -0.074176711276, -0.162553536964, 0.134792360808, 0.056293383171,
        0.012731632623, 0.059917176585, 0.086890826850, 0.033027909827,
        0.083367618356},
       {-0.088619800217, -0.049955815402, 0.048477322279,
        -0.136910751983, 0.016928546976, 0.177480974883, 0.009660140336,
        -0.045077771963, 0.009789248630, -0.128374174847, 0.032085587571,
        -0.050932843441, -0.198418267274, -0.042112028765,
        0.089934452421, -0.046359424076, 0.205531866370, 0.192193009597,
        -0.035641987543, -0.023344355993, -0.040830165940,
        -0.083445183154, 0.173017686382, 0.056131857822, 0.014305188490,
        0.050632869348, 0.096978311266, -0.240119480516, -0.124103912377,
        0.061807719385, 0.101012343313, -0.021405192664, 0.221390372374,
        0.095021179732, 0.141695501854, -0.028550058957, -0.018136878300,
        -0.090912021009, 0.059936983953, -0.196977268773, 0.019290352526,
        0.088708118335, -0.072519100532, -0.127474481002, 0.070572206972,
        0.100074921563, 0.316914396879, -0.105244288810, 0.047081477949,
        0.143007444745, -0.017687519566, 0.066727114633, 0.096930547792,
        -0.039145761521, 0.105620745446, 0.116297586461, -0.016070878892,
        -0.062122136880, 0.001989081911, -0.059683862617,
        -0.115050007886, -0.095657324954, -0.003037988212,
        0.071852803911, 0.100248701036, 0.066077486997, -0.039989453051,
        0.069813716612, -0.113143034871, 0.226916199969, -0.259423913698,
        -0.101997231721, -0.164238492841, 0.121318763098, 0.048863908913,
        0.120211698638, -0.048279491643, 0.011841836895, 0.030999325209,
        0.130784949687, -0.037785259058, -0.147695571904, 0.176649719475,
        -0.040978301693, -0.031102697796, -0.192581295523,
        0.129853845216, 0.005393389875, -0.162664323927, 0.110444352920,
        0.147390584817, -0.121488372727, 0.045115384553, -0.017208677916,
        0.062358015044, -0.080076114244, -0.053593926463,
        -0.142773889669, 0.155344658278, 0.063624070466},
       {-0.194476085505, -0.049520450619, -0.140768363904,
        0.056785025641, -0.030473321616, -0.081581570809,
        -0.067668241141, 0.165172992625, -0.066867753479,
        -0.086051240689, 0.048830919109, -0.051503171540,
        -0.100980675850, -0.044531598630, -0.164874055203,
        0.099240632642, 0.157776270566, -0.109508645320, -0.096421324911,
        0.019598013836, 0.033935354053, 0.189205035650, 0.077167445284,
        0.171361409360, 0.192667062235, -0.174555667479, -0.038855181163,
        -0.036870567720, 0.187661560633, -0.170077623797,
        -0.193636964481, -0.076801810207, -0.234070223137,
        0.187488776663, -0.205715115828, 0.019693660368, 0.048967277259,
        -0.113953635164, 0.149703768564, 0.108091285670, -0.092438277152,
        -0.097077443456, -0.085293382000, 0.111172792445, 0.263217591747,
        0.040130553229, -0.027839127085, -0.190585810908,
        -0.084133393479, 0.068283951390, 0.220619263467, 0.053780302191,
        0.037279656294, 0.069980930346, 0.164872769423, 0.216493295274,
        -0.003361476748, -0.029094533470, 0.130646621115,
        -0.025445603878, 0.011349429442, 0.030978662662, -0.094338558959,
        0.078509013089, 0.046241726186, -0.002872956439, -0.030833765846,
        0.006853503242, -0.127401695610, -0.129009351902, 0.147253620852,
        0.173226205904, -0.103881976502, 0.048025846345, -0.041115594603,
        0.001799866038, -0.029368441399, -0.107228329692,
        -0.197800355007, -0.028835271584, 0.044900326077,
        -0.111334571750, 0.034280192918, 0.072039059677, -0.075069086760,
        0.008269296281, -0.201317859463, -0.029582062174,
        -0.142876429858, -0.043261575190, -0.041892884715,
        0.114331580400, 0.024244845319, -0.106117031942, -0.062240474474,
        -0.149488150768, -0.041826150511, 0.053067889023, 0.144574130766,
        -0.053391727955},
       {-0.222955010398, -0.062440598922, -0.078201703427,
        0.122943199791, -0.025209991473, -0.132485522512,
        -0.114579100676, -0.144208913132, 0.160352926957, 0.018224932965,
        0.204647163083, 0.024919893231, 0.116460584431, -0.102810707100,
        -0.113556844550, -0.097582315888, -0.039474874389,
        0.091886068280, -0.002295211692, 0.102066923133, -0.013091276530,
        0.024076997495, 0.013888474157, -0.058576904154, -0.019023733476,
        -0.287244315234, 0.325744596292, 0.006126230998, -0.151784005609,
        0.011691979679, 0.007275375699, 0.277231204028, 0.071792145623,
        -0.152918270407, -0.215062882058, 0.027591367354,
        -0.260904147687, 0.077486347039, 0.085174379195, -0.011758750397,
        -0.021923860392, -0.056777216113, 0.251959419927,
        -0.010062783408, 0.067808338534, 0.186187814004, -0.210038767392,
        0.220888989000, 0.034605409193, 0.033263955918, -0.125554739636,
        0.043979274249, 0.255212780666, 0.125438249002, 0.124508700926,
        -0.005896615781, 0.083865492811, -0.240117793565,
        -0.065363283295, -0.080669112150, -0.126550035978,
        0.092398223226, 0.030461090761, -0.039701519521, -0.196568515263,
        -0.036214368814, -0.210969394179, -0.272144057313,
        -0.190528424957, -0.128414408937, 0.091171669751, 0.012914525038,
        0.062303976605, -0.288663939370, 0.097669388941, -0.077941825487,
        0.104915803964, -0.135585038914, 0.272190476193, -0.225392012181,
        -0.067881702775, -0.036836020631, 0.108422989785,
        -0.202442022561, 0.206270205240, 0.186531335952, 0.140733550240,
        -0.155977283387, 0.049881681322, 0.128633153950, 0.111139038497,
        0.187697169160, 0.147543648777, -0.065032533056, -0.069623982998,
        0.034953156460, -0.237036968922, -0.197013479474,
        -0.283272572471, -0.028692142332},
       {-0.129066288606, 0.019905134535, 0.084391376432, 0.038858898265,
        -0.034497195794, -0.069593722510, 0.118945496267,
        -0.119586940342, 0.233232519134, 0.189259239804, 0.004257853293,
        -0.150845265423, -0.099222339632, -0.039748560128,
        -0.035411495613, -0.183496292560, -0.086079740621,
        0.077789111339, 0.158260416718, -0.040855981173, 0.209131454139,
        0.083472110988, 0.051605681081, 0.212251313034, -0.047282337374,
        0.024574086072, 0.144836285064, -0.137671372894, -0.083942978956,
        0.071325988972, 0.001410459053, -0.053499731196, 0.062719180302,
        0.149758518035, -0.260981693458, 0.094809583290, -0.049689401365,
        -0.180617749071, 0.176569667322, 0.087712685818, -0.226230890226,
        0.033562097537, 0.096130784415, -0.091082256553, -0.134209980779,
        -0.111446395480, -0.187958010894, 0.038243496552,
        -0.042313121374, 0.179071755434, 0.076307716209, 0.182118561655,
        0.000851870502, -0.338878870241, 0.038285500740, 0.114693430293,
        0.143652267818, 0.031890706156, 0.024251248582, -0.068007357304,
        0.068189922262, 0.239103651222, 0.120577874879, 0.051757728377,
        -0.009997722966, -0.168751021874, -0.169812961675,
        -0.041872331151, -0.119547529763, 0.186431349240,
        -0.183760235399, -0.027768599009, 0.052608375602, 0.059755076998,
        -0.055766043444, -0.007140583709, -0.171344522428,
        -0.039631243515, 0.026325671879, 0.029690615826, -0.011425847098,
        0.009786543666, -0.011109888806, -0.099197756847, 0.332820432730,
        0.166784662023, -0.031713775449, -0.084549653647, 0.064762241512,
        -0.043010172891, -0.051595532197, -0.134523088581,
        0.028287143335, 0.110897056930, -0.185688348685, -0.248031097592,
        0.041638105031, 0.258845572501, -0.131369116373, -0.000494947933},
       {-0.190655620428, 0.117570525569, 0.032362285379, 0.037613918862,
        0.280602905901, -0.230854481306, -0.105568388760,
        -0.063085545811, -0.088673223106, 0.118481935896,
        -0.012175365673, 0.214527409965, -0.143694242104,
        -0.113165160438, 0.314426819272, 0.018972819830, -0.066993576637,
        -0.022058243463, -0.100801930375, -0.093338326378,
        -0.265220027317, -0.128119351887, -0.029777348558,
        -0.160527634928, 0.103980953647, -0.009529608192,
        -0.038739071559, -0.017448929662, -0.110222570610,
        -0.065303422026, 0.129294329711, -0.005890842421,
        -0.092596613846, 0.107638009289, 0.009645425273, 0.172033866478,
        -0.093380554735, -0.099696926429, -0.268429330217,
        0.031351253421, -0.025085401218, -0.119278436173, 0.197421943795,
        0.089334000978, -0.054164380308, 0.007174218750, 0.039518604665,
        -0.082667682380, 0.087929478897, 0.231336646053, -0.208219831794,
        0.054206015461, 0.109511471376, -0.215283923127, 0.127924624156,
        0.154335894338, 0.222096688142, 0.246750226948, -0.063547902148,
        0.061244709918, -0.120942582815, -0.057365699893,
        -0.081584060810, 0.055833097129, 0.183190681079, 0.137666390643,
        0.181147909051, 0.112683971419, -0.085156847561, -0.220482649105,
        -0.074639839996, 0.108096880148, 0.069456986942, -0.100736767765,
        -0.086338591015, -0.005785658000, 0.034822249418, 0.285189674148,
        0.040451494858, -0.210072669485, 0.141013515856, 0.118340794868,
        0.068158088265, 0.276890296338, 0.049606826116, 0.019756488596,
        0.229378991539, 0.021384585678, 0.146729953394, 0.048694744307,
        -0.247603984592, -0.169928095371, -0.016349392044,
        0.194754176237, 0.059757247336, -0.262168567632, 0.016438232303,
        0.011841573368, -0.363488729509, 0.206337019091},
       {-0.145631833909, -0.234501791430, 0.160484309940, 0.086579072597,
        -0.092867401193, -0.090881659980, 0.008425753598, 0.116858529900,
        -0.060591616715, 0.155358140097, -0.084708193101,
        -0.157731892166, 0.013136429299, -0.094736297639,
        -0.348813353237, 0.000035341725, -0.031856754715,
        -0.120978383831, -0.224880098527, 0.170233204511, 0.321766037200,
        -0.155511343843, 0.219609934693, -0.030240340902, 0.023543111241,
        0.077384295008, -0.175690841085, 0.106288000770, 0.100515969862,
        -0.196780316513, -0.028589951392, -0.192072472759,
        -0.290118998560, 0.107987576422, -0.046300146893, 0.000991144282,
        0.025268525575, -0.077155739902, -0.020137100422,
        -0.128359364715, -0.045451496075, -0.027465079442,
        0.215931067437, -0.101825783279, 0.001026381073, -0.005454254160,
        -0.025417011567, 0.015443036081, -0.141608017517, 0.172205498859,
        0.077607128525, 0.165488421261, 0.072528237813, 0.078326542825,
        0.017099280728, -0.073905187656, -0.207452394146, 0.085588445962,
        -0.135048712965, -0.020728352266, -0.068042268173,
        -0.038601189806, 0.185519725741, 0.058228277330, -0.270508526462,
        -0.148076747515, -0.100132438179, 0.291207357950, 0.160282013196,
        0.088660855529, 0.057718805411, 0.035209097590, 0.211953839920,
        -0.049204790602, -0.066136443399, -0.133185942417,
        -0.060381546857, 0.081282442057, 0.023675719031, -0.019995361390,
        -0.086279352017, 0.127446991918, -0.108979152191,
        -0.228438607558, -0.065197766134, 0.246856012402,
        -0.228612344142, -0.182686484768, -0.019314663629,
        0.140856546117, 0.094649422100, -0.161862189715, 0.226155091368,
        0.052662114806, -0.009383726590, 0.038625226500, 0.272703674553,
        0.193584226140, 0.021351642866, 0.068963836753},
       {-0.040457757624, 0.058185138007, 0.041754194645, -0.169907577466,
        -0.222369623416, -0.073155441418, -0.094363798642,
        -0.043399624130, 0.042995349155, -0.109764624880, 0.073195275208,
        0.301706984751, -0.089544232633, -0.096559488092, 0.263895767177,
        -0.041512947003, 0.013458541140, 0.211048452560, -0.026567200850,
        0.014664353589, 0.029495989435, -0.171287315694, 0.107466990152,
        0.019551905819, 0.203169109148, 0.271672790297, -0.077942047197,
        -0.107168103206, -0.062703871086, 0.197130919167,
        -0.250334140312, 0.163379186921, 0.196094950662, -0.071310992249,
        0.213086362262, 0.072381879736, -0.093883162672, 0.257539653595,
        -0.255376695766, 0.083595226976, -0.022974581046,
        -0.071297712792, -0.041598867119, -0.185241384864,
        -0.070507083809, -0.075833938986, 0.077384548753,
        -0.050636050148, 0.099962583225, -0.088680751891, 0.069402745048,
        -0.114805186504, -0.115574962260, 0.280662143157,
        -0.029609349265, 0.036648666538, -0.007311704972,
        -0.047319016080, 0.015786584532, -0.030865035408, 0.087143526031,
        -0.157771290962, 0.173844950300, 0.086218719598, 0.076709731040,
        0.048085272492, -0.209084885892, -0.033798593216, 0.102733197218,
        0.069187447998, 0.002381773576, -0.001023843253, -0.130226914448,
        -0.143465630895, -0.054559375654, 0.179580205372,
        -0.190659207845, -0.168857222061, 0.109901288375,
        -0.022411988218, 0.048363222254, -0.034483860772,
        -0.063566616575, -0.059504964018, 0.105086809458, 0.029715676448,
        0.215239174846, 0.085626325857, -0.027735198872, -0.061703812551,
        -0.045398037621, 0.225149724307, 0.174774914559, -0.000915621956,
        0.180128308491, -0.017727328460, -0.134522924430, 0.091122371955,
        -0.011902370486, -0.162113718108},
       {-0.232446669135, -0.080183474944, 0.192194707134, 0.332216493404,
        -0.230310013299, -0.096523882730, 0.137762676625,
        -0.145658340278, -0.149322192496, 0.147019948426,
        -0.076036060208, -0.029584380474, -0.056699961933,
        -0.305307322848, -0.148444433574, 0.065117152681,
        -0.089448904078, 0.004876954721, -0.251940962580,
        -0.020251437630, -0.002150362934, -0.030939353304,
        0.133404118139, 0.129451435391, -0.055942166472, -0.099945293496,
        -0.026287977885, -0.049695139500, 0.180144402444,
        -0.014462172876, 0.183151978910, 0.106647460907, 0.062459744816,
        0.191798203841, -0.004531243630, -0.017936328132, 0.054698583195,
        0.271796613791, -0.145479556470, -0.043590549740, 0.266359256057,
        0.071912563925, 0.226603172567, 0.173721615348, 0.189217905166,
        0.044373892293, -0.042555216562, 0.027563325595, 0.082574938175,
        -0.286390684351, -0.149737529566, -0.185987546640,
        -0.078776663934, 0.302317614247, -0.056850695225, 0.217306138825,
        -0.093362126086, -0.239486977587, 0.030248739651,
        -0.031713526796, -0.127627838234, -0.110330321271,
        0.033682153370, 0.062263773737, 0.003989194924, -0.058960564584,
        0.171216554071, 0.050740145266, -0.171553693201, -0.016800036520,
        0.019397243679, 0.025353419897, 0.188349448324, -0.400470131800,
        0.244640126359, -0.235604628249, 0.016186521353, 0.072523314469,
        -0.158934142819, 0.006697120946, 0.294472451279, 0.115375341627,
        0.160128903811, -0.039709645268, -0.106622550284, 0.021418068755,
        -0.059495421377, -0.165336644079, -0.072384888217,
        0.067416176801, 0.006390194627, 0.011665841405, 0.035896777201,
        -0.071558410040, 0.357860549184, 0.103265313896, -0.363902388751,
        -0.191500478854, -0.313983486897, -0.092708330093},
       {-0.067691791379, -0.056732861377, 0.094461684517,
        -0.135805287287, 0.050667173787, 0.072800414254, 0.249285570007,
        -0.109359690714, 0.007487071845, 0.189507425416, -0.007906333616,
        -0.033446328551, 0.008250167537, -0.108340997418,
        -0.155988673434, 0.086340993752, -0.079490973640,
        -0.116669263348, 0.108142824982, -0.147844667801, 0.258306016430,
        -0.113033874075, -0.077862817152, 0.115391200906,
        -0.010370602961, -0.165950862104, -0.139065374714,
        0.225052911936, -0.050424618015, -0.078236296321, 0.066754098718,
        0.105344669661, -0.087624383071, 0.079200868282, -0.001734341747,
        -0.086908968222, -0.110272375352, 0.156037035273, 0.228513572658,
        -0.095512530082, -0.088755870144, 0.016672138161,
        -0.020513184579, 0.251950120376, -0.103215691805,
        -0.020244550877, 0.046766708815, -0.008176938242, 0.015376557453,
        0.061394590907, 0.193277302628, -0.129816867064, -0.254330031659,
        0.338360027320, 0.069757621652, 0.052776915661, 0.092682293168,
        0.058567661077, 0.075208269869, -0.180196492354, 0.005486026456,
        0.118628731464, -0.051438049024, 0.065230182873, 0.026201241010,
        -0.303182966953, -0.110398380433, 0.098470229661, 0.135247487341,
        -0.108243827079, -0.001691991423, -0.064797359233,
        0.076515086753, -0.149003904966, 0.013632951297, 0.052628833455,
        0.037337111837, 0.050076947658, 0.094214507444, -0.090950507591,
        -0.244371266230, 0.104579475739, 0.109907735145, 0.167700323992,
        0.285692677851, 0.102624111553, 0.260137249918, 0.114620851301,
        -0.026547591713, -0.022405496126, -0.071356775457,
        0.269900095013, -0.040991609193, 0.022950297817, 0.058434256694,
        0.191172692947, -0.214220850223, -0.078119750071,
        -0.037653983981, -0.103408160337},
       {-0.003197081866, -0.062052719513, 0.151229194821, 0.084081869575,
        -0.081627591960, -0.002079213635, -0.197233082575,
        0.081798922904, 0.155084706913, 0.087148757033, 0.134139024931,
        0.125504718312, 0.011554407381, -0.066744562039, -0.045813324227,
        -0.170001112000, 0.107891321941, 0.018457376378, -0.108736933460,
        -0.007322313795, 0.035745266424, 0.136989493092, -0.157980693482,
        -0.070590374950, -0.015196306538, -0.144334635781,
        -0.007232976019, 0.069465511398, 0.079038255295, -0.013423557074,
        0.122508734250, -0.060681343067, 0.040139416156, -0.058056060242,
        0.043742131295, -0.127783504816, -0.134667367940, 0.005289637030,
        0.034617418419, -0.090878943376, 0.074844566109, 0.067432857043,
        0.138377248513, -0.176487525905, -0.173852184435,
        -0.062328360712, -0.054796427277, -0.073606448378,
        -0.005008166558, -0.034267161666, 0.052356057854, 0.163555515567,
        0.169144997030, -0.153879626856, -0.132644864053, 0.013041279771,
        0.175632593679, -0.032308015629, 0.142720953746, 0.094753493245,
        0.103894082094, 0.006601582546, 0.137723427802, 0.077859404922,
        -0.006001078398, -0.005942447968, 0.198608237413,
        -0.013568107700, 0.207289911678, 0.110369954933, -0.048402668369,
        -0.115663904883, 0.162174753904, -0.011858000461, 0.109564850507,
        -0.141553043877, 0.085394646731, 0.192088387556, 0.188209781119,
        -0.258421353157, 0.038943131553, 0.040906385347, 0.000019135162,
        -0.030551990746, 0.054578250598, 0.116193057843, 0.030718780896,
        -0.268511315527, 0.207511681791, 0.210585946129, 0.168015468937,
        -0.040349522255, -0.040413753758, 0.008399914631, 0.001995358738,
        -0.018053979520, 0.178516521882, -0.086021154631,
        -0.153288510582, 0.261019069882},
       {-0.153943604932, 0.163833549119, -0.043338802833, 0.037644631718,
        -0.102916879443, -0.049793607387, 0.144113881364, 0.089247428605,
        -0.253143194920, 0.162021550690, 0.096123733671, 0.030116789533,
        -0.036818365152, 0.028431520876, 0.204115546080, -0.013183904706,
        -0.037430714844, 0.060860591030, -0.011251817337, 0.131401504615,
        0.018520728682, 0.003110950873, 0.147614906269, -0.168848429276,
        0.131768635422, 0.142998870828, -0.050202825278, 0.165564946528,
        -0.019981384798, -0.138577928062, -0.068701244907,
        -0.026611893278, -0.117377473499, 0.081573988700,
        -0.077704420654, 0.075624993292, 0.149398992608, -0.169757664894,
        -0.141220795193, -0.202137929104, -0.035133778784,
        0.035110949264, 0.108827438400, 0.032903792717, -0.126953585113,
        0.206915836824, 0.145893612434, 0.061373902349, 0.174277304493,
        -0.067162224440, -0.043251129495, -0.087349974482,
        -0.046759359024, 0.161194264263, 0.121015115909, 0.124380527298,
        -0.160644527848, 0.099359728225, 0.128948413762, -0.143065911831,
        -0.094350370759, 0.035355055864, -0.018543746247, 0.145327463361,
        0.157063718112, -0.062782558220, 0.054119556659, 0.160316850698,
        0.043762602006, -0.069260490059, 0.054445087803, -0.130380389214,
        -0.059980380894, 0.131809521572, 0.114741563668, -0.031787185441,
        0.167935538697, 0.039912412829, 0.060570817408, 0.081128130736,
        -0.030746231087, -0.022026472132, -0.035757986274,
        0.009143368109, 0.171676776460, 0.054597844656, 0.022335828403,
        0.138525973377, -0.069772955363, 0.150871881455, 0.201608992912,
        -0.128835461425, 0.113159415587, -0.034344055821,
        -0.056879883082, 0.116648081783, -0.144222685125, 0.107151632764,
        -0.122205164463, -0.028760734019},
       {0.045591759616, -0.056703422070, 0.014457579355, 0.036833986479,
        0.123007212115, -0.051983474054, -0.071698543008, 0.085521026844,
        0.175723006655, 0.009509197208, -0.070911856357, 0.127882753714,
        -0.154587203447, -0.025383920431, -0.106604352236,
        0.192604573891, -0.070343037299, -0.087763831656,
        -0.073454466956, 0.179224539557, 0.169156704364, 0.069826595565,
        0.065386408044, 0.042481853474, 0.092379496948, -0.005553617559,
        0.061004762163, -0.152928661527, 0.106160832045, -0.020317340522,
        0.107842866995, -0.063670686530, -0.150346272645,
        -0.046832199092, -0.010483744468, 0.095444138215, 0.009049671598,
        -0.076275758246, -0.155341052563, 0.116815146193, 0.217920411462,
        0.108568175921, 0.053139870202, 0.049128974930, 0.161335985749,
        0.056562914570, -0.123497058768, -0.040305188868, 0.076557364952,
        0.027078732275, -0.087444886738, 0.011187740738, 0.172673835247,
        0.187281794177, -0.184214941445, 0.124246356583, 0.054041249683,
        -0.105959022216, 0.098198324737, 0.040813748275, -0.039335534768,
        -0.186086117045, -0.106240551966, -0.106274038291,
        0.003844520875, 0.146996543327, -0.069034557595, 0.020456275699,
        -0.069645784029, 0.051038593958, 0.179480797782, 0.104340665408,
        0.182629733645, -0.159846043721, -0.128657315715,
        -0.121844744592, -0.126680639183, 0.147066455675,
        -0.125902383898, 0.045363511510, 0.146848244905, -0.207013087268,
        0.022133268170, -0.045808078793, -0.073304063400,
        -0.107023703404, -0.045376013233, -0.116391996035,
        -0.102819463044, 0.009008323610, 0.032722988995, 0.124483034150,
        -0.011153236908, -0.046504455357, 0.127630872226,
        -0.012730530924, -0.160417319698, 0.195961165581,
        -0.025373590351, -0.109205088899},
       {-0.109071731730, -0.002042310437, 0.068195774327,
        -0.057271846874, -0.032217165838, -0.277964803128,
        -0.014725611307, -0.189233516477, -0.084378794105,
        0.145445745231, 0.233672756608, -0.207883947843, 0.137621944240,
        0.019320026390, -0.038705446617, -0.115768508971, 0.031566905766,
        -0.155448826544, -0.006927947977, -0.172952120198,
        -0.068484512344, -0.198884348077, 0.036827725029,
        -0.197207785275, -0.004722088512, -0.269534571999,
        -0.051266427910, -0.028925004627, -0.036852440124,
        -0.241155295975, -0.110813073558, -0.055406530982,
        0.234124209953, -0.082570351099, -0.120322862563,
        -0.124086024124, -0.056478776762, 0.075372129652, 0.186995901879,
        -0.279309249489, -0.277337044881, -0.213464923821,
        0.021316607310, -0.050027919713, -0.271456493735,
        -0.172744633610, -0.009620107182, 0.113710427445,
        -0.071921230895, 0.290955082622, 0.048885714098, -0.062141333256,
        -0.022432554091, -0.058296125820, -0.099028665530,
        -0.099014929966, 0.092115159528, 0.182517224510, 0.070227573420,
        0.067234871282, 0.160389874322, 0.161444956210, -0.278465980494,
        0.070282386441, 0.020579257477, -0.118504353067, 0.146907013208,
        -0.255461472174, 0.072747761825, -0.087680746211,
        -0.004064648015, 0.065026995457, 0.017675831868, 0.085467000297,
        -0.081382062702, 0.276590055999, 0.143427401622, -0.183474871306,
        0.068715712977, -0.045080952849, 0.039283969550, -0.177573629556,
        -0.287725913206, -0.086574287981, -0.038173825853,
        0.074627241815, 0.166396838900, -0.179022389420, 0.136707356701,
        0.127582617296, 0.055439488061, -0.158895690411, -0.147158200975,
        -0.139619483274, 0.030104400521, -0.108157129189,
        -0.047580687667, 0.118468209787, 0.044392576433, 0.135377330659},
       {0.141563787605, -0.024626203892, -0.056406915942, 0.173215337232,
        0.075331216040, 0.218179732011, -0.097626381455, -0.144393342995,
        0.102542018039, 0.067796718867, -0.017173164453, -0.066751913769,
        -0.001253193006, 0.161286518814, 0.118677247923, 0.055394582157,
        -0.169237158292, -0.039202610995, -0.169792066563,
        0.169425748424, 0.113738237219, -0.096334071977, 0.035201022541,
        0.200890985214, 0.010031198444, -0.173878089043, 0.093996663423,
        -0.220068849734, -0.001521925003, -0.089968831326,
        0.030765698881, 0.071373773847, 0.128833910828, 0.110302914946,
        0.018287321273, -0.064186952037, 0.121388887152, 0.056992127036,
        -0.018062643739, 0.115785186540, -0.014063937754,
        -0.150981330288, 0.126646105962, 0.152858979199, 0.236310140216,
        0.091132141814, 0.073717519267, 0.087974763532, 0.045833867367,
        0.026427104143, -0.034598604371, -0.116345268840,
        -0.173770984046, -0.078661234549, 0.056052445679, 0.018509730462,
        0.066995234866, -0.095851311474, 0.027373285101, 0.067085988981,
        0.005709279025, 0.091407432948, -0.092878564213, 0.016907744803,
        -0.069983158359, 0.039330395266, 0.000620926217, -0.096236300788,
        -0.079089971868, 0.098607755951, 0.139109984851, 0.054258653458,
        -0.152468903413, 0.078434473506, -0.033696185628, 0.016780270794,
        -0.174694856922, -0.049322543100, -0.013798830183,
        0.154416330761, 0.168038588176, -0.105697076385, 0.187748972888,
        -0.012343179641, -0.079478633131, -0.180286692294,
        -0.153938366034, -0.072176687048, -0.097137764255,
        0.077436152686, -0.133027435014, 0.011827717541, 0.019164149781,
        0.125636327280, -0.015104495704, -0.076460894745,
        -0.056685054060, 0.237758107554, -0.143669385713,
        -0.189831953589},
       {0.011141376390, -0.092600134570, 0.067607850125, -0.083718011884,
        0.037096624939, -0.080777747108, 0.025272204070, 0.088605979094,
        0.072888823989, 0.184259360674, -0.160726383467, -0.226180447454,
        -0.014279169808, -0.317478633512, 0.059139662550,
        -0.048687235942, -0.067114658273, 0.034365367403, 0.077336647997,
        -0.006841022250, 0.241287111734, -0.144702242663,
        -0.173797307066, 0.030473068940, -0.286088589332,
        -0.005483179635, 0.166833743331, -0.027919655953, 0.022654282331,
        -0.147653384740, 0.086862410607, 0.063877194577, -0.007668375716,
        0.084540171153, -0.207546198322, 0.110781249878, -0.204248288860,
        0.121574559667, 0.041289853757, -0.150605904448, -0.025151944122,
        -0.070488703652, 0.014188877321, 0.219949529650, 0.056621751529,
        -0.012399079678, -0.106760232794, 0.102979365632, 0.034630910854,
        -0.070534033973, 0.202777481986, -0.152320706255,
        -0.188692302676, -0.114046994611, 0.014618635516, 0.065865049948,
        -0.016435453988, -0.089626923244, 0.198196509344, 0.040526467126,
        -0.038653517316, -0.106767840244, 0.226540457688,
        -0.158881215257, 0.274874906493, -0.202587748772,
        -0.021223337093, 0.079918002270, -0.047699505273, 0.158656645353,
        -0.008604322091, -0.180757752970, -0.120966738687,
        -0.160875007277, 0.086759767731, -0.216218014081, 0.022881803812,
        -0.180190104851, -0.017055177896, -0.049427480621,
        -0.158089031951, -0.068836617385, 0.033284684951,
        -0.138350333146, 0.265863654579, 0.147913808931, 0.013156047375,
        -0.061079455053, 0.139410524643, -0.233130417474, 0.020349855099,
        -0.155157390757, -0.165444314040, 0.245917254192,
        -0.028978916592, -0.071789332641, -0.225065555872,
        -0.122724303755, 0.031516961852, 0.069631966103},
       {-0.077813035666, -0.180352008836, 0.213232402279, 0.110032526288,
        -0.304185095000, -0.130744351510, 0.123503467410,
        -0.015272918938, -0.285419619947, -0.164280738501,
        0.076367727394, 0.014263504043, -0.020400297451, 0.045968645063,
        -0.099959940530, 0.077833466486, 0.149872362479, -0.046296365897,
        0.054928025041, -0.144164877675, -0.175945628794, 0.045040612984,
        -0.015638800652, -0.108215731122, 0.179769860143, 0.116873596146,
        -0.007329258756, 0.163201282319, 0.157496368001, 0.072622299267,
        -0.175692002538, -0.294424257481, 0.068456543201,
        -0.265346633824, 0.146733695178, 0.192479376778, -0.097556154106,
        0.205858991583, 0.001808659366, -0.089710779222, 0.217730385887,
        0.059297226636, 0.010992270981, -0.187357101457, 0.093646596245,
        -0.078503997585, 0.051045230897, -0.023108284923,
        -0.044674666287, -0.173001521756, -0.291438895327,
        -0.104421517708, 0.108669171432, -0.266445928829, 0.078720432156,
        -0.114023008761, 0.289789324093, -0.115679822123,
        -0.022129566157, 0.120804907506, -0.200008946098,
        -0.126639568754, -0.113919966720, -0.138013684371,
        0.016353951191, -0.032875037481, -0.114848893220, 0.034527947366,
        -0.148070397493, 0.013530095175, 0.096800595946, 0.049147490950,
        0.057683073428, 0.009707400867, 0.137625673372, -0.008762354326,
        -0.176989251751, 0.139820067799, -0.067193673330, 0.231968767740,
        0.052125089692, -0.062867069724, 0.061330526110, -0.247208331652,
        -0.080547737220, -0.020860709586, 0.039438335764,
        -0.115105019048, -0.051362576128, -0.009801839247,
        0.184509902286, 0.072044731569, 0.115838229064, -0.222858819412,
        0.087165856691, 0.134039108355, 0.076523020946, 0.127486951520,
        0.098219816386, -0.109704523202},
       {-0.261625009385, -0.119304677654, 0.058845701384,
        -0.005012104120, -0.076216570459, 0.111741579675,
        -0.190115557645, 0.008228630814, 0.171412120415, 0.162478098819,
        0.042902780918, 0.107478444224, -0.086246275744, -0.068122755058,
        0.136388672336, 0.045679751636, -0.027430119246, 0.058982389903,
        -0.039471587440, -0.042982129077, -0.330930727566,
        -0.128879711487, -0.329928606367, -0.236012272079,
        0.084235502879, -0.086230032101, -0.008676074780, 0.027266035425,
        -0.092305743144, 0.030438306216, 0.003645024492, 0.151204435959,
        0.001277437850, 0.026943398262, 0.213567236146, -0.021984356966,
        0.073166107613, -0.076257272877, -0.010946944463, 0.139400444772,
        -0.108141812769, 0.045702126693, 0.032514969471, -0.024607271123,
        0.162529188262, -0.169998387272, 0.031279712022, -0.037620918383,
        0.270747993709, -0.234250600695, -0.003303864239, 0.043438476129,
        0.225223418491, -0.273438531753, -0.035739511171, 0.088223185511,
        -0.049919426538, 0.074202960969, -0.098807038053,
        -0.026347353147, 0.078210601010, -0.222003593334, 0.036293807234,
        0.006981849786, 0.237212545243, 0.038548425758, -0.056948729971,
        0.096896008865, 0.160252052982, 0.106390445905, 0.222188022329,
        0.173515175608, -0.010971065321, -0.036153498001,
        -0.190755977021, -0.156777534586, 0.108424705649, 0.239467506151,
        -0.157389099125, -0.069060784986, -0.174856920231,
        0.023382155382, -0.156886625765, -0.204661439652,
        -0.000289001078, 0.124230924095, 0.040207118733, 0.003374274416,
        0.029593179431, 0.081557652312, 0.058935772535, 0.011721665139,
        -0.044901716364, 0.250888506165, 0.000091093294, -0.135728391823,
        0.150371714021, 0.209127712943, 0.143542171265, 0.001185200762},
       {-0.097401875158, -0.156747522438, -0.169985331462,
        0.099413212119, -0.058964124180, -0.004750845937, 0.000719951169,
        0.116449480541, -0.173175753587, 0.093245467340, 0.014170016178,
        0.014699141519, 0.073587071661, 0.108626678650, -0.057404174439,
        -0.108955413671, -0.001542990790, -0.003221202996,
        0.133492052406, 0.150245819117, -0.103684681475, 0.054521167506,
        0.121811333507, 0.135121612151, -0.093330429655, 0.100056194676,
        -0.176576411368, -0.079104807502, -0.027819993408,
        -0.021581861235, -0.016524340194, 0.011992957060, 0.062098521692,
        0.084560031406, 0.135532808757, 0.028691694522, 0.064067384072,
