#ifndef BIAS_H_
#define BIAS_H_

#define NUM_FEATURES 36
#define HIDDEN_LAYER1_SIZE 50
#define HIDDEN_LAYER2_SIZE 50
#define NUM_OUTPUT 6

float bias1[HIDDEN_LAYER1_SIZE] = {
		0.010033196719, -0.139294919245, -0.122205693151, 0.030992430622,
		       -0.116202031272, 0.048180158757, 0.515193049798, 0.428437681207,
		       0.090121970480, 0.509233688871, -0.651038915930, -0.029320508814,
		       -0.513242236151, 0.910670274855, 0.047376741655, 0.492180748958,
		       0.312075463484, 0.085752029201, 0.477164086123, 0.105743464009,
		       -0.092378809240, 0.064490580991, 0.529238966101, -0.884241369911,
		       -0.419195895539, 0.432486653944, 0.541235633083, 0.581696259933,
		       -0.046813828257, -0.174574995319, -0.346252684762, 0.242994305394,
		       -0.393243318996, -0.424919992733, -0.193331391374, 0.218253619807,
		       -0.384802680286, -0.187951449233, -0.170232855667, -0.252542005192,
		       0.281138864130, -0.168529250753, 0.250333597503, -0.183298123062,
		       0.120662632819, -0.212882020304, -0.189207279833, -0.463180180380,
		       -0.947224430999, 0.407538624182};


float bias2[HIDDEN_LAYER2_SIZE] = {0.099749564435, 0.047177065670, -0.050461542970, 0.186277017115,
	       -0.294891125978, -0.324588592805, 0.380713659895, -0.055329012292,
	       0.020272441209, 0.050374872889, -0.210786849381, -0.177803911094,
	       -0.249531366919, -0.379070766851, -0.196535627968, -0.172716725549,
	       0.306670254084, -0.016583198650, 0.498122593356, -0.126706771102,
	       0.116094711268, -0.090141458611, -0.095233166358, -0.002667889613,
	       0.247007240674, -0.360435622189, 0.115122694930, 0.438096084210,
	       -0.326959152105, 0.214824954328, -0.300097713192, 0.125721393992,
	       0.176502657025, 0.035924964768, 0.007720020605, 0.107135513436,
	       -0.260163223961, 0.347502993094, -0.302782193449, -0.033357943287,
	       0.057998335492, 0.000851547604, -0.239415683738, -0.242149357534,
	       -0.280456550716, 0.114307701305, 0.119838502137, 0.236719784502,
	       0.118967618335, 0.095280752709};

float bias3[NUM_OUTPUT] = {0.046383385967, -0.286864331124, -0.561454570027, 0.265498528497,
	       -0.093938112497, 0.062755484234};

#endif
