#ifndef WEIGHT_H_
#define WEIGHT_H_

#define NUM_FEATURES 36
#define HIDDEN_LAYER1_SIZE 5
#define NUM_OUTPUT 6

float weights1[NUM_FEATURES][HIDDEN_LAYER1_SIZE] = {{-0.007412852829, 0.020034060749, 0.030830368271, -0.133745952008,
        -0.064582712580},
       {0.026073748150, 0.042941419643, -0.035796137105, -0.133342482143,
        0.855336163526},
       {-0.001326748989, -0.010956450381, 0.133059242317, 0.036075993197,
        0.089054243420},
       {0.031936364593, -0.023922786231, 0.021020093354, 0.196626258997,
        0.041858282316},
       {-0.122680717684, -0.013429578576, 0.210396006227, 1.151016597705,
        -1.444511286119},
       {0.296091942766, 1.678962809839, -0.238175113093, 0.995296200478,
        -1.605221089184},
       {0.787593791945, 2.881792031064, -0.067989235801, -1.284949216590,
        -1.066716885215},
       {0.292716912310, -0.781891434828, -0.198494790856, 0.679583798200,
        -1.444771272993},
       {-0.050060061105, -0.055720961488, 0.000632029078,
        -0.056959534929, 0.027023313129},
       {0.093269035050, -0.079486116310, -0.045616105257,
        -0.009342894354, 1.190283613547},
       {-0.050447658278, 0.059176194606, 0.062128533089, -0.021266123018,
        -0.922397109844},
       {-0.005363527173, 0.039545819634, -0.107912178032, 0.106688095983,
        -0.079181702788},
       {0.060608314076, 0.225100160160, -1.011478082298, -0.208434561025,
        -0.520117665144},
       {-0.025888930233, -0.217025625425, -0.369704720290,
        0.056584130956, -0.115056451630},
       {0.026076715219, 0.447774494394, -1.257407344179, -0.257939021125,
        0.410476402024},
       {0.135690079541, 0.126674542427, 1.595349374317, 0.326877659146,
        1.676697103761},
       {0.358829279800, 2.612100778302, 0.079289248162, -2.746491158007,
        0.502157831801},
       {0.007199318342, -0.107101820286, 0.390957731050, 0.205133202838,
        0.333157702057},
       {-0.050379953429, 0.227821181713, -0.832776532130,
        -0.286950567285, 0.053619692855},
       {-0.244927148133, -0.608474228795, -0.354613639639,
        -0.126990835703, 1.493181280408},
       {1.218986132260, -0.736650552232, -0.482149433058, 0.921051590856,
        0.387213052311},
       {0.106145000788, -0.121899126676, -0.197604526801,
        -0.004502964587, 0.087045803604},
       {-0.268581583848, 0.616422139563, -0.680144055088,
        -0.533917187268, -0.801778181505},
       {-0.334852546517, -0.887061944502, -0.253518104074,
        -1.125336334188, 1.037871089101},
       {-0.571745450284, 2.225663477407, 1.235712093796, 0.581584863107,
        -4.374808101422},
       {0.048315522725, -0.518910069784, 0.165622502991, 0.054316226529,
        0.120202307437},
       {1.261037020900, -1.606721306499, -1.256207008613,
        -0.667784482473, -0.096018891088},
       {0.614639087763, -0.366134546117, 0.404747282916, -0.803316201236,
        -2.702685310035},
       {-0.991188632942, -1.512524839274, -1.003209897394,
        -2.338328578331, -1.881120395205},
       {-0.118539742087, 0.049882718383, -1.180689567534, 0.261774119858,
        0.336434074734},
       {2.439567171348, -2.214936546211, -2.283938058282,
        -0.221824930869, 0.359940140275},
       {-0.403989089340, 0.455873937311, 2.766573364692, -6.203109619909,
        -2.889164662472},
       {-0.420123712675, -0.624145154039, -0.825054503316,
        -2.302901738325, 0.958414888012},
       {-0.068496555302, -0.389226473554, -0.139818435266,
        0.000608022894, -0.687681001842},
       {-0.433765159116, -0.575194664459, -1.362788208015,
        0.442801751320, 0.062664814255},
       {0.304299324128, -0.909190990189, -1.311827784787,
        -1.773520926769, 0.497220709204}};

float weights2[HIDDEN_LAYER1_SIZE][NUM_OUTPUT] = {{-1.677793326317, 0.434714987771, -1.129914442862,
        -1.316059097854, -2.072524148964, 5.031620273652},
       {-0.477366196310, 2.580677104186, 4.282174000525, -0.042374672997,
        -2.809277967449, -1.315260526122},
       {-1.006309422179, -2.543253912287, 2.120267920260, 4.975520079833,
        -1.129589671412, -1.180962406771},
       {1.639841837454, 0.449046170099, 1.418179191246, 0.225253418903,
        -2.590600849760, -0.710666855221},
       {0.956948280475, 1.470798881303, -4.034586424387, 2.546381491392,
        -0.354427813854, 0.558337433992}};

#endif
